50 200
UNK 0.057845533 0.06559333 0.010498509 -0.017779991 0.14537801 -0.014580087 0.161297 0.00057139975 0.016840981 0.05558062 -0.009851732 -0.029279487 0.0060675587 0.22996525 0.008308327 0.046521123 0.08264894 -0.04935561 0.05927874 0.053310655 0.07032535 -0.096639626 -0.0051871273 0.020234514 -0.0033701132 -0.060647894 -0.06972063 -0.049792394 0.068081655 -0.12027068 -0.07713775 -0.09306781 0.06650175 -0.12724608 0.03789888 0.05030224 0.18798032 0.025270084 -0.11001649 -0.07943485 -0.083203234 -0.047878366 -0.014505283 -0.12055129 0.013347882 0.016479325 0.045238305 0.07905882 0.14407237 0.07990142 -0.0048711407 -0.037662342 -0.019679885 -0.10013167 0.04226747 -0.0003215679 -0.0050710966 0.11491299 0.15599227 -0.05558132 -0.042223476 0.013429822 -0.00858584 -0.05125165 0.0063326117 -0.045712486 0.059700333 0.03713036 0.0075118053 -0.08952056 0.026842194 -0.057000574 -0.037413325 -0.08380034 -0.043097865 0.04413978 0.031775054 -0.12081154 0.010219276 -0.040362332 0.043546326 0.069609225 -0.08793977 -0.021176267 -0.010690762 0.061465576 0.008596737 0.008096355 0.013166763 0.04909806 0.11200157 -0.010244288 -0.14965723 0.07448061 0.083040535 0.042609315 0.07320917 -0.100204475 0.021811264 0.08099198 -0.0674655 0.051635534 -0.040699974 0.039507754 0.052994844 -0.016253237 -0.019070791 -0.0104273865 -0.06337698 0.030430844 -0.041214786 -0.068938896 0.10214583 -0.008498986 -0.028840993 0.094745465 -0.11512464 -0.058523078 0.12630254 0.040470526 -0.017548008 0.059460014 0.06680006 -0.13291487 -0.04168682 -0.01905688 0.001676216 -0.09797363 0.042669628 -0.01414443 0.048527423 0.033965636 0.015890928 -0.0376513 -0.06995758 -0.03881062 -0.028321413 0.06065756 0.09958169 -0.04114862 -0.009614348 -0.06504597 -0.0059969723 -0.09981682 0.07146508 0.025220178 0.12516709 -0.03234667 0.16563211 -0.025678685 -0.005009751 0.0006883389 0.08531754 -0.04028936 -0.15898071 -0.09007464 0.074055135 -0.002642072 0.062775716 0.05048718 0.0557101 0.043369465 0.025000961 -0.0472372 -0.040205836 -0.1359073 0.031720303 -0.0057967575 -0.03213476 0.031037739 0.10490181 0.114135556 0.025519807 0.0053204936 0.12449011 0.018864365 0.05983524 0.09909324 -0.06050285 -0.020787599 0.059165876 -0.045546666 -0.010163327 0.01648803 -0.01526035 -0.08663678 0.016527183 0.06503242 -0.06808723 -0.050145194 0.053795516 0.027216246 -0.086409874 -0.012649871 -0.11240811 -0.058943935 -0.018295994 -0.102108195 -0.035976175 -0.03447572
of 0.020927357 -0.08960659 -0.055377167 -0.08093025 0.100873165 -0.02841382 -0.015445988 -0.017278736 0.02475815 -0.020547194 0.03500506 0.023121389 -0.0046419655 0.049081344 -0.09304211 -0.0061653913 0.03637536 -0.020896431 -0.021156648 0.00234285 -0.15870547 0.119300574 0.08292822 0.14836608 -0.14184938 -0.01703442 -0.10756517 -0.05105453 0.010267379 0.075093105 0.05491347 -0.02694165 -0.060068134 0.025216646 0.14529984 0.01476807 -0.035111755 -0.063245416 -0.15468118 0.09247241 -0.00034231597 0.092999406 0.014314399 0.05117827 0.024826644 -0.11465007 0.02128055 0.023838071 0.19315758 -0.092591904 -0.021080216 0.073594026 -0.054455563 -0.002934649 -0.11187875 -0.0046995017 0.04083963 0.0702405 0.046349872 0.06759138 0.008147239 -0.015934806 0.025628908 -0.0011312511 0.04548363 -0.07908764 -0.08641427 -0.05669532 0.08071792 -0.021841258 0.062435392 0.03023977 -0.016294554 -0.05707482 -0.10458508 -0.013301427 0.031237105 -0.0615347 0.032253746 -0.032101095 -0.05100007 0.11853895 -0.13201594 -0.015096369 -0.05065197 -0.019664861 0.030834405 0.016564017 0.11453864 0.033009447 -0.117038146 0.03745522 0.0030744174 -0.039943527 -0.0019709691 0.009065409 0.22654313 -0.014284986 -0.023730401 -0.14601162 0.04640292 -0.060745098 -0.00058493065 -0.08731693 -0.07570984 -0.013709802 0.10469512 -0.12545145 0.11192784 -0.025873074 0.02485314 0.05183024 0.037416868 -0.12692218 -0.04108339 -0.025045604 0.025149515 -0.08145038 0.17194954 -0.04488 0.086678885 0.036626466 0.04237489 0.05452222 0.032542486 0.050020173 0.13426748 0.08134202 0.037775304 0.025761116 0.031069715 -0.045329727 -0.0006881878 -0.09106127 -0.20394875 -0.061696514 0.004624469 -0.01873592 -0.049706902 0.076621324 0.08266 -0.029830784 0.035238333 0.034597684 -0.042433962 -0.013843532 0.044447243 0.05058235 -0.010867883 0.0053804875 -0.0032984344 -0.10410235 0.05317075 0.10017908 -0.004323079 0.019723237 -0.030879809 0.10879234 -0.09733628 0.039153405 -0.17584151 0.011619088 0.008553379 -0.050361432 0.06824504 0.038633693 -0.024473121 -0.016815092 -0.1393615 0.0477091 0.06742133 0.0016636609 0.040755 -0.113640286 0.08730757 0.06815497 -0.072159804 -0.008326215 0.028377071 -0.11911366 -0.08680388 0.036845624 0.004036444 0.08855968 0.056448232 0.15178467 0.016807545 0.1253531 0.037514683 -0.07416795 -0.07821553 -0.0049345666 -0.00942333 0.011632543 -0.07417384 -0.032021564 0.06778913 0.09211118 0.025513513 0.03470583
a -0.025421828 -0.02413896 0.042220194 0.1209894 -0.054052632 -0.13702573 0.039531674 0.025981907 0.050643682 0.07388736 0.034576014 -0.12441613 0.051378462 0.0979529 0.080344625 0.08977883 -0.0058167763 0.05428885 -0.15505634 0.11732236 -0.07311616 0.0642894 -0.00065921835 -0.025890702 0.027312025 -0.004103514 0.1771416 0.033989437 -0.023642251 0.034896854 -0.08668672 -0.19985117 -0.08602725 -0.062320545 -0.032557562 -0.06537103 -0.03235056 -0.1384843 0.2159074 0.13524286 -0.08890436 -0.18864667 -0.24124488 0.11263431 -0.05277305 0.05726421 0.14942153 -0.042594906 0.025121462 0.07907208 0.113057464 -0.13342513 0.047006223 0.06703258 0.11249102 -0.04163408 -0.11737953 -0.10045951 0.10870639 0.02028036 -0.0012120602 -0.08492196 -0.06129494 -0.03699752 -0.15147035 -0.0123617565 -0.24939801 -0.00089204585 0.033715617 -0.08353791 0.034484092 0.13427778 -0.031564757 -0.13085404 0.08062678 0.1958325 0.039343476 0.011808312 -0.21007594 0.08812698 0.14389884 -0.17082517 -0.09736915 -0.111231275 0.022766646 0.033029135 0.006443074 -0.11879263 -0.022996161 -0.11404166 -0.004616637 -0.067080766 -0.11129819 0.043875292 -0.14098799 0.066179216 0.06190805 -0.040568672 -0.15082951 -0.050256647 -0.13953967 0.08924087 0.033438627 -0.09868497 0.045376275 -0.047542103 -0.09806809 -0.13249913 -0.025524972 -0.013536201 0.043313887 -0.066988416 -0.0061926804 0.11460046 0.014917012 -0.06027046 0.07768412 0.16793138 0.034030005 -0.08352013 0.03595438 0.07014627 0.08798195 -0.009659124 -0.11217339 0.0975622 0.015605638 0.02971989 0.045811255 0.028241074 0.023475418 -0.116143495 0.029884186 -0.005159934 0.05025527 0.016204106 0.019998506 0.14091508 0.044544015 0.08925138 0.14027177 -0.04838738 0.04959308 -0.06753817 0.09960871 0.1705773 -0.1216129 -0.016466696 -0.0500413 -0.043894753 0.001714778 0.07858567 0.05430244 0.012554663 0.073945165 -0.030895036 0.13520312 -0.027184954 -0.07446432 0.086639985 -0.044729847 -0.039274268 0.0068282103 -0.0629766 -0.026826672 -0.0125892265 0.031757392 0.13165973 0.06726205 -0.08390267 0.10390467 -0.08799417 -0.047565952 -0.081699826 -0.03567331 -0.0047322745 -0.010393117 0.08938046 -0.08387388 -0.026951011 0.055603262 0.021393076 -0.12133552 -0.05800057 -0.09083456 0.09104015 0.07586983 0.023778835 -0.05248095 0.16716552 0.18549637 0.12912624 -0.0986347 -0.067726955 -0.12285545 -0.12549287 0.028227765 0.04591908 -0.002205899 -0.054403152
the -0.11056238 0.09045578 -0.119364694 -0.044934668 -0.10858437 -0.11981029 -0.009361272 0.071519054 -0.010995966 -0.010786524 -0.11455014 0.034691095 -0.045688782 -0.007887957 0.15184198 -0.0072254576 -0.010792356 0.07307994 0.0021524774 -0.06250382 0.09187929 -0.0014210271 0.007364098 -0.0026804511 0.08640113 0.033449557 -0.13470283 -0.10186245 -0.029147198 -0.100273356 0.013101674 -0.10719976 0.12052728 -0.03959973 -0.11216753 -0.073159434 0.02157637 -0.060720008 0.029568262 -0.063870914 -0.013698799 0.01570606 0.073014 -0.052600037 0.17096068 -0.04524776 -0.11554472 0.08110624 0.23392144 -0.010398669 0.038436044 0.0034093661 0.026762214 -0.15237425 -0.055848774 0.057509128 -0.09002482 0.032998856 0.02378705 -0.022815451 0.022956159 0.046249103 -0.16355582 0.083144955 -0.012673463 -0.017726105 0.039212607 0.121897064 -0.014781569 -0.050005894 -0.11160334 0.029999577 0.07546635 -0.095583424 -0.052229103 -0.038603023 -0.14490065 0.11124734 0.09952952 -0.16260691 0.02824151 0.012786606 0.035667032 0.043592684 -0.12311672 -0.0282586 -0.083731614 0.021337623 -0.0071616024 -0.07537666 -0.06946225 -0.039493605 -0.10351502 0.09598368 -0.013459641 0.07289768 0.078322366 0.026956143 0.083405785 0.05593904 0.012866468 -0.03802661 -0.10951571 -0.031359773 -0.039408296 0.06472753 0.117455274 -0.10445518 0.04794509 -0.1458323 0.022094162 0.061642945 0.011128308 0.18538849 0.07885164 -0.066104665 0.010914796 -0.015400114 0.052651763 -0.012108675 -0.06181457 -0.036837034 -0.1027742 0.0913556 -0.16959988 -0.012612286 -0.003569842 0.112038575 0.009872651 -0.0066717165 0.02535353 -0.04553001 -0.075014606 0.0048233224 0.037384193 0.054002423 -0.046767056 0.044510428 0.08447741 0.043194626 0.0005093844 -0.024756793 -0.12332281 0.087068126 -0.035594635 0.058714338 0.12786962 0.110642284 0.06072807 -0.0148438085 0.17074357 0.08772287 0.06163808 -0.07486156 -0.06031587 -0.08482977 -0.008536697 0.10501554 0.015263522 0.0072526974 0.01309141 -0.039672814 0.13054563 -0.06649433 -0.016024208 0.08062008 -0.06726209 -0.06715938 -0.061937034 -0.15613411 0.035873044 -0.015072132 -0.07208248 0.0057185465 -0.10030439 0.09930218 0.025524816 -0.04253222 0.031000819 0.056151077 -0.1919456 -0.023548447 -0.004208545 -0.17753153 -0.004201363 -0.07056096 -0.061755233 0.026970493 -0.0032486646 -0.19189358 0.007435086 -0.16541828 0.041597087 -0.010622054 0.025063185 -0.15236244 -0.02982178 0.017030181 0.041293755 -0.017559629
are 0.10437636 0.07205829 -0.034686882 0.08880603 -0.07297754 -0.017835751 0.07785357 0.013976954 -0.13805282 0.10454254 0.04277605 -0.114790805 -0.08736615 -0.084640965 0.048292402 0.08547972 -0.022350814 0.075795926 0.08343186 0.006146755 0.114423655 0.112012066 -0.0142063275 0.08108938 -0.09710195 -0.052657343 -0.03151168 0.065379575 -0.0066620805 -0.018171996 0.00049912697 0.0034800915 -0.11749109 0.015442125 -0.030498113 0.05656577 -0.12900221 0.0018848762 0.059925348 0.10686029 0.015660552 -0.048997965 -0.034594115 -0.0022270314 -0.012945756 -0.09500843 -0.06526127 0.11714137 0.0834953 0.005035423 -0.2281203 -0.1544572 -0.10489497 0.0061614513 0.17419343 0.023201056 0.08644978 -0.05490256 0.07343993 0.09765246 -0.07612293 -0.07355208 -0.10528942 -0.036826644 0.034391344 0.021446206 -0.022644686 0.039098475 -0.017880619 -0.031451263 -0.031973775 -0.16420256 -0.0028324241 -0.018716784 0.06742894 0.0013422334 -0.006426441 0.093247764 -0.04417165 -0.08542934 0.120547555 0.0059435456 -0.050488632 -0.06514534 0.018171813 0.048870593 -0.17963977 -0.00566066 0.014100139 -0.049391687 -0.08475757 0.08644332 0.09601279 0.1070764 -0.06821104 0.07107032 0.040864997 -0.09935617 -0.15051101 -0.043690708 -0.14331636 0.056552984 -0.0492565 -0.011807607 0.16668065 -0.031145012 0.025156643 -0.056094132 0.090192996 0.028964816 -0.043508284 0.018201763 0.0042691147 0.091709316 -0.011620018 -0.018103031 -0.06300074 0.06863828 -0.098599225 0.10991302 0.015795818 -0.0351836 -0.08542164 0.09166385 -0.02593942 -0.1019153 -0.15542379 -0.0298962 -0.032800563 -0.09719211 0.13329788 0.0060913786 -0.042374432 -0.0034930967 -0.06916193 -0.06007203 0.0832713 -0.008602671 0.101228595 -0.13371304 -0.06690663 -0.0763669 -0.06613137 -0.07576716 -0.018658068 -0.032179795 0.14650102 -0.01086274 -0.060102742 -0.027055075 -0.010694386 0.036826547 -0.041982215 -0.021821074 0.010930581 0.1043546 0.10138377 -0.04915377 -0.061056342 -0.058940846 0.14045013 0.042156164 -0.04593523 0.03264312 -0.030856596 -0.040828694 0.007001255 0.01923423 -0.15930073 0.060401816 -0.07821292 -0.12817654 -0.050375305 -0.10061429 -0.00548577 -0.045750704 0.05946581 0.06894937 0.04503318 0.09946097 -0.033176366 -0.101907276 -0.0049020676 0.11172653 0.13349742 -0.119290076 -0.08621651 -0.13570315 -0.12641424 0.036664184 0.11527055 -0.029008586 0.059722174 0.019325497 -0.06289446 0.114824824 0.032675654 0.04750967 0.03359207 0.09874546
to 0.0015963467 0.042041577 0.004221781 0.08824743 0.052487846 0.032970868 -0.07678621 0.01942453 0.024830181 0.21983725 0.17338406 -0.13962653 -0.04498728 -0.0039247987 0.06406784 0.05575588 -0.11834823 0.1597631 -0.07526003 0.26561958 -0.10345591 0.123773694 -0.04463179 -0.16950901 -0.11701142 -0.035851266 0.075949654 0.08717086 0.069966674 -0.016132487 0.094173595 -0.23303112 -0.021435563 -0.042504 -0.0010976546 0.058109563 -0.0682479 -0.06722555 0.061761986 0.09091585 0.0298954 -0.18097688 -0.07688198 0.13428955 0.020037463 -0.119779795 0.034069914 0.0076721404 -0.006347446 0.060455967 0.03275512 -0.21228924 0.17111976 0.0639782 0.016921008 -0.08316341 -0.10246758 -0.09863743 -0.10412503 -0.04964693 0.09514628 0.05842792 -0.010830378 -0.026502145 0.04911664 -0.044246994 -0.03774295 0.122437924 0.101084 0.14088741 0.05184264 0.14369337 -0.14859837 0.018122684 -0.15148188 0.02504954 -0.02428758 0.08720276 -0.17768182 -0.018845757 0.0666918 -0.09623626 -0.09607226 0.06847668 0.04462062 0.05666637 -0.08990351 -0.041446112 -0.053218722 0.037787195 -0.09987571 -0.015320738 -0.02886918 -0.07082584 0.120834485 0.054099534 -0.051463563 -0.020636696 -0.04772566 0.025537973 -0.087141916 -0.006775188 0.03125587 -0.04760564 -0.018711409 -0.03344009 -0.027028535 0.0130469985 0.016799228 -0.045391046 -0.020265521 0.14691135 -0.012366827 0.10484598 -0.05651822 0.038417093 0.09586391 0.14596297 -0.011973417 -0.08117159 0.14620967 0.037211023 0.11698374 0.07486061 -0.068105765 0.03278154 0.1117149 0.019431867 0.12470513 0.094943725 0.18058579 -0.13615777 0.0045045246 -0.09150242 -0.13306737 -0.13062884 -0.084942065 0.06627449 -0.019878987 0.07093357 0.0001721618 -0.065939255 -0.104186036 0.08312141 0.15532479 0.09357317 -0.021083554 -0.16631441 0.20028663 0.043969005 0.009694294 0.044979665 0.012187781 -0.018473744 -0.00028961894 0.09218299 -0.0014912112 -0.0139062 0.037915934 0.0018429797 -0.10829194 -0.20986214 -0.024788711 0.02299646 0.024477998 -0.013523077 0.017514441 -0.02966179 -0.056454085 0.0139585845 0.0388644 -0.11417005 0.10660981 -0.094439015 0.26844493 0.12878408 0.09261895 0.040800896 -0.053621378 0.18052003 -0.016222049 -0.03691752 -0.11664555 -0.02713231 0.08065103 -0.020269131 -0.032864932 -0.20700908 -0.00948791 -0.0056265565 -0.029189238 0.2526872 -0.16341062 0.077852 -0.06977743 0.0064448467 -0.046158228 0.1644532 0.13073225 0.033775818
processes 0.072679915 -0.04080189 0.06474177 -0.12095942 -0.06209003 0.099788435 -0.083546735 0.0092803985 -0.07771001 0.05644117 -0.0990634 -0.02912056 -0.0854959 -0.04771844 0.004083587 0.08385358 0.025060862 0.07741254 0.067422345 -0.031537864 -0.03731326 -0.011877982 0.013263219 -0.02964384 0.056794167 0.03906902 -0.122199915 0.1528169 0.0865336 -0.0017177264 0.031946078 0.15324113 0.037394922 0.010293275 0.0706861 -0.05713073 0.08725393 -0.10042471 -0.061365835 -0.0027681796 0.087695956 -0.04823246 0.06026382 0.08559317 0.0066835224 -0.021934733 -0.041729596 -0.0154359285 0.08076272 0.048944082 0.014497436 0.069700114 0.08242265 -0.021858742 0.060541406 -0.05473978 0.00041776433 0.017410006 0.033442788 0.08149042 0.05777636 0.11909864 0.046802066 -0.013338188 -0.04641412 0.0019049376 -0.08017164 -0.020859616 -0.05292447 -0.026102923 0.045510463 -0.01718416 0.086865075 0.05741497 -0.022245275 -0.0158083 -0.006585672 0.07938832 0.044143442 -0.0142143555 -0.057698112 -0.03269691 0.052719705 0.054687086 0.1273989 0.06805616 -0.022904037 -0.13395835 0.061797515 0.03092813 0.008130276 0.10191565 0.004197387 -0.055328995 0.084273346 -0.06537048 -0.016634127 -0.013987504 0.08475184 -0.028794669 0.023387846 -0.025404848 -0.036841776 -0.0130743785 -0.09040859 0.08268539 0.057764046 0.07173936 0.021858482 0.04188904 0.038060285 -0.03406712 -0.040662844 -0.015095964 -0.019562328 0.06490549 0.013344889 0.06607089 -0.015436942 -0.112982735 -0.037926085 0.019582523 0.1119001 0.004879547 0.019305402 0.026616251 0.027137853 -0.026580673 0.004248967 -0.03745558 0.1436364 0.122811094 -0.015505592 -0.070362106 0.056616116 -0.030384034 -0.034127686 0.09994966 -0.020970045 -0.029172221 0.04800441 -0.016422175 -0.061098482 0.031081071 0.0186259 0.04411683 -0.09506344 0.0020673112 0.15196937 0.03634189 -0.029304678 0.02938444 -0.025237605 -0.029916186 -0.057104927 0.032357175 -0.0060977363 -0.113459006 -0.0913484 -0.07364697 -0.006280677 0.08913017 0.03836287 0.0022389707 0.07776718 0.0035765872 -0.05073835 0.04605822 0.12541449 -0.04857718 -0.027418995 -0.07440824 0.07647209 -0.011803764 -0.016736133 0.009587364 -0.03238405 -0.1278099 0.15376398 0.018112421 -0.007462658 -0.018489888 0.032880884 -0.057503603 0.014615754 -0.031203505 0.0071 0.026242852 -0.016905144 -0.048257083 0.09419651 -0.011810326 0.05722577 0.042155515 0.014994635 -0.08558932 -0.066063955 -0.059407745 -0.056963652 0.07671463
abstract 0.013349271 -0.061733373 -0.06616772 -0.09229597 -0.097893365 -0.049623642 0.036602784 -0.009114014 0.01235673 -0.024002625 0.09997505 -0.18889198 0.0378121 0.004703757 0.08168787 0.013364315 -0.0904523 0.19688305 -0.011067747 0.07370955 -0.046242084 0.004467239 0.10168619 -0.009087329 -0.05492861 0.029797023 0.06075126 -0.0023210149 -0.031341247 -0.11880384 -0.01579329 -0.012055055 -0.03373434 0.028039942 -0.058416218 0.06769077 0.15614338 -0.119026825 0.16847841 0.031941723 0.014093423 -0.00072897243 -0.048946887 0.01943408 0.0049771103 -0.10421971 -0.030221315 0.031118713 -0.02008712 0.054720882 0.076881595 -0.19175196 -0.011038583 0.023748105 0.07457849 0.06406348 -0.091989666 -0.08329249 0.11406271 -0.12997955 0.019675514 -0.14095241 0.04287783 0.051355075 -0.04886259 -0.005266354 -0.08961307 -0.08318092 0.10463778 0.029713973 -0.079039395 0.030859718 -0.15433691 -0.1863983 -0.1095742 0.10539069 -0.025946034 -0.049106766 -0.010527137 0.029934157 0.1502004 -0.08996444 -0.071949415 -0.21630871 -0.117346734 -0.03297031 -0.06419169 0.014495045 0.016808467 -0.08246862 -0.04413274 -0.04304775 -0.09165578 0.010550192 -0.0127041135 0.15541084 0.07840906 0.038612545 -0.07621732 -0.057079464 0.060431276 0.057148345 0.099865876 0.04443005 -0.01593706 0.11096616 -0.14894028 0.007706286 0.055512343 -0.030093336 -0.10738764 -0.04198202 0.12809528 0.14901608 -0.007691704 0.04469702 0.05918012 0.041661832 0.05223053 -0.027079858 -0.045607325 0.004970941 0.03425153 -0.011210355 0.030340433 0.045216236 -0.012304954 0.12021264 0.09642439 0.046906825 0.1336298 -0.036672603 0.10981873 -0.06061302 -0.11382405 -0.08269641 0.00439165 0.005327651 -0.03952702 0.14389911 0.16316877 0.20062564 0.09628901 0.11356994 0.18159848 0.0032931194 0.057496164 -0.055964075 -0.06491541 -0.090967394 0.08449009 0.010961006 0.063066736 0.028877815 -0.024556525 -0.06176915 -0.014734102 -0.015918111 -0.045906436 0.16625495 0.029857099 -0.19797862 -0.03517972 0.10221637 0.18372357 -0.036244847 0.24265172 -0.08436591 -0.012533982 0.018428113 0.22298945 -0.018340476 0.039369076 -0.12632795 0.18950647 0.18876454 0.17407379 0.004837932 -0.07621217 -0.013812204 -0.10898285 -0.0014747294 -0.095029935 0.111961186 0.17674677 0.14449568 -0.098210596 -0.0078948345 -0.28017846 0.017341165 -0.023829408 0.28224972 -0.040004827 -0.019316286 -0.049194623 -0.23604015 -2.4406581e-05 0.22937658 -0.021527426 -0.21236
called 0.05186184 0.06771212 -0.01994588 0.013793283 -0.023928287 -0.029683929 0.00023420544 -0.0013738 -0.10329327 0.025592715 -0.020520374 0.10476263 0.0459327 -0.064287856 0.09715603 0.0690902 0.061934613 0.09550773 0.083890185 -0.10242924 -0.004461533 0.003774639 -0.0037418322 0.013332531 -0.100115515 0.114205 -0.02423897 -0.14680694 0.09577669 0.11019613 0.038152132 -0.049661916 -0.042908903 -0.060392044 -0.08958541 -0.04124796 0.10359868 0.11529173 0.095379986 0.039090812 0.060358927 0.051851712 -0.1059493 -0.0039665266 -0.14911051 0.02724228 -0.03377437 0.019872693 0.109194994 0.039911374 -0.10802654 -0.012897192 -0.12188815 -0.064624116 0.02809832 0.01650975 -0.05230858 0.050672997 -0.034261394 -0.014964866 -0.024751388 0.021094227 0.058123022 -0.066447206 -0.04573574 0.045202658 -0.104703195 0.009069238 -0.18159616 0.028839646 -0.014323601 0.008929039 -0.015263432 0.08638444 0.029742638 -0.085247464 0.058212228 -0.032534514 0.0320458 -0.027442226 0.012959644 -0.01304153 0.063461035 -0.013272785 -0.047339004 0.055941213 0.13172457 0.14057729 -0.11214722 -0.031545166 -0.11228617 0.009256799 -0.06510154 0.03913019 -0.087645255 0.03443211 0.055393293 0.051386036 -0.0023332865 0.034883462 -0.050415654 -0.011138847 0.041169915 0.13970779 -0.0069108107 0.09000449 0.11548775 -0.007761562 -0.08017719 0.033923358 -0.06893083 0.07180376 -0.031337056 -0.043471206 0.015105831 0.013093724 -0.0050061485 0.07897271 0.020495111 0.04219029 -0.041886535 0.015271545 0.08642323 0.0101999445 -0.03835936 0.05173322 0.08887278 -0.024535786 0.049559418 -0.033736404 0.046542034 0.14468004 -0.008282142 -0.059528995 -0.1099321 0.057932723 0.10241129 0.067601316 -0.046331555 0.027116247 0.124173 -0.0023749275 0.010222499 -0.017927444 -0.032304592 0.0009475719 -0.05147991 0.052703187 -0.034940317 -0.052086554 0.07281349 0.027138203 0.067065865 0.049546227 0.120710246 0.051274568 -0.018072924 -0.007479273 -0.08330689 0.05116116 0.05786427 -0.027238099 0.061699223 -0.025472298 -0.08874429 -0.033609398 0.00304451 0.008214702 0.014416175 0.08381729 0.0150695555 -0.123406366 0.20721567 -0.016339071 -0.065115556 0.028252939 0.023598481 -0.0060508843 0.023393938 0.1475767 -0.051660396 -0.1660738 -0.03656057 0.06888492 0.008368689 -0.052846093 0.080967024 -0.0086388085 -0.06574016 0.06389195 0.05852664 0.010625762 0.031891745 0.08915763 0.15498589 -0.060930483 0.01981055 0.04085463 0.054480325 -0.05835454
We -0.050952416 -0.04484917 0.04078925 -0.06864742 -0.04183351 0.06616308 -0.077064626 0.017149555 -0.08465062 -0.07592864 -0.10562591 0.015942752 -0.033420328 0.012622377 0.20132534 0.09897763 0.004327285 0.10697754 0.016782345 0.17750895 -0.0034283325 -0.0061543724 -0.120732255 0.009186255 0.063495144 0.003026017 -0.03221571 0.03704251 0.07809602 0.028820368 0.024583971 -0.009165745 -0.07305262 0.0072885766 -0.08526337 0.068687186 0.065484196 0.06762568 0.07234936 0.13216114 0.07880441 -0.06949006 0.014937746 0.03177626 -0.06273089 0.070712976 -0.025208449 -0.05070508 0.038179748 0.09227709 -0.040176246 -0.01111952 -0.086348996 0.045486037 -0.065964386 0.06428683 0.09848718 0.026531484 -0.023668874 0.06994315 0.08787009 0.003416917 -0.05627774 -0.050554886 0.115122 -0.023100076 -0.016017394 -0.056458477 -0.010363818 0.069925986 -0.013342853 -0.039486073 -0.09744985 -0.08114355 -0.039186973 -0.02849862 -0.0118594235 0.0020206945 0.02035873 -0.070284985 -0.09797345 0.0065021804 0.011663706 -0.064025626 -0.029072197 -0.06996622 0.037606116 -0.16691774 0.018511802 -0.058669385 -0.031401794 -0.030261151 0.046603337 0.01164065 0.102536745 -0.13239266 -0.039281353 0.0714555 -0.020331684 0.01914152 0.090925634 0.10662481 -0.0032007473 -0.06425542 0.054635163 -0.06608428 0.039082173 -0.06283938 0.024401084 0.009405849 0.046494097 -0.0006544309 -0.052102704 0.054934196 -0.05998525 -0.054678466 -0.12148345 0.017845156 0.1846601 0.032673895 -0.03014421 0.075066544 -0.038038 -0.0050879205 -0.0050012297 0.10406844 0.10044586 0.07424107 -0.057206992 -0.004747428 -0.14861025 -0.034065157 -0.03166857 0.04057289 -0.17227772 -0.0596279 0.03316069 -0.032996494 -0.07390178 0.04200467 -0.029564818 -0.04716146 0.031089302 -0.02928707 -0.018014586 -0.031174567 -0.09273742 0.064759694 0.016860642 -0.044526096 -0.07777172 -0.07962624 -0.11425562 0.13448714 0.028586632 0.12178426 -0.0779781 -0.040946845 0.13088241 0.046714958 0.062551215 0.10874454 -0.17190892 0.10684268 -0.048104957 0.09026216 -0.030940626 0.09699277 -0.079740256 -0.06776746 -0.109246686 -0.07500056 -0.013546085 -0.017504204 -0.15680265 0.011401377 0.041567758 0.102857746 -0.042488106 0.015962305 -0.054021902 0.012593932 0.12742828 -0.10568768 0.0670919 0.036614884 -0.07643765 0.10947861 -0.07496346 0.12429164 -0.053928994 0.053600654 -0.0184852 -0.087457255 -0.041490804 -0.1338008 0.053613886 -0.025412133 0.059619594 0.12402155
about -0.06367906 -0.026357736 -0.043385003 -0.13113378 -0.0031718246 0.0011768562 -0.051201414 -0.027695075 0.10092635 -0.15605406 0.048151243 0.015653519 -0.06479961 -0.09965794 -0.06782044 -0.01107162 -0.033664722 -0.09026611 -0.045631368 -0.047432575 0.07260642 0.16172485 -0.04976907 -0.029099317 -0.06607686 -0.11643622 0.09829174 0.10744128 -0.096137464 0.13563877 0.077617034 0.022019716 -0.09321165 -0.0057299575 0.114076994 0.1215431 0.027534068 0.10580221 0.032091185 0.060653403 0.017014949 -0.026434658 -0.09736599 0.10664325 0.02888227 0.1275068 -0.025320323 -0.10271356 -0.0029661483 -0.029662605 -0.107926495 -0.13776986 -0.022334859 -0.0039676027 -0.07996322 0.050407533 -0.16457096 0.016236521 0.12231137 0.00035512942 -0.09422326 0.045981467 0.10118618 0.061518665 0.09941263 -0.060972527 -0.06894845 0.040424973 0.018687738 0.10981481 -0.040739626 -0.035942156 0.012280429 -0.087739915 0.06942139 0.16861488 -0.08143389 -0.056077234 -0.02921432 0.031002603 0.0025222348 0.111781634 0.073332824 0.07990167 -0.045751628 -0.039529596 -0.09799169 0.006067591 -0.05198292 -0.046389975 0.1391367 -0.037432637 -0.05284012 -0.073272854 -0.026552273 0.03786868 -0.08585811 0.00570362 0.05051964 0.08648878 0.0726238 -0.03602595 -0.049096536 -0.1989553 -0.03498997 0.06416467 -0.010386037 -0.009018642 -0.023541894 0.00077671465 8.0857564e-05 -0.036286954 0.045362424 -0.040187255 0.12471291 0.06401053 0.015833158 -0.0040416126 -0.06301316 -0.027833011 -0.0037991481 -0.039242916 -0.026154416 -0.037902787 0.036282543 0.04622413 -0.045179926 0.08298929 0.1291725 -0.0171071 -0.02633618 0.1277995 0.03431642 0.08704268 -0.007187483 0.11086273 -0.033306655 -0.054304607 -0.20957564 0.008581275 -0.093408585 -0.09026498 -0.10180136 -0.15861544 0.028111845 0.005930915 -0.0045685996 -0.0224491 0.09107481 0.005553733 0.098383404 0.056468442 0.02976633 -0.08617456 -0.029493723 -0.041227315 -0.0013147234 -0.014069738 -0.07492474 0.14876485 0.017755657 0.010018074 -0.012787915 0.03997946 0.076620035 -0.16935354 0.047596686 0.10723072 -0.0587188 -0.033991225 -0.07519347 0.07287321 -0.032001562 -0.071064875 -0.07799272 0.01706901 0.06770403 0.03664184 0.042134292 0.023459613 0.05272251 0.011056423 0.0047967094 -0.010572303 0.0100900065 0.008409267 -0.0066357884 -0.11691433 0.015600504 0.013855116 -0.0395005 -0.056049846 -0.079344705 -0.09579899 -0.1901467 0.050449573 0.05785248 -0.13945423 -0.060302433 0.041204046
study 0.12051605 -0.06271359 -0.059798755 0.09230834 -0.023359098 0.041047554 0.11597028 0.07112145 0.0493551 -0.04940865 -0.05169934 -0.16846356 0.037488002 -0.0018980259 -0.06760224 -0.024716694 -0.037142538 0.07955205 0.044655915 0.04911367 0.030866303 -0.0059825424 0.0503897 0.027934246 -0.047260165 -0.008515948 -0.13116267 -0.0024634534 0.117612235 -0.05805124 0.060822498 0.015926195 0.07056616 0.012769621 0.026469888 0.029232504 -0.018607698 0.08328842 0.14619683 -0.14534597 0.0957912 0.029975496 -0.01914048 -0.01591074 -0.050720017 -0.0028839996 0.031541992 -0.01986789 -0.070428066 -0.008592927 -0.076526016 0.028609786 0.16212408 -0.09329356 -0.018884711 0.14576103 -0.07445703 -0.025550777 0.028209034 0.08890455 -0.12779075 -0.13320783 0.099050276 -0.035895146 0.088788755 -0.031027969 0.058702007 -0.04512903 0.04169787 0.06232437 -0.07103412 -0.0535155 0.07034173 -0.036925193 -0.037007138 0.019897766 -0.02139464 0.16506799 -0.10404927 -0.04078107 -0.010927952 -0.032947205 0.0032696482 0.01993696 -0.055646367 0.01082691 -0.045843475 0.043999217 0.09825426 -0.07445316 0.01396613 -0.02649513 -0.019542927 0.0022167945 -0.079145566 0.13565153 0.013551866 -0.04967944 -0.06960891 -0.06796531 0.057011012 -0.09335179 0.037714325 0.021910436 0.01883624 0.09009477 0.039136626 -0.13543001 -0.0957489 0.03994272 0.021430528 0.050088637 -0.010432453 -0.060810488 -0.09330358 0.057496578 -0.034280352 0.10173495 0.20649545 -0.014179918 -0.03458387 -0.085710734 0.0627501 -0.042631928 0.031022202 0.14361222 0.003596548 0.047661975 0.03252817 -0.08510996 0.004874555 0.057727605 -0.10321244 0.016737387 -0.09294699 -0.053335894 0.023224492 -0.009475179 -0.04563411 0.015509865 -0.0033770758 -0.03417304 0.011910778 0.13607675 0.054621417 0.025967022 -0.060064983 0.035783373 -0.016214509 -0.044123065 0.03937024 0.06414443 0.08267244 -0.058532912 0.04315663 0.2131662 -0.028738732 -0.04666656 -0.024104519 0.16093007 0.099782296 -0.12578663 0.05579337 -0.057603057 -0.069284394 -0.10417686 -0.027476672 -0.14867802 -0.021749625 0.004664788 -0.058206104 -0.03697429 0.047306873 0.02141553 -0.104324766 0.029874058 -0.023031952 -0.11325032 0.046382457 0.041187793 0.002321143 0.09573105 -0.06157751 -0.06864018 -0.06796114 -0.03392591 -0.0958783 -0.114957266 0.08742953 -0.0072416156 -0.004681236 -0.0033928668 0.0063744886 -0.028627807 -0.070233636 0.04828569 -0.09954595 -0.013160207 0.09827578 0.02632149
idea -0.03241283 0.016212793 0.09608453 0.05274355 -0.019802937 0.024116704 -0.007379947 0.117103234 0.032502584 -0.033631977 -0.05306505 0.0018525892 -0.03917698 -0.084050834 0.005180919 0.11030084 0.077579506 0.056798372 0.0760023 0.15650076 0.098334104 -0.014475526 0.021538263 0.07866685 -0.055218533 0.1201456 0.08640756 0.042504437 0.036637723 -0.052186746 -0.03138583 0.000956832 0.07014737 0.07282527 0.04530179 -0.040234774 -0.12426043 0.1697624 0.0268228 -0.072376825 -0.072673306 0.08733145 0.052963246 0.03135389 0.03735927 0.01056769 0.0656192 -0.029582044 -0.018628659 -0.00050975126 0.013851807 -0.010331789 -0.036471933 0.11739961 0.054409895 -0.050724503 -0.020255683 0.057310946 0.03802507 -0.15559004 0.10712738 0.03442337 -0.03214519 0.112244144 0.16241635 -0.009775528 -0.1631494 -0.048709136 0.17695425 -0.1351214 -0.040357813 0.04630864 -0.08042633 0.089667104 -0.059211455 0.034580354 -0.107159905 -0.10245492 0.071918204 0.008370767 -0.040494297 0.003998211 -0.036391437 0.040957898 0.02187662 -0.06275367 -0.037330735 0.024330534 -0.14646816 -0.0539952 -0.037324145 0.105328776 0.08771106 -0.054610934 -0.008845059 0.05926468 -0.039756224 -0.041031443 0.14289205 0.04845933 -0.0040895916 -0.044708457 0.07160263 -0.11980777 0.010236171 0.22059843 -0.0669402 0.06133023 -0.06759669 -0.121324144 -0.08460684 -0.06669709 0.055605255 0.050589334 -0.09469183 0.0402415 0.035949454 -0.0408108 -0.010081146 -0.014168932 0.027098488 0.033047155 -0.052350655 0.0046784407 -0.08423012 0.02096066 0.03179316 0.04665574 -0.0026191587 0.06357513 -0.08864896 -0.0042230203 -0.03453397 -0.04095372 -0.01194914 -0.1202012 -0.075048484 0.12382596 -0.009651702 -0.029767204 0.024415793 -0.0871133 -0.078226246 -0.13543507 -0.14917888 -0.11263739 0.010036989 -0.07052694 0.060106676 -0.06678455 -0.05947641 0.0648731 -0.0076650376 -0.024778496 -0.017315732 0.044445615 0.0760287 0.021836217 0.010381273 -0.0784793 -0.031107722 0.09903277 -0.006607943 -0.01647127 0.03133338 0.050843902 0.119736224 -0.06979818 0.07009157 -0.02104005 -0.03875056 0.05189612 -0.073217414 0.006249251 0.04675673 0.023880698 -0.08465631 -0.0053291456 0.10538437 0.06967535 0.16293941 -0.0776168 -0.013012435 -0.018323671 0.0060965726 0.025644826 -0.040442564 -0.054651264 -0.018670568 0.047288805 -0.028854255 -0.026264502 -0.072152995 -0.04328667 -0.0645249 -0.012827111 -0.054527555 0.047380697 -0.09414624 0.101053774
computational 0.049786065 -0.09112978 -0.11954326 -0.01599027 -0.082745485 0.045920387 0.047519483 0.05918128 0.014079435 -0.17011277 0.032735255 -0.09129128 -0.015087341 0.04469871 -0.020546505 -0.10150813 0.058637604 -0.075532034 0.13260387 0.04178904 0.04215369 -0.101016685 0.07626979 -0.077895224 -0.13993901 0.023801388 0.052988444 -0.07863108 -0.0062856176 0.042023372 -0.025265785 -0.035081346 -0.11597422 0.019066464 0.14363436 -0.13216251 0.06794583 -0.006275249 0.046644375 -0.018441599 0.055593323 -0.1344822 0.043568645 0.011919337 0.0024304667 -0.07519295 -0.061300322 -0.043664157 -0.0836258 0.07681364 0.031525057 0.005161509 0.02350063 -0.018638115 0.013391116 -0.011896812 0.10289396 0.02877051 -0.0017795097 0.059660327 0.10500889 -0.049126886 0.07597095 -0.090260476 0.100247964 -0.037653316 -0.043859523 0.012185765 0.06642471 0.04435152 0.048049618 0.15844171 -0.09489781 0.10896181 0.051930845 -0.13119945 -0.010490312 0.076247826 -0.01712914 -0.0535551 0.01995371 0.013057231 0.12692085 -0.08214096 0.0543702 -0.1274025 -0.09896587 0.11857067 -0.050268434 -0.08668736 -0.06643058 0.05721627 -0.04311486 0.040622875 -0.0020882015 -0.06502843 -0.00849915 -0.029689206 0.051407162 -0.044373367 0.104850456 -0.14457703 0.10225194 -0.03225624 -0.09165782 -0.013495989 -0.085646704 -0.11973407 -0.0055373553 0.056627605 -0.007824721 -0.08057206 -0.018913193 -0.050416965 -0.015492765 0.035259202 0.055115197 0.05459985 -0.105149426 -0.011473287 0.098059505 -0.0067028278 0.18942565 -0.02098548 0.005530756 -0.11154744 0.05978716 -0.01181842 0.024103615 0.013339338 -0.0660652 -0.047490604 0.028543394 0.086875565 -0.037419524 -0.07701321 0.04700417 -0.12245903 -0.040576205 -0.075701885 -0.18323389 -0.018865453 0.014902116 -0.12590761 0.004985063 -0.050827764 0.11972429 -0.08381888 0.035122324 0.042922527 -0.07339192 -0.0013910449 0.06873019 -0.1385206 -0.05646873 -0.047302775 -0.031006178 0.06687866 0.0992001 -0.037458844 0.1143262 0.07225953 0.035708852 -0.07130052 0.1086293 -0.077401005 -0.025893008 -0.047993317 0.08082572 -0.005468934 0.049523126 -0.121565565 -0.18815893 0.13805051 -0.010106535 -0.013372969 0.10055183 0.10214448 0.03672362 -0.020667067 -0.0044511063 -0.07963684 0.0996862 -0.04008251 -0.09293452 -0.10471719 0.011832739 0.0038378155 -0.027194042 -0.025914928 -0.038131755 0.08328308 -0.0005157915 -0.034750693 0.025655536 -0.037106622 -0.037660178 -0.041077845 -0.039432224 0.03306181
process. 0.04965889 -0.0033970275 -0.021827487 0.00082037784 -0.06437422 0.06496547 0.0123900855 0.13288374 -0.020115603 -0.055974428 0.004548413 -0.12681924 0.008751512 -0.053195085 0.036115553 0.073395014 -0.04071204 -0.1028369 -0.098689646 -0.039873805 0.10575019 0.015419411 0.07976084 0.018675193 0.014218442 -0.013010343 0.0134395175 -0.1105167 -0.05943192 -0.044943783 0.011151024 0.00542432 0.11630814 -0.044617057 -0.070579335 0.12786141 -0.041722875 0.027739339 0.025790224 -0.031967487 -0.05096539 -0.010309433 -0.14733344 -0.01665474 -0.035626076 -0.05581692 0.058435652 -0.14392306 0.006940799 -0.006733243 0.041492473 -0.108913295 0.029900752 -0.0060075177 0.009543657 0.055785477 -0.019120513 0.011107139 0.06508204 -0.13164338 -0.060360823 -0.023627998 -0.04246021 -0.12082339 0.019004302 0.03490948 0.07757979 -0.023080057 -0.0664613 -0.048833426 -0.088578865 0.026382871 0.10721838 0.0057006264 0.0246701 -0.004503824 -0.070457436 -0.03864459 -0.013890858 0.00622003 0.09930729 -0.035088267 0.02116524 0.06601094 -0.1636764 0.039458517 0.028970255 0.15662247 -0.052669667 0.020388938 0.10432282 -0.058831703 -0.08354235 0.04934049 -0.09621904 0.010476392 -0.041588914 0.07135072 0.024311643 -0.08908203 -0.033947624 -0.019608926 0.11845727 0.15716866 0.046455737 -0.08040478 0.09072218 0.054322284 -0.07173227 -0.019737441 -0.11739945 -0.045460224 0.016693976 0.00060547993 0.035053745 -0.021321697 -0.10386747 -0.00047507172 0.08442859 -0.06467097 -0.03136273 0.029765695 0.0578619 0.049736045 -0.058519114 -0.13987045 0.020110948 0.0021818825 0.025136815 0.031063914 -0.13834181 0.087391056 0.119424425 -0.11695012 -0.064025514 0.008896707 -0.087256156 0.015580499 -0.10742334 -0.056319356 -0.027838765 0.06307667 -0.03349744 0.021128628 0.04041231 -0.06573789 0.011495851 -0.053346984 0.0046919645 -0.030920548 0.030357514 0.012026599 -0.199835 0.0006041165 -0.02269303 -0.18622041 -0.013844165 0.16018161 -0.063293196 0.018972969 -0.07452032 0.10121609 0.0055930014 -0.04489463 -0.0071887956 -0.054730114 0.051850025 -0.01818932 -0.13856025 0.027750282 0.026192524 -0.101962395 -0.05864548 -0.0718182 0.04477497 0.0024771204 0.122936405 0.011852756 -0.040588472 0.040135738 0.026000803 -0.048225965 0.031309403 0.0016301398 0.07958782 0.11553377 -0.038581245 -0.087983444 -0.024760118 -0.034765065 0.061557505 0.10008732 -0.021738783 -0.011031543 0.13087484 -0.07968431 0.10210589 -0.060727376 0.13068908 0.030370623
Computational 0.08025979 -0.0133675365 -0.04989743 -0.048923463 0.06021798 -0.14507847 0.0760936 0.040342305 0.011554134 -0.016993256 -0.009827323 0.0034089223 0.10038522 0.0060952995 -0.053834572 0.004281358 -0.07708013 -0.053047556 -0.01654874 0.07837246 -0.036032684 -0.030981623 0.02171415 -0.014995516 0.133102 -0.12209246 0.06332287 0.03730591 -0.13550235 -0.010692559 -0.053397913 0.036080573 0.034279976 -0.05663542 0.05304402 0.0026190095 -0.044481684 0.06701439 0.06773304 -0.08752116 -0.022806711 -0.040869836 0.019887507 0.08644445 -0.034595035 -0.02519176 -0.03442033 -0.016444117 0.0430857 -0.08705128 0.08089912 0.12389455 -0.1008686 -0.06660386 -0.091613926 -0.05286622 -0.08807639 0.0021931306 0.089481495 0.1724741 -0.0069927806 0.012912008 -0.15594245 0.044089586 0.013713392 0.018798806 0.03668724 0.1095681 -0.039309066 -0.011204905 0.08496724 0.17092007 0.110751085 -0.0023223194 -0.106741145 0.046681646 -0.09079965 -0.010114987 -0.035754006 -0.064150296 0.012045899 -0.0111395875 0.10351752 -0.019096678 0.021153882 0.058485873 0.021022424 -0.0038601225 0.11825216 -0.05409665 -0.019833878 -0.029207543 -0.022077808 0.0424451 -0.056411006 0.00027364257 0.09206668 -0.11196777 0.020375567 -0.06942891 -0.070970945 0.042562068 0.016882015 0.04263176 0.016127257 -0.016427943 -0.07698252 -0.032338515 -0.0071391016 0.032433704 -0.0019057995 0.008831339 -0.08974778 -0.0068393014 -0.0035198105 0.007841301 0.056248534 -0.022264674 -0.012407057 -0.07190009 -0.07414921 0.0568084 -0.04805155 0.038983922 0.06589751 -0.04543034 -0.12892938 -0.028390398 0.033823334 0.05114447 0.054174896 0.1282801 -0.10956031 0.019706503 0.05806805 -0.100760534 0.061288077 -0.012912574 0.050741974 -0.105517656 -0.120986305 -0.12998335 0.026525507 0.074253544 0.12718272 -0.05375502 -0.07894268 0.0009898868 0.0042456654 0.115758635 -0.077121064 -0.057800084 0.08456123 -0.18212965 0.038935766 0.017018238 -0.105963625 -0.048909064 -0.11226325 0.0149973575 -0.061490893 -0.087830864 0.050848212 -0.0018177743 0.08370028 -0.06853993 -0.079671256 0.057030123 -0.0684126 0.02849461 0.20714694 0.012912222 -0.03992715 0.12207217 0.060299773 0.08760403 0.042967055 0.072283365 -0.024955435 -0.078280784 -0.033957254 0.0658801 -0.05279256 0.15410642 -0.027642058 0.055760436 0.011101556 0.06354113 0.017964875 0.026738087 0.06301502 0.05798786 0.033356152 0.10906127 -0.10616681 0.073184654 -0.04673198 0.010042032 -0.07220932 0.07435728
beings -0.027344864 -0.10029404 -0.06560469 0.06400295 0.028390696 0.1215625 -0.01706991 -0.032909222 -0.085906334 -0.055181034 0.036428597 0.033054844 0.07803397 0.047946043 -0.10706987 0.13624336 -0.04703844 0.031628188 -0.042220667 0.012992899 -0.005645043 0.0042280382 0.017111223 -0.058209904 -0.044099625 0.06307846 0.023760516 0.08538553 -0.0028082822 -0.09516813 -0.04987872 -0.06991238 -0.07882736 0.17787103 0.0478933 -0.012017731 -0.046766423 0.021444017 -0.12498004 0.028317437 -0.029990561 -0.008044601 0.0041446174 -0.001725009 0.0959025 -0.06879937 0.16755085 -0.03981301 -0.04289908 0.028542737 0.03259245 -0.13567293 0.020831231 0.037762605 0.19692904 -0.093090996 0.045311257 -0.042722628 -0.084621765 0.08936355 1.4658913e-05 0.005252713 0.0074822013 0.15259963 -0.007384249 0.04022719 -0.048651733 -0.05669329 0.003313992 0.100529954 -0.01818218 0.02395519 0.03940195 0.0058377734 0.06488562 -0.02907778 -0.0030420437 -0.005225244 -0.069540076 -0.06100561 -0.023914834 -0.04239766 -0.016067466 -0.041531187 0.072979614 -0.09728735 -0.043195482 0.046247542 -0.061866276 -0.016264228 0.026665151 -0.084769726 0.03367812 -0.103637375 0.016146151 0.014976665 -0.03718892 -0.11674227 -0.06528066 0.07269454 0.0034372432 -0.015347539 -0.015488991 0.08451557 0.04197893 -0.0425894 0.021597248 0.06738411 -0.003940052 0.0040880484 -0.016395472 -0.010205486 -0.016113853 0.0920025 -0.021471828 0.011749796 -0.061116353 0.029906083 0.028329287 0.09598521 0.015061247 -0.00021999344 0.016465751 -0.08581675 -0.0024655478 0.075558126 -0.1320324 -0.15001884 0.02762763 0.03942356 -0.02179605 -0.07729123 -0.05681447 0.12247812 0.046786167 -0.0746795 -0.048602298 -0.21848367 -0.015687821 0.014470589 -0.04209054 -0.066629015 0.04824573 0.09485101 0.017635971 0.041897003 0.061875284 0.005764823 0.04726497 0.06230748 -0.116556115 -0.16748254 -0.01852752 -0.06577271 -0.004929447 -0.026973803 -0.015085978 0.0009116542 0.08354193 -0.104585476 -0.0058540697 -0.05347224 -0.031960703 -0.08566156 -0.028630141 -0.00035297094 -0.042649813 0.02567147 0.037730176 0.07935221 -0.026746517 0.028195556 -0.028793892 -0.06551852 0.06978373 0.06137653 0.06726826 -0.11296104 0.024925834 0.13585629 0.061139777 0.054997634 -0.038653836 0.053115778 -0.15936087 0.0035541677 -0.024807075 -0.057114772 -0.107818514 0.06818473 -0.010351142 -0.06743969 -0.17012346 -0.083668545 -0.016746012 -0.050159413 0.15248838 -0.01815437 0.03477282 -0.020487843
that 0.04909858 0.0022661758 0.008713618 0.02213222 0.07340003 -0.026554754 0.13787413 -0.043556117 0.09870696 -0.07917901 0.0860032 -0.07511682 0.0274474 -0.0964384 -0.08037869 -0.08399294 -0.07761273 0.0054824264 -0.0006896569 -0.048900977 0.030515403 -0.031231739 -0.13117518 -0.017416924 0.020982828 -0.032707434 -0.035942383 0.1242414 0.08172256 -0.090561084 -0.039275616 0.12668961 -0.05304081 0.098406926 -0.059790034 -0.06968729 0.107206404 0.0073725055 0.04753271 0.044106506 0.029319385 -0.039411724 0.06815961 0.24102494 0.0033429395 -0.015197961 0.016405186 -0.013122624 0.012670778 -0.04115619 -0.027225658 0.075415306 0.08460023 -0.03997049 -0.1142706 -0.046487626 -0.0046528275 -0.0016725991 -0.12931703 0.032047793 -0.015962204 0.04051822 -0.13695832 0.058532514 -0.006825996 0.05869267 -0.06677247 0.064466625 -0.040814947 -0.22278932 0.113515265 -0.03440642 0.017827515 0.030578455 0.109647386 0.07307414 -0.041657627 -0.11325652 -0.055177405 -0.077848054 0.0036955946 0.11078908 0.06387399 -0.00094829773 0.026434973 0.07077253 -0.022450116 -0.06778835 0.048635446 -0.030397777 0.041198857 0.0701227 -0.03481056 0.015322985 -0.023611927 -0.031551655 -0.05348937 0.0056139217 0.117815614 -0.09243633 0.043112487 0.08415049 0.079797216 0.0653138 0.025312832 -0.093098596 -0.1208469 -0.005796875 -0.08383752 0.025137551 0.15088074 0.08892295 -0.018023694 0.017554184 -0.029367587 0.04256338 -0.008431374 0.111917146 0.0110865105 0.024397286 -0.033977676 -0.090825416 0.007811143 -0.043236107 -0.14816755 -0.02754381 -0.112666085 -0.03251008 -0.04091109 0.024591438 -0.10028429 -0.06344619 0.020917311 0.011231731 -0.017707553 -0.107798964 -0.01909056 -0.09137606 -0.086881995 0.018526362 -0.051932663 0.038268343 -0.08071699 0.092963345 -0.027984243 -0.109208755 0.012218059 -0.11199012 -0.081148304 -0.056246877 0.0670465 0.025490476 -0.09172268 -0.01858493 0.034575053 -0.027460596 0.061090313 0.14058416 -0.0481604 0.013190537 0.09205634 -0.009470769 -0.084612265 -0.08398582 0.030520217 0.004221409 0.044597935 0.014018663 0.026067022 -0.024555085 -0.0026709342 -0.029451866 -0.14480539 0.022277115 -0.038849242 0.0036707155 -0.021434177 -0.029573606 0.05913457 0.038542356 0.036870193 0.007308358 -0.01776597 -0.04518393 -0.023600958 -0.011182804 -0.020443685 0.1342957 -0.025415942 -0.020035049 0.099437825 0.02377258 -0.056522243 -0.13704523 0.08922089 -0.044456843 -0.04494098 0.12730664 0.05721249 -0.045952316
inhabit -0.039212793 0.09574824 -0.05119562 0.07654133 0.0491357 -0.13537298 0.065967895 0.037293974 -0.03904107 0.010930168 0.030554973 -0.08332271 -0.02311521 -0.07817931 -0.021416115 -0.0020045168 -0.114621244 0.08639255 -0.010259444 0.014077157 0.014070221 0.056740344 0.09364765 -0.010006182 0.07502809 0.0213181 -0.017949186 -0.007744464 -0.019919697 0.12232851 -0.03470107 -0.034260493 -0.029024174 0.14454296 -0.04111888 -0.0036711206 0.014473477 -0.06833251 -0.013010062 0.11356743 -0.0958319 -0.05848223 -0.18549144 0.14987187 0.010240421 -0.013151928 0.04183706 -0.0069085723 -0.004647353 0.015053795 0.10153296 0.00055459293 0.009698936 0.13825959 0.09885995 0.04317837 0.0025961748 -0.06617031 -0.05935132 0.056418907 0.013380605 0.03357165 -0.06920649 -0.024727058 -0.13576935 0.07868269 -0.061109204 0.07608928 0.033094108 -0.018524032 0.084284976 -0.02885098 -0.1061893 -0.018170346 -0.044752803 0.04110255 0.15245618 0.041174307 -0.04786614 -0.00034713454 -0.04908509 -0.083457224 0.0462426 0.026263397 -0.049510863 0.17893356 0.031184968 0.02101569 0.056256134 0.04769855 -0.027665002 0.014744695 -0.09778685 0.0035354707 -0.059056487 0.13159534 -0.04449339 0.053287834 -0.07807238 0.09458602 0.10047437 -0.0032741993 0.014445426 0.019921219 -0.03149655 0.0013780358 0.038722828 -0.047614355 0.0068307095 0.016631309 -0.02341905 -0.071259715 -0.06534817 0.0058914884 -0.11303537 0.033746798 0.05539253 -0.13616121 -0.052375622 -0.11042026 0.023555186 -0.040756486 0.007428246 -0.03740977 0.03486789 -0.0018973261 -0.013738677 0.11680156 0.050953522 -0.08588349 0.005879365 0.08438822 0.015027372 0.0020454326 0.14755969 0.0060322764 -0.0860989 -0.04966575 -0.023328803 0.056963496 -0.0125065595 0.049067553 0.069551766 0.022129187 0.022145895 0.03910874 0.044937186 -0.057554543 -0.071748555 0.13840234 -0.1528846 -0.19288541 -0.012932814 -0.015874239 -0.01599058 0.046320684 -0.024643652 -0.037208293 0.07347441 -0.010433971 -0.040416308 -0.023845568 -0.067611136 0.045820307 -0.07782634 -0.076215155 0.1322062 0.012246268 0.05498217 -0.012293651 -0.0056544184 -0.06859295 0.03660388 -0.02536895 0.07391597 -0.075930566 0.032534633 -0.009701855 0.119768865 0.0132087665 -0.073214255 0.04070917 -0.025743976 0.058225 -0.07793611 -0.054814685 -0.05670393 0.098378874 -0.012318708 0.055400968 0.056516677 0.039263584 0.003338485 -0.040457193 0.025405565 0.10443201 0.14984255 -0.031452134 -0.018068878 -0.15323155
computers. -0.034685552 -0.057627324 -0.06279575 -0.042666867 -0.025577037 0.08517177 0.033610072 0.015136838 0.04284285 0.05099317 0.081854664 0.0006018402 0.117124334 -0.025597978 0.09201578 -0.050889775 0.024376195 -0.10028044 0.004614647 0.06892808 -0.004242354 -0.08089937 0.012021555 -0.07024795 0.112138554 -0.008113606 0.016776128 -0.038996432 -0.048395842 -0.26123884 -0.027330654 0.03137662 -0.037654616 0.05826971 -0.035137307 0.05149737 -0.06768874 0.06956304 -0.03279811 0.010488155 -0.08110684 -0.04394852 0.10602428 0.042411294 0.074434824 0.021307765 0.08401106 -0.04232564 -0.050433397 -0.2892006 0.05403186 -0.025464017 0.03009129 0.1212589 -0.037351813 0.083367445 -0.068177305 -0.104589045 -0.011311817 -0.011317897 -0.025826411 0.013608494 0.018650098 -0.011056094 0.0711345 0.08019888 0.040354785 -0.06595004 -0.029381707 -0.1774019 -0.053675774 -0.05084925 -0.04881243 0.009700452 -0.030855238 0.040154766 -0.119499825 -0.069411255 0.07177191 0.075456545 -0.08921592 -0.054543175 0.065057285 0.06599031 0.079930946 -0.058961436 0.06989408 -0.0003692215 0.09848083 0.023572113 -0.035039034 -0.036196347 -0.042742673 -0.080878586 -0.04033429 0.03219562 -0.0059517934 -0.17669033 -0.0062717525 0.05408685 0.012344905 0.069286264 -0.034242712 -0.00587444 -0.028354155 0.18295261 -0.0969815 -0.064973995 -0.109778695 0.07268638 0.017219396 0.025740994 -0.07194936 -0.006530018 0.034913797 0.08832643 -0.039147895 0.008595277 -0.08517358 0.048755694 -0.035726722 0.024828818 0.022894744 -0.051413305 -0.057305712 -0.055843286 -0.0043470934 0.02598938 -0.033271313 0.023744898 0.024235494 0.032429036 -0.15145631 -0.007337054 -0.074814565 0.0062576025 -0.09346205 0.0054117893 -0.08148969 0.097445354 -0.12872782 -0.0126868775 0.041364133 -0.015075992 -0.009151158 -0.033812538 0.025917146 0.025594126 0.027903741 0.12022648 -0.053269204 0.10338874 -0.11889073 0.059397563 -0.026750818 -0.006984287 -0.055019602 -0.22185117 0.06826306 0.083719745 0.019424591 -0.0630058 -0.06202127 -0.08311168 0.06392863 -0.036622018 -0.17249925 0.046703275 0.04520423 0.001154263 -0.00608557 0.10448475 -0.052747615 -0.022608519 0.011404344 0.113859095 -0.0027955095 0.054631148 -0.06176321 -0.006685509 -0.0712202 -0.06697791 -0.026996948 -0.030018408 -0.053976703 0.051184084 0.007079574 -0.036844514 -0.03987779 -0.0866985 0.056978244 0.09777051 0.11832439 -0.15661307 -0.047051527 0.08057782 0.046478953 -0.037492663 -0.083402686 -0.013622151
As 0.034265846 0.072168484 0.10796249 -0.05534019 -0.19189766 -0.1467502 0.050443545 0.05034995 0.0063804365 0.17743309 -0.03586232 -0.06772583 -0.009300546 0.13762765 0.08576138 -0.06448304 0.16090849 0.123780586 -0.23292625 0.0747809 -0.05057547 0.047379285 0.048967466 -0.010837204 0.07743019 -0.045455355 0.1980382 0.04300645 0.0046151252 0.042434115 0.027432933 -0.10666705 -0.16783689 0.019843189 -0.030468656 -0.022431966 0.06737022 -0.15568763 -0.003670987 0.0063243518 0.113843784 -0.069820195 -0.018869441 0.22397876 -0.061647788 -0.13132425 0.046088215 -0.041154955 0.11840375 -0.021383554 0.054072183 -0.0992535 0.0015603778 -0.09444032 -0.038703755 -0.04201549 0.034845848 -0.10316455 0.03788702 -0.09443193 -0.023194425 0.06545803 -0.035182163 0.07810202 -0.22120893 0.06111626 -0.037791453 0.0611256 0.04669234 -0.029228134 -0.011377322 0.10530958 0.007344678 -0.0016101738 0.041078113 -0.034728944 -0.06944807 0.029697191 -0.07668841 -0.039928433 0.21814512 -0.13507494 -0.09485889 -0.05593339 -0.021989696 -0.04055975 0.0041179857 0.00037883603 0.0019267714 -0.17326663 -0.03921187 -0.024476495 -0.133878 0.017362827 0.055426896 0.12590496 0.067002505 0.016319694 0.021807948 -0.02620404 0.11662264 0.056364447 0.071106054 -0.19091749 0.06549796 -0.13675217 0.051118523 0.20699233 0.052234687 -0.1420889 0.052809518 -0.06135142 0.07985432 0.17555524 0.08523439 0.09883399 0.08983066 0.02942354 0.048934314 -0.13033304 -0.023609852 -0.04137728 -0.016263416 0.010822813 -0.033621863 0.13075258 0.13450415 0.109382026 0.05341691 0.10700197 0.1348069 -0.008485369 0.11072754 0.09822543 0.0725208 -0.0061458517 -0.039345752 0.09207854 0.019805912 0.045140028 0.083377175 -0.011520849 -0.098476395 0.06308596 -0.021334182 0.18610492 -0.15041627 0.06097149 -0.1222509 0.0012733701 0.041497324 0.06105032 0.04749276 0.016657704 -0.028772153 -0.056659304 0.10406276 -0.23245361 -0.016337367 0.05363427 0.054284655 0.028104618 -0.051951177 0.012139253 0.13694145 0.07129311 0.094121024 -0.12649113 -0.02028174 0.11664677 -0.12832928 -0.04956766 0.10527494 -0.01752318 0.056416024 0.020008432 0.13248847 0.013344337 -0.0033072396 -0.07163743 -0.0059341188 0.026072253 -0.091957584 -0.07130198 0.06580271 -0.0004944278 -0.09918435 0.02910291 -0.021574764 0.004255163 0.10058171 0.15812801 -0.04754987 -0.09231037 -0.063592784 -0.13121247 -0.039255373 -0.028254693 0.08609067 -0.29095468
they -0.10183136 0.060395893 -0.045499258 0.049512748 0.046665303 -0.0026026631 0.026415626 0.04468859 0.112516195 0.015303499 0.08744912 -0.14905922 -0.086029775 -0.02174517 0.042077065 -0.06268348 0.07240123 0.026078666 -0.065074965 0.036737528 0.0757095 0.05140754 0.05441666 -0.013178922 -0.009331976 -0.03703137 0.054481894 0.07469091 -0.08765389 -0.107003376 -0.021973923 -0.03494363 -0.07255343 0.13324182 -0.036298428 0.16530925 0.023508726 -0.19570118 -0.02971771 0.13234441 0.020832788 -0.036284916 -0.12413833 0.072215825 -0.0058899606 -0.1059683 0.04015308 -0.017444497 0.11130174 0.06703954 -0.079044804 -0.23535156 0.12096234 0.016434917 0.16753168 0.016149875 -0.1796093 -0.22525951 0.10024346 -0.0074332138 -0.05536655 0.12170441 -0.08848268 0.07510891 -0.1881074 -0.03040118 -0.05228391 0.23661827 0.026971668 -0.064193726 -0.010992627 0.02259737 -0.012484757 -0.16191798 -0.06082434 -0.0067176083 -0.061240233 -0.006563201 -0.25978693 -0.049325235 0.1868419 -0.1122917 0.015989725 0.043713253 0.04209163 0.07169579 0.07941012 0.048571467 -0.039280843 -0.025988715 -0.012560643 -0.07718839 0.05393772 -0.0023141042 -0.068855196 0.035666242 0.13525224 -0.03902878 -0.06593527 0.059858985 0.0865976 0.12686048 0.0100380415 -0.12378788 0.06479294 -0.12537988 -0.1061863 0.03630291 -0.001420655 -0.00947404 -0.08547179 0.0013714748 0.13665967 0.15352097 0.00012786059 -0.014884686 0.033404294 -0.06646929 0.022973234 -0.07567946 -0.01895107 0.044273317 0.03194474 0.017870223 -0.11741724 0.12465423 -0.043138575 0.0320391 0.038026284 0.016265577 0.09463989 -0.12565559 0.014868872 0.0744031 -0.030567754 0.0062104147 0.09321157 0.031889763 -0.08224484 -0.059637 0.093007796 -0.028804773 0.17832848 -0.02006386 0.054354955 0.15781996 -0.14026503 -0.03541821 -0.04524503 -0.07205407 0.12478074 0.09294798 0.0070490926 -0.0064135897 0.15610038 0.026886303 -0.0011612239 -0.060940225 0.03446262 0.021004634 0.034187842 -0.12800702 -0.12517199 0.029550148 0.04217995 0.013938774 0.10606811 0.08682682 0.057534557 0.1553796 0.022740217 -0.13494383 0.07139733 -0.0545701 0.1645857 0.00085447676 -0.02319973 -0.010052029 -0.069388 -0.062206205 0.08336491 0.087496385 0.022853542 0.08523537 0.03969312 0.02844653 -0.09512178 -0.0057428 -0.06695846 -0.09257373 0.06902112 0.21429075 -0.1151642 0.06432173 -0.11092054 -0.046153944 0.008471272 0.011459941 -0.051993903 -0.085868835
evolve, -0.03749729 -0.03456835 -0.036731828 -0.15062784 -0.09967287 -0.040169526 0.038027152 0.058307532 0.041848388 -0.09431932 0.10097763 -0.16414832 0.020927878 0.1005711 0.025706742 -0.01927457 -0.012944593 -0.051120043 -0.061252918 0.12403995 0.017913992 0.15105161 0.11881249 0.023695406 -0.03987126 -0.21693653 0.14942785 0.06280156 -0.15795408 -0.124504335 0.018567447 -0.04692123 0.010859946 0.033169188 -0.099834375 0.036088035 0.06711216 -0.17875293 0.10241739 -0.0068612145 0.10049828 -0.014709619 0.024642266 0.033782426 -0.011407362 -0.2945682 -0.046543986 -0.040875256 0.07237864 0.096935004 -0.010112506 -0.06599578 -0.008545787 0.079393394 0.0894979 -0.028567933 -0.18101336 -0.18040189 -0.061798982 0.00010353739 -0.010777414 -0.012278613 -0.07738081 0.045238804 -0.047243524 -0.003004982 -0.12678844 0.017853584 -0.009265684 -0.074081406 0.041699752 0.19568957 -0.06026997 -0.03729021 0.057188317 0.02532129 -0.04069849 0.012867979 0.0026575576 0.13236822 -0.030180583 -0.063442215 -0.10557573 0.040121235 0.090391226 -0.034303933 -0.156411 -0.08051059 -0.041230142 -0.04838365 0.10029991 -0.13037708 -0.08374366 0.085605145 0.0966509 0.11228132 -0.0105672665 0.076128855 -0.044158343 0.002641303 -0.094007045 0.14597793 -0.05919599 0.06693913 0.037685208 -0.12034642 -0.02071085 0.10833802 0.016080128 0.070342235 -0.059262015 -0.037867874 0.029766979 0.15641233 0.05259944 0.050394345 0.091055475 0.1691215 0.0709497 0.01602137 0.022149501 0.06812726 -0.0052372157 -0.022208825 -0.10523746 0.09538486 0.07099535 0.12814838 0.11519877 0.05625789 0.15429157 -0.036276907 0.0291025 -0.09403228 -0.114739046 0.05333515 0.037206676 -0.010260822 0.03415398 -0.025200292 0.11288004 0.050969142 -0.12425383 0.14165023 0.013131421 0.05895035 -0.052625608 -0.00672519 -0.035034668 -0.01018152 0.051304627 0.034225326 0.029567212 0.01372627 0.14591475 0.071614906 -0.023761334 -0.013147087 -0.08175958 0.14876989 0.09394735 -0.13102658 -0.11480004 -0.028842894 0.16802068 0.026684256 0.16690262 -0.02341722 0.021396782 0.037430946 -0.028138636 0.05611967 0.14465697 0.016654069 0.13687441 0.054543644 0.15109614 0.12035783 -0.09136423 -0.07032157 -0.09460942 -0.031764995 -0.017729124 -0.1205061 0.14440592 -0.0050507197 -0.09131682 0.030198812 -0.10152046 -0.044244085 0.088509284 0.22497427 -0.22131808 -0.04276592 0.00768226 -0.085585795 -0.0020606187 0.039945222 0.082744785 -0.117987484
manipulate 0.063765444 -0.005321859 0.032832902 0.026422635 0.025205104 -0.021574933 0.052987617 0.01191577 -0.03196407 0.04342737 -0.015022809 -0.06418628 0.016253816 -0.042938624 -0.0035363052 -0.08231041 -0.023138473 -0.06729559 0.13664165 -0.050967246 0.019909343 0.066926576 0.060769558 -0.039406583 0.06632825 -0.028211936 0.026034882 0.07883962 0.054949302 0.01843397 -0.03944136 0.17015816 -0.09891505 -0.03177016 -0.22078642 0.03172756 -0.12040709 -0.06246268 -0.013413896 -0.01672833 -0.063125186 0.07103479 0.15303391 0.11220752 -0.07299251 -0.05414939 0.0076187165 -0.065969735 -0.028237548 -0.15982212 0.018482197 0.08271835 -0.023632057 -0.1245898 -0.10171519 0.0018880602 -0.034099486 -0.070957534 0.03890649 -0.0056852284 0.07567531 0.0501599 -0.008087189 0.006215774 0.074365586 0.024802195 0.16045809 0.04344727 0.080367155 -0.06455201 -0.106229894 0.0066148466 -0.06026725 -0.09201314 0.004807823 -0.053056423 0.089054786 -0.062274434 -0.06636529 -0.037972692 -0.07732907 0.04538491 0.057900082 0.07142552 -0.039650694 0.07077127 0.003376322 -0.026249662 -0.04024344 -0.007184675 -0.033820454 0.11829339 -0.031082526 -0.023279985 -0.035948157 0.04507875 0.07741491 0.016761601 0.006889372 0.06993822 0.03247942 -0.06390474 0.011565283 0.07827845 0.0008555451 0.034974538 0.06949677 -0.05765438 -0.021065664 0.0080004865 0.042325653 -0.07050402 0.009429842 0.004145409 -0.014429446 -0.045256104 0.17214513 -0.08268162 -0.05586913 -0.18089283 0.07152653 -0.10325021 0.07169852 -0.05265991 -0.044364758 0.07301933 -0.05611741 -0.06329607 -0.07831449 -0.025141602 0.018790537 -0.0018901197 0.17052656 0.019517422 -0.0033101477 -0.12481535 0.017129587 -0.04977589 -0.093970925 0.022181887 0.026536232 -0.019022064 -0.11487636 -0.073498555 -0.039359625 -0.08563674 -0.05180623 0.076782055 -0.12119742 0.06934769 -0.14733134 -0.038686484 -0.08502267 -0.03634996 0.060245804 0.059094273 -0.0064893286 0.055920042 0.14291742 0.017418 -0.10886577 -0.09045269 0.04502968 0.087492414 0.0028051771 -0.07065444 -0.04844062 -0.09852826 -0.14604715 0.04234961 0.034784947 0.008991055 0.020147027 -0.018371778 0.04295943 -0.082086086 -0.005809856 0.057419736 0.008241647 0.0037596724 -0.07950873 0.042443644 0.02256183 0.085505635 -0.1130714 0.08110572 0.09202562 -0.063728884 -0.0006789174 -0.034698885 -0.06843041 -0.05640128 0.055916928 0.108536646 0.006263562 -0.06399423 0.06054165 -0.042968914 -0.0016104874 0.092319034
other -0.0072166254 -0.05575254 0.15643035 0.027327584 0.09528749 0.084962666 -0.035040613 -0.068504855 0.0057457923 -0.06487466 -0.01919922 0.04059281 -0.10167541 -0.15544155 -0.070340015 -0.0033555545 0.034265716 0.11582516 0.072190456 -0.05490673 0.061335523 -0.044791646 -0.009256604 -0.102985315 0.09592663 0.018739905 -0.14907527 0.1300882 0.097235695 0.056999177 -0.07501267 -0.042660188 0.02019045 0.11134446 0.09341961 -0.08645436 -0.1135574 -0.006948365 0.061961666 -0.078407206 0.024908682 -0.047868766 0.06990976 -0.060740426 0.0127603775 0.03862787 0.07901434 0.023067156 -0.11665219 -0.033320896 0.022636034 0.034647714 0.008602001 0.06921137 0.030288696 0.038109127 -0.15478697 -0.049115382 -0.019225102 0.007937044 -0.0026484488 0.044089746 -0.012440414 -0.049319368 -0.032385573 -0.13766164 0.07574666 0.015589668 0.058231253 0.021508383 0.007741687 0.0012046073 -0.09506713 0.11426751 0.06676954 -0.084935464 -0.101090364 0.023202626 0.02755465 -0.024002722 0.17446707 -0.045377746 -0.07768944 0.009057603 -0.032998495 -0.2239828 -0.07060552 0.028293952 0.117955536 -0.06817482 0.19085474 0.10999423 -0.0025888802 0.015080907 0.035606828 -0.010887947 -0.0122317355 0.24429215 -0.01990233 0.06932663 0.009686797 -0.07153605 -0.0070704813 -0.16109772 -0.008584142 0.008910965 -0.06714146 0.062596425 -0.0319735 -0.011984205 0.014788042 0.09861864 -0.014656166 -0.08175826 0.07080751 0.05052214 0.108096674 0.045285627 -0.007241271 -0.046655864 -0.09397831 0.029327055 0.103307426 0.014281851 0.009685966 -0.031164106 -0.09608554 -0.031376224 -0.073004685 0.030050194 -0.054648016 -0.18434176 0.029943675 0.022379767 0.08201901 0.08847159 0.018111547 -0.059405074 0.07749323 -0.0037828393 0.03802337 0.049225498 -0.089686625 0.021146096 0.00017638395 0.005632438 0.0381329 -0.041290402 -0.03197924 0.051202096 0.11136608 0.0005402706 0.020684566 0.009064469 -0.085462354 -0.0236658 0.02299423 0.052789614 -0.09566988 0.045337792 0.011651819 -0.11091064 0.05861967 -0.10123888 0.046773046 -0.0076307612 -0.047555603 0.10923509 0.0829237 0.025001034 0.011122849 -0.025634574 0.08156106 0.003654419 0.001345591 0.010704692 -0.052155476 0.036933985 0.10185706 0.08981232 -0.014419316 0.09801422 -0.021011636 -0.031653944 -0.097870745 0.037713993 -0.11252372 -0.04000445 -0.12640633 -0.0548965 0.0099461805 -0.1301802 -0.0114753125 -0.022961762 0.0059832963 -0.03257172 0.05889915 -0.1082978 0.022973398 0.11148605
things 0.026427763 0.044532448 -0.009983453 -0.018047534 0.053230718 -0.08618854 0.023185577 0.08221137 -0.058802515 -0.035570893 -0.033548303 -0.059944313 -0.08397671 -0.00059506483 0.008954198 0.055049356 0.18504371 -0.036836553 -0.10594707 -0.052567076 -0.07655345 0.060463723 0.024872556 0.09430305 -0.042281628 -0.054689124 -0.0378264 0.05317651 0.06957825 0.030260446 -0.020886293 0.048287977 -0.014895442 -0.15035352 0.019311476 0.06125707 -0.0019401463 -0.027765717 0.16715881 -0.043556336 0.032940775 0.05854914 0.1541672 -0.15659684 0.01362986 -0.04109905 -0.13562725 -0.030048456 0.06735316 -0.18867566 0.02371793 0.16174419 0.08387071 -0.0047716107 0.07945152 -0.02935607 0.033325873 -0.0148197785 -0.011069496 0.042927705 0.011790096 -0.03730008 0.0076120133 0.08374656 0.003156768 0.014259669 0.02809376 -0.11530171 -0.0696915 0.029433917 0.08018795 -0.046070542 0.08651056 -0.003124912 0.02086372 0.02086471 0.062762976 -0.0029297755 0.017205728 0.040779024 -0.13473272 0.02161049 -0.057949968 -0.13056773 -0.08625675 0.062950954 -0.025096359 -0.10839486 -0.068707116 0.058256168 0.09255366 0.023030186 0.12608488 -0.027636109 -0.023732197 0.046504296 -0.07378404 -0.06431883 0.08947905 0.09391387 -0.14584662 0.013884499 -0.10497288 -0.034230173 -0.05000541 -0.00040236267 -0.046265647 0.06848128 0.18482977 0.116641924 -0.017109286 0.119110495 -0.048802324 -0.050403144 0.01626329 0.03787207 0.023538956 0.04159161 -0.028510878 0.06306678 0.0012270728 0.0118221445 0.050682556 -0.009592203 0.05658676 -0.030208496 0.053205565 -0.021110116 0.009431262 0.014235309 0.029972779 0.017145563 0.055187803 0.07241993 -0.008970121 -0.024564534 -0.07213322 -0.026798561 -0.11581223 0.040569298 0.16276416 -0.104250915 0.1580386 0.12076813 -0.057807412 -0.13244061 -0.077787705 0.020200545 0.07146338 0.044927087 -0.0155668305 0.030820152 -0.09826718 0.15677907 0.013686697 -0.067477465 -0.018657735 0.091490075 -0.07404473 -0.051880155 0.06851783 0.060097396 0.07860101 -0.0019429774 0.020221483 0.07367088 0.08784577 -0.016482541 -0.13879152 0.033236966 0.119992726 0.04743408 0.03252799 0.020436991 -0.016341455 -0.009431715 -0.09706238 0.13993965 0.0044265236 -0.019131683 0.023552295 -0.007057167 -0.00022411175 0.046712466 -0.011158504 -0.056908626 -0.10938873 -0.08086495 0.043661285 0.049302176 0.15248522 -0.066617355 0.13730362 0.049259763 0.040168747 0.033626813 -0.06812593 -0.009248533 -0.07947454 0.0757623
data. -0.13917916 -0.05349147 0.055459842 0.07252727 0.042754587 -0.11325068 -0.036468774 0.11191486 0.054065783 0.05883092 0.04226879 -0.0888243 0.025454784 0.019658068 0.16131446 0.10497947 0.15305156 0.02068253 -0.10103472 0.07323899 -0.007877796 -0.03320893 0.053692114 -0.075957455 -0.12156805 -0.07850799 0.15460788 -0.06641308 -0.07482866 0.0862669 0.06664026 0.021735102 -0.038120173 0.04226251 0.040471308 -0.0064536645 0.07666653 0.029740296 0.15551306 0.010926589 -0.1755963 -0.073358044 0.019678604 0.03084028 -0.0010157664 -0.02131208 -0.14104694 0.06589184 0.120366 0.021878764 -0.0061424435 -0.22681066 -0.030036401 0.14193432 0.05869901 -0.085017845 -0.13001727 0.036294352 -0.024749631 0.037050787 0.16430986 -0.033020798 0.14100343 -0.010162311 -0.014728782 -0.048754517 -0.06438876 -0.039178126 -0.0370051 -0.030309867 -0.014948089 0.12298485 -0.017832542 -0.06993114 -0.12394887 0.084346935 0.029001106 0.009423562 -0.10754088 -0.036021158 0.2366718 -0.117194846 -0.0053499597 -0.068697006 0.027723745 0.015887657 0.026945874 -0.010812538 -0.042892322 0.018291438 -0.050266497 0.04744639 -0.098530896 -0.06328086 -0.07230959 0.08424613 0.06612637 -0.031268097 -0.17618094 0.103699714 -0.07971058 0.029559456 0.18802465 0.027457219 0.058660317 -0.097458094 0.04076334 0.07476947 0.09989008 -0.09475038 0.025478156 -0.09576769 -0.07556106 0.14699449 0.13478969 0.02348264 0.025635885 0.11298048 0.14636908 0.056799106 -0.032959897 -0.080620326 -0.0053045163 -0.059425797 -0.03225618 -0.042201705 0.025685787 0.12451147 0.19781028 0.045991976 0.14732425 -0.009878795 0.066570245 -0.08801564 0.0025680084 -0.089340694 -0.014960407 0.05628148 0.084733985 -0.11030683 0.08331431 0.16527802 -0.07359209 0.0153893465 0.059546962 0.05816658 0.076300524 -0.04447693 -0.0025265184 -0.043020625 0.10219251 0.023135105 0.026705382 -0.06837755 0.14610441 0.077532046 0.15795405 0.007065449 0.1209148 0.11034859 -0.070999846 -0.17270765 -0.070970505 -0.073277615 0.24441622 -0.0028226154 0.077968314 0.022695407 0.020776192 -0.04800203 -0.037529018 -0.09121085 0.051021274 0.041466452 0.18029697 -0.15784855 -0.054537687 0.027116159 0.015039726 0.077506736 -0.012422657 0.064925864 -0.14224571 -0.03848517 -0.014791653 0.006641612 -0.020547537 0.011169262 -0.006958193 0.10656039 0.023275139 0.19116922 -0.0879385 0.036883894 -0.27373198 -0.056537937 -0.030613648 0.18755367 0.049613584 -0.031360846
The -0.039513115 0.078185774 0.023961632 -0.02384081 -0.04923595 0.011497063 0.022805303 0.016290588 -0.120436504 -0.00201707 -0.06102309 0.082591325 -0.021814419 -0.0038596578 0.056552906 0.17250758 -0.011726363 0.061862543 -0.065510854 0.05511712 -0.00917692 0.00051462406 -0.14227939 0.16617207 -0.019774191 -0.017188616 -0.09014531 0.006576233 0.09829096 -0.0812682 -0.037764754 0.043941595 0.07450304 -0.0173627 -0.027671559 -0.05875061 -0.04072135 -0.08871562 0.03259789 0.05991793 0.009244244 -0.10750644 -0.04551647 -0.027135637 -0.035186917 -0.12891804 -0.03784563 -0.014958944 -0.013643798 -0.040760912 -0.025107479 -0.039845347 -0.063134946 -0.011720728 -0.027469631 -0.05301746 -0.046217863 -0.09059195 -0.06443028 0.029571198 -0.070070356 0.029356027 -0.031271055 0.014902084 -0.048415158 -0.002067718 0.016542297 0.008479357 -0.033480655 -0.1164498 -0.1563865 0.029665891 0.05996339 0.06155768 0.16106251 -0.114648476 -0.05376153 0.029341657 -0.105793245 -0.04880073 0.054874178 -0.09540652 -0.07540133 0.047701616 0.095671564 0.038578045 -0.039784197 -0.039099287 -0.0045181136 -0.04895832 -0.068520874 0.04636109 0.013024261 -0.011096555 -0.0020557703 -0.08915229 0.03486512 -0.037819788 0.061118826 0.034767054 -0.082495384 0.095015235 0.027676504 -0.13073103 -0.036832143 0.026732257 -0.060415152 -0.12425025 0.082557514 -0.039310258 -0.07422627 0.010466463 0.0014286671 -0.05633135 0.011611262 0.038475014 -0.052203994 -0.05707765 -0.0059232144 -0.010053804 -0.0026940675 0.055026006 -0.066499144 -0.029101592 -0.05220154 -0.04326732 -0.066495925 -0.048894722 0.05099586 -0.05359588 0.036802396 -0.048934802 0.036672678 -0.14542596 0.0064071394 0.08276977 0.11483151 0.07902511 0.03342273 0.0069654477 0.0040395907 -0.03288196 0.015745323 -0.04697599 0.083247095 -0.0032279713 -0.023131115 -0.04801731 0.029309897 0.09306739 -0.090531334 -0.04319516 -0.016239028 -0.08853714 -0.029570742 0.049043313 -0.13660929 0.1274079 -0.07833652 0.0566726 -0.07085216 -0.13789068 0.06036553 0.021367649 -0.01895071 0.050865583 0.047096375 0.06936288 -0.021544002 -0.034298785 0.08139389 -0.036622807 0.018524688 -0.027951406 -0.049826145 -0.068408 0.031239828 0.014268455 0.019797897 0.1226709 -0.15627226 -0.02186057 0.0128633045 0.08192892 0.07175619 -0.050623257 -0.089125 -0.09035724 -0.018382063 0.034773782 -0.021085411 0.079077445 -0.028124629 -0.0630623 -0.020669393 0.08919157 0.015773935 0.07420425 -0.09055047 -0.19341525
evolution 0.0045853434 -0.039181925 0.032952853 0.11506482 0.002412646 0.0009792739 0.030355623 0.0972133 0.108481735 0.06789139 0.005518754 0.01479763 -0.075973086 0.020880679 -0.022756316 -0.010541137 0.005381628 -0.107764296 -0.08967391 -0.10366396 0.062315043 -0.056465577 -0.097986415 -0.072362386 0.14692758 -0.067148626 0.11652813 0.04785944 -0.08471113 -0.13317175 0.026063235 -0.04763873 0.14663118 0.054730356 0.059764363 -0.048250154 -0.07454041 -0.015174413 0.030513931 -0.03935184 -0.12601057 0.06965788 0.042655315 -0.021935359 -0.05487536 0.04680183 0.051116057 -0.06975004 0.0017391355 0.030311568 0.051631648 0.0024129706 -0.055138398 -0.018664464 -0.054493863 -0.05202392 -0.012350305 0.017212432 0.036707506 0.03245787 0.039778974 0.01798062 -0.07486731 -0.057698734 0.045438383 -0.13817826 -0.004462703 -0.004895105 -0.011931373 -0.113429196 -0.054159787 -0.00883737 -0.010872128 0.10256203 -0.124848016 -0.06345489 -0.09552439 -0.019868042 0.019193048 -0.10686539 0.04664158 -0.04847322 -0.035354577 -0.011890291 -0.05799121 0.015996814 0.012786293 -0.09544464 -0.00810091 -0.04473615 -0.034659322 -0.0464953 -0.13278876 0.045538414 0.036895946 -0.042146873 0.10201739 0.0012054518 -0.0070138727 -0.014066319 0.009810745 0.015338606 0.009679835 -0.006879382 -0.025068302 0.08366619 -0.094640374 -0.031016175 0.004379075 -0.101621695 -0.000826018 0.020934444 -0.09493778 0.024617022 -0.043168195 -0.019347996 0.053858493 0.017156072 0.006216267 0.118764885 0.057723716 -0.05997071 0.08808496 -0.026653169 -0.0657397 0.2129143 -0.07221818 0.019256938 -0.123715386 0.11286466 0.06918414 0.08262028 0.08841083 0.09840549 0.08100278 0.019732924 0.12142702 -0.067475416 0.17011559 0.024828041 -0.009081862 0.03264066 -0.15405531 -0.047526807 0.010870837 0.012649749 -0.04051854 -0.15326001 -0.0049996627 0.17172821 -0.06241959 -0.0074452283 -0.16176152 -0.12967573 0.048864916 0.122679405 -0.044511713 0.057730515 0.05378265 0.015457308 0.0061872615 -0.02042657 0.020546159 -0.049280412 -0.017971706 0.07702962 0.013037473 0.078203596 0.035021823 -0.14108673 -0.023273693 -0.0009184058 0.046479892 -0.030884344 -0.051430907 0.07932435 0.030002559 0.04790019 -0.105792865 -0.020241134 0.064798266 -0.057558008 0.03437778 -0.049985807 0.06527662 -0.05605092 0.10808342 0.06807312 -0.10656768 0.048709463 0.028586315 0.17288977 -0.017583603 0.106814735 0.009616296 -0.10267563 0.014644723 0.025664818 -0.0019379434 0.06064058
process -0.11124408 -0.056769077 -0.008969541 0.046929043 -0.11559714 -0.048491072 0.16737849 -0.05253357 0.0610774 -0.15734862 0.07594842 -0.12340457 0.11194298 0.061529987 0.05281938 0.08116836 0.06914747 0.16474535 -0.07054729 0.07608508 -0.089271374 0.15211193 -0.054067817 -0.057398774 -0.023562156 -0.0436951 0.029111901 -0.01834145 0.04784753 -0.090765044 0.07448269 -0.14288037 -0.06589074 0.006748058 -0.06491061 0.0013064741 -0.017940253 -0.029166743 0.012412785 0.06400144 0.10609854 -0.2529017 -0.08673365 0.057885643 -0.0036019138 -0.023703218 -0.12890528 -0.100429446 0.046042636 -0.082663976 -0.005798146 -0.15399413 0.03695926 0.050132297 0.15881984 -0.07890107 -0.09117481 0.045492508 0.09759106 -0.11649217 0.17269212 -0.0614307 0.11349511 -0.0025542981 -0.16193007 -0.016271567 0.05308046 0.08826679 0.07102115 -0.028560152 -0.04256592 -0.030518541 -0.14190379 -0.11691383 -0.10083458 0.05710461 0.10631521 -0.09317519 -0.028283834 0.04152959 0.10500308 -0.023730876 -0.042757254 -0.08391018 -0.008937283 0.07039233 -0.13709135 -0.009304787 0.057073236 0.06301337 -0.07673734 -0.08977459 0.03989136 0.015417172 0.007374639 0.2067466 -0.057976544 -0.13731825 0.019584855 -0.0527928 0.063646235 0.02233692 0.12299521 -0.04584683 -0.030109925 0.0018200646 -0.0074910335 -0.00093654613 0.017303873 -0.066500075 -0.09127787 -0.019323098 -0.013734802 0.06578225 -0.011135774 -0.06939231 0.08166495 0.20722206 0.093019515 -0.07609507 -0.0017979926 -0.0004897048 0.053216454 0.057536528 -0.11586908 0.028219782 0.0053352294 0.07493369 0.13782501 0.114086054 0.13425997 -0.00976029 0.048074316 0.03742648 0.14119531 0.029792748 0.09206772 0.078523695 0.05730091 0.058227193 0.070634656 -0.0449458 -0.055155165 -0.052274752 0.13060004 0.15163614 -0.021956624 -0.028068934 -0.025659217 -0.018221209 0.07894435 0.08508925 -0.11255081 -0.054782808 0.21758297 0.07604709 0.0777005 0.015570027 -0.073928595 0.091345645 0.11156376 -0.09376181 0.01774229 0.04429864 0.08672426 -0.15035103 0.030808276 -0.060755745 0.1702553 0.0043304013 0.044391774 -0.036223996 -0.02501333 -0.16507947 0.14453728 -0.06586187 0.10930267 0.03944952 0.07208873 -0.042898294 0.002525856 0.014169922 -0.10225477 0.06649079 0.025180632 -0.12899572 -0.08919327 -0.14065513 0.011460322 0.006287718 0.00043100375 0.3093123 -0.16267048 -0.057110544 -0.059595995 -0.17689407 0.18750419 0.056049034 0.007804952 -0.084977716
is -0.20302375 0.09550237 -0.09531614 -0.0019115328 0.020416396 -0.069869645 0.0741012 0.01626154 0.056774803 0.007392027 0.024617946 -0.08305187 0.032243684 -0.0778087 0.09299404 0.08166136 0.025629222 0.01658044 -0.106124066 0.026587453 0.106660575 0.1446724 0.16864665 -0.05610209 -0.09475981 0.0061774347 0.12658183 0.011629342 0.093537085 -0.050862946 -0.0056355307 -0.11220857 0.052336495 -0.06683514 -0.009635813 0.07037897 -0.019788334 -0.08783485 0.16926034 -0.06003367 0.05204176 -0.059208304 -0.036329374 0.022627149 0.008414624 -0.21925619 -0.025281109 -0.083202295 0.04837691 0.07484982 0.044946924 -0.24435002 -0.029656846 0.111708626 0.12691784 -0.008758024 -0.11364512 0.045736473 -0.04742207 0.118845746 0.032971557 0.05072276 0.022396153 0.030313239 -0.110506676 -0.16443455 -0.11360361 -0.13236807 0.18368144 -0.05654547 -0.026623378 0.06355217 0.020485234 -0.14571866 -0.052380644 0.054157294 -0.14629497 0.049251646 -0.10872068 0.02943344 0.080099486 -0.12310878 0.012095245 0.14734718 -0.0847446 0.0536475 -0.05344973 -0.040264852 0.10514156 -0.00250981 -0.1230839 0.022376861 -0.091239296 -0.09081374 -0.11976006 0.06004253 0.029301746 -0.12710541 -0.018234821 -0.026752768 -0.000107614454 0.0064976835 -0.14525701 0.046841726 0.09677447 -0.057573244 0.06945712 0.006830908 0.08372235 0.01891885 -0.021842208 0.063525856 0.057151012 0.10508645 0.010996477 -0.012575281 0.0964697 0.044531588 0.08967424 0.081850834 -0.036946878 -0.07179712 0.06658344 -0.03281123 -0.119027875 0.13398097 0.056329336 -0.049322687 0.015947891 0.13336487 0.1807062 -0.05018396 0.14300716 -0.23588696 0.007065178 -0.08410534 -0.07546058 0.033813253 0.10960544 0.07228113 -0.00062577525 0.020673532 -0.06251513 0.0004770735 -0.033863436 0.07770044 -0.1465033 -0.06441252 -0.027147291 -0.025870264 0.03019333 0.099665485 -0.058826324 -0.087351315 0.22524534 0.04285875 0.12857021 0.07305046 0.044826232 0.16897894 0.14046651 -0.020575242 0.007922673 -0.09126287 0.04927249 -0.22594145 0.08780382 0.07388705 0.10279415 -0.0108838035 -0.01667573 -0.0735148 -0.034994125 -0.0044468096 0.15259513 0.06879743 -0.007106606 0.109019 0.021103987 -0.022347383 0.005801235 -0.012936464 -0.08269975 0.05745732 0.013364825 0.103007056 -0.06885511 -0.012111993 0.010643272 -0.0072771325 -0.0892758 0.18196122 -0.110950194 0.077324994 0.094055615 -0.24691592 0.008613467 0.002370983 -0.04032613 -0.06530953
directed 0.0027501564 -0.022883125 -0.067496985 -0.063803256 0.033305608 -0.05731686 0.02600757 0.0037588626 0.007772444 -0.036336325 0.0735538 -0.040072884 0.0165618 -0.14569457 0.012410749 0.08071981 0.06983461 -0.16506383 0.00065286725 -0.093718655 0.12889966 0.074167654 0.004493684 -0.044860713 -0.0063207652 0.07340241 0.011384381 0.071975775 -0.071722806 0.043937966 -0.00867302 -0.030501936 0.10018903 0.06290175 -0.025591506 -0.026829435 0.13115741 -0.14516401 0.011315439 0.07357534 -0.16207933 0.09016017 0.0824484 -0.10488936 0.07640209 0.055673968 0.035348542 0.038533054 -0.07861733 -0.11337793 0.017155746 0.093430534 0.019597095 -0.005095669 -0.0056433976 0.012816364 -0.049613073 0.039837856 0.10929489 -0.076661654 -0.10597971 0.028714351 0.10727116 0.022266584 0.020995371 0.035356726 0.072121285 -0.014993094 0.1048064 0.066788375 -0.061544444 0.052420907 -0.019860346 -0.04661621 -0.04361111 0.033226553 0.015311359 -0.053684246 0.033187207 -0.0813836 -0.0102925915 0.021968355 -0.065343104 0.041369144 -0.067056745 0.039396033 0.038598992 -0.08631831 -0.02101855 -0.067928955 0.13572302 -0.035857294 0.0111891115 -0.016030215 -0.020834876 -0.041607656 -0.10509132 0.012475311 0.040789876 -0.038646303 0.11050201 -0.076359175 -0.002260728 0.07083216 0.021369945 -0.024553416 0.1546191 -0.032985497 -0.08659086 0.03208642 -0.048726518 0.024311839 -0.11130035 0.01640926 -0.17463543 -0.016783679 -0.15364778 0.085925974 0.021241974 0.043507103 -0.07663127 0.019831885 -0.0406642 -0.101866834 -0.04060848 0.055484183 0.11762106 -0.033775587 -0.013241545 -0.079251476 -0.1106832 0.060339004 0.009203981 -0.0042455345 -0.03876641 -0.049523998 0.0533791 -0.20913503 0.016438313 0.06379265 0.031119585 0.039367855 0.04351363 -0.110926285 0.01978566 0.02109547 -0.029833267 -0.03313458 0.029008979 0.02351942 0.013634917 0.038727123 0.008951405 0.038240235 -0.044846643 0.024302416 0.01421861 0.13297778 0.086359866 -0.056401454 -0.075712584 0.034980766 0.09392524 0.09632766 0.0141677 -0.11336952 0.07101933 0.09856186 -0.002175002 -0.05845732 -0.10623649 -0.091556974 0.053655304 0.0037468597 -0.016117077 -0.06357544 0.029860713 -0.09035961 0.10697231 0.062121514 0.078805074 -0.11389524 -0.13311477 0.019132558 -0.033893257 -0.08737227 -0.021937313 -0.0802683 0.053570982 -0.08883729 0.07417616 -0.012154636 -0.044920694 -0.041096494 -0.009611054 0.0042500235 0.030294346 0.05280926 0.010905264 0.048693825
by -0.09539039 -0.08765505 -0.037338153 0.0027958266 -0.067704745 0.017887633 0.05342591 -0.17711142 0.09969502 -0.035685442 0.02514157 -0.049147528 -0.047750384 0.01781535 0.049883083 -0.08165353 0.08993403 0.014412839 0.09193017 0.049794164 -0.021180313 0.04562291 0.09428948 -0.07021073 -0.0096296165 -0.03541438 -0.06284491 -0.065162346 -0.06031452 -0.012973747 -0.059025813 -0.06812476 -0.081393465 -0.070627674 -0.009389229 0.117009446 0.13438928 -0.02022863 0.029960662 -0.036447443 0.07863105 -0.17884111 0.0052561346 -0.16290124 -0.08184278 0.05305172 0.03288015 0.16028203 -0.08116934 -0.0059160213 -0.005167767 -0.0067695444 0.039800603 0.069353014 0.093069814 -0.03409721 0.021243144 0.09102496 -0.07608885 -0.04097854 -0.09974815 -0.1082446 -0.020997161 -0.075580135 0.050449993 -0.08655473 0.021128548 -0.10969863 -0.08575034 0.028337367 0.011314942 0.1274924 -0.10580583 -0.010969075 0.049315955 -0.014262091 0.043084253 0.08591247 -0.00064400537 0.06037872 0.09702898 -0.09251326 0.008776378 0.089824446 0.0045583057 0.053769693 -0.045530353 -0.09607522 -0.008191412 0.05303568 0.08288866 0.014344462 -0.21928735 0.02699783 0.075020045 -0.11678337 -0.0060113627 0.13087393 -0.10476717 -0.041515406 -0.06274616 0.17266129 0.0049740947 -0.09808318 -0.08400273 -0.025693951 0.083502166 -0.083375365 0.04334768 -0.031155765 -0.08565334 -0.06980314 0.047226544 -0.12463994 0.055390812 0.03003386 -0.018315082 0.13246118 -0.053307462 0.05490429 -0.0017537049 0.07892202 0.05986044 0.10041916 0.085148975 -0.06403818 -0.025646554 -0.12034384 0.09239538 0.055809684 0.038093742 -0.004095531 -0.12182325 0.046393394 -0.05177832 0.089834645 0.084053986 0.09186664 -0.06756714 -0.07241508 0.0035110116 -0.02325829 0.00070611894 0.10471527 -0.08914437 0.098897114 0.087895565 -0.102847576 -0.12968951 -0.017640965 -0.010141364 -0.035618562 0.06523604 0.06545974 0.028363014 -0.0067487396 -0.06965647 -0.07264312 0.020721212 0.114100225 -0.031206816 0.10077573 -0.06892047 0.042929053 -0.029291622 0.030398501 0.075786754 -0.004087485 0.007490945 0.008507255 0.057836406 0.036462244 -0.028152138 -0.1354071 0.12052851 0.1090451 -0.040691316 0.0015833616 -0.0068449555 0.017868679 -0.0105780875 0.007908787 -0.007920681 -0.09034813 0.10322581 0.07455569 -0.06253661 -0.05159547 0.06066676 -0.061581183 -0.08689889 -0.040433023 -0.11397446 -0.06474207 -0.0674851 0.07221107 -0.074318364 0.008843497 0.017071167 0.088865876
pattern 0.058155414 0.028159574 -0.08503422 0.034372233 -0.12103347 -0.098674536 -0.092790164 -0.045967463 0.009762061 -0.023543416 -0.03504162 0.10002484 0.028481679 -0.030751873 0.062112365 0.0441363 0.03994715 0.04254598 0.048316382 0.08489268 -0.057244472 0.0077244644 -0.029142423 -0.04299285 0.007824836 0.1195123 -0.008642263 0.055604737 -0.07738899 0.047246434 0.11850565 0.048726734 -0.08579937 0.020484459 0.006869916 -0.09535106 0.03454964 0.008301821 -0.010773758 -0.122461855 0.11622709 -0.068684496 -0.061236896 -0.013123873 -0.08794711 -0.018915778 0.04304397 -0.027035564 0.07397014 0.05033481 -0.008091019 0.08597556 -0.18500623 -0.11765902 0.0014426592 -0.034633853 -0.027732734 -0.05140752 0.13527496 -0.025332885 0.036210615 0.1713777 -0.057397936 -0.009258711 -0.043056644 -0.115387805 -0.028546477 0.048338715 -0.006088207 -0.002137775 0.093452 0.09794583 -0.040468536 -0.12434624 -0.0138372965 -0.02706484 -0.012973001 -0.025734873 -0.06930243 0.10660451 0.0028428764 0.08787377 -0.080804296 -0.14309661 -0.04803976 -0.12572527 0.025633663 0.024907485 0.07255546 0.06130452 0.041999646 0.019753773 0.011863948 0.036403865 -0.101176746 0.0019440643 -0.014417352 -0.023468234 0.024428189 -0.037463695 0.0021800685 0.07150528 0.053218514 -0.0028060914 0.09150775 0.03785333 0.0014070285 -0.0024982179 0.04125305 -0.03221752 0.12601584 -0.08655943 0.02288632 0.06804892 -0.036333237 -0.0043660817 0.04397655 0.0761247 0.05783801 0.0048611714 -0.12971781 -0.00012791078 0.12690942 0.06390892 -0.018983971 -0.045709137 -0.06564558 -0.07256278 -0.05731308 0.1109568 0.062622875 0.06330258 0.024333011 -0.033093657 -0.020614173 -0.19212343 0.0037452271 -0.037538145 0.037655137 0.07256559 0.02569403 0.013663964 0.11225126 -0.02553595 0.09746581 -0.034433916 0.046083488 0.028465949 -0.02274859 -0.14622384 0.033003982 -0.055349525 0.10715077 0.016785465 -0.114338525 -0.011805258 -0.058297317 0.095123775 0.0054906523 -0.04021455 -0.013394122 -0.00650104 -0.014622503 0.029265547 -0.07270465 0.029886927 -0.038104944 -0.06848791 -0.16086707 -0.018518914 -0.09425436 0.012490357 0.17143662 -0.006545978 -0.1542111 0.005918838 0.14332138 -0.03874211 0.07562262 0.025552388 -0.08240943 -0.057299875 0.06135063 -0.0033729756 -0.05906493 -0.09749107 -0.03182518 0.036182486 -0.03664057 -0.15491389 -0.080539025 -0.048791867 -0.00040107174 0.0031666611 -0.0063502043 0.049107645 -0.022859171 -0.0042256857 -0.01829755 -0.11567368
rules 0.033333268 -0.07119951 0.098478556 0.072460726 -0.0049492004 -0.0060952315 0.056714326 0.0037950084 -0.098728925 0.08514365 0.09380298 -0.010771576 0.19444267 0.04112284 0.012115209 0.0073105986 0.03216647 -0.08750776 0.16861875 -0.08372281 0.123007625 0.10850623 0.038397796 -0.018917711 -0.075289145 0.066506214 0.093719855 0.040470764 -0.010171133 0.08677895 -0.019109085 -0.08006598 0.11446936 -0.05323609 -0.04573949 -0.07150172 0.0915563 0.048541993 -0.0836752 -0.037966207 -0.12635541 0.003377031 0.09319705 0.022990132 -0.05780206 0.04237378 0.06723371 0.08010607 0.0040668873 -0.048226975 0.022570707 0.04770748 0.04593785 0.08313119 -0.008943697 -0.06419069 0.025686428 -0.0006623885 -0.0059812763 -0.04772729 0.04522365 0.024468148 -0.029360764 0.028440313 0.055784717 -0.13108051 -0.090389036 -0.009148186 -0.10584184 0.008505944 -0.020160059 -0.06915354 -0.06564678 -0.012926983 0.025576703 0.03981495 0.04280241 0.019495137 -0.046887886 -0.05299103 -0.05148654 0.07112911 0.05749014 0.026035389 -0.052799318 0.09870779 0.09420639 -0.025714194 0.06576741 -0.087113604 0.08487021 -0.060833633 -0.05067733 -0.005212372 0.008529076 0.14611292 -0.027896792 -0.036974702 0.060884923 -0.085112244 0.029121056 -0.10973073 0.015850969 0.09769662 0.10758144 -0.00079354254 0.07512302 0.10160652 -0.047088157 0.05302844 -0.015994031 -0.1004155 -0.04257161 0.01919346 0.0075979233 -0.07474397 0.068148114 -0.07436017 -0.04192632 -0.040771566 -0.07736245 0.20220119 0.01452138 -0.085830815 0.022585895 -0.092981234 -0.016954804 -0.07207096 -0.027626319 0.056145713 -0.08197822 0.003606337 -0.08522804 -0.009843597 0.06967188 -0.03188628 0.10035147 0.023159312 -0.025194632 -0.08291122 -0.0140192555 0.02427326 0.042363282 0.012916054 -0.022151954 -0.1369758 0.07322124 0.03283359 -0.04167959 -0.060770072 0.03450839 0.049814664 -0.18205753 0.08283827 -0.01188019 -0.10774885 0.04371949 0.102282725 -0.05766782 0.01702395 -0.02193997 -0.09644246 0.05698447 0.09020174 0.0732695 -0.12920925 -0.08608671 0.028836899 0.09072062 -0.04714129 0.09364362 0.029096568 -0.062022217 -0.07573388 -0.063095145 0.012465879 -0.049416486 -0.0740755 -0.024493428 0.08659746 -0.08060171 0.067811586 -0.09554499 -0.07615418 -0.066399 -0.058322806 -0.12785274 -0.0037581362 -0.050815135 -0.06064944 0.021879597 0.020482272 -0.044817384 0.0692198 -0.13530272 -0.0054251696 0.014489344 0.014008241 -0.009073887 -0.058116164
program. -0.10308984 0.02340418 0.016031757 0.15084328 0.051269215 0.055546932 0.060996786 0.10950081 -0.13924114 0.06478241 -0.0015426067 -0.0055236546 -0.08890201 0.12269021 -0.02844455 -0.05812652 -0.0455307 0.019909551 -0.07928124 0.028555745 -0.0072371596 0.005617338 0.048523013 0.06447138 0.089761935 -0.08519581 -0.1767941 -0.008285511 -0.03175104 0.13511665 0.07416654 0.059732128 -0.031196574 0.111013606 0.015588094 -0.0791648 0.033251133 0.0018570131 0.13271518 0.041282654 0.10955369 -0.073577255 -0.0052295905 -0.0059275744 -0.06239458 0.007276895 -0.07120867 -0.12430257 -0.013511807 -0.028521094 0.10724231 -0.023223734 -0.036984816 0.0028189274 -0.0496053 0.10852456 -0.021464346 0.0063419715 0.058448672 -0.050136678 -0.031146854 0.018213814 0.009494112 -0.02412631 0.07005077 0.017410174 0.037630197 0.009353602 0.06521717 0.034841917 -0.087601624 -0.08713771 -0.018486308 -0.07287349 0.015170323 -0.16217135 -0.11700506 0.0288837 -0.036489993 0.0025662605 -0.013010012 0.089530155 0.0760318 0.012535511 0.027996242 -0.11958899 -0.07665126 0.01617303 -0.05167739 -0.017060854 0.060509857 -0.088510156 -0.040936347 -0.015710955 -0.042731497 -0.05690942 0.012088271 0.16313663 -0.058491006 0.044087168 -0.039930023 -0.008829358 0.103816785 -0.05847866 0.15414919 0.046183743 0.039514795 -0.02660298 -0.005641613 -0.12628202 0.05416466 0.0060699917 0.044940043 0.02341848 0.08651422 -0.15148926 -0.14773294 0.031732667 -0.013232801 -0.026326304 -0.05353671 -0.06727945 -0.027479563 -0.027730158 -0.072586596 0.0008694859 0.006118478 0.009693346 -0.053185664 0.038282026 0.046561282 0.018170092 0.18727747 -0.024152024 0.0033722094 -0.08537066 -0.016695246 0.017900277 -0.042464014 0.06781838 -0.07544655 -0.07200426 0.062164214 0.039335374 0.009709276 -0.0642749 0.04598836 -0.039747935 -0.089352876 0.08172675 -0.045032393 -0.031246733 -0.04922665 -0.07156043 0.045641974 -0.14570642 0.064673215 -0.10186098 0.120836705 0.116137505 0.027537722 0.0898158 0.039389618 -0.074928135 0.13178568 0.09182966 0.10564249 -0.099173374 0.04999109 -0.05270225 0.062447652 -0.102903865 0.045282852 0.0696104 -0.052555826 -0.05344785 0.08606233 -0.02026412 0.060892794 -0.022777673 0.07879601 -0.07813772 0.05040573 0.010631146 -0.06983563 0.13084863 0.046736393 0.1250229 -0.15452829 0.0030398357 -0.03146838 -0.15881795 0.021546653 0.041187517 -0.01706245 -0.08612276 0.047214054 0.015332457 0.08911916 0.01138781
People -0.062142987 0.02777806 0.08199646 0.035074506 0.04129442 0.047863066 0.053148225 0.06529522 0.015748808 -0.13781272 0.09357633 0.090325415 -0.01586184 0.033465557 0.034632377 0.071147844 0.017814696 0.03618498 -0.10100624 -0.091598205 -0.005322516 0.01663697 0.031353444 0.03598112 -0.15975131 0.015789486 0.0026426283 0.025229422 -0.021446617 0.074121326 0.009944084 -0.09463585 0.060721744 0.001744538 -0.029691353 -0.044583146 0.07581493 -0.095628634 -0.029544834 0.051048793 0.047278184 -0.05186388 0.026191123 -0.10367633 -0.022209428 0.09603271 -0.054007493 0.0048480574 0.02370055 -0.0062652417 0.01854823 -0.08685542 0.1394233 -0.10526106 -0.045840755 -0.0034894785 -0.014549595 0.1108197 -0.010191782 0.0067136204 -0.040626556 -0.027634291 0.052171096 -0.0014282196 0.035686515 -0.054314647 0.010802305 0.055302665 0.008456152 0.06541138 0.12714528 -0.035395145 0.03025786 0.115318544 0.039300997 -0.057760846 -0.109564655 -0.020681549 0.04086206 0.055200696 -0.04511562 -0.021683127 -0.03545598 -0.09568459 -0.022556014 0.03570006 0.029988237 0.025995689 0.00970194 0.048374202 0.041656062 -0.04348705 -0.10665889 -0.16463767 -0.059470247 0.030173725 0.049690727 0.02940248 0.08240005 0.027459718 0.042415317 -0.15348889 0.01884462 -0.09883335 -0.06633075 -0.000929577 -0.11233936 -0.05758154 0.14578289 0.012972275 0.02023345 -0.06837206 -0.072016545 -0.11159097 -0.035118774 -0.11195887 -0.058202133 0.048103604 -0.045792192 0.039313074 0.06944833 -0.057967108 -0.06403917 -0.045332473 0.00016531964 0.06443763 -0.002121991 0.048630584 0.08103777 -0.06682709 -0.16178791 -0.12900807 -0.07474594 0.011631313 0.01591019 -0.11012446 -0.03138509 -0.05242417 -0.017393708 -0.063719094 0.058064822 -0.09582642 -0.04766274 0.05249986 -0.015401001 0.10496094 -0.025667544 -0.062561795 0.12338543 -0.005667654 -0.018836085 0.02847055 0.04276344 -0.04450768 0.045578133 -0.06816648 0.061548084 0.061091688 0.04463874 -0.05476361 -0.09492423 0.053290434 0.00707638 -0.026181882 0.06705924 0.05322285 0.05235074 -0.0029310964 -0.005667527 -0.030274736 0.06520833 0.06261126 0.1367023 0.040860467 -0.07581419 0.0851171 -0.032125507 0.021054324 -0.031589143 -0.11361344 -0.09390995 0.03679675 0.047793332 -0.018080292 -0.06873955 -0.047066882 -0.07930118 -0.054525807 -0.10686329 0.030960493 -0.013486147 0.0058195484 0.07592685 0.008826379 -0.018023789 0.004887187 -0.010224749 0.022890333 0.040918935 0.070682846
create -0.05602205 -0.08367998 -0.044039655 -0.029690012 0.06407179 -0.028649593 0.14728549 0.024703337 -0.019768445 0.06557993 -0.05652499 -0.050695423 -0.09272555 -0.10515281 -0.045830328 -0.05575964 -0.009530277 0.06046277 0.025502874 0.09129716 -0.1327523 0.043370213 -0.17952755 0.17339897 0.011638992 0.03804973 -0.039834812 0.03897231 -0.0360267 0.038004734 0.08487508 -0.014881135 0.07509213 0.008652896 -0.037940547 0.018864173 0.008059001 -0.010671641 -0.10098296 -0.039962772 -0.019203214 0.059026316 0.08217641 -0.046403494 0.041964684 -0.028887715 -0.045338083 0.029413141 0.0018892055 0.106771655 0.02416158 0.0026988317 0.08493237 -0.015024926 0.021412198 -0.0345384 -0.11664467 -0.085704826 -0.091720164 0.017388646 0.09965113 -0.059690714 -0.050070547 0.02369882 -0.06218561 -0.075665854 -0.067299426 0.14971673 -0.11262035 0.020561323 0.0465309 -0.020380363 0.0031280273 -0.0039929645 0.1426445 -0.08903953 0.050041478 0.040653646 -0.045472596 -0.030636428 -0.029805241 -0.09253072 0.0015780248 -0.04435837 -0.059229825 -0.15999815 -0.06828173 0.09767965 -0.1303427 -0.018522868 -0.0017726962 0.024820486 0.15123051 0.013024642 -0.056905195 0.10850881 -0.047673766 0.18272752 -0.027116908 0.005385402 0.039486706 0.05531106 -0.029196456 -0.024517007 -0.07480181 0.0021278353 0.012363955 -0.0731443 0.026960984 0.022772998 -0.078299925 0.023014 -0.063697465 0.12612754 0.0030342 -0.08904534 -0.008876338 0.004186353 -0.03815642 -0.07900427 0.09167758 0.060160927 0.12305358 -0.028577387 -0.050580245 0.05086579 2.8341667e-05 0.00978326 -0.06787668 -0.1335604 -0.023804022 0.022022195 -0.08657666 -0.06728417 -0.057536624 -0.12432014 0.099355265 -0.08938543 -0.12233353 0.04793775 0.13377331 0.097733766 -0.023871673 -0.08418064 0.055793412 0.07562047 -0.12540154 -0.014888766 -0.009694057 0.0108110905 0.1397589 0.004073208 0.035044573 -0.15148073 -0.07993404 -0.017081369 0.0054313047 -0.015364559 0.011430752 -0.007646927 -0.06519371 -0.051724523 -0.09971409 0.12385695 0.009663882 -0.061035477 -0.024170363 -0.006898814 -0.026676198 -0.0012854525 0.06617399 -0.09988691 0.04705286 0.043873332 0.16662034 -0.10523622 0.07510696 -0.026901094 -0.0596529 0.24203308 -0.0009248109 -0.016082961 -0.0660784 -0.023272647 0.08142856 -0.0074558705 -0.044517186 0.113846526 0.014145671 -0.11428459 0.18454805 -0.011982806 -0.07663014 -0.18204162 -0.04949183 0.09973966 0.022423513 0.13882686 -0.03616934 0.039362412
programs -0.07446196 -0.046614278 -0.08318033 0.09935032 -0.08303822 -0.15244459 -0.041217715 0.097130895 0.08960073 0.035698038 0.012612129 -0.23984556 -0.025531536 0.116492085 -0.059595525 0.049651533 0.024434676 0.016610645 -0.06929257 0.11627322 -0.0905056 0.06772948 0.066180624 0.07972359 -0.12814882 -0.12395302 0.048405137 -0.027661849 0.021931961 -0.07422596 0.10146057 -0.14162022 0.061815254 0.017335525 -0.04741239 0.07121506 0.029224576 -0.07339529 0.058921386 0.03994019 0.029441576 -0.12629306 -0.0462185 0.11181382 0.019823961 0.02196173 -0.02062412 -0.06731003 0.0767726 0.017152611 -0.058718927 -0.14679316 0.11361483 0.045920614 0.19921567 -0.093003765 -0.143917 -0.0987658 -0.13519982 -0.22854988 0.18200353 0.0872666 -0.021727208 0.09781656 -0.12273826 0.0218159 -0.09981937 0.08487604 0.08175603 0.08084561 0.014535376 0.069049686 0.0017528536 -0.12395811 -0.029662034 0.06109851 -0.00853067 0.017078621 -0.030257583 0.17165181 0.015272566 -0.08087149 -0.010597746 -0.0586258 0.0718131 0.12017234 0.02943328 0.018112043 -0.034213208 -0.19189242 -0.061703574 0.05433356 -0.037907526 -0.16222042 -0.032535873 0.02243337 0.051301498 -0.11095495 -0.15701284 -0.03442597 -0.042850442 0.076884344 -0.21437177 0.054786425 0.081708826 0.010205405 -0.009540864 0.0055510844 0.1810183 -0.12065574 0.058438674 0.059333004 0.094302915 0.012941279 0.06434317 0.014888142 0.1648373 0.06563658 0.077147424 0.07001401 0.015213471 0.010629176 0.051106486 -0.07903638 -0.14206375 0.021330474 0.11106873 -0.028089534 -0.0108793955 0.06302732 0.0646276 -0.16133133 0.08966589 -0.06577829 0.001900598 -0.037502315 -0.11531909 0.044164818 0.11869716 -0.076877974 0.09133226 -0.08190274 0.020371567 0.028091079 0.11423092 0.10598986 -0.009676289 0.064430416 -0.026462495 -0.07180038 -0.02595998 0.0783998 -0.076368704 0.010504892 -0.057620406 0.030784993 0.068469875 0.07939962 0.05955941 0.023375526 -0.029628508 -0.15156971 -0.07473406 0.08765115 0.14881374 -0.021063296 -0.01801455 -0.05582841 0.08189321 -0.06716237 0.0656828 0.08059799 0.08849522 -0.2276405 0.17902833 -0.08561575 -0.06305668 0.0059101186 0.038309503 0.025423244 -0.035299152 -0.058004774 -0.07021212 -0.114671774 -0.110109225 -0.00586414 0.0622409 0.03959343 0.115008235 0.024990225 0.11893296 0.23643252 -0.16436304 -0.0371836 -0.017923288 -0.066721566 0.12327673 0.1672152 -0.03246717 -0.10482567
direct 0.020190177 -0.026527373 -0.07010339 0.029644286 0.15929164 -0.01373374 0.017338173 0.090057716 0.009323662 -0.006633628 0.034446362 0.02493201 0.102552384 -0.055181142 -0.03178761 -0.07586766 0.059217986 -0.019886177 -0.09462279 -0.001221827 -0.0033200867 -0.0614485 -0.1387186 0.032574665 -0.02810804 0.019707102 0.06852962 -0.03388189 0.07220687 0.08297697 0.07178473 0.014711677 -0.06243915 0.025525747 -0.06497616 0.00470816 0.034780405 0.041667085 -0.0018650315 0.0770424 -0.045944165 0.10738649 -0.07763078 0.0011290106 0.17063044 -0.021886501 -0.012377333 -0.03863381 -0.052717395 0.013395341 0.11522596 0.016150521 -0.100246206 0.061544657 -0.016932815 -0.020124976 -0.06608987 0.038585838 -0.008713877 0.02188416 0.036126092 0.03809203 0.13715719 0.029418005 0.07625635 -0.038097546 -0.040671565 0.016821511 0.052910797 0.019764863 -0.048293307 0.07768412 -0.048578877 -0.085521854 -0.016904734 -0.014885486 0.012078477 -0.021179859 0.020673139 -0.037911367 0.19567947 0.029818144 0.039413907 -0.02400334 0.027754929 -0.038266648 -0.0022933695 0.093730845 -0.072931185 -0.022833878 -0.067745544 -0.06627438 -0.05153539 0.019387284 0.008380959 0.05481489 0.15864968 -0.033004668 0.00018120151 0.036444437 -0.14505999 0.018244388 -0.00816327 0.03897903 0.08818042 -0.06166001 -0.023800125 0.04676784 -0.07315914 0.054713782 0.040819053 0.029445186 0.020450749 -0.022826344 -0.011460349 0.15706073 0.019501893 0.12129276 0.11675437 0.13885386 -0.058644097 -0.04999992 0.025368426 0.018234065 0.0038765138 -0.028943656 -0.055555753 -0.054922648 -0.11667231 -0.045204327 -0.02703243 -0.043304354 -0.044421464 0.09970478 0.036704592 0.17152052 0.084844686 -0.10646912 -0.03497058 0.05233176 -0.11203933 0.13992284 -0.083889484 0.06528661 0.042492308 0.115554124 0.046330485 -0.07867909 0.027892862 0.003535902 0.15380274 0.15430437 0.049107373 0.10378274 -0.033676382 -0.19301632 0.0038881628 0.04230966 0.0076531284 0.051354453 -0.1139014 0.08469173 0.0047359793 -0.022546468 0.038524605 0.036780182 0.09642013 -0.040626854 -0.039289854 -0.069869615 -0.084690936 -0.10475629 0.036643263 0.038615584 0.009946825 -0.04375786 -0.04036541 -0.08875842 0.004243999 0.09431939 -0.062222533 0.017087048 0.06698969 0.020952305 -0.034552347 0.032373723 0.16419402 -0.007141601 0.06596158 0.09129278 -0.0017278992 -0.12942189 0.028023077 -0.1303256 -0.012045719 0.038684152 0.068998076 0.061412014 0.0011834023 -0.022695817
processes. -0.061919317 0.00562976 0.012327875 0.033987615 -0.09426478 -0.11555449 0.018261904 0.005399451 -0.026873425 -0.024383033 0.024544172 0.04869658 -0.019387545 0.025307773 0.026067035 0.005010005 -0.033158623 0.1499112 -0.05197412 0.035085246 0.07065774 -0.0032345108 -0.008617427 0.019750403 -0.031361368 -0.12789701 -0.03831818 0.09261714 0.06765098 -0.009284664 -0.07077147 0.054849505 0.06476443 0.036592465 -0.034723077 -0.1349212 0.05208467 -0.013991297 -0.082222804 -0.018425656 -0.077936195 0.05675994 -0.10366689 -0.007881654 -0.050064906 0.03837907 0.04659983 0.0686328 0.023662869 0.039930437 0.0040635266 0.10215561 -0.0071654487 0.0635624 -0.038422674 0.013972145 0.043907184 0.06519241 -0.066954516 0.032240584 0.05288359 0.16917865 -0.042056467 -0.08621903 0.0876811 -0.046064198 -0.0510852 -0.01165841 0.10493746 -0.101635925 -0.013602025 -0.12212649 -0.06057878 -0.052129813 0.01452919 -0.02606574 0.06976563 0.23682919 -0.0061741984 0.11496133 -0.0043023285 -0.15773997 0.050216243 -0.109516114 -0.03559846 0.063897714 0.020443795 -0.06863676 -0.09776238 -0.11431833 -0.078447744 0.046167612 0.14481847 0.074001215 0.023320334 0.07000951 -0.011464928 -0.08119964 0.15819743 0.086925276 -0.115512095 -0.05873303 -0.0413338 0.10710981 -0.11361359 0.10587185 0.058042914 0.005327955 0.038597107 0.13843602 0.03676132 -0.013041701 -0.029025689 -0.01937707 -0.061699804 0.10410144 0.080840446 -0.0051666875 -0.101145096 -0.0005500633 0.04507969 -0.06636178 -0.009543463 0.06844302 0.044391166 0.021189746 0.015044676 0.052577894 -0.034576114 -0.022776287 -0.015212148 -0.0060530636 0.008293802 0.09733182 -0.05290471 0.06271132 -0.038035307 -0.041343223 -0.017773183 0.13032244 -0.12728035 0.10577581 0.08357245 -0.0042823204 -0.021252157 -0.004779963 -0.009005153 -0.0036583624 -0.029292602 0.04185921 0.03339763 0.005598795 -0.03613565 -0.03578573 -0.21898513 -0.0038663964 0.039000645 -0.036356278 -0.058790684 -0.017352208 -0.05264795 -0.08470029 -0.014727817 0.06454492 -0.039372396 -0.0788243 -0.14498569 -0.07228017 -0.069890566 0.07051783 0.051992923 -0.11815845 0.07153021 -0.03880851 -0.038609523 -0.06534992 0.06381603 -0.05942737 -0.012829295 0.041285366 -0.10575979 -0.027296385 0.10890822 -0.07852612 0.016597128 -0.14110559 0.09481317 0.0539584 0.08009809 0.006335466 0.0010175402 0.0912728 -0.0656874 0.046533912 -0.0655209 -0.0054203807 0.01343357 0.011550205 -0.06271137 -0.04733913
