50 200
UNK -0.0005995268 -0.0009190205 -0.0013070273 -0.00050780247 0.0005138356 0.0018089404 -0.0015234712 -0.0022614188 -0.00077376096 0.0018763049 -0.0011821344 -0.0006909892 -0.00096281676 0.0009649489 0.00089792185 0.0014279331 -0.0008060023 -0.0018774541 0.0022813617 0.00072052795 -0.0019528553 -0.0018714434 0.0014886148 -5.9453538e-05 0.0016585574 0.0009296411 0.00014101062 0.0021881713 0.0019729338 0.0009862473 0.0012603556 0.0007861983 0.0022457745 0.0016702423 -0.00052248826 0.0013807144 0.0021344502 0.0012426281 0.0014990508 -0.0018172893 -0.0002083329 -0.0008332267 -0.00052690296 -0.0021505465 -0.0004773494 0.0017737295 -0.0009208956 0.0012513255 -0.0008999052 0.001694777 -0.002116794 0.002181503 0.0006375939 -0.0016626664 0.001557501 -0.0019519799 0.0020643128 -0.0007370487 0.00044638268 0.0023249248 0.0020606597 -0.0015910894 -0.0023146698 0.0008143168 0.00069340365 0.002353982 0.0020057405 -0.0017979445 -0.000213322 -0.00024185842 0.0016612606 -0.0014352008 0.0008891057 -0.0024422966 -0.0009930393 -0.001648896 0.0013212776 0.000108998735 -0.001347742 -0.0013565815 -0.0005713514 -0.00088631304 -0.0017894056 -0.0017434007 -3.6288984e-05 6.5864064e-05 -0.0011377233 0.00078291446 0.0024654754 -0.0008285454 -0.0012024846 -0.0023956683 0.00035327487 0.00065816334 0.0016591544 0.0009732868 0.0008194223 -0.0019495952 0.0011108848 -0.0020583952 0.001477907 0.00017159409 0.0012152451 -0.0024726486 -0.0022917592 0.00068854215 -0.0017286291 -0.0015661519 -0.0019684487 -0.0009444022 0.0005888841 -0.0015652367 0.0021062316 -0.0016831949 0.0018514837 0.0007126513 -0.00058152224 -1.7955899e-06 -0.0022656056 -0.0015861389 0.0022846372 0.00038522994 0.0018527145 -0.0020020807 -0.0022405933 0.00075551914 0.0019766758 -0.0021351792 0.0015774863 0.0011673751 0.0016721687 0.0014163367 -0.0024483036 0.0004782749 0.0009320697 -0.0009829679 -0.0010786452 -0.00036176853 -0.0012041732 -0.0022858812 0.0015259143 0.002300453 -0.0023691426 -0.00022691465 0.0020514997 -0.000989806 0.00021296646 0.0021807044 -0.0012853574 -0.0009967416 -0.00092831044 -0.0016628819 -0.0009041026 -6.8246154e-05 0.0024197856 0.00024364004 -0.0018857929 0.00067877653 -0.00019398215 -0.0012787806 0.0019392269 -0.0009060594 -0.00054617994 0.0015068301 0.0018348466 -0.0016343128 0.0007078708 0.00135676 -0.0023742397 0.0020675063 -0.0021582525 -0.0022513454 -0.001407471 -0.00061763765 -0.002412054 -0.0018235787 -0.0021323063 -0.0006489289 -0.0020885067 0.00023337104 -0.0014897633 0.0023034853 -0.001996875 0.001955497 -0.0011644545 -0.001099674 0.0017685648 0.0017951997 0.002092124 -0.0015005934 -0.0008903337 0.00066092703 -0.0018163645 0.0022557639 4.3437118e-05 0.0013287428 0.0011683307 0.0018650428 -0.002366737 0.000975335
of 0.0012159806 -0.00039069494 -0.0017737746 -0.0019486966 -0.0010177931 -0.00011387025 0.001891478 -0.00022689113 0.00040366733 9.5941825e-05 -0.0013916707 -0.0017212825 0.0015763179 -0.00075218524 0.0012640315 0.0012156421 0.00036711548 0.0014398913 -0.001364235 0.0008232158 0.0009869516 0.0017681317 -0.0017393713 0.0023028995 -0.0009939516 0.0015262417 -0.0020654183 0.00071333675 -0.0005187013 0.001965297 -0.00034867995 -0.0011154946 0.00082208076 0.00073001254 -0.00054785016 0.0018276544 -0.00081820274 -0.00031834212 -0.00043719565 0.0014320663 -0.0016783113 0.0015635407 -0.0005082744 -0.0013680106 -0.0014683878 0.0024698838 0.0013917182 -0.0006832018 0.0016920562 0.0023685675 -0.002113678 -0.0018205557 -0.0017558602 0.002341433 -0.00047887745 0.00033311034 -0.00037638727 0.0008947917 0.001991196 -0.0020317142 0.00015663565 -0.0019236337 0.0016927905 -0.0013565951 0.0008422842 -0.0011670744 0.0003521475 -0.0005927476 0.0006730561 0.000103786355 -0.0016897371 0.00096541643 0.002054064 -0.0013993484 -0.0021896323 -0.0018177172 0.0012900638 -0.0014637735 -0.0014304221 0.00082607055 0.00034990464 -0.0021988903 0.0022261096 -0.00014622067 0.0015394171 -0.00016939663 0.001235472 0.0020987568 -0.0014157504 -0.0005897307 -0.00012047589 0.0019652094 -0.0023647614 0.0014954242 0.0009802475 -0.0021327317 -0.0024595784 9.386381e-05 -0.0018424484 0.002053745 -0.0023946734 -0.0007733047 -0.000180454 0.0021750415 -0.0018066266 0.00063382834 0.0015086653 -0.002333882 0.0024109809 0.0011923616 -0.0024364656 0.0016689529 0.0017506345 -0.002459709 0.00021492201 -0.00041646976 -0.0024793055 -0.0023588582 -0.00069649937 -0.0006478387 -0.002431774 0.00046129082 -0.0016103291 -0.001275216 1.015747e-05 0.002413415 0.0013075001 -0.0022972939 0.00069730775 0.00091205235 -0.00081804034 0.0014039376 -0.00039365073 -0.0010143748 -0.00045896298 -0.00082182046 0.0015335721 -0.00069657806 -0.0017954117 0.00033183582 0.0006076193 0.0023285337 -0.0022051814 -0.00013198494 0.0022915113 -0.0010448184 0.0021893876 -0.0006437594 -0.0020752018 0.0022256612 0.0016786847 0.0015850309 0.00039827172 0.00017824117 0.0019874596 -0.0023539162 0.0005176959 -0.001817291 -0.0020035466 -0.0004473778 0.0010684191 0.0012471247 -0.0004423326 -0.0006929755 0.0017705197 0.00040824898 0.0007415905 -0.0014542582 0.0022398867 -0.0011029139 -6.85174e-06 -3.5563018e-05 -0.0024656048 0.0023085847 0.0007108452 -0.00060162065 -0.002425825 -0.00083668286 0.0015851776 -0.00044461992 -0.0015112855 0.0011772378 -0.0003903699 -0.0017211724 0.0017104857 -0.0023477038 -0.00038795522 -0.0024765895 0.0019043088 -0.0010826337 1.717871e-05 0.00022758031 0.0012596867 -0.0015733424 0.00082338904 0.000291168 -0.0010592114 -0.0011095878 0.001106814 0.0003348149
a -0.0003364489 3.868132e-05 -0.0007633697 -0.0020803495 0.0015805652 -0.0016477564 0.00014181528 0.0017493991 -0.0021480746 -0.0012828215 0.0011160797 0.0003557501 -0.0020129313 0.0021779127 0.0008753722 -0.0014083084 -0.00040836446 -6.7775836e-05 -0.0016069252 0.001883524 0.0010287631 0.0011634326 -0.0018563312 -0.0022592368 -0.000642161 -0.0001300734 0.001138038 -0.0020651843 0.0012308925 -0.0016301718 -0.0022215003 0.0018723281 0.0020068847 0.0016159476 -0.0021326714 0.002180281 -0.00064165797 0.0020545232 0.0009894725 -0.0019978993 -0.0005582076 -0.0006692776 -0.0017698642 -0.0016816324 0.001617338 0.0021567312 0.0014440445 -0.00062556856 0.0018027881 0.0020117625 -0.0001624981 -0.001176269 -0.00047326158 0.0018694694 -0.0007854471 -0.0010161427 0.0014297948 -0.0018644091 -0.00052920333 -0.0017208251 0.0002010127 -0.00043329713 0.001066809 0.0008105836 -0.0004030373 -0.0020807378 0.0023001386 -0.0011477747 0.0020254175 0.0021125106 0.0010352805 -0.0016203078 -0.000435211 -0.0017809417 -0.0024198452 0.000694687 0.002147283 -0.0020964905 0.0014574239 0.0012190158 -0.00035220245 -9.5509924e-05 0.00091400766 -0.0020217386 0.0019484661 0.0010895089 -0.0017600979 -0.002279812 0.0008068965 0.0011011104 -0.001213901 0.0020635226 -0.0013710347 -0.00025237468 7.561385e-05 0.00013049669 -0.0011290428 0.001115506 -6.39651e-05 -0.0004875057 -0.0016225344 0.0019490072 0.0022514197 0.0024310234 -0.0021247203 -0.002313004 0.002426444 -0.0021831654 -0.0013138268 0.001376552 -0.0014926142 0.0015090974 0.0005913682 0.0014043278 -0.0006398135 8.6121494e-05 -0.0022013623 -0.0022772544 -0.001248737 0.001698968 -0.002107324 -4.1652936e-05 -0.0010405936 0.0021163127 -0.002317351 0.0007380515 0.0009498375 0.00026600691 0.0018971674 0.00047143875 -0.000102091115 -0.00020817202 -0.0011785942 -0.0005957815 -0.0024209379 0.001999312 -0.0007359246 -0.0008143374 0.00089499215 0.0015458325 -6.653089e-05 -0.0024553807 -0.0021738422 -0.0016206419 0.002143242 0.00053686346 -0.0022340023 -0.00046054344 0.00017595105 -0.0012211826 -0.00010301499 -0.0015116814 -0.0011724964 -0.0004968217 -0.0023415973 0.00028800964 -0.0012660649 -0.001077525 0.00097265956 0.0007227715 -0.0020074886 0.0010701406 4.6722125e-06 -0.0019100406 0.0009158107 -0.00017823372 0.0006419311 0.0018440052 -0.00062176946 0.0010382012 -0.0017561525 -0.0016347002 -0.0022252249 0.0022126478 0.0006957229 0.0022980873 0.0010321515 0.0017139423 -0.0019407389 -0.0014134577 0.0010469337 -0.0005456442 -0.00031699915 -0.00084202376 -0.0014354459 -0.00058171444 6.1766244e-05 0.0006201309 -0.0009496644 -0.0012613162 0.0008971861 -0.0024357117 0.002103339 0.0022688513 0.00027751038 0.0019542198 0.0014668223 -0.0017830962 -0.0005630532 0.0006774501
the 0.0015288247 -0.0010698738 0.0015266258 0.0017893496 -0.0018028524 0.0019836323 -0.0015538427 -0.0024429474 0.0012973028 0.002241828 -0.0022449824 0.0011954373 -0.00094695005 -0.0009472886 0.0017158897 -0.00054645934 0.0005323824 0.00032932824 -0.00026142527 -0.0008593935 -0.0006323677 -0.00019548065 -0.0015586624 -0.0023271798 -0.0019818097 -0.00072816433 -0.0009007668 -0.0014346489 -0.002103566 0.0006667336 -0.0009627822 -0.0024263375 -0.0016326339 -0.0010072622 0.0007559506 0.0011860931 -0.0013861608 -0.0002632744 3.1890813e-06 -0.0012606356 -0.0024700984 -0.0008349881 -0.0016483227 -0.001369856 -0.0016835046 0.0014403532 -0.0010418287 0.00012146402 0.0016248534 -0.00075929763 0.001757876 0.00045130844 0.0005680695 -0.00028727227 0.001103949 -0.001081835 -0.0013894521 0.0011785796 0.00081817387 -0.0021006442 -0.0009059614 0.00077526923 0.0022298135 0.00046956656 0.0004840491 -0.0007293192 0.0024643196 0.0023155198 0.0022340715 0.0024581281 -0.0006236979 -0.0015520775 -0.0015164759 -0.0014731538 -0.00088841165 0.0018762453 0.00019382709 -0.0021453076 0.0019650944 0.0019826521 -7.9647405e-05 -0.0015082943 0.0019781408 -0.0022287425 0.00084230304 -0.0021829486 -0.0007214397 0.002128644 -0.0010459137 0.0012995582 0.0016839779 0.0009948486 -0.00081455463 0.001525843 -0.0007674268 0.0024444978 0.0013583144 -0.0006642181 -0.0021938386 -0.0015931835 0.0010202664 0.0018817964 -0.00013179868 0.0006585473 -0.0012397638 0.0009026886 -0.00065752596 0.0014797659 -0.0003699984 -0.0003563722 -0.0017102927 -0.0016042525 -0.0005732477 0.0020163152 -0.0008448303 0.00061488175 -0.0024633252 -0.00027417624 -0.0020656777 -0.0024597256 0.0001733033 0.0018373453 0.0009081771 -0.00097164896 -0.00032012607 0.00035887933 0.0020769308 0.0013463304 0.00076799747 -0.0020415229 0.0016487497 0.0009595915 0.0017627166 0.00047995802 -0.00042046956 0.0007059062 0.0019590263 -0.0016195329 -0.0015601018 -0.00040003983 0.0017097639 -0.0014293087 0.002095621 0.00038808072 -0.00066232914 0.00024665706 -0.0021183663 -0.00024889968 -3.5834964e-05 0.0023336788 -0.0015519478 0.002326352 -0.0023464495 -0.0020520433 0.0013043433 0.0014935047 0.001161597 -0.0014970156 -0.0007379254 0.0016043256 0.0014534597 0.0010331394 0.0023122383 0.000701037 0.00055637 -0.0024998274 -0.00042706216 0.00066386256 -0.0013000824 0.0008464146 0.0020251237 -0.0018835198 -0.002253293 -0.0010285213 -0.0009056139 -0.00090603076 0.0011914328 -0.00010544923 0.00016850955 1.358171e-05 0.00045187958 -0.0021808508 0.0014924039 0.0013979075 0.0017419169 -0.00197824 0.0022578351 0.0023224577 -0.00026529818 0.0015080357 0.00075924164 5.8322446e-05 0.0021967012 -0.001107913 -0.00042181788 -0.0012939005 -0.0018458271 -0.0009403479 -0.0015597376 -0.00063815806
are 0.00024208194 -0.0008470493 0.00020523602 -0.001645382 0.0015100464 0.0009842939 -0.0018537724 0.0021570995 0.0008262531 0.00034158607 -0.0021128145 0.00070075504 -0.001062088 -0.0015333798 0.0004304347 -0.00015163142 -0.00090245006 0.00019354187 -0.0005602336 -0.0015062767 0.00053742086 0.00082937744 0.0008925181 -0.002126464 0.002142374 0.001600618 -0.001881852 -0.0018886179 -0.00036291848 -0.0005432796 -0.00045667076 0.0010656575 -0.0003765833 -0.00033511757 0.0016759639 0.0023895148 -0.001530657 -0.0022805412 0.0018545929 0.0015251413 -0.001331039 -0.0004708909 0.0001971894 0.002338226 0.0015512435 -0.001965428 0.0006322884 0.0007817792 -0.0006845 -0.00052803033 0.0019433387 0.0017310763 -0.00044815475 0.00017394265 -0.0023217998 0.0010499877 -8.4841624e-05 -0.0009198567 -0.00037577748 -0.0003417402 0.0011609988 9.489129e-05 -0.00043000933 0.0005903032 -0.0015009859 -0.00094983994 -0.0017618551 0.0011256703 0.0007928696 0.00060946844 0.0008248782 0.00052461657 0.0004729703 -0.00039042113 0.000464709 9.969296e-05 6.8035442e-06 -0.0013998669 0.0024933429 -0.0023462963 0.00013813493 0.00018784218 -0.0012916329 -0.0010992321 -0.00010601361 -0.0019751308 5.280017e-05 0.0019014277 -0.0016643998 -0.0010987956 0.0006954884 -0.0014420795 -0.0022625725 0.0022716597 -0.0020152726 0.00038485834 -0.0002022686 -0.0020571388 0.00078700995 0.0020117955 -0.0005006776 -0.001166347 0.0021598004 0.0020928667 -0.0007251218 1.6824342e-05 0.0011814539 0.0005659356 -0.00079875113 -6.243936e-05 0.00084722135 -0.000895667 0.0009573463 -0.0010074133 -0.0021499153 -5.459762e-05 -0.0016953989 -0.0023254338 0.00035667513 -6.337557e-05 0.0017944579 0.00202956 0.0021009021 0.0022005136 0.0009298858 -0.001908357 -0.002047514 -0.0008056649 0.0019282303 -3.2139942e-05 0.0010440778 0.0022903834 -0.0005741122 0.00051394105 -0.0012617138 0.0008103219 -0.0022002098 -2.3804605e-05 0.0010186681 -0.0014595323 0.002047453 3.8592145e-05 -0.0017532852 0.000108727254 0.0018631713 -0.00040838262 -0.00012999377 0.00076714694 0.0014422224 0.0011159328 1.9941712e-05 -0.0022559336 -0.001720482 -0.0012180003 -0.002085158 -0.0013342819 -0.0020187353 0.00065951445 -0.0017482403 0.0008547115 0.0017210348 0.0002511933 0.0020969813 -0.00087556185 -0.0020177457 0.0007638922 0.00068885856 0.0005318725 0.00085550523 0.002475421 -0.0013763523 0.00042885682 0.0020414 -0.00075496675 -0.002050334 -0.000688734 0.0012265118 0.0021549417 0.0015879506 -0.001017305 0.0016971165 0.00042146537 -0.0016257337 -0.0011745101 -0.0022664831 0.0021299995 -0.0013456624 0.0006517351 0.0023894287 -0.0013607594 0.0018173708 -0.0002840988 0.0017202487 0.0003322533 0.0006513428 0.0013726284 -0.00019735983 -0.0013203409 0.00072864 0.001693354
to -0.027891273 -0.0086036865 0.041460745 0.09809183 -0.12950219 -0.03876526 -0.018230986 0.009285636 0.0154220285 0.072669305 0.071612015 -0.0074685663 0.011075323 0.044915907 0.018119276 0.020509804 0.03224299 0.0068092323 0.041047636 -0.039468892 -0.048171107 0.021082357 -0.04116885 -0.0421784 -0.1265115 0.008791763 0.0100921495 -0.03273821 -0.10260869 -0.02424332 0.057171613 0.0032437148 0.084979795 0.05134538 -0.037019826 -0.0513583 -0.06747699 -0.030671824 0.02322505 -0.019650908 -0.090612724 -0.032592364 -0.013501322 0.009075745 -0.020511774 -0.048278898 -0.04050245 -0.0909908 0.068859115 -0.02380588 -0.012478199 0.01137887 0.019890048 0.036353532 -0.022743592 0.011621646 -0.03106064 0.11412362 -0.03904052 -0.01801767 0.048874345 -0.007822347 0.06575715 -0.13869761 -0.10211068 -0.019136412 0.002164806 0.043627873 -0.008152815 -0.055186864 0.03649025 0.061187103 -0.07022094 -0.07087499 0.0041340864 -0.09231762 0.020576373 0.015712813 -0.028443733 0.029147439 0.0014599363 -0.0788402 -0.06315785 -0.056004424 -0.02551718 -0.06730093 0.036399543 -0.016114516 -0.042568114 0.034142707 -0.005475543 0.03357066 0.010757795 0.07411161 -0.034320496 -0.013992369 -0.011992599 0.11180342 -0.06058427 -0.005504055 -0.0044308435 0.018090503 -0.0033201834 0.027100585 0.054644387 0.10878948 -0.023499666 -0.011367876 -0.008103037 0.059232872 -0.013284171 -0.057150353 -0.01608125 -0.0038251847 0.031373184 -0.1479114 0.018050497 -0.029311076 -0.03547863 -0.0026110124 -0.00938581 -0.01457181 -0.07710061 -0.09415846 0.014852735 0.028408665 0.079048574 0.022898749 0.0068077403 0.015682807 0.020628734 0.031002244 -0.019881671 0.07319223 0.09530901 -0.061451595 0.07247725 -0.026084593 -0.05316783 -0.052656975 -0.014459439 0.06437803 -0.070034854 0.047933877 0.07629234 0.10871595 0.025565512 -0.12293469 -0.05120962 0.0064430763 -0.10163667 -0.019659596 0.01866868 0.13189265 -0.016492032 0.0073528583 0.07426095 0.021443339 0.043843124 0.0160149 -0.025412343 0.038323037 -0.006219722 0.09522109 0.057005417 0.044900235 0.017289793 -0.02915977 -0.023225997 0.046068553 -0.03345881 0.036692247 -0.07286528 0.013747493 -0.11738422 0.11150119 -0.0028308455 0.036491454 -0.043965805 0.015518692 -0.0006548565 0.0021417106 0.009158859 -0.012324558 -0.0057909046 -0.08527948 -0.04309384 -0.07559898 -0.019584768 0.019253526 -0.09431837 -0.021777367 0.09478265 0.04587137 0.011255674 0.14684819 -0.0070786877 -0.06961746 0.041937098 -0.10796939
processes 0.000366332 0.0024262927 -0.0013476595 -0.0020776386 -0.0019191622 0.0023068693 0.0021411744 0.0005216736 -9.69863e-05 -0.0010865747 0.00116954 0.00076078763 0.00048116478 8.152868e-05 0.0004347593 -0.0019524749 0.000927486 0.0011384382 0.0018983618 -0.0014624902 -0.00021198485 -0.0012351212 0.000528645 -0.00023430237 0.00017366232 0.0013344889 0.0023669046 -0.0006357789 -0.001816856 -0.0002610553 -0.0008628154 -0.0013943863 -8.527888e-06 -0.0010594672 -0.0010876732 0.0008451196 -0.0011882723 0.00152206 -0.0007757961 -0.001966613 -0.0005587897 0.00073084864 -0.0021852714 -0.0009969326 -0.00024492946 -0.0008067498 0.0017113565 0.0024572704 -0.0009999266 -0.0009885618 -0.00013687322 -0.0022854172 -0.0011953306 -0.00040350412 5.0532864e-05 -0.0007560393 0.00094805844 0.0013317096 0.0011037032 6.113923e-05 0.00040313834 -0.0013562965 -0.001172704 0.0018365136 -0.0005108819 -0.0021557093 0.0008140418 0.001632181 0.0023396118 0.002208454 -0.0022983418 -0.00035266182 0.0016368041 0.0020315447 0.00040742545 -0.0013830083 0.0011167706 0.0002014148 -1.9568251e-05 -0.0022663414 0.0008550328 -0.0009131819 0.0010612041 0.0018464592 -0.0011072293 -0.0007040006 0.00024378835 -0.0014961576 -0.0004137666 -0.0002950204 0.0018528155 -0.0013782665 0.00200718 0.0013049191 0.00032742182 0.0020518126 -0.0013403434 0.00063081714 -0.00038403994 0.00043591415 -0.0019092619 -0.0019926033 -0.00085882866 0.0018323795 -0.0005103331 -0.0012001011 -0.0015418613 0.0006990633 7.4850395e-05 -0.0016396448 8.007046e-07 0.0014628656 0.0009320625 -0.0002944672 -0.002170023 0.0017477358 -0.0024468112 0.0023339791 -0.002176399 0.0008190565 -0.0003644901 -0.0004993314 0.0011964047 0.0017883703 0.00076971063 0.0015854873 0.0014072396 0.0002861172 0.0014562849 -0.0014496291 -0.0022100478 0.0008518293 -0.0014072951 0.0009892711 0.0012471122 0.0021234802 0.0012560161 0.0002566171 0.00019250275 -0.0018428972 -0.002387301 0.001842278 -0.00015764241 -0.0015211132 0.00035809446 -0.0016425401 -0.0021649732 -0.00042490335 -0.00071565155 -0.001036019 0.0014153407 0.0017696251 0.001584508 0.0019594226 0.00029050163 -0.0012733992 0.0017924663 0.0014326493 0.0020476142 0.0014592363 0.0007309008 -0.0019594335 -0.00035428326 0.0018033809 -0.0024540077 -0.0002783395 -0.0013769015 -0.002417982 -0.00094054523 -0.0018322518 0.0010153023 -0.00037302915 0.0009994956 -0.0013042503 -0.0018352985 -0.0019451571 0.0018933597 -0.0020158098 0.0007844651 0.0014163977 -0.0013456347 0.002191469 0.00017080246 0.0003046072 -0.0010540709 0.000203348 0.0016493578 -0.0016741791 0.00064840494 0.000901432 0.0022702068 0.0015996806 -0.0020012246 6.1243773e-06 0.002013735 0.0016100127 0.0018125572 0.0012595158 0.00012650271 -0.0014269134
abstract -0.0011064798 0.0015612748 -0.0010687187 -0.0017161735 0.001923576 -0.002064841 0.0006500145 0.0021919971 -0.0016667875 0.001220919 -0.001928637 -0.0013977226 0.0013254287 -0.0010138059 0.00029308326 0.0022977255 -0.0009673089 0.0010604921 0.0010538336 0.0017902269 -0.0018598961 -0.0006856796 -0.0016890037 -0.0010035562 0.001414163 -0.00039888802 0.0021475637 0.0024189572 0.001966713 0.0009918797 -0.0023651682 0.00035280967 -0.0022891206 -0.001457515 -0.0005696806 0.00097591965 -0.0022029956 0.00058744964 0.0016111336 -0.0017084592 -0.0007626349 7.268158e-05 -0.00061409886 -0.0015008998 -0.0019654536 0.00047026668 0.0022300533 0.00025281706 -0.00047010905 -0.0011680952 -0.0005181518 -0.0010844078 0.0020776168 0.0015448825 0.0007290805 0.0022673546 0.00052143005 0.001915562 -0.0014288854 -0.00224799 0.0011840013 0.001584156 0.0010375937 -8.888636e-05 0.002222557 -0.0021613447 -0.00038942718 0.00026728027 0.00029263226 0.002337119 -0.00034062262 0.0018238178 -0.0002543449 -0.0010639313 0.0020196782 -0.00032134354 -0.002228307 -0.0024105958 -0.0013621339 -0.000731093 0.0021554069 0.002025853 0.002138161 -0.00121033 0.0021110745 -0.0010852814 2.2845808e-05 -0.0005272969 -0.0012700558 -0.0016908082 0.00070548034 0.0018622829 0.0008670408 0.00061053806 0.002453025 -0.0001338711 0.00035670423 0.001973431 -0.00012755534 0.0012392306 -0.0005255472 0.0016245092 0.0008354443 0.001854619 0.0021030037 0.0013646898 -0.0013069978 -0.00024828082 -0.0015030059 -5.8657723e-05 0.00024995627 0.00019785552 0.00040281145 -0.0008915055 -0.0017399089 0.0014960975 -0.0017969245 -0.00054615736 -0.002255923 -0.0021772524 -0.0018594572 -0.0011767831 -0.00071866123 -0.0013921269 0.0004946145 0.0017393185 -0.0024556266 0.00020559202 0.0023975582 -0.0019232553 0.0018331255 -0.00012197625 -0.0015218547 -0.00076397357 -0.0014884361 -0.0003191661 -0.0023824277 0.00050715776 -0.0019426676 -0.0002943969 -0.0004563469 0.0005243402 -0.00085857126 -0.0021145754 -0.0021674111 0.0017747493 -0.0013002058 0.00022152485 0.00031922827 -0.0012197256 0.0017706356 -0.0019513764 -0.0024618339 -0.0020771022 0.0012269234 -0.0022853988 -0.0016254464 -0.0024004052 0.00081696594 0.0015537022 -0.00057617214 -0.0013773415 4.132744e-05 -0.0012041884 -0.0013928228 0.0023461408 -0.0010593861 0.0006159607 -0.000105216866 -0.002361545 0.00032589678 0.000990357 -0.0020622164 0.0014841044 0.0013947093 0.0015995647 0.0021351832 -0.0024308355 -0.0013068542 0.00081913196 0.0016911998 0.0016680937 -0.0018464234 0.0006487374 -0.0003412012 -0.00016405736 0.0010339138 -0.0007392084 -1.8214341e-05 -0.0005383205 0.002179591 -0.0011212673 -0.001898761 -0.0009068176 -0.0012391821 0.00015639956 -0.0005512178 -0.0016891366 -0.0012596569 -0.0012331378
called 0.00065741455 0.0007239226 -0.0019960292 -1.8117484e-05 0.0012309572 -0.0019770565 -0.0012898907 0.001386042 -2.3120083e-06 0.00074989395 0.0013740717 0.0023072604 0.0022578724 -0.0010722494 -0.00051560905 0.00024478347 0.0017645699 0.00064933836 0.000294436 0.0017937608 0.00012254808 0.0015018284 -0.002274945 -0.0005249637 -0.0024796491 0.0011877781 -0.0018170294 0.0004950152 -0.0012541377 0.0020631882 -0.00022146641 -0.0008829116 0.0018548602 0.0020941314 -0.002223635 -0.0013815537 -0.0015178323 0.0022507156 -0.0014040744 -0.0020886818 -4.711328e-05 0.0014652805 0.0020100991 0.0012990346 0.0009770258 0.00048229913 -0.000710623 0.0017434536 -0.0006187913 -0.00083853246 0.00243124 0.0015494558 -0.0016080674 0.0013675436 0.00036494085 -0.0007151866 -0.0012118259 9.937049e-05 -0.00028766366 0.0010092859 0.0022420837 0.00043351226 -0.00045448425 -0.0005186212 -0.0012784722 -0.0024100228 0.0018256311 -0.00060847367 -0.0012077185 0.0005237288 0.00038887747 0.0012748751 0.0015519001 -0.001470507 -0.0022218113 0.00020793104 0.0018015564 0.0002623808 -0.0022775494 -0.0011881745 -0.0022190958 -0.00160034 0.00089939055 0.0024695066 0.0020880043 0.0022303122 0.00059972494 -0.0008653983 -0.00010408461 0.0023664748 0.0009252855 0.001868655 0.0024850275 0.0011065516 -0.0012054797 0.0018397225 0.00057061785 0.0005515227 0.00015645684 0.0016278448 -0.00045562466 0.0015651779 0.0023154644 0.002187334 0.0024947608 0.00076967455 -0.0015458413 -0.002416893 -0.00020482833 0.0013166817 -0.00045241066 -2.4678651e-05 0.0021067052 0.0014960514 -0.0023406008 0.0016895779 0.0024791025 0.0013718882 -0.00052400236 -0.001251367 -0.0018989551 0.0012498829 0.0023410898 -0.000551036 -0.0015033337 0.0018802602 -0.001558044 -0.00035975245 -0.0012184804 0.00068207714 -0.002136462 0.00052558817 -0.001335524 0.0009135597 0.00065739243 0.0009777662 -0.00070412783 -0.0006917494 0.00064616953 -0.00033832877 0.0019667852 0.0019332455 0.0011948028 0.00024298718 -0.00025110296 -0.0016765713 -0.001917777 0.00060695945 9.2279864e-05 -0.0012603533 -0.0006493697 -0.0011876356 0.0015092795 -0.00084919215 0.0010899978 0.0013666023 -0.002481659 -0.00037102052 0.0006828534 0.0020159977 0.00041983393 0.00092323544 -1.0825461e-05 0.0017061587 0.0021398445 0.0022061323 -0.0015049645 0.000770085 0.0006011019 -0.0015185296 -0.0024863195 0.0023738956 -0.0014085344 -0.00010671606 -0.0011935162 -0.0015155765 -0.0012228673 -0.0018579832 -0.00091536075 -0.0014376354 -0.0005642795 -0.002499587 -0.0011435025 0.00010237843 -0.00063699717 0.0022894382 -1.3007782e-05 0.0008774379 0.0005687352 0.0015847506 0.00060674245 -0.0013689088 0.00064426335 0.0018981779 0.0023323311 -0.0014884797 0.0010153549 0.0023961742 0.0009883908 0.0017893082
We 0.0017581675 -0.0007967502 0.0011467305 -0.002386436 -0.0010072192 0.0012783089 -0.0019155109 0.0022984743 -0.0006366145 0.0022512586 0.002223337 0.0010847414 0.00022206851 0.0006358945 -0.0010989853 -0.0011362556 0.001958564 -0.002023998 0.00076455926 0.00071488763 0.0010586863 -0.0004569695 -0.001389859 -0.00080147746 5.3884694e-05 0.0013444466 -0.00025891326 0.0017973199 0.0012678418 -0.0008955153 -0.0017114278 -0.00093064364 -0.00059152546 0.00089706806 -0.002163749 -0.0009150222 -0.00022168155 0.0019894652 -0.0022991255 0.0011192975 -0.0010958805 0.0019558356 0.0006485402 0.0017543696 -0.0019135263 0.0023606927 0.0014786813 0.002102565 0.0015751212 0.0022403714 7.359381e-05 -0.0005477029 0.0006934919 -0.0018454259 -0.00065829605 0.0019370555 0.0020874077 0.0013989746 0.00085094967 0.0015331744 0.0009392486 -0.0003047213 -0.00083954097 -0.0016126012 0.00023086043 0.0024283254 0.002084752 -0.0004950955 -0.00086857856 -0.0021100023 4.343409e-05 0.00082130334 -0.00081372703 -9.483984e-05 -0.002213489 0.001273196 -0.0023560738 9.572366e-05 -0.0018234303 0.0021869685 -0.002359515 0.00045329053 0.00026669586 -0.0017957892 -0.00053094444 0.0011548456 0.0016631237 0.0015804856 3.3206074e-05 0.00014576595 0.0022349292 -0.0021419062 0.0009822538 2.1136366e-05 0.0018627034 0.00057875924 0.001085636 -0.0007897946 0.0021644086 -0.0005131855 0.00021783239 -0.0003245012 0.002232615 -0.001964008 -0.00047146948 0.0003771165 -0.00037817447 0.0013636437 -0.001451099 -0.0009280583 -0.0006825933 0.0018884931 -0.0012063092 -0.0016194757 -0.0014357974 0.0023447163 0.0013430144 -9.7624725e-05 0.0019448223 0.0013575186 -0.0024904897 0.00065485854 0.00018130918 -0.0008263892 0.0014205347 -0.0015465692 0.0014015236 0.00018004607 0.0013487006 0.0016470761 -0.0010626679 6.431108e-05 -0.001111663 0.0001580671 0.0016286587 -0.0014760405 -0.0010690019 0.001051709 -0.000547215 -0.0002992486 0.0022779382 -0.0023706104 3.1641684e-07 -0.0007670984 -0.0013795295 -0.0005450677 0.0016480228 -0.00044958945 0.0019347463 -0.00018835603 -0.0023553711 0.0005507169 0.0024828664 0.0012428928 0.0015298529 -9.096926e-06 -0.002402751 -0.00026143016 -0.00017317687 0.00027731527 5.7721045e-06 -0.0024619708 -0.0010114795 -0.0018463659 -0.00050359475 -0.001670581 0.00038963044 -0.001018297 0.002427454 0.0016522966 0.0020362888 0.00011498458 -0.0004788607 0.00093637966 3.9719278e-05 -0.0022178902 -0.00026403274 0.0007441158 0.00043514022 -0.00173565 -0.0013569974 0.0019768183 -0.0009592107 0.0024121134 -0.0021811072 0.00092118536 -0.0020497744 0.00091281533 -0.0022871639 -0.002152074 0.0006596183 0.0020929328 0.0007621022 0.0024053878 0.00079361885 9.516277e-05 -0.0024101897 -0.0021559142 -0.0013904729 0.0024851207
about 0.0011363251 -0.0012023764 0.0018703565 0.0023582424 -0.0020521847 0.0006157956 0.00045051286 -0.0020446307 -0.0002918106 0.0017704908 -0.0013752368 0.0017849631 -0.00078496337 0.0024760393 0.0018415777 0.002469154 0.0023919954 -0.00090729387 0.00063408026 -0.0024420046 0.0024386905 0.0007829659 -0.0019995274 -0.0010743731 -0.00048031658 0.0002139986 0.00056578754 -0.00037762383 -0.0023391366 0.0011083409 0.00024689804 -0.0019486933 0.0013997054 0.0024163849 8.138665e-05 -0.0017044481 0.0003250998 0.0014748704 0.0007621888 0.00078788446 0.0014133081 0.0018581836 -0.0007769355 -0.00031598308 0.0014337935 0.0020447061 -0.00032954966 0.0011353623 0.0023281937 -0.0024396698 0.0020660665 0.0005682348 0.0006158578 -0.0011051007 -0.0018809742 -0.0009425365 -0.0012654501 0.0009416463 -0.0008234405 -0.0020883905 0.0023004534 0.00044856197 0.0021990235 -1.1882978e-05 -0.0006375315 0.0017998167 -0.0013257691 0.0011866149 -0.0006912196 0.00095617236 -0.000747076 0.000112988055 -0.0024751162 -0.0024080216 0.0023007994 0.0013139057 -0.0017985299 0.002116187 0.00047053117 0.00048828055 0.0006705201 -0.0011365544 -0.0024631494 0.0019498249 -0.0019947684 0.00038620736 0.0022379663 -1.4000107e-06 -0.0017670407 0.0022802963 -0.0022435552 0.0016833623 -0.00093680527 0.00014342577 0.00023988634 -0.00082841364 -0.0016834633 0.00050070696 0.0009667361 -0.0012328518 -0.002099964 0.0021805745 0.0017432072 0.0023494693 0.00044337125 0.0019375626 0.0006726743 -0.0011676445 -0.00036704773 0.0011548062 0.00093541946 -0.0021707236 0.0022929697 0.0018748827 0.001959009 0.0021012542 -0.0006175855 0.0011318217 -0.0016778104 0.002216685 -0.0010876486 -1.1923723e-05 -0.0018257073 -0.002025993 0.00061968854 -0.0018501704 -0.0003684864 -0.00026854733 0.0012853052 0.0021916814 0.00072546396 -0.0005441967 -0.00073757407 -0.0014309755 0.0014550197 0.0005218447 0.0014972622 -0.0016327524 -0.0021096962 -0.0019215047 -0.0022765337 -0.0013587093 -0.00072993245 -0.0012315607 -0.001499201 -0.0020680462 -0.0023364478 0.0018822299 -0.001326271 -0.0024900483 0.0023026648 8.58393e-05 -0.0014187586 -0.000765292 -0.00093767943 0.0007389616 0.0016942467 -0.00031339587 -0.0012372312 -0.0012832794 -0.0012403261 0.00020242366 0.00075660506 0.0014630542 0.001799366 0.001896013 0.00016714516 -0.0023139983 -0.0010221696 0.001684715 -0.0023191783 0.0014837086 -0.00024622073 0.0005805772 0.002230262 0.0013732994 -0.00047087437 -0.002318278 0.0007298365 0.001267564 -0.0015802074 -0.0020484407 -0.0022435598 -0.00060378725 0.0009520077 0.00093272794 -0.00022601336 -0.0023042243 -0.0007734876 -0.00037806458 -0.0018519568 -0.0010827667 0.0008188903 0.0019397247 0.0018858053 0.0008721689 -0.0009784651 0.00088095246 0.002111571 -0.0015903979
study -0.0023267868 -0.001230315 -0.0008178514 -0.0016659778 -0.0021079837 0.0023345095 -0.0022314494 -0.0016665369 7.375213e-05 -0.0009477773 -0.0022423111 0.0010408512 -0.0016557158 -0.0011714288 0.0014117067 0.0003528702 -0.0018060931 -4.5034336e-05 -0.0021825572 -0.001607808 -0.0005998331 0.0021317764 0.0010250849 -0.0011597318 0.0015493054 0.0019545974 9.624753e-06 0.0021910635 -0.000733797 -0.0018985132 -0.0014000401 -0.0023409526 0.00055983965 0.0015436383 -0.0010764307 -0.00046420633 0.0008182314 -0.0008120111 -0.00043110945 0.0002774503 -0.00034953118 0.0007735917 -0.0016737643 0.0013775951 0.0022896528 0.00029563298 0.0013982407 -0.0024327352 0.0014983653 0.00058109406 -0.0016996977 0.0003622237 0.00204205 -0.0010498764 0.00223776 0.0013127762 0.0011745717 0.0005341738 0.0006333487 0.0013213453 0.0005142137 0.002078523 0.0012638166 -0.0016121402 0.0019505434 0.0013446636 0.00186677 0.0015298072 0.0006105893 9.482773e-05 0.0016630297 -0.001103937 0.0024329475 -0.0003430962 0.0019753384 -0.001651993 0.0010074072 0.0013653985 0.0020257737 -0.0005261353 0.00028005056 -0.0018330219 -0.00092183554 0.0016678339 0.0007903469 0.00094992924 0.00075404346 -0.00029649725 0.0011113177 -0.0019703107 -0.00024104374 -0.00034414208 0.00045672455 0.002242912 0.0012481902 -0.00068593386 -0.0017722159 0.002490608 0.0009004846 -0.0017683541 -0.0020153138 0.00072745467 -0.00086033763 -0.0017996593 -0.00094508706 0.0015653614 0.0018160227 0.00015480374 -0.0012370228 -0.00041323178 -0.00019053766 0.00080108433 -0.0024510368 -0.0023740858 0.0023845644 1.1078082e-05 -0.0018404073 0.0005103634 0.0019016322 -0.0012374622 -0.00032188534 0.001354858 0.000662985 -0.00097196724 0.0022875578 -0.00181814 0.00033069053 0.00055436254 -0.00014167745 0.0024166945 0.002091471 0.0019187485 0.0020571207 0.0006278395 -0.0013276845 0.00040225335 0.002008411 0.00061317324 -0.0023233318 0.00020425837 0.00026497478 0.0016864343 -0.0024938034 0.00083139096 0.0020400127 -0.0013097811 0.001007275 -0.0010407355 0.002288518 0.00018981425 0.00090538897 -0.0005638588 0.00088783563 -0.0019900962 -0.00076136645 -0.0019526329 -0.0019227352 0.00071122916 -9.963033e-05 -0.0010261479 0.0011808414 0.0010679087 0.002276678 -0.0016309356 0.0012644785 -0.0018199557 0.0019463762 0.0018648747 -0.00018262304 -0.0013428634 0.0010136566 0.0014730757 0.0023757308 -0.0010830361 0.0022779936 0.001453063 -0.002117614 0.0014333096 0.0017670491 0.0015284447 0.0015790532 0.0011358643 -0.001701649 0.0005627489 0.0018267697 0.00032680552 0.00035699317 0.00035444344 0.0022498444 0.00055690785 -0.0020904106 -0.0014101011 0.0016838778 0.0011219606 -0.0014485839 0.0012084141 -0.0017984682 0.00050915265 0.0017512804 -0.0016791647
idea -0.00067261246 0.0001332846 -0.0003812695 0.0024993597 0.0012772158 0.001320838 -0.002060382 -0.00042550243 -0.0012007743 0.0014459519 0.0015488015 0.0023078276 -0.00024862913 -0.0013804218 -0.0010140166 0.00056986 -0.0013172611 0.0014162655 0.00085050333 -0.0018037814 -0.0024027245 0.001109449 -0.0011364508 -0.0006674781 -0.00037263776 0.001313458 -0.0019501608 -0.0011797827 -0.0019004974 -0.0015085523 0.0020602192 0.0015228377 -0.00010361243 -0.0019593914 0.0019633211 -0.00046450715 -0.002150171 0.00092315115 -0.0005332881 -0.0024860245 0.0015191431 -0.00051214965 0.0020592855 -0.0021532339 0.00015141396 -0.0018325874 0.0012177527 0.0022084452 0.0019142302 0.0022853226 -0.0007308114 0.001770007 0.0020959098 0.0017578723 -0.0015542221 0.0012209171 0.0009570762 0.0017382312 0.0023590429 -0.0021159686 0.0023896666 -0.00044645765 -0.0023107396 -0.0012082093 0.00089325896 0.00073400163 -0.0015651339 0.0015384392 0.0020482712 0.0013413185 -0.0010461968 0.0014287238 0.0020964844 0.0001795888 0.0019208458 0.0012447545 0.0021337927 0.0023896517 -0.00063698704 0.00114052 -0.0024721245 -0.0011532315 0.001880432 0.00025924388 -0.0014323187 0.00054331473 0.0006473798 -0.0007181477 -0.00016344758 0.0017725374 -0.00029196055 -0.0018717387 -0.0023246012 -0.0020274501 0.002104823 0.00017005438 0.0010566695 0.0023095459 3.6484795e-05 -0.0005274147 -0.0005025484 -0.0014551022 0.00025605387 0.000637925 0.0019904664 -0.0015010131 -0.0013391802 -0.00091359555 -0.00029198895 -0.00050615636 0.0020494466 0.002145358 -0.0010583762 -0.0014625835 0.0006893785 0.0021651587 -0.0021136543 -0.0005026618 0.0011736178 -0.0024031638 0.0014875154 0.0016330937 -0.0018042257 0.00011823187 0.0017613871 0.0019252952 -0.0023342918 -2.6125927e-05 0.001754527 0.00015431456 -0.000745666 0.002155634 0.0017682076 4.737219e-05 -0.00025163265 -0.0013649124 6.0917344e-05 -0.0017863207 0.0014005092 -0.00013591815 0.00028720684 0.000714496 -0.0009276429 0.0020810445 -4.5982655e-05 -0.0009877508 0.00037236372 0.00018677744 0.0012398988 0.002045833 0.0007031376 0.0012100148 -0.0016532755 -0.0019647917 -0.0006966146 -0.0024601996 0.0017919289 -0.0015192783 -0.0019989188 -0.0023083906 -0.0020928693 -0.0005898309 -0.001452831 0.0007645369 -0.0008803698 0.0009830417 0.0021118298 0.000859434 -0.000437747 -0.0020363077 -7.731747e-05 0.0003670284 0.0018379949 -9.277975e-05 0.00039336178 0.0015833834 0.00028595794 0.0014144294 0.00014115125 -0.0017704689 0.0015976182 4.342012e-05 0.0008525122 -0.00042235292 -0.001525324 -0.00015996909 -0.001101762 -0.0023634215 0.0020994563 -5.8650272e-05 0.00018910319 0.0022721617 -0.00029950798 -0.0012356687 0.00047374284 0.00083047757 0.00083687156 -0.0011399603 0.0016501681 -2.6978552e-05
computational -0.00010526995 -0.0015500641 0.0021621715 -0.0010090771 0.00037349947 -0.0006263807 0.0015601227 0.0010164739 -0.0016077887 0.0016367463 -0.001852133 0.0021496788 0.0014757416 -0.000327555 -0.0020047058 -0.0005868834 0.0018929658 -0.0009281206 -0.0007022247 0.002266536 -0.0023976208 -0.0016130775 0.0022804127 -7.834751e-07 0.0024512345 2.257293e-05 -0.0014839768 0.0010561903 -0.00027535716 0.0018409956 -0.0019200876 0.0012483974 0.001888168 -0.002114565 0.00078994455 -0.0008477706 0.002423528 -0.0007427534 0.00014875224 0.0019107508 0.002366738 -0.0012678435 -0.0024259284 -0.0004427943 -0.001287148 -0.0024659547 -0.0019899055 0.00078211515 -0.0014271542 -0.00070547406 -0.0018350637 0.00095962523 0.0006492478 -0.0013135743 0.0013710577 -1.724693e-05 -0.0010899168 0.0008739268 -0.0023207366 0.0016187588 0.0010658407 -0.0022424227 0.00013208413 0.0016812249 0.0020838012 0.00075638155 0.0015750555 0.0021191323 0.00014092564 -0.00054969185 -0.0020043158 0.0009550124 0.0014871485 0.0003317208 -0.0011070245 -0.0006282731 -0.00018481398 0.0024908846 -0.0024189884 -0.0009902399 -0.002088289 0.00046908646 -0.0016006618 -0.0004435568 -0.0013690186 0.0021840418 0.0003503256 0.0022985935 2.4964567e-05 -0.00028605107 -0.0021277547 -2.214685e-06 0.0011713966 -0.00017383066 -0.0024318814 0.0019888221 -0.001020191 0.0023853458 -0.0012710836 -0.0014360839 -0.002364675 -0.0006503725 0.0022969628 -0.0024454996 0.001839845 0.00016556703 0.000835276 0.002456442 0.00011187373 -0.0023487087 -0.0015354406 0.001488118 0.0014530048 0.0002834699 -0.00056672574 -0.0016906881 0.00040321285 -0.0009285783 0.00027425727 0.0004306978 0.0018611937 -0.001731412 -0.0024557922 0.0016560857 -0.0022670885 0.00043425593 0.00010442943 0.0020310618 0.0023084949 -3.612577e-05 -0.0012338066 -0.0023613072 -0.0002179977 -0.00041535217 0.0022811512 -6.47211e-05 0.00012556184 0.0002151858 -0.002045038 -0.001472558 -0.0011997666 -0.0015690946 0.0003804902 0.0019154479 0.0013252825 -0.00046536396 0.00045716204 0.00073050265 0.0011060918 -0.0008942699 0.001059293 -0.0020570802 0.0018949825 -0.0002332509 0.0005363943 0.0012467187 0.0016075745 0.0012513828 0.0016911668 0.0010406584 -0.00073689455 0.0007093209 0.0018613897 0.0012904687 -0.0006125879 0.0006193484 -0.00017988076 -0.0024431895 -0.0024279421 -0.0010571339 -0.0012511825 7.914356e-05 -0.0011171314 0.0024240469 0.0013159192 0.00055886805 -0.0008510315 -0.0013430791 0.0018099071 0.0024945722 0.00077066384 -1.3524666e-05 0.001736036 -0.00037919753 -0.0020361473 -8.808263e-05 -0.0019544945 -0.0007220524 -0.00206924 0.0017330814 0.0002913284 -0.0020880923 0.0013899016 0.0009961014 -0.0016510997 -0.00015310966 -0.00032852916 0.0004141461 0.001706522 0.0019984553
process. 0.0020849803 0.001533106 0.0020750961 0.0022072843 -0.0002830089 -0.0018970665 0.0016384339 -0.0013027963 1.5626196e-05 0.0009556222 -0.0011547538 0.00051614316 -0.00020470703 0.001858023 -0.0023128437 -0.000638971 -0.0015330189 -0.00077992084 0.0019114721 0.0012123752 0.00016130158 -0.002495094 -0.0018920451 0.0011714855 -0.0011353722 0.00047815708 0.0014020398 0.0012718814 0.00070934603 -0.0011739641 -7.6421304e-05 0.0007057986 -0.00085179054 -0.0024256965 0.0019387696 -0.00045550265 0.0012851933 -0.0024929303 -0.0020831886 -6.36098e-05 0.0015497683 0.0001481541 -0.00036592106 -0.0017777919 4.1074352e-05 0.0012559423 -0.0018262311 0.0015604622 0.001562669 -0.00016213674 -0.0017601273 -0.0005449739 0.00034614303 -0.0011408067 -0.0015692115 0.0012497997 0.00059591467 -0.0021461567 -0.001811935 -0.00094013603 0.0020069815 0.0024594497 -0.0006335529 0.0011105675 -0.00032751937 0.00010373327 0.0024800766 -0.0018626597 0.001063114 0.0015518158 8.344301e-05 -0.0020668043 -0.0013889279 0.0018829862 0.0022002421 0.0019233054 0.0013374297 0.0018914845 0.00079916674 0.00016585435 0.002051801 0.0013946607 -0.00076474634 0.0005240068 -0.00079939095 0.00209285 -0.0009794512 -0.001379711 4.4166343e-05 -0.0021061378 -0.0005793818 -0.0022548293 -0.0008280226 -0.00026311981 0.00015332527 -0.0024245253 -0.0015897304 0.0013598129 -0.0014103722 0.001784679 0.0019268431 6.3636806e-05 0.0007469272 0.000994829 -0.0013684535 0.00033104653 -0.0007710111 0.00055464986 -0.001316058 -0.0023775282 0.0014448334 0.0020545227 0.0021493197 -0.0009809062 -0.00024700048 0.0017902288 -0.001994398 -0.0008727679 -0.0020645014 0.0016416926 -0.0018498132 -0.0016574629 -0.0007904103 -0.0017868951 -0.0021183752 -4.7625042e-05 0.00082612876 -0.0014870879 8.579879e-05 0.0016145846 -0.0015359592 -0.00034935027 -0.00094818266 -0.0010628045 0.0015104441 0.00066652056 -0.00087128277 -0.00070881995 -0.001310029 0.00026047532 -0.00055367465 -0.0009443739 -0.00016513444 0.0015541892 -0.0023046 0.0013801793 -0.002319332 -0.00060355687 -0.00045236945 -4.073046e-05 -0.0009182057 0.002206955 0.0016627628 -0.0019627693 0.0023612236 -0.0020610192 -0.0022290791 0.0014976235 -0.0020011398 -0.0024477881 0.002322008 -0.001605879 0.0020007365 -0.0014141789 -0.0024132198 0.00059823506 -0.0019031507 0.0003403586 -0.00013509183 0.00010289787 -0.00074619055 -0.0012944513 0.000938128 0.00057482836 0.00038809143 0.0018385164 8.387631e-05 0.00068148575 -0.0015218037 0.0021321424 -0.0019203165 0.0024784417 -0.0018657418 -0.002221065 0.0021782927 -0.0021564646 -0.00059917034 -0.0004842698 -0.0004895907 0.0016207984 0.0024007983 -0.002450433 0.00029830146 0.0023862002 0.0019880752 -0.0007530487 0.0016995235 0.0007780907 -0.000944666 0.0010143751
Computational 0.0023905039 0.002176932 0.00046681194 -0.0008591851 0.00041570724 0.0008573611 -0.000807949 -0.00038849236 0.00085724494 0.0014445456 -0.0009996548 -0.0012223864 -0.0005041384 0.0015848912 0.0008322201 -0.00024993112 -0.0018631291 -0.0006223816 0.0010076419 -0.00215555 0.00064856675 0.0013908138 0.0020519556 0.002023342 -2.3483997e-05 0.00060691545 0.0010798573 -0.0017665485 0.0004456835 0.0022297106 0.0022567161 -0.0019476279 0.0009279633 -0.0011070973 -0.0008466041 -0.0008644989 0.0021730317 -0.0016822095 -0.0020908536 -0.0016388253 -0.0024681669 0.00062035467 0.0008330073 0.002461305 -8.64435e-05 -0.00018146518 -0.0022607865 0.00042791013 -0.0024936872 -0.0016881477 -0.0006330061 -0.002396789 0.0022664634 0.0022958908 -0.0012827921 0.00083947903 0.0006232015 -0.0015895539 0.00216312 -0.002158494 -0.001419895 -0.0019901083 0.00039468822 0.0011750662 0.0023424267 -0.0021059266 -0.0021745777 0.0007100159 -0.0021648696 -0.00022664363 0.0014314367 0.00034067105 0.0016278857 -0.0011927852 0.0009920513 0.0003959427 0.0014108033 0.0005968765 2.2650464e-05 0.00020548026 0.00161877 0.0020188587 0.0014281911 -0.00090433087 -0.00018421863 -6.4135995e-05 -0.0023631665 -0.0010524824 0.00020228 -0.0006970605 0.00028109644 -0.0013099437 -0.0021439323 -2.5127083e-06 0.0024270606 -0.0008971611 0.0022265324 0.001968807 0.0014486257 0.00033478555 -0.0009994599 0.001560247 -0.0023307323 0.00034881942 0.0019588373 -0.0016628592 -0.0003490278 0.001356113 -0.0016538086 0.0015799347 0.0015289453 0.0023770928 0.002367217 0.00060656597 -0.0011666589 -0.0009654132 0.0008299651 -0.0017794103 -0.002054086 0.0019534393 -0.00026701088 0.0007853443 -0.00090434495 0.002441144 -0.0023621493 0.0024937443 -0.001541281 0.00047113397 0.00079940795 0.0018966063 0.0020972327 0.0009377694 0.001197933 -0.0010744914 0.002408911 -0.0017024147 -0.0019888892 -0.00018784194 0.001812459 0.001740504 -0.0018620184 -0.00026498828 0.0019932664 -0.0024253428 0.0021844972 0.0013822007 -0.0024794952 0.0016633542 0.0008219278 -0.0019884561 0.0024892683 -0.0021574777 0.0012818342 -0.0008137926 0.0010869524 0.0005432796 0.0017511868 -0.0013413993 0.0015955423 -0.0022642682 0.00096042757 0.00016643293 -0.0023221269 -0.0021867226 0.0017920523 0.0021412252 -0.00054941175 0.0006535223 -0.0002176559 0.00096933986 -0.0011910391 0.0024494492 0.0018327138 -0.0023211443 0.0022503855 0.00037632673 -0.0019934862 -0.0024381848 -0.00030062022 0.0006679869 0.00045246864 0.0010168997 0.00015995838 -0.001463353 0.0024267468 0.0007937001 -0.0009527191 0.0013380647 -0.0004101121 -0.00014118827 0.002168072 0.0019998075 0.00060343766 -0.0024479087 -0.0021570856 -0.0011121478 -0.0016026961 0.0012945442 -0.00089850125 0.00058278255
beings 0.0020759758 0.0021497845 0.0016851556 0.0018256665 2.4585985e-05 0.0008046883 0.0024202522 0.0020504254 0.0014143316 -0.0015083089 -0.0022048205 -0.0017432284 -0.002292051 -0.0007236388 -0.0024407753 -0.0022699432 -0.00017313799 0.0022170325 -0.002483233 -0.00062903075 -0.00020905444 0.0004229038 -0.0010702139 -0.0014502922 -0.002276882 0.0015169848 0.00031047384 -0.0019271022 0.0024718572 0.000822278 -0.0017382314 -0.00014240807 -0.0001071142 -0.0009789293 0.0018012351 0.0023252917 -0.0020083343 -0.0010320747 0.0009673061 -0.00090086553 0.0017192499 0.0022025225 0.0011004966 0.0020908145 0.002133099 -0.0011303624 -0.0015047964 0.0022555105 -0.00079874066 0.0022193957 0.0014760578 0.0011698853 -0.00221787 0.0012192735 0.0017885021 -0.0007566833 -0.00055666233 -0.0023322073 -4.8860908e-05 -0.0010265368 0.0009699494 -0.00071450893 0.001991645 -0.002194501 -0.0015213301 -0.0010855403 -0.001169075 0.002152035 -0.0021411895 0.00189482 0.0006400349 0.001491888 0.0022757985 -0.0018344503 -0.0001905649 0.00040241424 0.0018226774 -0.00028556143 -0.00038376474 0.0013833849 -0.00084417814 0.0012829769 -0.00067293737 -0.0002356458 0.0008369256 0.0011334512 -0.0022189813 -0.0016201227 -0.0018524748 0.00095014134 0.00056781387 0.0011502791 0.0009604993 0.001579904 -0.0020131567 -9.789714e-05 0.0014853659 2.2846274e-05 -0.0009843594 0.00072075357 -0.0017438408 -0.0012405509 0.00092163077 0.0013247197 -0.0024697871 -0.002017875 -0.00228594 0.0004843683 0.002030944 -0.00052272715 -0.002063475 -0.0011898282 0.0015612715 -0.0019139289 0.00065191486 0.0013055739 -0.0003730897 -0.0019591588 -0.0010000548 -0.0022035714 0.0022379276 0.0017859284 -0.0012992296 0.0002844613 0.00017370377 0.00019583991 -0.0024127522 -0.0022227692 0.0008407086 -0.0021805447 -0.00236024 0.001931468 -0.0019419604 -0.00068846554 0.0008609474 0.0015247897 0.0007711216 -0.0007644007 -0.0016270753 0.0015771366 7.589278e-05 -0.0016818803 -0.00022595143 0.001667961 -0.0015094643 0.00023716688 0.0008897721 -0.0018037697 0.001922701 0.0023467955 -0.0017817431 -0.00059947814 -0.00092642964 0.00092368596 -0.0015981832 0.0011023304 0.0011858612 -0.0005913982 0.0024871863 -0.0011096001 -0.0010934728 0.001196207 0.001632153 -5.5542216e-05 0.00073290407 -0.0013718932 0.0002748198 -0.001364954 0.0018304922 0.0005876869 0.0017031576 0.001914049 -0.00060745387 -0.0019954909 0.0016233781 0.00013546413 -0.0015617602 -0.0011723724 -0.0007375836 -0.0020550694 0.00094044814 0.0006029259 0.0007979858 -0.002158117 0.00039121835 -0.002050023 -0.0015603804 -0.0020095748 0.00080067525 0.00097082136 -0.0021278 -0.0024125099 -0.0010218498 0.0004560263 -0.0013027277 -0.00022799452 0.0013582741 -0.0021431472 0.00050175213 -0.0011346906
that -0.0021770804 -0.00055048976 2.929056e-05 0.0011080122 0.00092946994 0.0005853269 0.0015544067 0.0024339883 0.0017932127 -0.0010914209 0.00019977149 -0.0016623873 -0.0019900412 -0.00015986827 0.0017129793 0.0012389983 0.0016826326 -0.0012895247 -0.0018572416 -0.0015989342 -0.00062029564 -0.0002231074 0.0015001963 -0.0019638548 0.0009528955 0.0022276244 0.00018737698 -0.000961954 -0.0024094314 -0.0015082612 -0.0022979819 -0.00048716553 0.0014075078 -0.0003149598 -0.0009221878 -1.0764226e-05 0.0017566867 0.0018308172 -0.0011732664 0.0020061969 0.0009523176 0.0019340077 -0.0013717505 -0.0015976545 -0.0023552692 0.001220935 -0.0001982078 -0.0016022667 0.0011732483 -0.0021750473 0.00035665906 -0.0018527103 0.001111984 -0.00049856934 -0.0019782307 0.0013263181 0.0010149435 0.0023180302 0.002201133 0.0010618707 -0.002076914 -0.0016352233 -0.0017503038 -0.00035684858 0.0018922756 -0.00093373354 0.0015329621 -0.00023165904 -0.0003356915 -0.0015121087 -0.0024868585 -0.00010010926 0.0009443604 -0.0016761008 -0.0014591771 0.0024269451 0.0020908932 0.0011673095 -0.0014627719 -0.00033750106 -0.0024414095 -0.0021043601 -0.0011603095 0.0001879537 -0.0013128137 -0.0013144412 -0.0020831642 7.6775905e-06 0.0023985673 -0.00072620565 -0.000611459 0.0002777765 -0.0015884971 -0.0023237865 0.00030666613 -0.0022900447 0.0024301545 -2.2689812e-05 -0.00035984395 -0.00036029937 -0.00031560427 -0.0016662616 -0.00094899384 0.0021382822 -0.0020857754 0.0001284394 -0.0018625816 -0.00086569367 -0.0002677557 -0.0011521378 -0.0006715917 -0.00232721 -0.00042675086 -0.002072741 -0.00018277997 0.00013757101 0.00034763594 -0.002371497 -0.00075504987 -0.0014292374 0.0024709934 -0.0019055187 -0.0011162116 0.00093638944 0.000911199 9.193178e-05 0.0015629302 -0.00013414235 0.0010402373 0.002435869 0.0013858199 -0.002437269 0.0022257864 -0.0014764642 0.002197262 -5.629426e-05 7.098052e-05 0.00097431033 0.00027554482 0.0019031847 -0.0023885851 0.002255355 -0.0009902084 -0.00089875073 0.0014228309 -0.0017478957 0.001792795 -0.00020160875 0.0005956697 -0.0023606229 -0.0016035077 -0.0003612882 0.00045368192 -0.0014127799 -0.0015710226 0.000962347 -0.00030551082 -0.001951031 -0.0021862797 -0.0021672603 -0.00032148184 -0.00032605557 -0.0013086718 0.00088709104 0.0023354245 0.000961873 0.00079949317 -0.0004712809 0.0022081854 -0.0015990396 -0.0020479206 0.0016090395 0.00026792707 0.00027902285 0.0014724578 0.0012518561 -0.00027772877 -0.0008736616 0.0009329587 -8.396362e-05 -0.0008542716 0.0017555812 0.001824542 -0.0024121641 3.1485222e-05 -9.640027e-05 -0.0017900567 0.00050189206 0.00047879387 0.002163475 0.0017126622 -0.0020739504 -0.00043198443 -0.0012468782 -0.002133473 0.0017724736 0.00013974193 0.0024532876 0.0020166128 -0.0006141204
inhabit 7.057097e-07 -0.0020559041 -0.00055281934 -0.001627067 0.0002628544 0.002470415 0.000792895 0.0006192953 0.00072555663 0.0013944851 0.0011569252 0.0016395925 0.0022802288 0.0024864944 -0.0009980532 -0.00081979716 -0.0020645775 -0.0024662719 -0.0007602575 -0.0004234016 -0.0015324557 -0.0024501001 0.0024616392 0.0017576013 0.00087515684 0.002392835 0.0023464728 9.598164e-05 0.00082936906 -0.0024142056 0.0018659872 -0.0023279479 0.001739487 0.0022724662 -6.986922e-05 -0.0008733999 -0.001888056 0.0019026627 0.0015197424 0.0010136631 0.0012445748 -0.0016070217 -0.0005088821 -0.0023428334 0.0020946153 -0.0017480457 -0.0007802894 -0.001528901 -0.0017721045 -0.0013340637 0.001698338 -0.0012603169 -0.0018191489 -0.0020919275 -0.0014170051 -0.0018462258 -0.0008580312 -0.0024685315 8.8765984e-05 -0.0010022598 -0.0013526145 0.0008566708 0.0019589714 0.00081583625 -0.0010557406 0.0017110254 -5.3722877e-05 0.0018007993 0.0023593851 -0.0021784669 0.0013042192 0.0020342828 -0.00072294683 0.0010728904 0.0017486829 -0.0011715704 -0.0017414966 0.0021477137 -0.0013612154 0.00036242278 0.0014462452 0.0023525506 -0.0002805572 0.002353379 0.0011983379 -0.00070441933 -0.0014363211 0.0016950732 -0.00056339114 0.00079549407 0.0022244682 -0.00226042 0.00010908325 0.0014271135 0.0016204156 0.0023666555 9.162375e-05 0.0019054278 -0.00078711717 0.0024404405 8.3678635e-05 0.0007895306 0.0018697949 -0.00095219014 0.0022776714 0.0013887449 -0.0002494899 -0.0024403173 0.000557838 -0.00045220694 0.00071050273 -0.0005855495 0.0012687447 -0.0006326324 -0.0023802177 0.0022664112 0.0007049758 0.0023521758 -0.000747503 -0.001174764 0.0021052933 -0.0022307378 -0.0018592593 0.00022804504 0.0023692981 -0.001948924 0.0001701808 0.0013861207 -0.002065816 0.0009831975 -0.0019842992 0.00037941197 0.002355021 0.0009334681 0.0014091833 0.00043988833 -0.002149857 -0.0016537085 0.0011685749 -0.0011234658 -0.0005085354 0.00026879762 -0.0022575387 0.0007645311 0.0016192258 -0.0018630826 0.00055612763 -0.0012527856 -0.00169194 -0.001922712 0.0018788539 -0.0016196081 0.0007066694 -0.0010515708 -0.0017113104 -0.0022203878 -0.0021910812 -6.731693e-05 -5.7199504e-06 -0.0010155642 -0.0009838211 -0.00047139148 -0.001658625 0.0013894618 -0.00032652263 0.0020250133 -0.00018667965 0.0008327947 0.0008190747 0.0010869298 -8.751592e-05 0.0016535902 0.0015111635 0.0005077489 -0.0019473934 0.001082347 0.0010573016 0.00022879709 0.0015025628 0.00075574964 0.0008066965 0.00025896612 -0.0011919221 0.0006414496 -0.0022210423 -0.0019674965 -0.0017536837 -0.0014570957 -0.0015745889 -0.002472269 -0.0012147966 0.0017881743 0.002194019 -0.0016225462 -0.0013188052 -0.0010755861 -3.3089193e-05 0.002414587 -0.0012444436 -0.0016838193
computers. -0.00215303 0.00049202354 -0.0024884315 0.00083606713 0.0002553477 -0.0008906126 0.00016392884 -0.0013150676 0.0022739926 -0.0017122661 0.0024567996 -0.00041355286 0.0017255223 -0.0002789225 -0.0010661628 0.00040650554 -0.0008469516 0.00025956728 -0.00096759736 2.9697781e-05 -0.00033785938 0.0013516373 -0.0018030845 -0.00027085398 -0.00028696097 0.0011390962 -0.0007557871 0.0019781492 0.0018852139 0.0010831167 -0.0009073365 -0.0024272692 0.0005041533 0.0004472041 -0.0012772173 -0.00046076602 -0.00063138746 0.0008192095 0.0021701348 0.0012780267 -9.656651e-06 0.0018838551 0.0022846577 -0.000968863 0.00052075484 -0.0010019434 -0.0015138626 0.0009863151 0.0008414199 -0.00015753042 0.0015897341 -0.0013457417 -0.0019829764 0.0008344897 0.0011180935 0.0019829855 -0.0020496275 -0.0022361367 -4.931353e-06 0.000348449 -0.0018996104 -0.0024337196 -0.0005163201 0.00041589746 0.0011642841 -0.001485334 -0.0016374448 0.00026953872 0.00031487993 -0.0007250428 -0.0024943063 0.0009516075 -0.0002063734 0.0017445735 -0.0016013416 -0.0013401803 -0.0009462064 0.0020686556 0.0019404944 0.0015564943 -0.0012683131 -0.0015739533 0.00021879701 0.001531872 0.00055739144 -0.00044402713 -0.001682119 0.0022954158 0.00015039463 -0.0024198603 0.0014917785 0.0013320332 2.2329157e-05 -0.0015385177 0.0009791991 0.00081442157 -0.00039806077 0.00014426257 -0.00042205304 -0.001735903 -7.684715e-05 -0.0010200185 0.0012957095 0.00093863625 -0.00210477 0.001260339 0.0006669876 0.0022423575 0.0010041285 -0.00039035385 -0.0010361188 0.0024503688 -0.0014739526 -0.0008979606 -0.0011610505 -0.0014034777 -0.0015734058 -0.00035386253 0.0023528975 0.00079818093 -0.00063084776 -0.0006900331 -0.0021711285 0.00067268196 0.00053738826 0.0018845657 0.0024213716 0.00025295536 -0.0013734435 -9.6179545e-05 0.0008368718 -0.0010566902 0.00040008524 0.0012150279 0.0015688525 -0.0010183513 0.0011873445 -0.0016780731 0.001822039 -0.0011353617 0.0012790796 -6.7484565e-05 -0.0018352133 0.00021380582 0.001754818 -0.0014726069 0.0011679607 -2.6610214e-05 0.0020200876 -0.0009105548 -0.00045008282 -0.0014767282 0.0017369841 0.0011651381 -0.00070827396 -0.0019469183 0.0015213466 0.0008017116 0.0013231938 -0.0009019696 0.0015791031 -0.0017204451 0.0024599526 -0.0013898921 -0.001874615 -0.0024372 -0.0015124598 -0.0024731627 0.0005832261 0.0005447278 -0.0012755444 0.0013276767 0.0018015788 -0.0009644255 -0.0016071802 0.0015722075 -0.0021507435 -0.0007632723 -0.0009869918 0.0019297944 0.0023018597 0.0011796826 0.0007125675 0.00020507793 -0.0011354887 0.00040038023 -0.0012004855 0.0015424751 0.0022707973 0.0018162415 0.0022994867 0.0014339159 -0.002081684 0.00036501535 0.0005807143 0.0022210595 0.0013915533 -0.0013859001 0.0019033537 0.0012434353
As 0.0015180595 0.0018297858 -0.0007624057 -0.00085341686 -0.0019396769 -0.00030380464 0.00017295452 0.0012216631 0.00085811643 -0.0011250713 0.0005342949 -0.002326362 0.002327968 -0.0015825278 -0.0013043844 0.0024718107 0.0008265462 0.0017880779 0.0015842067 -0.0024914718 -0.00075072225 0.00030746427 0.0011801862 0.00013162335 -0.0018094018 0.0019735768 -0.0016657475 -0.0013226271 0.0021053306 -0.00033257506 -5.1154988e-05 0.001824311 0.0020898497 -0.00084914686 -0.0012809539 -0.0012025591 -0.0006130764 -0.0016883339 0.0020813951 0.0014502499 -0.0017161029 0.00040132878 0.0003098857 -0.00036831596 0.00038849213 -0.0023710015 -0.0001499313 -0.00031828438 -0.0020729175 -0.0012542829 -0.00029639248 0.00048057595 0.0014116722 0.00048552174 0.0023586256 -0.000941025 0.000444595 -0.002242665 -0.0011533787 0.0018857173 0.00220501 -0.00068735296 -0.0017357941 0.00016995193 0.00045801606 -0.0015007961 0.00035535544 -0.0009901237 -0.0024182147 0.0021968451 0.0005405692 0.00093847956 0.0019072727 0.0014684517 0.0012327139 -0.0005575123 0.0008173799 0.0014381064 0.0012640445 -0.0010315537 0.0010729488 -0.0004220768 0.0021617324 -0.0017682253 0.0018613134 0.00053569674 -0.0022559643 -0.0015303191 0.001385316 -0.0012853384 -0.0017884022 0.00012378953 -0.0017399826 0.0017817249 -0.00039079785 -0.0009765684 0.0012565192 0.0015779543 0.00091039995 -0.001692723 -0.00047128042 -0.0017269359 -0.0024394055 -0.00022738497 9.0202084e-05 0.00047259755 0.0015199059 0.0013715522 0.00018708548 -0.0016495236 -0.0006584334 -0.00216175 0.0015063724 -0.0015118537 -0.0023901 0.0015045735 0.00041262177 0.0024664574 -0.0019229263 -0.00237241 -0.001509391 -0.00089538307 0.0016424288 -0.001688388 0.00034422544 0.00073356833 -0.0019686779 -0.0019467275 -0.0011823619 0.0024344348 0.001916076 -0.0022712802 0.0012056264 0.0017578132 -0.00049801567 -0.0012633321 -0.0016099712 0.001562729 -0.0015604099 -0.0010417377 -0.0008356258 -0.0024434547 -0.00038990146 0.0019454896 0.0007133547 0.0005156982 -0.00018538674 0.0016336483 0.00079211476 -0.0009172141 -0.0007933321 -0.00050682644 -0.00016445993 -0.0024483213 -0.0003374084 0.0012763338 -8.04388e-05 -0.0008332544 0.0012213639 -0.0022562179 -0.0023077598 0.00063269795 0.000345445 -0.0006916353 0.0023401598 0.00033559464 0.0020038076 -0.0010220722 -0.0016398182 -0.000543633 0.00080597843 0.0024646074 0.00028931256 0.002393765 -0.00060912396 0.0002653387 -0.00039513083 -0.0011977154 -0.0004959542 0.0012664201 0.00032924744 -0.002453918 0.0012043726 0.0013936101 -0.0022471622 0.0020209323 0.0023246799 -0.0024149693 -0.0019381517 -0.0024758757 0.00027023605 0.0015193252 -0.00057755737 -0.0011092272 -0.0005730033 0.0015590456 0.00019223802 -0.002417107 0.0007935548 0.0014449512
they 0.00013700058 -0.000502795 0.0007586051 0.000115393195 0.0013407676 -0.001965181 -0.00099274 -0.0007112664 -0.0013760367 -0.00053050346 0.0012732423 0.0010221556 0.0019721673 -0.0022467885 -0.0008089789 -0.0016102879 0.0010382526 -0.000181149 -0.0017418852 0.002323993 -0.0019437342 0.00024868245 -0.0014374658 0.00029979576 0.0024870792 -0.0017556201 -0.0009095692 -0.0011209022 -0.0001242864 6.519444e-05 -0.0022836088 -0.00010405481 -0.0015371996 0.0005217693 -0.00028086384 -0.0021674498 -0.0018186438 0.002291595 -0.0015422043 5.675503e-05 9.714812e-05 0.0010908288 2.4503563e-05 0.0005192831 0.0020014914 0.00045430777 0.0007145703 -0.0014869308 -0.0009929591 0.0007223773 -0.00088971225 -0.0018952542 0.00097112125 -0.0002053678 0.0002140028 0.00040937145 0.00032306905 -0.0002848748 -0.0009196559 0.002355412 -0.0016667222 -0.0021775954 -0.0017736473 0.001733602 2.9191142e-05 0.00066922186 0.0012802589 0.0017955843 -0.0014729779 0.001015373 -0.001854409 -0.0017593012 0.0023006275 0.00012799376 -0.00011360715 -0.002498544 -0.0018564987 -0.0007341743 -0.00055873627 0.0024567945 0.0014196071 0.0008696371 -0.00033986266 0.00021246076 -0.00043543987 0.00052095065 0.0018076799 -0.0010575708 -0.0022288617 0.0016607903 0.00082699605 -0.00020509749 0.0019345763 0.00047954102 -0.00077069725 -0.0010857695 0.0023591924 0.0012620229 -0.000376845 0.00037153158 -0.00016626739 -0.0023528822 0.0009199232 0.0022824393 -0.0013474816 -0.0017959338 -0.0016185269 -0.0009499171 -0.0018224346 -0.0019280061 -0.0022464155 0.0022642496 0.0023663258 0.0013488778 -3.0180905e-05 -0.00064015144 -0.0010065439 -0.00014129514 -0.0006597745 0.00045923959 0.001912219 -0.000999853 0.002290132 -0.00020111981 0.0016261218 0.0014219577 -0.00035626232 -0.0017577934 0.0007158192 -0.00027226843 0.00037383428 0.0020340313 0.0020869053 0.0010752531 -0.001840963 0.0016409745 -0.002219447 -0.001933386 0.001110618 -0.0009956056 -0.0015175547 0.002370397 0.00036806613 0.00068952795 0.0013734146 0.00069936295 0.0004933486 -0.00069464 -0.0024410754 0.0013695513 -0.00096368697 -0.0016790652 0.0009262564 -0.00050423294 0.0008915826 -0.0012352264 -0.002347016 -0.001909439 0.0024751155 0.0006772415 -0.001141653 0.00017411797 -0.00042007538 0.0012539378 -0.0023391747 0.0019341703 0.0001859758 -0.0023887788 -0.0018288537 0.0007790921 -0.0017203292 0.00017960789 0.0020320113 -0.0014937908 0.00017703092 -0.0007769242 -0.0010107496 0.0022549 -0.0012017863 0.002166456 -0.0021055473 -0.00041902508 -0.0020785162 -0.0022716145 -0.00016652024 0.00041023712 0.0023217062 0.0020858757 0.000774706 -0.0008724722 0.00046913885 -0.0017233107 4.7215726e-06 -0.0017546641 -0.0021695294 -0.0010120809 -0.0015242442 0.0022185096 -0.00033968547 -0.00046288013
evolve, -0.0002744943 -0.00019286643 -0.0020084477 -0.0010745426 0.00089784735 -0.0004921078 -0.002295258 0.00023304252 -0.0007598266 -0.00081345194 0.0006247149 0.0015690452 0.0016382947 0.00054704724 -0.0003894451 0.001102201 -0.002032116 -0.00041931146 -0.0018600842 0.0017093257 0.00069978484 -0.001169545 0.00077005685 -0.00029281178 -0.0018565839 -0.0013032567 0.0013090221 0.0005697054 0.0014418997 -0.00085277343 -0.001055127 -0.00067973614 0.0018802923 0.0012229607 -0.00059787836 -0.0013749712 -0.0022915914 0.0013179632 0.0011686855 8.999859e-05 -0.00028214604 0.0024561258 0.0018607373 0.002249633 -0.0010717091 0.0003118927 -0.00050794147 -0.00064935 0.0007360347 -0.002137183 -0.0005462209 -0.0013122987 0.001969703 -0.00059074874 0.0014421223 -0.0012859383 -0.0012339774 -0.0015056678 0.0017509423 -0.0017684763 0.0013194084 0.0018103993 0.0010635257 -0.0022158176 -0.001668049 -0.0017859804 0.0005510389 -0.00083474873 0.0013904476 -0.0017438191 -0.00030958466 0.0024261652 -0.002390403 -0.0017955478 -0.00055749924 0.0017766585 0.0017600209 0.00024049659 0.0023225104 0.0014854707 0.0012828996 0.0017026076 -0.00048896554 -3.632158e-08 -0.00088049914 -0.00049471227 -0.002284588 0.0012111289 -0.0006511519 -0.0015699165 0.0005203581 0.0006996128 -0.0009711039 0.0019558081 4.9181515e-05 0.0018747412 -0.0019051649 0.0015051579 0.001600442 -7.94807e-05 0.0002409264 -0.0011735614 -0.0021104966 0.00075893034 -0.0020792538 -0.0011957093 -0.00077803223 0.0010806362 -5.6792283e-05 0.0012447315 -0.0008729219 -0.0014001376 0.0009518652 -0.0022474169 0.001436362 0.001490768 0.00082027353 0.00080382684 0.0020679883 0.0018588398 -0.0011880568 -0.0015604189 0.0020173676 0.0011730762 0.0022775596 0.00038531562 -0.00017945026 0.0013430386 -0.00068165537 0.00080923084 -0.0024834238 -1.8677674e-06 0.000140158 -0.0012801 -0.0007627603 -0.0022137072 0.00055821356 -0.002488655 -0.0011690184 -0.00030489895 -0.0005892437 0.0002802736 -0.0023706462 0.0020476938 -0.0023522675 -0.0003081921 -0.0018573868 -0.00092053774 4.9535418e-05 -0.0013815647 0.0014825226 -0.0024804443 -0.0011764306 -0.0012113672 -0.00021572202 0.0009894213 -0.00096141454 0.0019742227 0.0005703196 -0.0021847733 -0.000512847 -0.0013001563 -0.0017580765 0.0005011589 0.00090878713 -0.00013189483 0.0020925463 0.00090622366 -0.0017026993 0.0016784687 -0.0014428159 0.00016054185 -0.0021353888 -0.00031963224 -0.0013431391 -5.2038115e-05 -0.0013785255 -0.0010187336 0.0003360964 0.0001185867 -0.0022472008 0.00016928185 0.0018844972 0.00015021442 -0.0013577098 -0.0002153453 -0.000734007 -0.0003410792 0.0016541085 -0.0020707047 0.00044996268 -0.00044994126 -0.001944874 -0.0024059927 -0.00046165497 -0.0012768769 0.0024672062 -0.001476182 0.00018096366 0.00067961006
manipulate 0.00041034096 0.0012995421 0.0012712146 -0.00048069563 0.00024689804 0.00053520733 -0.0016256943 0.0010205042 -0.0018466169 0.002074001 -0.0015127525 -0.0010999116 -0.0017135646 -0.0023080579 0.0006391001 -0.00035280408 -0.0016489427 -0.00030922052 0.0021920973 -0.0020879863 0.0007339185 -0.0013680347 0.0015162257 0.0014983569 0.00041411328 0.0013492757 -0.00064856943 -0.0016784882 -5.4483302e-05 -0.0004956252 -0.000500937 0.00079072476 -0.0016276094 -0.00168799 -0.000984579 -0.002056431 0.0019967826 -0.0005974731 0.0024058712 0.0019926638 -0.00020583533 0.0015991889 0.0010533365 0.0011701672 -0.0023430758 -0.0022734343 -0.0005426244 -0.0005330078 0.00013611256 0.0008348173 0.0006310332 0.0003890621 -0.0013779285 0.00020540226 -0.0019490616 0.0017366116 -0.00060933083 0.00042117387 0.001524874 0.0022254642 -0.0020267635 0.0007893713 -0.0012435963 -0.0017074624 0.00056236424 0.00064923125 0.0024285908 -0.00044022268 -0.0016062176 0.0019842 0.002102382 0.0012291404 0.002115563 0.0020863586 -0.0008634927 0.0024255714 0.0007249715 -0.001624028 0.0024666926 -0.0013974798 0.0010726897 2.3266068e-05 0.0023102192 0.002453161 0.0006280381 0.0017873729 0.0008361663 0.0013595573 -1.2662495e-05 0.000645119 0.002221587 0.0017478191 -0.0016921023 -0.001341826 0.0020512561 0.00023379782 0.0013526101 0.00014886237 -0.002385843 -0.002287868 0.0010476487 0.001763354 -0.0023540955 -0.0011317497 -0.00045377738 -0.0017188778 0.0016725622 0.0012851635 0.0024394165 -0.0021732508 -0.0006758553 0.00094737555 0.0011526691 0.002452413 -0.00029306044 -0.0015252784 -0.0020646069 -0.000505439 -0.0007339412 0.001995232 -0.0018177396 0.0023012683 0.0007816381 0.0004438099 0.0017987425 -7.6911645e-05 -0.0018390524 0.0020425296 0.00079017226 0.0012843856 -0.0024796703 -0.0011572674 0.0005080998 0.00015865033 -0.00024697115 0.0006945401 -0.0014249358 0.0007892973 -0.0012426617 0.0019250526 0.0020190454 0.00199064 0.0024707322 -0.0015012186 0.0011497617 -0.0018286722 0.002403312 -0.0021890032 7.3155155e-05 0.0004551548 0.0006376263 -0.00063326745 0.000834248 -0.001981622 -0.0014653688 -0.0012630083 0.0019422076 0.0011370643 -0.0017845735 0.001954042 -0.00029144762 -0.000610322 -0.00067854254 0.0007181044 0.0014592987 -0.0024090018 2.146652e-05 -0.0013788763 0.00021254993 6.248383e-05 0.0014168606 -0.0013367122 -0.0010253978 -0.00050068204 0.0022115083 -0.0018256402 -0.0021997222 -0.0014807603 -0.002182297 0.0009844729 -0.0022522542 -0.0003010847 0.0014538462 -0.00027365028 0.0022224812 0.0013505404 -0.0012362269 -0.0011478579 0.0023144064 -0.0013719111 0.0010821221 -0.0013122654 -0.0021400396 0.00020856317 -0.00026440294 -0.0015065109 0.0006531747 0.0012601309 0.0012308955 0.0020462545
other 0.0006633068 -0.00045066257 -0.002198318 -0.0014473066 -0.00010737032 0.00070846593 -0.0002845428 -0.0016741457 0.0019440451 -0.0018673905 0.0008031095 -0.0020462933 0.001467607 0.00068890397 0.0022300892 -0.0017799451 0.0014483412 -0.0020796773 0.0022874959 0.00020351447 0.0017523966 -0.0008534428 0.0014882744 0.0015949085 0.0010963576 0.0016354937 0.0009029885 -0.0018448415 0.001672396 0.0007152539 -0.0007863095 0.0010732857 -0.00066713896 -0.00052984175 0.0014332728 0.0024117087 0.0001706963 -0.0014124966 0.001587423 0.00095726154 0.00055964757 0.0023792465 -0.0004341125 -0.0019956212 0.0013298905 0.0019498365 -0.001915563 -0.0018034854 0.0012021917 -0.0007440129 0.0021284046 -0.0008132118 -0.0015218174 -0.0018490576 0.0007386911 -0.0013688874 0.0012117592 0.001949884 0.00016753073 -0.0018131253 0.0008864596 0.0024417415 0.0007582274 -0.0010020918 0.0012778856 -0.0012663834 -0.0002393683 -0.0009765172 -0.001592592 0.0024109003 0.0011844111 0.0010902295 0.0015652189 -0.00041363924 0.0016420954 -0.0022600517 0.0012479131 -0.0009121692 -0.0016086572 0.0020735515 0.0014159456 -0.00041006925 -6.3598854e-05 -0.0020002453 -0.0011925629 -0.002399382 -0.0017769309 -0.0006294438 0.0017810855 -0.0022665658 -0.00041147415 0.0024530916 0.0011026273 0.0014528907 -0.0008743503 -0.0007373538 0.0009812978 0.001578507 -0.0021168261 0.0023078802 -0.0022428283 0.0016335505 0.00069869193 0.0023655407 0.0014253063 -0.00012733997 0.00050018495 -0.0019829373 0.0003593138 0.0013020842 -0.0022978887 -0.00097442174 0.0020878734 -0.00039870106 -0.002047503 0.0005179874 0.00105373 -0.002281352 0.0020156712 -0.0012519836 0.000942877 -0.0007027659 -0.0002359997 0.0009410039 0.0007319369 0.0013479176 0.0010528818 -0.0022071567 -0.001774382 0.002325269 -0.00083088246 0.0021665846 -0.00095462205 -0.0020642471 0.0010692272 0.002444496 -0.0013249713 0.001268738 0.001871232 0.0004610764 -0.002181112 -0.002196855 -0.0001705885 0.0007786136 0.0015561995 0.00066032703 -0.0021142564 -0.00085927336 0.0005162016 -0.0014915138 -0.001560097 0.0012798451 0.0010067446 -0.00061857456 0.0012932864 -0.0024660246 -0.0011029309 0.0010576269 0.000604091 -0.00038529583 0.0021188618 -0.00094262266 -0.002230348 0.0018992359 -0.0016656854 -0.0023129422 -0.0016582634 -0.0007921832 0.0005087694 -0.0022850535 0.00014020177 -3.5156496e-05 -4.8631337e-06 -0.0010907969 -0.0011082632 -0.0017992901 0.002074778 -0.001041314 -0.00010349741 -0.0024813118 0.0006124668 -0.002380529 -0.0009998226 -0.0007379082 -0.0009777811 -0.00017186557 -0.0023307132 0.00022438611 -0.00082013453 0.00040797982 1.3356563e-05 -0.0004762027 0.00027200673 0.00034346338 -0.0021403942 -6.7533925e-05 -0.00017896271 0.0013195891 0.0011889746 -0.00042040995
things -0.0003491724 0.0007400708 0.0006828555 0.0017484585 -0.00095646316 -0.0016741434 0.0011997302 0.0013996807 0.0016787653 -0.0017664053 -0.0003105842 0.0020011659 0.0019675842 -0.0008615601 -0.0009225127 0.0014835652 -0.0017914778 0.00241607 -0.00038313447 0.001040078 -0.002281911 -0.0016796857 -0.0012274086 -0.0010858044 0.0015109843 0.0018210299 0.00013991864 3.5328325e-05 0.0019985558 0.0019569974 0.0010512546 0.0006230497 -0.0015398526 0.0010535007 0.0006427928 -0.0016758207 -0.00061256706 0.00055110897 -0.002316179 -0.0018188038 0.002140049 -0.00066588516 0.0023763748 0.00042559067 -0.0009028921 -0.00013265107 -9.3880575e-05 -0.0015235201 -0.0016580742 -0.0022136134 0.001002511 -0.0016467425 -0.001521967 -0.001170558 -0.00012020371 -0.0011597559 0.0023450064 0.0024181362 0.0006351336 -0.0005479574 0.0020229686 0.00081937993 -0.0016600739 -0.0010681221 0.0015134495 0.00041058776 0.0016294266 0.0018562702 0.0009056574 0.0011240072 0.0003347078 0.0014217086 -0.0002976032 0.002352171 -0.0002098775 0.0002412803 -0.00072258734 -0.00011042319 -3.58182e-05 0.0015946971 -0.0019677866 0.0008470195 -0.00014081248 -0.0011796945 0.0019613705 0.0016542296 -0.0022141524 0.0020917282 0.0014419085 -0.001278295 -2.0873267e-05 0.0012259167 -0.0006558576 0.00039456598 0.0014030796 -0.00028759637 -0.0006206444 -0.0011657723 0.00087636104 0.00085411733 0.0022207499 -0.0008521875 -0.0015874591 0.0018231566 -0.0023201206 -0.0015131243 0.0022254083 0.0011577164 0.0020099808 0.0016183937 -0.0010858795 0.00028752885 0.0003025988 -0.0016664099 -0.00059888803 -0.002433247 0.0016904417 -0.0006617358 -0.00082874415 -0.001276274 -0.00052592414 0.000411605 -0.00021923962 -0.00059879455 -0.00085442874 -0.0016776572 0.00046000653 0.0020395732 -0.001111179 -0.00043913536 -0.0020041205 0.0002786133 -0.0017993957 0.0004899658 0.0010497915 0.00033603003 -0.0017393965 0.0012297682 -0.0014367541 0.0013385117 -0.0017756014 -0.0017124536 -0.00049228454 -0.00033492362 0.0021602083 -1.1780066e-05 0.0018715523 -0.0018021399 0.00040211715 -0.0011386004 0.00015772041 -0.0010309672 -0.0008562121 9.036879e-05 0.0015448681 0.001688527 -0.002132497 -0.0020276066 -0.0009119883 -0.0023926084 -0.00094073114 0.00086955214 -0.0001115324 0.0020157956 0.001010645 0.0011252875 0.0009803071 -0.0013855675 0.0016699601 -0.00046060653 0.0010504979 0.0010492632 0.00094756344 -0.0019963994 -0.0022364226 0.0015675174 0.002034254 0.0009459541 0.0024689785 -0.00027357903 0.00018225284 0.0008227611 -0.002304581 -0.0023650841 0.0011897495 -0.0005062157 0.0009018006 -0.0004935779 0.0017139739 -0.0012636456 0.00036168448 -0.0010679427 0.0007693183 -0.0014551968 -0.00068983797 -0.0015696499 -7.898989e-05 0.001342681 0.0002208706 0.00091205887
data. 3.0664727e-05 0.00013138773 4.214351e-05 -0.0014260646 0.0015731016 8.465885e-05 -0.0010497561 0.00073061395 -0.0015543285 -0.0017015797 0.0006855249 -0.0014030483 -0.00085951143 0.0015140753 0.002159875 0.0018839859 -0.001986464 -0.0018742746 0.00031108386 -0.00035949307 0.0013915501 -0.0013579056 -0.0017121893 -0.001755639 -0.0014899956 -0.00027824077 0.0013845859 -0.00060414674 -0.0011051464 0.0004166921 -0.0023391559 0.0011851434 -0.0013481453 0.0008658215 0.001390005 0.0017799754 -0.0014598885 -0.0020019475 0.0023554591 -0.00032916176 0.0020642383 0.0012588606 -0.00027624774 -0.0023063903 -0.0016655248 -0.00072421844 -0.0011072996 -0.0015539494 -0.0021724852 -0.00045880396 -0.0016565311 2.3194356e-05 -0.0016119226 -0.00045838347 -0.002106023 0.0001922804 -0.0013705426 0.0019056709 0.0019501457 0.0007885166 -0.0019162002 5.0198752e-05 0.001142218 -0.0013454893 -0.0021562697 -0.0023995615 0.0013162573 0.0014664861 -0.0016298026 0.00076617906 0.0014382908 0.0019627041 -0.0013431374 0.001215568 0.0020297165 -0.0015256451 -0.0018047618 0.00040002516 0.0020400607 -0.0015923318 0.0001633165 0.0022975844 -0.00033191685 -0.00059467705 -0.001956841 0.0019225562 0.0014416045 0.0023118043 1.0909047e-05 0.0019353181 -0.001007292 -0.0021208706 0.0011433291 -0.000181532 0.0011773601 -0.00030857883 -0.0011541089 -0.0006859257 0.0020053433 -0.001333503 0.002467814 -0.0013345021 -3.300584e-05 0.000660714 -0.0018281566 0.0010509309 -0.0022609504 0.0010424524 -0.0021590304 0.0022849487 -0.0017627084 0.00072173565 -0.0023159576 -0.0011849594 -0.0011631942 0.002378988 0.000781571 0.00057644607 -0.0007736179 0.0014784909 -0.0012569025 0.00011789356 -0.0014663672 0.0013418647 -0.0012872859 0.0016854219 -0.0010921693 0.0010080282 0.0003948405 -0.00058800075 -0.002245222 -0.0003174839 0.00029979087 0.0022833473 -0.000345662 0.0020068563 -0.00035636686 -0.0011249918 0.0017149462 -0.0017367776 0.0011438697 -0.001024589 -0.0020210594 0.0008440325 -0.0007249096 0.00068987557 -0.0021766534 -0.002499131 0.00060749147 0.0012600576 0.0017021964 0.0011706194 -0.0016672048 -0.00031294534 -0.001850836 0.0021917014 0.0010442918 -0.0009993651 0.00039659045 0.00038656197 -0.0011618799 -0.00091847836 0.0014238879 -0.00029284973 -0.00054538506 0.0016404018 0.0012404942 2.7884264e-05 -0.00036455668 -0.0006345537 0.00088961865 0.0007409039 -0.001159591 -0.00051785586 0.0004913169 -0.0022210171 0.00087199337 0.002269826 -0.00025672978 0.0011693113 -0.00044049183 0.0018673567 -0.0017800742 0.0008017798 0.0017525307 0.000889658 0.000116790645 -0.0013489404 0.0023562182 0.0020771255 0.002131517 -0.000116594136 0.0023939447 0.0005247607 3.0424213e-05 0.00019406388 0.00031107734 0.0004971754 -0.0023287057 0.0018060287
The 0.00021037855 -0.00042900047 -0.0010261809 0.001022103 0.0017118258 -0.0014672631 -0.0013425725 -0.0014715376 -0.001360566 -0.00036390568 -0.0015351877 0.0022220868 0.0015380597 -0.0022208376 -0.0021128485 0.00069668284 0.0016219402 -0.001067121 -0.0003853601 0.00014712475 0.00018396368 -0.00034546875 -0.00035912963 -0.0024496063 0.0015120236 -0.00019142567 -0.0013618924 0.002246059 -0.00075347605 -0.002306474 -0.002381966 -0.0022308133 -0.0013144228 -0.0010537633 0.0015995861 0.00045949663 0.0011128883 -0.0014265159 -0.00022426783 -0.0018496981 0.0020010858 0.0016537113 -0.00025523547 -0.0012643635 0.00017107348 5.4846983e-05 -0.0016064995 0.00080818404 0.0008650494 -0.0005540743 0.0023173164 -0.0016122251 0.0016731392 -0.0022812542 0.00046674372 4.8181042e-05 -0.00037447433 -0.0018955842 0.00043207058 0.0017682989 8.863537e-05 0.0008605516 0.0008587234 0.0020275237 -0.00011528353 -0.0015664076 -0.0007898193 6.37325e-05 -0.0013430327 0.0009658488 0.0024152044 0.0014459426 0.0021297098 0.0024312218 -0.00062249065 0.001091708 0.0020323074 -0.0008836865 0.0017745248 0.0001593139 0.0001181236 -0.0021307205 0.00019810861 -0.002173543 -0.0007524964 0.0008243099 -0.0017275484 0.0013168871 -0.0013213163 0.0010843952 -0.00019290415 0.0014449446 -0.001118201 -0.00093391177 -0.0005129555 -0.0024153178 0.0012524361 0.0024939547 -0.0017384958 -0.00059725763 -0.0015103742 0.0016901605 -0.0023405694 0.0003757733 -0.0012213548 -0.001134538 0.00086713023 0.0012584727 -0.0021251228 -0.0004678464 -0.0024408435 0.0023174877 0.0015711794 0.0022795177 0.0010541778 0.0022689588 -0.0006823903 0.00078279246 -0.0019281321 -0.0011176702 -0.0006144452 -0.00039159972 0.0007769617 0.00021649618 0.0013855055 0.00055377255 0.0023251534 -0.0018255505 -0.0022494155 0.00079194247 0.00020745583 -0.0006639394 -0.0023096171 0.0020623286 0.00057092845 0.00040614465 0.0011765971 0.001121525 -0.002295718 0.0007580125 0.0010605606 -0.0011987824 0.00010386226 -0.0015467306 0.0013202375 -6.9228e-05 0.00019138842 0.0020659245 0.00246289 0.0020395955 -3.0072406e-06 -0.00025568274 -0.0017934799 0.0022012345 -0.0009126818 0.0015798528 0.002068278 0.00017996412 0.0024705091 0.0010434368 0.0024097976 0.0019082166 -0.001394406 -0.0020485737 0.0019974099 -0.00036939234 -0.0018582937 0.0018110517 -0.00018236483 -0.0013413829 -0.0015388103 -0.001010279 -0.0008836093 -0.00028435607 -0.00052487734 -0.0021545996 -1.1357712e-05 -0.0019330014 0.001975323 -0.00095520227 -0.0011164412 -0.0014704615 -0.0005956176 -0.0012726677 -0.0003397006 -0.002045238 0.0010806844 0.0023268512 0.0013896707 0.001375193 0.00011724699 0.0009832107 -0.0017267483 -0.0023594268 -0.0017290106 -0.0009766647 0.00048584142 -0.00028766948 -0.0023358779 0.001516378
evolution 0.002263335 -0.0009538436 0.0018794099 -0.0001262885 -0.0013676462 -0.002292082 0.00080943434 0.002354578 0.0005757732 -0.00032472727 -1.8800842e-05 0.0019781026 -0.0002111257 0.0019946592 0.00024971343 -0.0017809591 -0.0012956887 -0.00023977179 -0.0006141049 0.0015651328 0.00067057484 -0.0020968232 0.00040502707 0.0016358788 -0.001956224 0.0001089233 -0.0024372349 0.0011938775 -0.0009510255 -0.002327085 -0.0010420621 -0.000979405 -0.00064868387 -0.0024736463 0.0008802626 0.00052053086 0.0014987169 0.0011013832 0.0006163346 0.0010237705 0.0022502868 0.0011984447 -0.002142712 0.0002452212 0.0018192227 0.002302304 0.002246135 0.0015806137 0.00069584674 0.0006674414 -0.0019408237 -0.0017959597 0.0019212752 -0.001008738 0.0015605469 -0.00040447083 0.00065811933 6.252946e-05 -0.0013726836 -0.0012473988 -0.0023379799 0.0008883255 -0.0011125639 -0.0014702668 -0.00050818245 -0.0017579773 -0.00086116465 0.0024052644 -0.0017855011 -0.0015522586 0.0017439649 -0.0013535552 0.00039756414 -0.00066932465 0.002199083 0.0024445872 0.00062606414 -1.2137461e-06 -0.0024462151 0.0024822173 0.0013109297 0.00043429364 -0.0013315156 0.001009505 -5.8769016e-05 -0.0007193062 5.8244914e-06 -0.00018452527 -0.0006239271 0.0020977403 0.0015436057 -0.0015740192 0.0017033988 0.0007592209 -8.278061e-05 -0.0017552414 -0.0012940723 0.0018347311 0.000543284 0.0024107732 -0.0014436402 0.0014665802 0.0019694786 -0.0013197208 0.0005908564 0.001140374 -0.001097025 -0.0004588219 0.0022705821 -0.00014248677 -0.00045126816 -0.0012889883 -0.0016888636 0.0021800338 -0.0020721185 0.00023987656 -0.00024924357 0.0020367233 -0.0019597507 0.0007717975 -0.00071537134 -0.000991253 -0.0007223552 0.0011779731 -0.00019813026 -0.0017284036 -0.0021254006 0.00028816378 -0.0010969776 -0.0022460814 -0.0024350756 -0.0021935704 0.0009613328 0.002108098 -0.0021624416 0.00056877616 0.00076302816 0.0003201773 -0.0016513797 -0.00037918962 -3.523659e-05 0.0005713976 0.002450664 0.0006180068 0.002252229 -0.00051409774 -0.0016427438 -0.00016805064 0.00090094865 -0.0013766182 0.0008875611 0.0007340261 0.00028451555 -0.0010990319 0.001855948 0.0013970237 0.0005142554 -0.0010619595 0.001713979 0.0022010352 -0.00038178056 -0.0015257394 -0.0010188323 -0.00027758814 -0.0013328833 0.0017912681 -0.0014220694 -0.0023555236 -0.001756618 -0.0019127547 -0.00090726046 0.0006435788 5.0342875e-05 0.0015026242 0.0010958444 0.0016798885 0.0020651743 0.0012347456 0.00058968086 -0.00020875898 0.00042592874 -0.0023662276 0.0011622086 -0.0011592254 8.439738e-05 0.0013123776 -0.0011864874 0.0024576276 0.0012260552 -0.00042072334 0.00042901118 0.0003462946 -0.0012563983 3.206404e-05 0.0024168845 0.0016573025 0.0007535443 -0.0017273605 0.0016282983 0.00082306797
process -0.023708995 -0.011098592 0.036380116 0.09532582 -0.12899545 -0.03679105 -0.01606914 0.008099168 0.018205957 0.07239609 0.072976485 -0.0041546044 0.0132273305 0.042893413 0.02077981 0.021813842 0.03359021 0.0066616684 0.03772915 -0.035602454 -0.046148628 0.02300898 -0.038276907 -0.043759167 -0.1250673 0.010565124 0.007336933 -0.030343698 -0.10255531 -0.022850415 0.05831655 0.007408533 0.0832023 0.04828271 -0.03385983 -0.0523241 -0.07066535 -0.034291886 0.023084197 -0.021654699 -0.09031252 -0.03190235 -0.01012173 0.006500962 -0.023237584 -0.04953417 -0.03938003 -0.09120492 0.06821039 -0.027204935 -0.009656594 0.013783524 0.020850124 0.034447018 -0.023586212 0.01219355 -0.029364271 0.113920815 -0.038338665 -0.020230561 0.046876222 -0.011943825 0.064885944 -0.13836919 -0.102943696 -0.022615846 0.00063837453 0.044308174 -0.0073559657 -0.056100518 0.038010627 0.06296105 -0.072448716 -0.07061922 0.0069982843 -0.0892264 0.019597871 0.012066187 -0.02573867 0.025966195 -0.0005831641 -0.078183405 -0.063002214 -0.052197084 -0.027374214 -0.06659373 0.038903642 -0.017139168 -0.041010804 0.03494964 -0.005664606 0.030290272 0.010723955 0.07152579 -0.03285738 -0.017546318 -0.0086523425 0.11007918 -0.06295928 -0.0065977597 -0.0036425644 0.021305898 -0.0011552833 0.02433259 0.055776138 0.10788356 -0.026882559 -0.009851987 -0.0074744453 0.056383472 -0.0145136425 -0.059164993 -0.011285942 -0.00019981415 0.026317341 -0.14451702 0.020270007 -0.03039233 -0.037974864 -0.0048310026 -0.009706114 -0.01825698 -0.08019029 -0.09417069 0.019303994 0.028186806 0.07607603 0.019858254 0.006149748 0.013098766 0.016460672 0.030971725 -0.018216973 0.07303354 0.095000364 -0.06285157 0.0681793 -0.024793437 -0.049084794 -0.05468523 -0.018067518 0.06676301 -0.071571685 0.0466298 0.07386175 0.10837252 0.02357765 -0.122175634 -0.05464831 0.0048936717 -0.09881031 -0.02194263 0.017665064 0.13157734 -0.011323052 0.0046135276 0.069888026 0.020296661 0.04360111 0.016539447 -0.023407908 0.03895603 -0.004408448 0.09488031 0.05609025 0.04148807 0.01406846 -0.029296648 -0.026571311 0.044769544 -0.034553558 0.03892794 -0.07164027 0.015869854 -0.11667705 0.111384235 -0.006137953 0.036083806 -0.04028607 0.015213724 -0.0032090426 -0.0014563472 0.011126739 -0.008583193 -0.0072637764 -0.08545043 -0.03978445 -0.07464809 -0.021052783 0.019873956 -0.09571361 -0.021046007 0.093719356 0.0415328 0.012017886 0.14544089 -0.0087798275 -0.06811026 0.04384866 -0.10902622
is -0.0015165084 -0.0002454403 0.00040032365 -0.00018440583 -0.002304835 -0.0011614653 0.000686961 -0.0020165113 0.0006030791 -0.0009423401 0.0022393377 -0.0012850523 0.0024105678 0.001564566 -0.00025308854 -0.0016565705 -0.0009228918 -0.0024695408 -0.00029720156 0.0021116957 -0.0018106592 -0.0020692265 -0.0014780762 0.0010914092 -0.0008726701 0.00066240574 -0.0008712476 -0.0003645823 -0.002202673 -0.0021019573 -0.00059802446 -0.0013632628 -0.0013792187 -0.0012987464 0.0024771462 -0.00035096426 0.0002225847 0.0021584611 -0.002315674 0.00077942316 0.000603131 0.0012979701 -0.00012994581 0.0003647888 0.002371314 0.0012286883 -0.0013911736 -0.0021343736 -0.001297084 0.00082710176 0.0004564554 0.0009070316 -0.0022881206 -0.0004801785 -0.00025905133 0.0024428405 0.0003707239 0.00039765378 0.0014333162 0.0016215891 -0.0013202613 0.00022874773 -0.0014874076 -0.0024466354 0.0010930421 0.00016350858 0.0014853869 -0.0009824588 0.002011784 0.0015992676 -0.0012657312 7.623946e-05 -0.0015285145 0.00042126467 -0.0014797547 0.002478741 0.00197375 -0.0012522032 -0.00090102665 -0.00062128867 -0.0012575593 0.001976489 -0.0012956705 -0.0002296057 -0.0010555818 0.0021369997 0.0015345193 -0.00051430403 0.0016708169 -0.002416228 0.00024003605 0.0012260387 -0.0010975844 0.0014620642 0.00045495993 0.0002161467 0.00058128755 0.0023681019 0.0004506386 -0.002339009 0.0012088942 -0.0012719574 0.0021010195 0.0005801781 -0.00041121175 -0.001503391 -0.0007468432 -0.0015886443 0.00095865014 -0.0017707231 -4.8983144e-05 0.0006151777 -0.002137508 0.0013619361 -0.0017735632 0.00077336375 0.0021505198 0.0005770386 0.00074335537 -0.0021189442 0.0022151438 0.0023683687 -0.0015106037 0.0018511922 0.0022003278 0.0023565101 0.0012065489 0.0023467792 -0.0021627757 -0.00016275188 -0.0007028255 0.0005318555 0.0008799932 0.0010592926 -0.00052555883 0.00027197856 0.0008703503 -0.00062747055 -0.0024857514 0.0023028427 -0.0011748895 0.00088324305 -9.7019365e-05 -0.00041343947 0.00017745653 -0.0014643461 0.0017572241 0.0012510857 -0.0012979483 -0.0003507731 0.00047280756 0.0014133351 -0.001119585 0.0014408729 0.0019761086 0.0023795986 -0.00020944187 0.0013150978 0.0003779512 0.0018152008 0.0016279984 -0.0017026344 -0.00092072843 -0.0010694286 0.0004780183 -0.00052840565 -0.0015233981 -0.00025113043 0.00025743153 0.00048531522 -0.0009968388 -0.0018201906 0.0024442454 0.0023197983 0.001283752 0.0009645289 -0.00181548 -0.00087081164 0.0008254426 0.00069482555 0.00027944404 0.0010340968 -0.00070624263 -0.0023395445 -0.00075105485 -0.0009715796 -0.0006930509 0.00094011775 -0.0021383595 -0.002141496 -0.0023972653 -0.0015444215 0.0004495522 -0.001326304 0.001419893 -0.001009862 -0.00085517345 0.0010417202 -0.0007857019 -0.0023105717
directed 0.0003923818 0.0012944259 0.0011737612 2.0170119e-06 0.002034509 0.0022059008 -0.00010022288 -0.00031804293 1.2846664e-05 0.001254272 0.0007292086 -0.0004899937 -0.001393556 -0.00092013716 -0.0005852303 -0.00016718451 0.0012898624 -0.0001162549 0.0019794926 -0.00043205312 0.0007133004 -0.0010199806 0.0017862469 -0.00035117334 -0.0002642246 0.002273804 -0.002433746 -0.00047944346 -0.0015191763 0.0017079562 -0.0011615705 0.0023334878 -0.0015656134 0.0011023264 0.0011796411 -0.0022191447 3.826688e-05 8.834689e-05 -0.0020112172 0.001449584 -0.0024751928 0.0005872941 -0.0022586004 -0.0024770075 -0.001998102 -0.0017002573 0.0020166868 -0.00042780046 -0.002071401 0.00040698564 -0.0015831112 0.00028578728 -0.0023180305 0.0009256869 0.0017301948 -0.0013449433 -0.0023919453 0.00068560475 -0.0016985809 0.0015439386 0.0012175494 0.0023648976 0.00085190614 -0.00057245966 0.0016293796 0.002368947 -0.00023109699 -0.0011475646 -0.00047376892 -0.0009427309 -0.00040096068 -0.00090831274 0.00016261078 0.0012629409 0.0015651188 0.00014635152 0.0016253875 0.002182507 -0.000376045 0.001063629 0.0014899955 -0.0012053584 0.0023627188 0.0024076477 -0.00093015935 0.00046169735 -0.001451951 0.0018417155 -0.000661124 0.0015129424 -0.002460409 -0.0019750034 -0.00183898 0.0002977841 0.0013041699 9.662728e-05 -0.000558801 8.681952e-05 -0.00199439 0.00026985817 0.0010898681 0.0009991699 -0.0014790526 0.0015592701 0.0023833765 -0.00069898996 -0.0016141089 0.001794369 0.00057739136 -0.00070916954 -0.0003397416 0.0021507558 0.0018975837 0.0024758675 0.0011165505 0.0015017921 1.5142374e-05 0.00061111804 -0.00043124938 0.0012655621 0.0024808012 -0.0006406978 0.0010704307 0.0016066087 0.0011934515 -0.0011980772 -0.0012360918 -0.0017206809 -0.0012506073 0.00042962423 -0.0006653934 -0.001011283 -0.0023667833 -0.00024202932 0.0013863428 -0.0013308233 -0.001517142 -3.372412e-05 0.00086727645 -0.0015833261 -0.0020161825 0.0024134195 -0.002030195 0.00035078079 -0.0015422895 -0.0019323367 -0.00019913376 -0.0010434443 -0.00033312268 -0.0002817281 0.0016124924 -0.0019404506 -0.0014388066 -0.0006172609 0.0018478902 0.000992412 0.0010132894 -0.0013336136 -0.0016146386 0.00096415984 0.0017742859 -0.0017349252 6.6729262e-06 0.0012020406 -0.00087206124 -0.001770823 -0.0022691546 -0.0011477688 0.0016508689 0.0024490766 -0.000756245 0.0021088421 -7.994659e-05 0.0013778522 -0.00050185807 -0.0016753724 -0.00017240644 -0.0015450304 0.0013673608 -0.0014285499 0.0020753746 -0.0019144558 0.00018341024 -0.0013311913 0.0016792798 0.0012468132 0.0013535472 0.0023356434 0.0023340029 0.0011204896 0.00039199833 0.00024893973 -0.0016362478 0.002104546 -0.0014516031 0.00015670084 -0.00037777028 0.0016531632 -0.0024708807 -0.0022085463
by -0.027408222 -0.011500286 0.03901893 0.09609673 -0.12832457 -0.03961143 -0.016174508 0.009014638 0.01568737 0.06893578 0.07249638 -0.00832677 0.010598796 0.04503357 0.018136306 0.022124112 0.032243762 0.008868451 0.04021157 -0.035737872 -0.04552249 0.022267353 -0.04111016 -0.041218884 -0.12427468 0.010138659 0.007403816 -0.033528436 -0.100360565 -0.020507883 0.057639465 0.0031487332 0.08231001 0.050755523 -0.038058545 -0.052315146 -0.06977689 -0.033169933 0.020814648 -0.017265562 -0.08645843 -0.028341271 -0.013389628 0.008770931 -0.023100624 -0.049510516 -0.038641717 -0.08789008 0.06735012 -0.025552133 -0.013739655 0.015733328 0.019195065 0.036857296 -0.02078008 0.0096853115 -0.02973848 0.11246892 -0.037328362 -0.0155243315 0.04365099 -0.010976747 0.0621752 -0.13662745 -0.10161748 -0.023065018 0.004009697 0.042586785 -0.0077021993 -0.057490174 0.036382843 0.060221825 -0.07203567 -0.06709975 0.005462173 -0.088889286 0.019509984 0.013581666 -0.029623486 0.02549572 0.0003597735 -0.0741998 -0.0578209 -0.053826574 -0.023634192 -0.062571816 0.038864948 -0.017574582 -0.04139413 0.03701641 -0.0065837717 0.030881248 0.009287633 0.07278971 -0.031279277 -0.013006598 -0.0108422395 0.10893982 -0.06042708 -0.002627706 -0.008727678 0.021331605 -5.957155e-06 0.025575783 0.05390032 0.107693024 -0.025527973 -0.010133214 -0.0064828354 0.056503598 -0.01347541 -0.059345834 -0.0143657895 -0.004244614 0.029240778 -0.14493568 0.018161425 -0.029010283 -0.035882343 -0.0059660603 -0.012806446 -0.0156252 -0.078789175 -0.09284731 0.016368048 0.029987356 0.07590289 0.02337961 0.006131056 0.01045325 0.02014627 0.02879471 -0.021909267 0.072624825 0.094021775 -0.06347818 0.069776215 -0.028982969 -0.051279575 -0.05200039 -0.019253619 0.06345542 -0.06939661 0.042377125 0.073653325 0.10849233 0.02290209 -0.12096163 -0.052901287 0.003585917 -0.09902915 -0.01962203 0.015677657 0.13047625 -0.014699054 0.008523127 0.07259107 0.018614538 0.03910167 0.01396972 -0.022775924 0.040006988 -0.005472533 0.09227775 0.056605477 0.04534621 0.015150571 -0.02949358 -0.02389857 0.043201018 -0.03536455 0.039295156 -0.06960348 0.013574123 -0.11551183 0.1109718 -0.0031113483 0.036179934 -0.041449007 0.015682673 -0.0016171811 0.0023761687 0.01351258 -0.008834648 -0.009000392 -0.084210284 -0.042175807 -0.07190358 -0.023335718 0.021961976 -0.09524348 -0.022636544 0.092347085 0.04479444 0.013006702 0.14358701 -0.005697649 -0.068724915 0.044261757 -0.108167835
pattern -0.00019066688 -0.0022390105 -0.0018936872 0.00046364893 -0.0020022637 -0.0015373003 0.0023324094 -0.0005186447 -0.0011467519 -0.0004095051 -0.002004717 0.0023752064 -4.2568427e-05 -0.0018648102 -0.00030440302 -0.0021392691 -0.0012367448 -0.0013302299 -0.00025606272 -0.0022098033 0.0024563363 -0.0015958347 -0.0018891221 0.00079810224 -0.0022914899 0.0011094541 0.0002037501 -0.0003885252 0.0021179426 -0.0024476503 -0.0007116025 -0.00029698946 0.0009931892 0.00013621082 0.0023229527 -8.912734e-05 -0.0015611848 0.0023801634 0.002480099 -0.00018416787 0.0013015035 0.0023961752 0.0024182857 -0.0005189427 0.002028122 0.00023133634 -0.0013410392 -0.002362799 0.0006704796 -0.00092184567 -0.002443564 -0.0007933652 0.00014238362 -0.002130152 0.0015503834 -0.00064154866 -0.0005729133 -0.001187289 0.0010553645 -0.000881406 0.0008945069 -0.0019586664 -6.713695e-05 0.00095087057 -0.0017467928 -0.0009455427 -0.0013635006 0.0014468031 0.00057488587 -0.0006588864 -0.0006918517 0.0023768554 0.0018066186 0.001718062 -0.0024411117 0.002013137 0.001514826 -0.0022561369 0.0023019374 -0.00027295738 -0.00012541772 0.0015421035 -7.62844e-05 0.0022025905 0.0005027896 0.0022485033 0.0010465111 -0.0011862635 -0.0021161789 -0.00020677526 0.00077480194 0.00049814605 -0.0023818894 -8.151401e-07 -0.00075762183 -0.001840018 -0.0016254049 0.002180506 0.001304999 -0.0013110393 -0.001389775 -0.00018374599 -0.00041690888 -0.00057287666 -0.00039708288 0.001063979 -0.0013830257 0.000764017 0.0013070449 -0.00019674143 0.0012779904 0.0017742403 -0.0009671786 0.0009781548 -0.002383512 -0.0019716206 -0.0022502444 -0.0002365848 -0.0007783482 0.0020627016 0.00079755834 0.0019810903 -0.00204124 0.0022235522 -0.0018786022 -0.001959685 -0.0015179991 -0.0014315032 0.0024750452 0.0020677452 0.0009204191 -0.00014838809 0.00059907977 0.00026026764 -0.00171574 0.0006418759 0.0007291448 0.00092145056 0.0008128609 0.00032132887 -0.0012554574 -0.00213041 -0.00074794795 0.0010949427 0.0021736957 8.240738e-05 0.0012999175 -0.0021711134 -0.0023340024 0.0016759201 -0.0022594568 0.0018643034 -0.0020645664 0.0014172555 0.00014354917 -0.0016008266 -0.0006013793 -0.0010191118 -0.0019517001 -0.000999437 0.0013344481 8.1744976e-05 -0.0017105066 -0.0014237689 0.0002807679 -0.00045979628 -0.0024301568 4.4042477e-05 -0.0015567895 -0.0018780648 0.00037675677 -0.001143752 0.0009289563 0.0013784447 -0.0014610556 0.0024695531 -0.0020323726 0.00031657284 0.0020288578 -0.0021246609 0.00063890475 0.0021327068 0.00066873245 -0.0013565868 0.00037305616 5.1922398e-05 -0.0012257787 0.0024451776 0.00035422365 -0.0005055503 0.001738931 0.0016255328 -0.001095944 0.0003257934 0.00093175704 0.002260759 -0.0014324808 -0.00027774042 0.0020563323 0.0016183481
rules 0.0023935037 -0.0005165385 -0.0022920915 0.0022284985 0.0017456445 -0.0009046894 0.00066681067 -0.0014069774 0.0008481785 -0.0010667247 0.00024733366 0.0015541324 0.0014886688 0.00042806147 -0.0017278537 -0.0017626688 0.0021273275 -0.00046697073 -0.0022172686 -0.00209407 0.0007134343 0.00247464 8.360692e-05 0.00032315194 0.0014195456 -0.0005113876 -0.00010364503 0.0018339367 -0.0014327642 0.0015690811 -0.0010460514 0.00096174376 -0.0021395006 0.0022341968 0.00055836467 -0.00030874717 -0.00053149136 -0.0019798942 0.00012597325 -0.0015588808 0.0020949957 -0.00016780128 0.0009836194 0.0023391182 -0.0012408894 -0.002421836 -0.001962829 -0.00050502294 0.0014451905 -0.00147156 -0.00031901477 -0.00065401965 -0.0018944817 -0.002230172 -0.001048725 -0.002189147 0.0017633596 -0.0015032473 0.0023751413 -0.0013227117 0.00037005893 -0.00029590307 0.0018870835 0.0022605318 0.0021946873 -0.001002759 0.0007533077 -0.0007596847 0.0017396887 -0.00060253136 -0.002363539 0.00047849654 0.002279079 0.001867638 -0.0006374472 -0.0002423646 0.00048667542 -0.00069371343 -0.00057070935 -0.0005110558 0.0019080169 -0.0018981507 0.0009057089 9.050756e-05 0.0015341719 -0.00047011976 -0.00016416167 0.00072809635 -0.0020598576 0.0006859817 -0.0022006924 -0.001007739 0.0010927543 0.00060986425 -0.000812729 -0.00038379454 -0.00060871814 -0.001273829 0.0019826186 -0.0015079727 -0.0013515508 -0.0023998746 -0.00087772694 -0.00024730433 -0.0017470532 -0.0006524706 0.0013232976 -0.0016428265 0.0022051223 0.0019773454 -0.00063023414 -0.0011515626 0.0020228913 -0.0017237642 0.00016283244 -0.0011733901 0.00046731206 -0.00011802162 0.001063575 0.0024020188 -0.000100175384 0.0002471509 -0.0010873973 -0.0016253715 0.0014333162 0.00019211508 0.0019293879 0.00085576763 -0.0009710174 -0.0020487874 -0.001432236 0.0018975795 0.00014801417 -3.8190978e-05 0.0023745783 0.0019053696 -0.0011784985 0.0004838216 -0.0013900405 -0.0021406352 -0.0021843687 -0.002108908 0.0010044277 0.0012284603 0.0023763338 0.001843153 -0.0020542692 0.0019466616 0.0024143988 -0.0020215504 0.0018452439 0.0004961712 -0.00084175286 -0.002444341 -0.0006448629 -0.00034384406 -0.00019203965 -0.0024186787 0.0012754907 -0.0024552702 0.0013865116 -0.0020292744 0.000532547 0.00016962597 0.00040916563 0.0019108718 0.001443719 0.0024429979 -0.0022813838 -0.001954442 -0.0016453143 0.0018676184 0.0002487204 0.0022082496 -0.0010496986 -0.00091172697 0.0013581035 0.002225609 -0.00026613777 0.00096173934 -0.0008306771 -0.00013130368 0.0013350463 0.001413316 -0.0010747531 0.00029202783 2.9018847e-05 0.0019347165 -0.0022395991 -1.0810094e-05 -0.0008097425 0.0017122705 -0.00085932703 0.0009213006 -0.0024821493 -0.0012373179 0.001892631 0.0004587795 0.0014709462 -0.0018013865
program. 0.0012176707 0.0009648886 -0.0022791633 0.00033079903 0.0016856734 0.000971162 0.0007144094 -0.00020520389 -0.0023480128 -0.002114851 0.00068474445 -0.0017734158 -0.00040748622 -0.0020303163 0.00014930544 -0.0020950977 0.0014253268 -0.0010173222 0.0020836964 0.00051949313 -0.0016646378 -0.0021556253 0.000941101 0.001023087 -0.001528742 -0.0015293413 0.0010827752 0.0023843972 0.0013817924 0.000835577 0.0018582852 -0.00023502181 0.0012775939 -0.0006302723 -0.0022465792 -0.0020567747 0.0021348167 -0.0024972982 0.0022927509 0.0011350547 0.0018440117 0.00087802764 -0.0020029598 0.0012519115 0.0009760719 -0.0015795298 0.0007734664 0.00089845737 -0.00037107198 0.0010100999 0.0006105718 -0.0013840428 -0.001261163 0.002198563 0.0009364467 -0.002137476 0.0004952615 0.00018888619 0.0022199787 0.0010827894 0.0014654812 0.0021510734 -0.0023706348 0.0021560094 0.0013575512 -0.0011392635 0.0015807659 -0.0011398596 -0.0021391045 -0.0007028228 -0.00016662409 -0.0012550717 -0.0016296735 0.00038772938 -0.0020306401 0.0010861903 -0.000712657 0.001301052 0.00036305585 0.0012155408 0.0010276493 0.0011261164 -0.0014538576 0.0008711056 -0.0024527821 0.0003722543 0.0012506556 0.0019287476 -0.0017736423 -0.0009557941 0.0007737265 -0.0013569408 8.738646e-05 0.0012469017 -0.0020769443 0.0011287255 0.0022966964 -0.0024266124 0.0014669793 0.0011771771 -0.0004979619 -0.0024572276 -0.00039657927 -0.0019991994 0.0008441254 0.0011630063 0.0020924262 0.0013153383 -0.001946361 0.0011141272 0.0011729717 -0.0017392489 -0.0010379758 -0.0015368178 0.0005456563 -0.0023979982 -0.000548352 -0.0011879437 -0.0015510491 -0.0003684517 -0.00043389085 0.0011184695 0.0020630825 0.0014916491 0.00081075495 8.971058e-05 -0.00035605277 -0.0009554457 -0.0022857382 -0.00053251465 -0.00031713955 0.0013738712 0.00054021855 0.0024444843 0.0018513943 -0.00019383151 4.0340237e-05 -0.0013490774 -0.0020988877 0.00057344255 -0.002310804 0.00057984865 -0.00096354005 -0.00049560936 -0.0003787845 -0.0021622102 -0.0015082654 0.0022644093 0.0016972288 0.0017049136 -0.0003327306 -0.00062652316 -6.190082e-05 -0.002088029 0.0016866368 0.0024549733 0.0023280168 -0.0023956415 -0.00023144716 0.0009817162 0.00036129006 0.0021309094 -0.0018688964 0.0016505551 6.38708e-05 -0.0024890937 -0.0011769629 -0.0024959873 6.0590915e-05 -0.0005236182 0.00060607004 0.0003252544 0.0011561546 -0.0009560698 -0.001443454 -0.00025126338 -0.00024796207 0.0016083587 0.0023562512 -0.00043060118 -0.0015275758 -0.0024050823 0.0023178915 0.0020897896 0.0002720817 -0.0013151792 0.001272276 0.001214549 0.0022473824 0.001915907 0.0023761583 -0.0009949725 0.00011257711 0.0024711117 -0.001568618 -0.0024099515 -0.00055242924 -0.0004419661 -0.0004849357 0.0021312502
