50 200
UNK 0.0019060746 0.0011790469 -0.0010946059 0.0009488936 0.0020922683 0.0022898358 0.0014576395 0.0011591339 0.0020012148 0.0015347875 -5.904818e-06 0.0013315675 0.00038818084 0.0015170272 0.0023968075 0.0001883742 0.00020593428 -0.0021640502 0.0010143861 -0.0013405463 -0.0017745956 0.0010460948 -0.0012783441 -0.00067117426 -0.0019084411 0.0022197077 -0.0012912926 0.0006845936 0.00028484198 0.001053377 -0.0023149024 -0.00032120664 0.00039615622 -0.001862466 -0.0018368121 0.0023063943 -0.0019832188 -0.001709893 -0.0015860233 0.0020869067 0.0023318664 -0.0021973297 -0.001978131 0.0023171655 -0.002100635 0.00095121283 0.0013483868 -0.001508721 0.0020550932 0.002254068 -0.001582758 -0.0012223598 -0.00051074196 0.00014036591 -0.0007175708 -0.0011907243 -0.0023871623 -0.0012153005 9.154668e-06 -0.001973212 -0.001411955 -0.00082804856 -0.0013448208 0.0018731663 0.0024999897 -0.0020182403 0.0017360058 0.0012903649 0.00020827819 0.0009683629 0.00012842566 -0.0017435502 0.0010564411 -0.0020231428 -0.0006345648 -0.0005072546 -0.0012128984 -0.00033721654 0.0009511744 -0.0014064144 -0.0014224878 0.0009872052 -0.002197974 0.0018422296 -0.0018328062 0.00026091398 -0.0024438421 0.000935829 -0.00094330753 0.0014745607 -0.00083815365 0.0022563888 0.00028415537 -0.0013573816 0.00015717768 0.002389004 0.0023964313 -0.0012670737 -0.0016707098 0.0012304559 -0.00064879656 0.0017595496 -0.0021807274 -0.00024837884 0.0024652286 6.3699204e-05 -0.001695198 0.0024060463 -0.00041720783 0.00024505565 0.0020580655 0.0017355988 -8.1575476e-05 -0.0011020252 0.0008726092 0.00021222862 -0.0004106143 -0.0016251195 -0.0018818706 -0.0012198186 -0.0007147837 -0.00035546836 0.0011101239 -0.0013253435 0.00062640663 -0.0017882893 -0.0005461923 0.0016129636 0.0002467113 0.0011467629 0.001472963 0.0015916033 0.0004898547 -0.0019183927 0.001320906 -0.0003845999 0.0016792328 -0.0010934013 0.0013032043 -0.0017113661 -0.00030703214 -0.00051221554 -0.0024301803 -0.0006580779 2.5303103e-05 -0.0014334791 0.0022052438 0.0004466474 -0.0022501575 0.001924254 -0.0010037329 0.0004780423 -0.0014134875 -0.0014964908 -0.0023911989 -0.0022505654 1.8228777e-05 0.0018956112 -0.001694737 0.0015682639 0.0004177827 0.0016384218 0.001303405 0.00073967455 0.0021178056 -0.00044504786 0.0019113054 -0.0018583857 -0.002024013 0.0002889433 0.0018682168 -0.00044329162 0.0022116099 0.0019486658 -0.00020318758 -0.001863315 -0.0016927423 0.0017744768 0.00188408 0.0002757602 -0.001239615 -0.0022161612 0.0023937118 0.0005293337 0.00086472277 -0.0013780833 -0.0015415018 0.0009803567 0.00065061357 0.0023061624 0.0019113179 -0.0018675618 -0.0010361117 -0.0003558644 0.00039051333 -0.00031408062 0.0024006949 0.0010659215 -0.0020216063 0.0016073608
of -3.5236124e-05 0.0009864175 0.00034702895 -0.0021291464 -0.0006588957 -0.0023799895 0.0008348557 0.00034617446 0.0012437205 0.00068134815 -0.0014433559 0.0016036951 -0.0010173478 0.00027489336 0.000510836 0.0004802451 -0.002213774 0.0022240435 0.0019292315 -0.0015553725 -0.0010203606 -0.0024429073 0.0014200713 -0.00076492724 -0.0023219404 -0.001943035 -0.0021654516 0.002066249 0.0013831372 -0.0014115536 0.0020634965 -0.0019207718 -0.0013200977 0.0007979169 -0.0002180785 -0.002325827 -0.0006989032 -0.00074708194 0.0006790662 0.0019259397 0.0009441164 -0.00019269995 -0.0005965262 0.0021032006 0.00052674627 -0.001685304 0.0013437867 -0.0018669367 -0.0005657184 -0.0011639005 -0.0011275124 0.0024401266 -0.0019329023 -0.002170959 0.00079330313 -0.0013278994 -0.001396243 -4.347926e-05 0.00084614335 -0.00049985875 0.00021474739 -0.0021308884 -0.0019005078 0.0004357607 -0.0015638086 -0.00040854374 0.0021391697 0.0017453837 -0.00024355645 -0.00042325328 0.00037064613 -0.00068732584 -0.0017693129 -0.0015362152 -3.0389056e-05 -0.0015764378 -0.0005817434 0.0012511876 0.0018246928 -0.0019189983 0.0010910633 0.00053215236 -0.001070058 -0.001649848 -0.0014530083 0.0009328779 -9.2053786e-05 -0.0003204113 0.001185576 -0.0024275328 0.0022024093 -0.0013464945 -0.0012422997 -0.0005970773 0.00057005114 0.00023308862 -0.002422765 0.002317679 -0.0022453158 0.0013020106 0.0004968385 -0.00010102382 0.0023435974 0.0008618969 0.0016450724 0.0006732673 -0.0005420726 0.00170227 0.0012684446 0.0011911276 -0.0009642729 -8.856412e-06 -0.0015443072 0.0018692417 0.0013975783 -0.0012231737 0.001750017 -0.0010409012 -0.0018919003 -0.00018642982 0.0014799563 0.0014983038 0.0007884691 0.0013550948 0.0012748016 -0.0021356794 -0.0009759166 0.0007318461 -0.0013867855 -0.00052532554 -0.00020636478 -0.0003115302 0.00067505357 -0.0019249731 -0.0009606433 -0.00015248545 0.0018687076 -0.0006211966 -0.0005331335 0.00089080306 -0.001393229 0.0004698455 0.0010671879 0.0006816494 0.000112036476 0.0013179432 0.000875243 -0.0017549252 0.0012085794 0.0013733166 0.0019466225 -0.0017476737 -0.002105667 0.0019591143 9.116251e-06 -0.0014421463 0.00075674104 0.00043946295 -0.00055245997 -0.002254421 0.0008352252 -0.0010055753 0.002354233 -0.002188751 -0.0012030649 0.0024951342 -0.0015386846 -0.00087909785 0.00057339366 -0.002302698 -0.0020109576 -0.00084198324 0.00030708173 0.00012404681 -0.000540663 0.00039554643 0.0020639808 -0.000966812 -0.0012981027 -0.0020596099 0.0016241055 5.0664647e-05 -0.0006271502 -0.0014043882 9.361794e-05 0.00047667557 -0.0006964761 -0.0010926428 -0.0023907088 0.0014864681 0.0019524321 -0.0011196809 -0.00033847778 -0.00027592387 -0.00017337804 0.0006180075 0.0024322374 0.0009932404 0.0024310946 0.00059956615
a 0.002458938 0.0023261402 0.0005591919 -0.0019863422 0.0018654815 -0.0010159194 -0.0001800626 -0.0015636936 -0.00072317244 -0.0006914848 -0.002390515 -0.0014217254 -0.00026321528 -0.0017926487 0.0020525632 0.000861411 7.156399e-05 0.0011779633 0.0011687418 0.0020066765 -0.0021809915 0.0018074946 -0.0010532036 9.910087e-05 -0.0024203188 0.00086987135 -0.0014895129 0.0011811797 -0.0003344766 3.1102914e-05 0.0002455148 0.0017858422 -0.00036004488 -0.0006345898 0.0019058762 0.0013780389 0.00041450327 0.001984558 0.00051721954 0.0007865869 -0.001432719 0.00032033562 0.001182554 -0.0012865483 0.0014322172 -0.0008345073 0.001449775 -0.0015959746 0.0009795898 -0.00016631628 -9.4671734e-05 0.0019076383 0.002475963 -0.0012496903 -0.0009694657 0.0015621181 -0.0019242475 -0.00082851853 -0.001072247 0.00070196064 -0.0005184605 0.0021332745 -0.0024618243 0.001202126 0.0011991414 0.000778385 -0.00013172906 -0.0018108082 0.0017643045 -0.0018746391 0.0016652914 -0.0013731435 5.93788e-05 -0.0022948063 -0.0023461473 -0.0018418428 -0.0006102979 0.0004798004 -0.0022382285 0.00027878582 0.00093343365 -0.0021711793 -0.00073467754 -0.001486102 -0.00040594 -0.0011047375 -0.0015275162 0.0015500016 0.0015081856 -0.0015523427 -0.00157486 -0.00015002815 -0.00096600025 -0.001834251 -0.0006053132 -0.002097519 -0.00038840435 -0.0024531763 -0.0020874687 0.0024420284 -0.00048594316 0.0014672624 -0.0004653558 -0.0011446222 -0.0015377596 -0.0018696877 0.0019061225 0.0023868093 0.0019066767 0.00097301067 0.0005198249 0.0010575331 -0.00087163923 -0.0011494762 0.0009130591 0.000667437 8.405233e-05 -0.00057371496 -0.0008012423 -0.0004237399 0.0005856755 0.00034333696 0.0022026096 0.0014632647 0.0019540712 -0.001044636 -0.0017323913 -0.0003812355 0.0007697309 0.00074329413 0.0022395337 0.002447059 0.0016359068 0.0009984558 0.0010835284 -0.00013202336 0.001167604 -0.00052497466 0.0011336454 0.0023585078 0.0021016765 0.0008410427 -0.0021488913 -0.00094581244 0.0011637076 -2.6000198e-05 0.002322412 -0.0021982277 0.0003296954 -0.0004495459 0.00020218547 0.00053419266 -0.0023343319 0.0013487486 -0.0016515001 0.0012878061 0.00037697353 -0.0021306183 -0.0015038472 -0.00042311964 0.0024468699 0.0016859351 -0.0017042032 -0.002343936 0.00014419458 0.0011224537 0.0016832724 0.00012633554 0.0024998803 0.00014236965 -0.0021712552 0.0005121026 -0.0007967382 0.00010088808 -0.0012508944 0.0003974361 0.0012143031 -0.002046906 -0.0019968995 0.0016644215 -0.001967033 0.0012699801 0.00057222554 0.0013852972 -0.0011882553 -0.0010242477 0.0019923588 0.0012474228 0.00064517814 0.00060133194 -0.0015204662 -0.002320166 -0.0011888647 -0.0018263045 0.0013171092 0.0024032937 0.0010729756 -0.0021419688 -0.0019201171 -0.00047896616
the 0.002035229 -0.0020234147 -0.00011190213 -0.0013239554 -0.0005862212 -0.0005067985 0.00028757984 0.0020048218 -0.0014478891 0.00077584176 0.0011928792 0.002032828 -0.002350851 -0.0023983824 -0.0013617983 0.00074863224 -0.0012314299 -0.000548959 0.0018443628 -0.0012281575 0.0024811514 -0.0015325781 0.0006973655 0.00021690014 0.0003531205 0.0022598524 -0.0015449272 -0.0007083934 0.0014015797 -0.0007056189 -0.0016214636 -0.0005626449 -0.00039594923 -0.00092839927 -0.0016907966 0.0022936622 -0.0016735902 0.0003861643 0.0014187908 -0.0010610869 0.0007984955 0.0017912504 -0.0009146329 -0.0012532517 -0.00026874035 0.0018228549 -0.0020819013 -0.0024831705 -0.0019005009 6.053364e-05 -0.0024461485 -0.0010745191 -0.0017820358 0.0019166525 -0.00063227175 0.0009842964 -0.001801871 0.00023437594 -4.0563755e-06 0.0021322914 -0.00040535815 -0.001866953 0.0012963051 -0.0023230966 0.00042421347 2.8416747e-05 -5.2139396e-05 0.0019379351 0.001332791 2.9568095e-05 0.0002067769 0.0018218923 -0.0014553645 0.00080472906 0.0006148692 0.002047842 0.0014108461 -0.0021050395 -0.00015036762 0.0018964219 0.0016122945 0.0020541297 0.002212305 -0.001998617 -0.0013266623 -0.00082863413 0.0017483551 -0.00072273705 0.0008063752 3.6157668e-05 -0.0013813319 -0.00085531676 -0.0021732515 0.00119118 0.00038964069 -0.0015444269 -0.0015053784 -0.0011002204 0.00036850967 0.00018305262 0.0013756249 -0.0012157592 -0.0019251548 -0.0024973585 -0.0014129004 0.0009438165 0.000583129 0.0019657537 -5.081529e-06 -0.0019275215 -0.0020253616 0.00025828648 -0.0010139847 0.0016683228 -0.0020769888 0.000744862 -0.0014000759 -0.001539174 0.0018819906 0.00040062703 0.0005059745 -0.0015456188 0.00047148252 0.00026527792 -0.0023198791 0.0007307853 0.001090769 -0.0021412587 -0.00048596738 0.0017319624 0.0004445354 0.0005386544 0.0014959327 -0.0018585613 -0.0010369903 0.002077789 0.0008138993 -0.0011303606 -0.0024834618 -0.00045248354 -0.0022169403 7.344177e-05 -0.0017030725 -0.00026001967 -0.0010317933 -0.0012741307 -0.001557551 -0.0008507711 0.00081596314 -0.0017288765 -0.0020838783 0.000552478 -0.002332023 0.0011421447 -0.0011904284 -0.0018174534 -0.0019703498 0.00041981344 9.154249e-05 -7.764925e-05 0.00041107158 0.002045569 -0.0017059066 -0.0004430858 0.00074791815 -0.0017060002 -0.002249909 -0.0010958695 0.0017730645 0.0005246233 -0.0013390982 -0.00060920895 -0.0012714147 -0.0010603919 0.0011880647 -0.0004253164 7.173349e-05 0.0006711576 -0.0017733591 0.00071723666 -0.00088515424 0.00041658664 -0.0012532201 -0.002456773 -0.00039546425 -0.0013829794 -0.0013851573 -0.0010799682 0.0013469884 0.001467648 -0.0023186982 0.00050640013 0.00095789647 0.0005458349 0.0013964283 -4.031416e-05 0.0011645809 -0.0013930592 0.00031928322 -8.758507e-05
are 7.335446e-05 0.0011254582 -0.00076403015 0.0022869515 -0.00021273852 -0.0014669492 0.002275627 0.000223496 -0.002327943 0.0014217589 -0.00010498217 0.000773381 -0.0017320546 0.0017979261 -0.00048586004 0.00023720856 -6.176322e-05 -0.0007678324 -0.00045163697 -0.0022105873 0.0005719105 0.0015726853 0.00083144754 0.00078137615 -0.0011541303 -6.822194e-05 0.000372699 0.0009046749 0.0009992674 -0.0012505897 0.0022967407 -0.0013402223 0.0006898234 0.00042653433 -0.0023904033 -0.0014801675 0.00093862833 -0.0021596223 -0.0016173195 0.00020282064 -4.744949e-05 -0.002247309 0.00019307458 -0.0009450093 -0.0014271584 0.002064249 0.0023745052 -0.0016216827 0.0020995848 -0.00026279385 0.0011201531 0.0011712599 -0.00028107455 -0.0013967231 0.0017713257 0.001721533 -0.00095288665 -0.0007808637 -0.000993542 0.0016758419 -0.0012588915 -0.00026452472 0.00022312487 0.001613223 -0.00036304025 0.0012278948 -0.0016344874 -0.0006008842 0.0012630736 0.000885437 3.3317134e-05 -2.4453504e-05 0.00015942333 -0.002152775 -0.00016053882 0.002293534 -0.0004894661 0.0010120915 0.0011992338 0.00035061804 -0.0021241358 -0.0013728344 -0.002014985 -0.0023093314 -0.0013496378 0.0016828538 -0.0008691456 0.00017181062 3.8589584e-05 0.0005468291 -0.0012785199 0.0009592208 -0.0019278175 0.0024849302 0.0010783374 -0.0014726782 0.00013192231 0.00024168612 9.543984e-05 0.0007519468 0.0013430109 0.0021146839 -0.001218987 0.0012387156 0.0013262527 0.00041495473 -0.0013754877 0.0017869184 0.0001287628 -0.00048800814 -0.0013175344 0.0006551072 0.0006931098 -0.00140407 0.0019856016 -0.0006592417 0.0007359693 -0.00030692574 -0.0004498968 -0.0010162573 0.002046587 -0.0017842373 -0.0019774598 0.0011999845 0.0004188195 -0.001168496 0.0016008099 0.0013382342 0.002264263 -0.0009219876 0.0011679519 -0.0023760959 0.0005332357 0.0017514043 0.0016350346 0.0016457541 0.0024067778 0.00010174373 0.0024710228 -0.0014410195 0.0018285802 -3.8816594e-05 -0.0017790988 0.002002642 0.0020171334 0.00040588784 -0.0004739035 0.0023412732 0.00028703362 0.0011794502 0.0015673982 -0.0006556788 -0.0023636285 0.0013996144 0.0020367298 0.0010510127 -0.0007776782 -0.00027196412 -0.0003765684 0.0006067327 -0.0008860177 -0.0002289908 0.00077583734 0.001028663 -0.00086597854 0.001473018 -0.0024815674 -0.00069944025 0.0015465696 -0.001996929 -0.0011371917 -0.0012350807 0.0009997028 0.0010015606 -0.0009701281 0.0017833151 -0.0011881447 0.0016051717 3.091595e-05 -0.0014784795 0.0013618867 0.0014109756 1.8625753e-05 -0.00060269027 0.0023204372 -0.0010031605 -0.00011232612 0.0008998492 -0.0011720711 -0.0009799617 0.0013990847 0.0014327592 -0.0017488387 0.0012347829 0.001984329 0.001118144 -0.00022697984 0.001055514 0.0020624097 -0.0010162567
to 0.000705492 0.00033885753 -0.0010951284 0.0011859974 -0.0019788072 -0.00065955694 0.00068035186 -0.00040703616 -0.000668788 -0.0024914201 -0.0013602009 -0.0008741295 0.001517246 0.0006016705 0.0006434324 0.0009793395 0.0021224935 -0.0015185674 0.0009139078 0.0023807795 -0.0016712951 0.0021911794 0.0010095909 0.0020297337 -0.00045937812 -0.0014960069 0.00020663743 -0.00034581963 -0.0005578643 0.00052959984 -0.0005357731 -0.002227146 0.0012130779 0.00050229486 0.0012158197 -0.0019559683 0.0022716592 -0.000417565 -0.0017215677 0.0024072514 -0.00088989583 0.0012358101 -2.6428374e-05 -0.002166261 -0.0018670526 -0.000665926 0.000833045 0.0023088492 0.001478279 0.0005124321 -0.001414994 -0.00069849554 0.0011430129 -0.00020570657 0.00057926285 -0.0021884579 0.0007117125 0.0022890144 5.863607e-06 -0.0014274367 0.0013783874 -0.0020454428 0.00030233595 0.00012099533 0.0023323032 -0.0022703973 -0.0001309656 0.0008402595 0.0022419235 -0.0012470752 0.001291791 0.00042548007 -0.0021573948 -0.00043013948 0.0024094698 0.0014204248 -0.0017151684 -0.00033700792 -0.00061437336 -0.0014939606 -0.00206512 -0.0016808084 -0.0024779944 -0.002398142 -0.0020801479 -0.0010991287 0.0006158224 0.0021477072 -0.0010928368 -0.0023098018 -0.0007145691 -0.001113731 -0.00036593224 0.0010811901 -0.00046203262 0.0014287219 0.0012700944 0.0011101337 -0.00016079936 -0.0022830348 -0.00074588414 0.0013216706 0.0011771005 0.0013199397 0.001578073 0.00018677744 0.00090573076 -0.0013534161 0.00012770062 0.0014686319 0.0019361749 -0.0022579292 -0.0020888878 0.001597363 -0.0010385764 0.001934065 0.0012716628 0.0021867831 0.0018146848 -0.002370655 0.0010866534 0.00080463407 -0.0017753509 0.00016497588 -0.00012596813 0.0020644842 -0.0020398363 7.490162e-05 0.0016013253 0.0013225924 -0.0022602389 0.0009603638 -0.001547431 0.0023758267 0.0006325105 -0.002036009 0.001005338 -1.51207205e-05 0.00040824735 -0.0008868581 0.00011217198 -0.0009598759 -0.002390778 -0.002429179 -0.0013615128 -0.0015031451 0.0022242279 -0.00047705346 -0.0016207909 -0.0012385154 -0.0022833464 -0.0009805545 -0.0020413464 0.0007554444 0.0016516112 0.0008797548 0.0024839845 0.0002675834 -0.0024937883 0.00059818686 -0.0011811903 -0.0024918537 0.0013863135 0.002471995 -0.0006179961 -0.00023859995 -0.00013183127 0.0006769302 -0.0008064896 0.0006933212 -0.0012530982 -0.0010161992 -0.001959392 -0.0020234894 0.0021959953 0.00059726974 0.0022501373 -0.002294236 -0.0015740746 0.0020266129 -0.0024383657 -0.0013702959 -0.0018393928 0.0019016764 0.0015325607 -0.00013723993 -0.0013514184 0.0003455535 0.00035765884 0.0020561554 -0.0008957052 0.0009341466 0.00100221 0.0011040219 0.0005389864 -0.0019692343 -0.0011661187 -0.00057719497 -0.0010794455 0.0005171576
processes 0.0064321794 -3.0246196e-05 -0.0061943275 -0.0037704408 -0.001452444 0.0072864243 -0.0026470413 0.0071923994 -0.0068293577 -0.002091958 -0.0040147654 0.006925947 0.001972355 -0.0043206476 0.0008219091 -0.0017424598 -0.01218519 -0.0012029958 0.002602037 -0.013150325 2.980615e-05 0.003511352 -0.006318994 -0.014476603 0.0077933026 0.0034337863 0.008791741 -0.0022382818 0.00033781992 0.0076884627 0.00044508174 -0.017265879 0.009642654 -0.0023851774 -0.0062757563 0.001510417 0.0063455184 0.0026832346 -0.0070926743 -0.0049824743 0.015590971 0.0025404545 0.0021316388 0.004654293 -0.0021960614 -0.009049877 -0.002390003 0.0043138745 0.0015386145 0.0048313043 -0.0021934933 0.004527519 0.007335631 -0.00040182797 0.004032743 0.0029573166 -0.008692425 -0.005268123 0.007897229 -0.0061363312 0.007814756 0.00047956136 0.0055794585 -0.0038379203 0.004709926 -0.008780671 -0.0039016465 0.013264071 -0.00064660795 0.015427465 0.014419749 -0.0004573907 0.005996201 -0.0054702484 -0.00427044 -0.0022883143 -0.0041970587 -0.0072243363 0.006988718 0.0016570921 -0.0007244061 0.011054246 -0.007089192 0.008704512 0.0037295367 0.0016084276 0.0047922945 0.008503172 -0.0008693281 0.0038008564 0.0027116844 0.004536575 0.0059011895 0.0076275603 0.0040996373 0.007378792 -0.0021601564 0.0032111371 -0.0042578173 0.0069991224 -0.004966386 0.004160474 -0.0048968988 0.0037997817 -0.0030599604 -0.0120213805 0.010278086 -0.009737459 0.0020799602 -0.0008990842 0.012094235 0.0026466744 0.0005103327 0.005277576 0.015849087 -0.0020895277 -0.017202714 0.010990064 0.00017674966 -0.0004267609 -0.010901053 -0.0038760577 -0.0022823315 0.0042840005 -0.002866833 0.002620267 -0.00014147004 -0.0046344027 0.0046530194 0.004153802 -0.014727123 -0.006173346 -0.0027377335 -0.005040412 0.0013552019 -0.0074288994 0.0051379404 -0.0011181198 0.009444681 -0.0019232581 -0.010984158 -0.0077317306 -0.0019797827 0.014039281 -0.004509975 0.0048989 -0.0032949836 0.0126321195 0.002545489 -0.008297291 0.003284213 -0.0128892595 -0.0033568952 -0.0023228764 0.0032400105 -0.00053181296 -0.0063617765 -0.0017502417 0.0017262006 -0.0024693634 0.007384198 0.0048573073 0.005475327 0.014637882 -0.0037312077 -0.003468946 -0.009617831 0.007666822 0.018344028 -0.0022023374 -0.0016697793 -0.013384841 -0.0063181766 0.008237594 -0.009241326 -0.006470078 -0.0053359857 0.010519136 -0.0008296857 -0.00055339327 0.0008280484 0.011469946 0.012103492 -0.0019683768 -0.007408344 -0.0038889772 -0.0018555537 -0.004900747 0.0060644895 -0.003756195 -0.0023651887 -0.00080188224 0.0084074605 -0.00595673 0.0028463867 -0.015998034 0.0041850884 -0.007748395 -0.0045110015 0.0019503994
abstract 0.0008200139 -0.001692486 0.0011759016 0.0012218179 0.0024752612 0.0010114333 -0.0005384078 -0.0012741515 0.0010588858 -0.0016552901 -0.0020306103 0.0013067224 0.0016565751 0.0019374304 0.00056527904 -0.0023208444 0.0010743958 0.00053155445 0.0017094589 -0.0019406971 0.002127591 0.001511917 -0.00023063459 -0.0016429793 0.00039085187 -0.0015382313 -0.00094128074 -0.0011025163 0.0016218233 -0.00094259344 -0.0015730932 0.0015312289 0.0021339557 0.0012043882 0.000578996 0.0016239188 0.0023267404 -0.00084540667 -0.0010436642 -0.0009362856 -0.0021419832 0.00033605658 -0.00128169 -0.0023399808 0.0023013582 0.00077523384 0.00012401491 0.00086126686 0.0014276467 -0.0017659366 0.0003531396 -0.001214168 0.00067869923 -0.00056909735 0.0015206342 0.0023720083 0.0023599872 -0.0009496715 -0.0013492923 0.0011254209 0.0012212957 0.002362886 0.0018685847 0.00097111706 -0.0014433532 0.0016625379 0.0006768559 -0.0017897519 -0.002451705 -0.0020294902 -0.0002757851 0.0009555081 -0.0012231806 -0.001392794 -0.0008169183 0.0007710096 0.00032095308 -0.0014816991 -0.0010746846 0.0012572352 -0.0010441431 -0.0011302978 -0.0020693555 -6.7162327e-06 0.0021262644 0.0017012167 -0.0018311476 0.0018256311 -4.814379e-05 0.00022916193 0.0016821236 -0.00035849516 0.0017859582 -0.002439703 0.00079927105 0.0018318454 0.0023732968 0.0016186675 0.0010497745 -0.002312586 0.0012021761 0.00085390126 -0.00010599941 -0.0011052826 -0.001802813 -0.002340586 0.001691923 -0.0018000379 3.1515723e-05 -0.0024595095 -0.0009431931 -0.0023334112 -0.00038178265 0.0018758927 0.00021193596 -0.0020293589 -0.0012829751 -0.0018399593 -0.001993225 -0.0020508065 0.0018059756 0.0004974031 -0.0016675424 0.0013899903 -0.00069084344 -0.00035217428 -0.00085604074 0.0003880728 0.0011219012 0.0014284919 -0.00090335635 -0.0012242084 -0.0016106075 -0.00024522864 0.0016102209 1.055235e-05 -0.0010582793 2.2383407e-05 -0.0016471606 -0.001955921 -0.0024831702 -0.0014386558 -0.0012581479 0.0014454089 0.00053043873 -0.002306797 -3.89216e-05 0.0021166662 0.0024236506 -0.0018124068 -0.002201721 -0.0023291253 -3.6281534e-05 0.0018795249 -0.00045740092 -0.0020739536 0.0021125968 0.0005439713 0.00031370786 0.0015890235 0.00064968085 0.0016701268 -0.00047206134 -0.0011133 0.0017554155 -0.0005663645 0.00050154794 -0.0017866183 -0.0018093472 0.0011893993 0.0002686188 -0.00051257433 -0.0013055777 -5.9053535e-05 0.002090721 2.8919894e-06 0.0021406077 -0.00093984685 0.00015068403 -0.0021656412 -0.0008860307 0.00035598897 -0.0005466875 0.0021776524 -0.00060332566 0.001988471 -0.0010914933 0.0018394887 -0.0015245068 0.0013170599 0.0022779894 0.000399478 -0.0006613552 0.002476282 0.0014395965 -0.0009691542 0.000996694 0.0022182046 0.0024551325 -0.0017941901
called 0.004400915 -0.0025585196 -0.0061661354 -0.0034964294 -0.003060175 0.008613371 -0.0019798158 0.0034253518 -0.0119984485 -0.001620338 -0.0034127082 0.0053142505 0.0019308152 -0.0036347075 0.0012140765 -0.005672865 -0.011935569 -0.00027660967 0.0034990904 -0.017417677 0.001176939 0.003950904 -0.0078066452 -0.014024837 0.010043645 -0.00042146273 0.008729711 -0.0013660564 -0.0028294795 0.006420432 0.000991342 -0.018687965 0.0075536403 0.00030595422 -0.0038963833 -0.0003582209 0.004627809 0.0038457604 -0.0038802978 -0.005405732 0.0133293085 0.005871722 0.002210285 0.0087295165 -0.005408032 -0.008855489 -0.0017922856 0.0017887705 -0.003193047 0.005945863 -0.005556052 0.0034571285 0.0040646265 0.003286521 0.0009621091 0.00443843 -0.011080922 -0.0058543985 0.009830594 -0.0035348374 0.0086894315 -8.986434e-05 0.0056397775 -0.0049582077 0.005181519 -0.009170098 -0.003965405 0.013480905 -0.0008749001 0.016158024 0.013616854 0.0014053759 0.0057583535 -0.0069455733 -0.0049430095 -0.0009049918 -0.0025275457 -0.008103348 0.0044098557 -0.00091308437 0.003296605 0.009574883 -0.008103381 0.004512629 0.0059580635 0.0027607705 0.0049430565 0.008209811 3.1071284e-06 0.0029645967 0.005526602 0.0071790717 0.0027292126 0.0063984613 0.0034451357 0.00785502 -0.004945982 0.005243938 -0.0052721766 0.0043520164 -0.0027477995 0.003868973 -0.0076379185 0.0021462806 -0.0062894407 -0.011464207 0.010842116 -0.009421351 0.0005500728 -0.0021956982 0.008449019 -0.0012947939 0.0047931876 0.0050350986 0.01550216 0.0020584755 -0.016650602 0.011909776 -0.0027425566 -0.0027261632 -0.009839831 -0.0019997885 -0.0039863246 0.00074072846 0.0013889659 0.0040241666 0.0018265566 -0.0037335416 0.0014136382 0.005459501 -0.015612618 -0.0047338963 -0.0039602933 -0.0055385497 0.00069435796 -0.004045861 0.004689101 -0.00043512232 0.0106826965 -0.0030455163 -0.009508079 -0.0054343473 -0.004594466 0.01249695 -0.0031375862 0.0050625294 0.00024829697 0.008226091 0.0029181298 -0.010501106 0.0028652896 -0.013916562 -0.004911149 -0.0035695229 0.005952564 0.00056205085 -0.0044629257 -0.0041178237 0.0036545186 -0.00043330935 0.0054507223 0.0062273624 0.008544516 0.016525162 -0.0049397363 -0.0019267795 -0.006985466 0.008068067 0.018679557 -0.005840797 -0.0008459724 -0.01352564 -0.009698316 0.005186546 -0.01030361 -0.0061478917 -0.008381766 0.008942832 0.0026532297 0.0043374556 0.0037558195 0.010523448 0.00887397 -0.00044235468 -0.01035487 -0.0054809707 -0.0036304682 -0.0032718203 0.005630352 -0.006575116 -0.0035182133 -0.0043959706 0.0051958053 -0.0021831193 0.0032025506 -0.013148446 0.005098898 -0.009300498 -0.007118001 0.0027852901
We -0.0014663159 0.0015873834 0.0017904942 -0.0023515602 -0.00042481837 0.0015699975 0.00060131494 -0.00060521835 0.00044624065 0.0007015758 -0.001437045 5.9302198e-05 0.0023672222 0.0015184395 0.0020801881 0.0012301984 -0.001631554 -0.0024645536 -0.0015007865 -0.0021029953 0.000806025 0.001901913 0.0023243022 6.967969e-05 0.0010436508 0.0013275226 0.0009811106 -0.00068394956 0.0005389184 -0.0016919648 0.0019542729 0.00053687394 -0.0007293883 0.0015722159 0.0023305528 -0.0024607992 0.0005911293 0.0016516531 0.00030680024 0.0010846492 0.00010636379 -0.0022701442 -0.0024550336 -0.00237236 0.0020224177 0.002343893 0.0007903341 -0.0005105203 0.002353888 0.0017711422 -0.0018811839 0.00039199647 0.0021666642 0.0022345488 -0.00027134502 -0.0018580743 0.0012888443 0.0021146918 -0.002187368 0.00019351905 0.0016724551 -0.0015376883 0.00074388715 0.002219804 0.0021831538 -0.0018666687 0.0012698695 -0.00032932404 -0.002038291 -0.0023618552 -0.00070289045 0.0004519131 0.0020970656 -0.0009392819 0.0010546022 -2.5040703e-05 0.001655804 1.519057e-05 -0.0007297596 0.0020778608 -0.0011242944 -0.002397004 -0.0021756482 0.0021270378 -0.0012224563 0.0018757577 -0.00092344254 -3.1946925e-05 -0.00070346147 0.0011952606 -0.0011231521 0.001735507 -0.00026097894 0.0019048257 0.0017905054 0.0010813058 -0.0021235845 0.0010464466 -0.00209026 0.0016991142 -0.0014143321 0.0018989975 4.638266e-05 -0.0014562905 -0.0017737416 1.8560793e-05 0.0024674917 -0.0016084656 0.0005740714 0.0014722715 0.001135519 0.0017553777 -0.0002048621 0.0022984743 0.001846307 -0.0010396636 0.002077859 0.0017367629 -0.002405321 -0.0005624235 0.0018114657 -0.0014754364 0.00013684412 -0.0008626905 0.0023281034 0.0011820572 0.0022817971 0.0017317105 0.00079633854 -0.002491816 0.0010686696 -0.0009321424 -0.0010941363 0.001277908 0.0006954195 -0.0015344964 0.0013818094 -0.0021453598 -0.002414974 0.001100162 0.00045232498 -0.0007513246 -0.0012868387 0.000869439 0.0006120149 0.0002326991 0.00023008813 -0.0015759531 -0.00047560292 -0.0024112493 0.002304261 0.00061849016 -7.0023816e-06 0.00059715007 0.0014167107 -0.0017854767 0.001868078 0.002260903 0.0018441607 -0.0016154842 -0.0011146569 -0.0024412146 -0.0018794277 0.0016489611 0.002155458 0.0024891505 -0.0014619377 0.00077932957 -0.0017212641 0.0024347482 0.0002354153 0.0016324925 0.0011042135 0.0016707457 -0.0021592223 -0.000544121 0.0012025838 -0.0008559802 0.0017644037 0.0024640695 -0.0007270315 0.0003053781 -0.0017111737 0.0024065585 0.0016526361 -0.0013871652 0.0022443337 0.00056044967 0.0012916373 -0.0014719426 0.0008852426 0.0009331866 -0.0005988156 0.0006313636 0.0024120333 0.00043889857 0.0014305413 0.0002569717 -0.00094809616 -0.0022986073
about 0.0010016102 0.0005511609 0.0009348213 0.002024977 -0.0007497176 -0.0020113788 0.0012163615 -0.0024029117 -0.00013286527 0.0011524602 -0.0022795289 -0.0015758297 -0.0008662775 -0.0016957584 -0.0024786186 0.0015762481 0.001275517 -0.0014514136 -0.0023161261 -0.00064786046 0.0024637408 -0.0008095786 -0.00049228314 -0.0022624591 -0.00033072266 0.00077440403 0.0017062365 0.0019101528 -0.00041873218 -0.0021063741 -0.0010513103 -0.00080421416 0.0004784572 0.000120779034 0.00035927305 0.0014124187 0.0020646718 0.0021368423 -0.0024258741 -4.2288797e-05 0.0017084749 0.0008908594 -0.00056918536 0.0014819838 -0.0014329412 0.0013949359 0.0022061495 -0.0005016881 -0.00059613166 0.001861108 0.00062137726 -0.0010492458 -0.0019736234 0.00103082 -0.0017069825 0.0021804068 8.860463e-05 -0.00092679495 0.002039061 0.00057153055 -0.0020354937 -0.0013809198 0.001733575 0.00026668957 0.0020425487 0.0005445648 0.00029391353 -0.00014660717 -0.0011827325 0.0012855402 0.0011291874 0.0011885937 0.0019463636 -0.00044318056 -0.0008471885 -0.002301327 -0.0022599252 0.0018180734 0.00068725203 0.0001907181 -0.00071959617 -0.0010446423 -0.0004290333 0.0018472071 0.00033375504 -0.00063678296 0.0018666852 -0.001341899 -0.00051803235 -0.00021685893 0.0015831664 0.0005959284 -9.028008e-05 -0.0012669915 0.00039886008 0.002387249 0.00045866868 -0.00045578857 -0.002491862 -0.0017444115 0.00032400037 -0.0011143478 0.0006220159 -0.0024866431 -0.00025990838 0.00010610465 -0.0020598613 -0.0020586655 -1.8859282e-08 3.346335e-05 0.00014619553 0.00053415564 -0.0004016012 0.0018330426 -0.00087516964 -0.00033634296 0.00192479 -0.0002073776 -0.0016326102 -0.0019837446 0.0015279334 -0.0008189883 0.0015147422 -2.543698e-05 0.000303654 0.0022287387 -0.0024665364 -0.00085172895 -0.0015001765 0.00060379296 -0.00096215156 -0.0006071484 0.0023720372 0.00026379968 -0.0021137018 0.00090360944 -0.0010010954 -0.0012310371 0.0005289486 -0.0004324864 -0.00073069986 0.0012938394 4.8887916e-05 0.002281569 -0.00024463423 -0.0008960357 0.0022521638 0.002222119 -0.0024443376 0.00036923192 0.00027174014 -0.0009797061 -0.0009212595 -0.0014516994 -0.0013503364 -0.0020734502 -0.0013714232 0.0018728906 0.0002779644 0.00090460456 0.0014414163 -0.0022155056 -0.0013282013 0.00027443608 0.0011031423 -0.0007878789 0.0020020045 -0.0012569791 0.0009107506 0.0023492207 0.0020448053 -0.0011124113 -0.001964598 0.00019895425 0.0018909476 -0.0011253088 0.00012591016 -0.0019825015 0.0023333235 0.00097247446 0.00081341504 -0.00154262 -0.001985712 -0.000107830856 -0.0021915317 0.0021483912 0.0009400395 0.0014548809 -0.0021877736 -0.0015013417 -0.0006319368 -0.0013428411 -0.001477065 0.001784639 -0.0011289563 0.0023423154 -0.0020678153 -0.0012504333 0.00038924091 0.0013030155
study -0.0017389827 -0.0007044411 -0.0014011847 0.0014986978 -0.0017067166 0.0017412053 0.00024565542 -0.0014944285 -0.0014338704 -5.2788295e-05 0.002391797 -0.00035974942 0.0018472914 -0.0015315505 -0.0017203748 -0.0014558005 0.0005618527 0.00032471213 -0.0017296242 0.0017800932 -0.0019552994 -0.002288077 0.00042660185 0.0023421254 -0.0014003026 -0.0012117827 0.001228956 -0.0020673636 -0.0004483771 -0.0023624208 0.0015395321 0.0020338604 0.00021199998 -0.0005415457 0.0011058783 -0.0014095989 -0.0012108439 -0.0010512852 0.001720062 -0.0017832908 -0.0024583216 0.00071785087 0.0015528533 0.0017214664 -0.00056362955 -0.0014183685 -0.0021082486 0.00081876107 0.0023391172 0.002162647 0.0011503769 0.0020287312 -0.0018730524 0.0019405205 -0.0019098704 -0.0006964216 0.002369125 0.0012582166 -0.0018760168 -0.00049498584 -0.00016177888 -0.00046466943 -0.00024329778 -0.00039123464 0.0022568093 0.001271826 -0.00039509684 -0.00043946085 -0.0014397097 0.0008081421 0.0011942165 -0.00210212 -0.000571377 -0.00025222753 -0.0014948192 -0.0023128847 -0.00032968633 0.00057846983 0.00028508063 0.0021143896 -0.0016812986 -0.0017994465 -5.540671e-05 -0.0014241183 -0.0023041272 -0.00023834733 -0.0014628982 -0.00036849966 -0.0018087095 -0.002080972 0.0015267455 0.0012364169 -0.0005881911 -0.00082966115 -0.0019899874 0.00017791847 0.0013634232 0.0001499122 0.00084254774 0.0010257415 0.00012809923 -0.0009907425 -0.0005294576 0.0018286197 0.0023343642 -0.0008001381 0.0022894163 0.0013158617 0.0020450037 0.00091476785 0.002236634 -0.0007006478 0.0017270176 0.00036595087 0.0006109611 0.0003455158 0.0009552536 0.0017250488 0.002150144 -0.0020047182 0.00039256806 -0.0020924648 -0.0016471022 -0.0011049572 0.0020818515 0.0019239346 0.00035964884 0.0006743893 -5.9041427e-05 0.0024825172 -0.0022036554 4.5057386e-06 -0.0022171151 -0.0014232235 0.0012303083 -4.2820582e-05 0.0019103563 0.0022107922 -0.001143718 -0.00089334126 -0.0017741319 0.0014399872 -0.0017520222 -0.00047269254 -0.0020552746 -0.00033214758 -0.0021178247 0.000860733 -0.0004533783 0.0007316291 -0.0022254798 0.002471303 0.0015157713 0.0003697204 0.0012840577 0.00037795957 -0.00086135115 0.0018268717 -0.001968491 -0.0021304428 -0.00045557646 -0.0024071434 -0.0014070827 0.0020349897 0.0024293559 0.0016686865 -0.0006167925 0.00088161696 0.0012453359 0.002117246 0.0022679674 0.002484527 0.00065699895 -0.0006531277 0.0020680795 0.0014140955 0.0003679616 -0.0001733047 0.0016286443 9.10603e-05 0.0023449492 0.00043605454 -0.0020519127 0.00052375044 0.0009783942 -0.00025512069 -0.0020758007 -0.000121955294 -0.0002521295 0.0006790876 -0.0004686457 -0.00039283372 0.0005354991 0.00011266465 0.001462766 0.0018360959 -0.0016885471 -0.0020829758 -0.00093125575 0.0005884727
idea 0.00031451602 6.2300824e-06 -0.0018498927 -0.00084822683 0.00052892184 0.0006554066 0.0009931454 -0.0021801505 0.0005455867 -0.0011111802 0.0007379416 -0.00055035565 -0.0024215253 4.535308e-05 -0.0015216762 0.0006294837 -0.0022439787 0.002200184 0.002047527 0.0008446318 0.00095622987 -0.0011831087 -0.0024926558 0.0004767715 0.0003771258 0.0019924608 0.001542299 0.0006946025 -0.00015429733 0.0014191545 -0.0006661039 -0.002038975 0.0015355474 -0.0024219465 0.001892393 0.0006782622 -0.001268976 0.00061264937 0.0015388262 0.00085922005 0.0019317893 -0.002150706 0.0024766535 -6.952253e-05 -0.0005445527 0.00219423 0.0016481183 -0.0023268843 -0.0017825412 -0.00045447075 0.001962869 -0.0011627072 -0.0023370215 0.0021042163 -0.0011963117 -0.00080883864 0.002149385 0.002210657 0.0014631744 0.00092973886 -0.0020774307 0.0014610556 -0.0024994293 -0.0007940796 -0.0024050116 -0.0015908557 0.0009338518 0.001420591 -0.0016024276 -0.00067239103 0.00037110713 0.0020779823 -0.002279205 -0.0018955913 -0.0014698976 0.0010841636 -0.0014820934 -0.0018802711 0.0015974115 0.0019189799 0.0022856933 -9.123213e-05 0.0006169423 -0.0015244645 0.0010679394 0.0012424048 -0.0010335734 0.0014884183 0.0002410484 0.0015308512 0.00026157615 0.00028216024 -0.00096617255 0.0020598243 0.0011334994 0.0004261639 0.001959513 0.00084372424 0.0014916831 0.00079274504 0.0012626245 -0.0011394148 0.00055908645 0.00075590005 -0.0013983034 0.00070091034 7.578521e-05 0.00034447154 0.00055675 0.0020359922 -0.00074980163 -0.0023452772 0.0021290006 -0.0004131433 -0.00041064224 -0.0023736276 0.00025667553 0.0007204998 0.0020086397 0.001745909 0.00071299844 0.0016298494 0.0007954815 0.0022475845 0.0011219764 0.0006956537 -0.0021438908 0.0015914952 -0.0018571942 -0.00065284315 -0.0021838753 -0.00019124383 0.0017944127 -0.0017758724 -0.0021388107 0.0021430426 0.0013021016 -0.0023612997 0.0002740249 -0.002320213 -0.0015571305 0.0024080733 -0.0016504267 0.0015362287 -0.00044066878 0.0011229133 -0.0006722844 -0.0023604303 0.002059612 -0.0005698842 0.0013270259 0.0022325818 0.0015239064 -0.00024754019 -0.002066886 -0.00057397 -0.0013568526 -0.00064829853 -0.0020837297 -0.0024513446 0.002031295 0.00019278075 0.00010050624 0.0019939626 0.00073385565 -0.0010889268 -0.00081617944 -0.0024841293 -0.0010597851 -0.002039666 -0.00020146905 0.00020318199 4.5216875e-05 -0.0024150035 -0.0019093284 -0.0015955088 -0.0007085317 0.00012924592 0.00094616506 0.000864164 -2.0026462e-05 0.0019573094 -0.002127566 -0.0009897128 -0.0014791038 -0.0014552587 0.00042657065 -0.001705664 -0.0016644346 -6.5221684e-05 -0.0014979446 0.0015028669 0.00042352313 0.0009067557 -0.00019148085 -0.0011721405 0.00057189073 0.0016940436 -0.00095563976 -0.00075133983
computational -0.0021598923 0.0020173718 -0.0010322821 0.00027423026 -0.0017989345 -0.0008180728 0.0018081339 -0.00024219579 7.2016846e-06 0.00043651904 0.0006489293 -0.00010567624 0.0016918085 0.0005100826 -0.0018538015 -0.0007698565 0.0021345834 0.0023325775 -0.00094465876 5.0680712e-05 0.002337478 0.0008525143 -0.0009515813 -0.0017117735 -0.0014714905 -0.00064759376 0.0017485004 0.0012662376 0.0016209804 0.00096438685 0.0005151087 0.0011924556 0.0018037721 0.00041727605 0.002346489 -0.0011305513 -8.7416265e-06 -0.0020421823 0.0021770499 0.0019838666 0.0002396286 0.0006762773 0.0020486242 0.0018697465 -0.00037055137 -0.0011581826 -0.0014547104 -0.0015691426 0.0008633726 -0.0005507758 0.0013435218 0.0019478048 0.001562051 -0.0015344035 -0.0018342757 0.002037149 0.0016042669 0.00074489205 0.0024140785 -0.00035539176 -0.0023876454 0.0022693886 -0.002219524 0.0003027988 0.00017557852 3.93996e-05 -0.0023891856 -0.0019924967 -0.0012261241 0.0011388301 -0.0016075172 0.00088319485 0.0005232722 -0.00028037583 0.00046280585 -0.0021238476 -0.00090096355 0.001039655 -0.00020222692 -0.0011114608 0.0017755739 0.001665608 -0.0019645353 -0.0006004849 -0.00021936418 -0.00067242386 -0.0006202116 -0.0016452655 -0.001089347 -0.00047257356 0.0010385853 0.00083718123 -0.00032612192 0.00063948985 -0.0017252433 0.0020218366 -0.0013706228 -0.00046646944 -0.0017527401 0.0023385943 0.002439469 0.0010006947 0.0007141116 -7.479009e-05 0.0005653824 -0.00022446015 0.00052092643 -0.0022932591 -0.00063585513 -0.0022609811 0.0006176913 0.00056492654 0.0023534624 -0.0014263504 -0.0007289809 -0.001566522 0.0021324581 -0.0010904922 0.0016114064 -0.0020050888 -6.2000705e-05 -0.00077417016 -0.00046760077 0.0005112197 -0.0022379882 1.3626413e-05 -0.00017925585 -0.00086219993 0.00042648474 -0.001681376 0.00034091412 -0.00080033625 0.0016313032 0.0011482504 0.0007322754 0.00083610276 0.00095320796 -0.0023151636 -0.0011660906 0.0014831484 0.0024943412 -0.0022976627 0.0012063747 0.0013486911 -0.0004098888 0.00016710674 0.0011056066 0.002074208 0.0014767316 -0.0024447143 0.0019194866 0.0016441429 0.0011348184 0.00012870203 -0.0008892637 -0.0022961744 -0.00065325736 0.0015435205 0.0008405552 -0.0018794935 -0.0021889578 0.0012244086 -0.0022537904 0.0023151035 -0.00041486835 -0.00073090696 0.0009304052 -0.0019013786 0.00044313306 0.0021506525 -9.4902e-05 0.0016613351 0.0018571015 0.0023174803 0.0019430928 0.0010034407 -0.0009107578 0.0014636666 -0.0012766767 0.0014004793 0.0003568905 -0.00086383487 -0.0004542158 0.0024071909 0.00044995872 0.00184061 0.0023915172 -0.0024801753 -0.00207225 0.002094186 -0.00038190512 0.001009257 -0.00050010975 -0.00041055656 -0.00039031822 -0.00030786125 -0.0017616407 0.000396454 0.0022845329 0.0024285642
process. 0.0018850113 -0.002032196 -0.0015203034 0.0013429704 -0.0005989566 0.0016828994 0.0018933685 0.0006463146 0.0012971757 0.0015668259 0.0007026377 -0.0024159509 -0.0023321898 0.0014453554 0.0020923791 -0.0023908014 0.00068809604 0.0018370491 -0.0011720142 -0.00022714795 -0.0020550515 0.0008651619 0.0016990686 0.0017028195 -0.0019989307 0.0011182085 0.000581102 0.0024110503 -0.0019746432 -0.0021266919 0.0023583989 0.00016309507 0.0005423387 0.0004463289 -0.0017366415 -0.00038960087 -0.0014507433 0.0001586508 0.0015855148 0.0014461102 -0.0011957061 -0.0016932937 -0.0020756477 -0.002152856 -0.0012315128 0.0022373842 -0.00064710074 0.0010877531 -0.002113797 0.0020273724 0.0013389736 -0.00059125305 0.00039272686 0.0023352415 -0.0018769058 0.00085233385 -0.00065344037 -0.002004964 0.0017917785 0.000100709265 0.0012501818 0.00032456103 -0.0009518709 0.0018477151 0.0014361851 0.00077366945 0.00048394385 -0.0018567821 -0.0019872934 0.001218654 0.00018414995 -0.0008803898 0.00025404966 -0.0015215251 0.0012630364 -0.00010533421 -0.0011712792 -0.0010656741 0.00046165357 -0.00019850442 0.0009600844 -0.0009384805 0.00046756864 -9.723846e-05 0.0013418724 0.0014815796 -0.0003500071 -0.0014217055 0.0011032859 -0.0023019824 -0.0017955267 -0.0013441363 -0.00041182735 0.0015779659 0.0017667012 -0.0004708427 0.00059690676 -0.0010690305 -0.002200732 -0.0008661145 0.00028424407 0.00042107818 -0.0011476626 -0.0006057391 -0.0011221761 0.0019809506 0.001785236 0.0011758376 -0.0013529423 -0.0018609258 0.0008660804 0.00014385488 -0.00023775687 -0.0008142778 -4.2391708e-05 -0.0024252643 -0.0020827057 -0.0019628643 -0.0005863806 -0.0015993306 -0.0012592872 -0.0016395058 -0.0012691894 -0.0015994341 -0.0016402032 0.0013668549 0.0011824246 -0.000663636 -0.0004058897 -0.0015946608 0.0024673478 -0.00045899418 -0.00048741023 -0.0016299387 0.0020331228 0.0014313338 -0.0014955782 -0.0018061355 0.0002677522 0.0017761518 0.0014731884 0.001186185 0.000978674 -0.0015539771 -0.00026781647 0.0019368464 -0.00045023952 -0.0018196353 0.00075081736 1.2125587e-05 -0.0018644645 7.589627e-05 -0.0018401404 -0.00071013183 -0.000832594 -0.0004744858 0.0015543206 0.0019564983 0.002000723 0.0011682734 -0.002048137 -0.0005671277 -0.0015216959 -0.002103738 -0.00031794282 0.0015297332 -0.0018804488 3.4171622e-05 0.00041519292 0.0014509065 -4.575611e-05 -9.997981e-06 0.0014251275 -0.000499635 -0.0018865197 0.0023506754 -0.00032671797 0.0013626653 0.0024217493 1.2637116e-05 -0.001593863 0.00063932803 -0.0024000662 -0.0001277281 0.0007400713 -0.0011852416 0.00106667 0.0017644884 -0.0018783908 0.0009799951 0.0016741534 0.0006510136 0.00036926288 -0.00042297412 -0.0012577801 0.00012266915 -0.0009293925 -0.0019187727 -0.0010454559 -0.00017711194
Computational -0.0015113822 -0.0024176051 -0.00051132985 -0.00034976727 0.00014665863 -2.859137e-05 0.0010431791 0.0008977719 -0.0010394928 0.0017740196 -0.00064410025 -0.0008685943 -0.0019407815 -0.00092427456 0.0016006585 0.00051684165 0.00015588664 -0.0010190438 0.0021416796 0.0010406298 0.0021460466 0.0021307478 -0.0015201989 -0.0005810502 -0.0003817568 -0.0016246303 -0.0023751291 -0.001421468 -0.0012158048 0.001062836 0.0017079208 0.0018642806 0.00011850614 -0.0019550284 0.00038018008 -0.0009943872 -0.0012817853 -0.0007609156 -0.00021066307 -0.0012093133 -0.0017376741 0.0024865936 0.0020731753 0.00017090118 0.0005444938 0.0009081643 -0.00094040984 0.0023523252 -0.00023677293 -0.00054675783 -6.003119e-05 -0.0012271974 0.00063105347 0.00029196916 -0.0023147704 0.0014531268 0.0009968993 0.0018261536 0.0008149438 0.0005070227 -0.0010409459 -0.002214394 -3.289897e-06 -0.000285208 0.00045652082 -0.0018441307 8.931151e-05 0.0013917326 0.0011179661 -0.0020374814 -7.4907206e-05 -4.905602e-05 0.0001745508 -0.0015378094 -0.001012913 -0.0010068759 3.9048493e-05 -0.00044671004 -0.001161612 0.001980484 -0.0006022734 -0.00023632753 0.0015482502 -0.0024381285 -0.002468895 0.0012430642 -6.0321297e-05 0.0020405902 0.0008871644 -0.0022220444 0.0017025513 -0.0015815862 -0.0024404486 -0.00013594795 0.0011306924 0.0022276272 -0.0022644787 0.0017637257 7.798453e-05 0.00085633853 -0.001222004 -0.0021241673 0.0008324478 -0.00019421079 -0.0014943322 0.0022162744 -0.001592541 0.0011430362 0.00079289195 0.0003339157 0.00086288713 -0.000999251 0.0017898148 0.0013486352 0.0007298812 3.939052e-05 -0.0021989048 -0.0018312568 -0.00075571775 -0.0011503238 0.0018817233 -0.0014009743 0.000391762 -0.00044516823 -0.0014584529 0.0017809533 0.00026781764 -0.00012550969 -0.0009372565 0.00024061021 -0.0007393891 -0.0018639496 0.0015741233 0.0015371814 0.0022182078 0.0011989179 -4.650629e-05 -0.0007298335 0.00164122 0.0016435869 -0.0016548121 0.0009701061 -7.3058065e-05 0.00052272924 -0.0016603929 0.0024518701 -0.002016833 0.00024306355 -0.0024257763 2.7130358e-05 -0.00057093345 -0.00039470382 -0.0005288697 -0.00046514743 -5.3607626e-05 -0.002347426 -0.0019679302 0.00016803946 -0.00224067 0.0006310814 -0.0024035126 -0.0014290157 4.7660433e-05 0.0007832218 -0.001769434 0.00037203613 -0.0010550091 0.00082506775 -0.0013816145 -0.00080233545 0.0022071456 -0.0021884392 -0.0017895952 0.00055939634 0.00047395914 -0.0023794752 0.0008922848 0.00025399285 -0.0014364492 -0.0022400978 0.0024326527 -0.0022142972 -0.0010560873 0.0023750947 0.0016278392 0.0017687278 0.0021856497 0.00109865 0.0004918792 0.00032264972 -0.002402104 0.00246801 0.0014252849 0.0013384637 0.002181176 0.0008594843 0.0021547945 0.0009881549 -0.0013213977 -0.00015462167
beings -0.0014433059 -0.0013653695 0.0022459868 -0.00045233662 -0.0019183648 -0.00079590024 -0.0024605766 -0.0009427193 -0.0002886157 0.00073685264 0.000710299 0.0016479604 -0.001358391 0.00048413058 -0.0009855636 0.0013408449 0.0019046371 0.0012895707 0.00089331577 0.002087084 -0.002355363 -0.0011221104 -0.0012536928 0.001585064 0.0012807504 0.00014442601 0.0015056357 0.0009122493 0.0014832527 0.0011931262 -0.0021921154 0.0024771658 0.0022077854 -0.00040473463 0.0021391702 -0.0020908392 -0.00055974186 0.00070665125 0.0023887376 -0.00024144654 0.0015443726 -0.0009809145 -0.0004967705 -0.0019696518 0.00062716193 -0.0006792265 0.0018240814 -0.00037886645 -0.0022308473 -0.0007397359 0.0004478672 0.0010020882 0.0017292746 0.0020325505 0.00014244881 -0.0015293502 -0.0024626565 -0.0022451275 -0.0023392355 -0.00042723585 8.714269e-05 0.00063786865 -0.0009890663 -0.002013894 0.0014764653 -0.0021215375 0.0021036272 0.0022381316 0.0021348358 -0.0023484842 -0.001803 -0.0010281893 0.0014975467 -0.0009545296 -0.002322727 -0.0023562834 0.001853114 0.0023491099 0.0016170288 -0.002024339 -0.0021572553 4.0982617e-05 -0.0011813343 -0.001232605 -0.0020448766 -0.00055844546 -0.0019855704 -9.9950936e-05 -0.0015702858 0.0010885147 0.0016639624 0.0020341254 -0.0018790949 0.0012185914 0.0006448955 0.0019318359 0.0016228901 -0.00059569743 -0.0020547402 -0.0024268876 8.289702e-06 -0.0013401147 -0.00055686675 0.0009955023 -0.0022641413 0.00027420395 -0.001518383 -0.00018930156 -0.0017159268 0.0002483884 -0.00061966304 -0.0019431382 -0.00046294252 0.0021259002 0.0009993368 -0.00096921204 0.0013539146 -0.000780558 0.00046069385 -0.00052137184 0.00073994487 0.00073279697 0.00078859413 0.001050086 0.001482551 0.0022258856 -0.0018324434 0.0024047387 0.0011224279 -0.0010715115 -0.0010731906 -0.0003195866 0.002034516 0.0008984059 0.0022576563 0.0018617497 0.0024334816 0.00082997745 -0.0015370368 -0.002388243 0.0019656671 -0.001610994 -0.0024332367 0.0023369454 0.0017257812 -0.0017324298 -0.0011207998 -0.0008672755 0.000275895 -0.001738129 -0.001123952 0.002039445 -0.0012305081 0.00041097286 -9.631272e-06 0.00155125 0.0002363876 -0.0019225595 0.0015440686 -3.8767233e-05 -0.0019055246 -0.0012146324 -0.0023365885 -0.00019578426 0.0024615587 0.00062157144 0.0005617761 -0.0005221858 0.0006465132 -0.0008441227 0.0024001617 -0.002169032 0.0015233112 -0.0012205645 0.002222328 0.0023398641 -0.0011837351 0.0004988485 -0.0014772895 0.001064715 -0.0018304707 -0.0016586508 0.00017033238 0.0024925587 -0.00088614016 0.00065549696 -0.0021998405 0.0024858979 -0.0018173337 -0.0010871133 -0.00024372945 0.0013606786 -0.0012577625 0.0020859558 -0.0009872233 -0.0009879795 0.0015925816 -0.0020047142 -0.0009735727 0.0007953739
that 0.0013274169 0.001709363 0.0020600203 0.0009502426 0.0021546353 -0.00019443966 0.00010783621 -0.0010887426 -0.00019080634 -0.0010857972 -0.00020576711 -0.0017784333 0.0006513607 0.0014021213 -0.0011067205 0.0020958045 0.0017998116 0.0017966144 0.0017598015 0.00019431417 -0.00029296684 0.0005819667 -0.00038978853 -0.0013277796 -0.0006570417 -0.0018485814 -0.0019725936 0.002278441 0.002455471 0.0016300217 4.0482264e-05 -0.0021888318 0.0018008216 -0.0006021928 -0.0018514663 -0.0018435144 0.0007252344 -0.00213311 -0.0007563463 -0.0020641817 -0.00084608316 0.002007816 -0.0018278616 0.00063806656 -0.0021440492 -0.00011740066 -0.0007744995 0.0020338409 0.0018066303 0.0023299474 -0.0016225677 0.0004858023 0.0017866213 0.00081209326 0.00024885545 -0.0020456186 0.00089403964 -0.00028865668 0.0007720066 -0.0011167905 -2.2101216e-05 0.0004742702 -0.0019747578 -0.00021286821 0.0018176357 0.00051203254 -0.0023600566 -0.00020761229 0.000892963 -0.0009489554 1.3628509e-05 -0.0004181757 -0.0016486141 -0.00095107197 -0.00076504797 0.0018828539 -0.00017434987 0.0017864592 0.0018403665 0.0013801961 -0.002072233 0.0020664698 -0.0006203252 -0.0020729196 0.001031233 -0.002266153 0.00171164 0.0006942593 -0.00066604733 0.00022032182 -0.0021737006 0.0013156342 -0.0014768621 -0.0008772522 -0.0016102716 0.002311837 0.0011651095 0.0011504963 -0.001957384 0.00027675251 0.0017306497 -0.00021805824 0.0024854532 0.0011646673 -0.0006832805 0.0011533794 -0.0017431807 0.0014863447 -0.0016955283 0.002175291 0.0024030395 0.0012316722 0.0005989233 -0.0013176128 0.002266014 0.0023998283 0.00031925202 -0.0015816668 3.7865015e-05 0.002205648 -0.00064914615 0.0022409805 0.0008650664 -5.2365474e-05 0.0006727043 -0.00018765428 -0.0023618452 -0.00029563904 -0.0021309792 -0.0024916094 0.00090744044 0.0005686979 0.0005174591 -0.0023257637 0.0004683605 -0.0015160686 0.00012871064 -0.0019035309 0.0022486174 -0.0013540036 0.00085572666 0.0010630221 0.00069172075 -0.0015080594 -0.0008632537 -0.001817296 0.0020544492 1.4463672e-05 0.001724395 -0.0010231191 0.00048067886 0.0008783138 0.0022706292 0.001498566 -0.00086113776 0.0015888815 0.00090887095 -0.0006186357 -0.00067902205 0.0013926788 -0.0001277423 0.00068515446 -0.0004147354 0.0024503837 -0.0022491976 0.001408462 -0.00069344044 0.0016007856 -0.0013588878 0.00070364913 0.0013649506 0.0011323267 0.0011703859 0.00011865678 -0.0011417356 -0.0022150783 -0.0009822005 -0.002354025 0.0005049666 -0.0020949661 -0.0013694521 0.00041828025 -0.0020656488 -0.0016895321 0.0021704473 0.0016109371 0.0010773081 -0.00094089354 -0.00038800854 -0.0009000298 -0.0023731855 -0.0018160024 0.0013937184 0.0023798216 -0.001301007 -0.0010887868 0.00045724143 -0.00039305422 -0.00032895268 0.00083208736
inhabit 0.006772688 -0.0020505683 -0.005232891 -0.00066549174 -0.0007689846 0.0098424675 -0.0009913541 0.0037377616 -0.011128862 -0.0052637076 -0.0032234371 0.0071198707 -0.000843364 -0.0020448961 0.00399677 -0.0015909737 -0.009229849 0.0037026575 -0.00081091677 -0.016556019 -0.0018314436 0.0014904244 -0.009048726 -0.011218059 0.009411753 0.0019025372 0.009127092 -0.0056581483 0.0007709638 0.008445986 0.0027017253 -0.017604083 0.0065288646 -0.0006342038 -0.0030399924 0.0032366458 0.0075709647 0.0032912302 -0.0050400575 -0.004621082 0.014348951 0.0046338374 0.0040846914 0.008466906 -0.0051360205 -0.008809229 -0.0017713765 0.0013437512 -0.0016819431 0.0034667565 -0.004913745 0.0031845793 0.0052910433 0.00096333685 0.0031161108 0.0042560864 -0.008524591 -0.003811691 0.008273796 -0.0029535417 0.011156433 0.0026642706 0.0043463414 -0.0055956547 0.0024154463 -0.006295616 -0.0043364908 0.011664377 -0.0016117715 0.01665455 0.0140665565 -0.00036818182 0.0067032035 -0.0062943944 -0.0061188075 -0.0034561749 -0.0033944354 -0.010707209 0.0049691293 0.0032025047 0.0029447032 0.011466949 -0.0069113057 0.005298346 0.0033854279 0.0012530305 0.0017916559 0.0063183503 -0.00058176165 0.00077711645 0.0013897942 0.00603975 0.006551094 0.0075185546 0.0055927765 0.0060353233 -0.003714281 0.006111103 -0.005938633 0.0077105956 -0.002657065 0.0037595413 -0.0071934443 0.00348639 -0.005427651 -0.007572173 0.008108533 -0.010178668 0.0016204376 -0.0003455674 0.0073700096 0.002526543 0.002020942 0.007219062 0.015791165 0.0015280583 -0.016256506 0.009935254 0.00027944712 -0.0011104333 -0.013247177 -0.0022811713 -0.005336339 0.0020593524 -0.0026298615 0.0045925095 0.0008014527 -0.0018244144 0.0049458165 0.0055069155 -0.015457752 -0.0043903203 -0.004975159 -0.0049962294 0.0042340346 -0.007097431 0.0034643118 0.0006403187 0.009443317 0.0003277401 -0.0073599424 -0.005090264 -0.0038464079 0.0145751 -0.0050183367 0.0029547936 -0.0026729088 0.0125301555 0.00012088808 -0.008588174 0.0044996343 -0.011503912 -0.0026921178 -0.0037500856 0.0055792634 0.0013856307 -0.0042955955 -0.0039377394 0.000700038 -0.0021571906 0.0063509527 0.007846083 0.006114124 0.01219995 -0.001600256 -0.0034320068 -0.009151372 0.003278589 0.019762771 -0.0034680453 0.0014592248 -0.010486461 -0.00902283 0.008181236 -0.009394944 -0.0069652125 -0.005037743 0.010362654 0.001578198 0.0039065233 -0.00074093946 0.007827509 0.008745579 0.00042731795 -0.011183923 -0.00541889 -0.0030889194 -0.004424016 0.0048654345 -0.0046703247 -0.0017055823 -0.0018877892 0.0075192177 -0.0062079956 0.004656921 -0.0136545375 0.002340132 -0.010483685 -0.0068375356 0.0028869384
computers. 0.001421628 -0.0004904785 -0.0013489223 0.001559746 -0.0023488062 0.0002676025 0.002491482 0.00036819372 0.001630411 -0.0014083135 -0.00089144614 0.0021976652 -0.0023669975 -0.001500014 -0.0012848597 -0.0020969312 0.0016766717 0.00016770326 -0.00043647224 0.00047166715 -0.0007796183 -0.00034094905 0.0003261238 0.0010554218 0.0009891659 -0.00036522606 -0.0013013917 0.0010561887 0.001989746 -0.002359592 0.0024022437 0.001213107 -0.00081751135 -0.00231975 -0.000964832 0.00186224 9.893929e-05 0.0003460676 -0.002237122 -0.0008803841 -0.0010811723 0.0004040182 -0.00060167187 0.0016081058 -0.0024990584 -0.0006297565 -0.00043367897 -0.0019321626 -0.0005297216 -0.00088466855 0.0003415984 0.0010851773 -0.00023324392 0.00053894427 5.073077e-05 -0.00020556431 0.0023607682 -0.00026873965 -0.0013773021 0.001382842 -0.00026674173 -0.0024072346 -0.00019343593 0.00059008994 0.00097003765 0.0017257594 0.0007594158 0.0004804856 -0.000472517 -0.00051549263 0.0016424651 0.00048243604 0.00069545745 0.00035939924 0.0008363712 -0.001515111 0.0020048134 -0.0024399688 0.0016401457 0.0010664314 0.0017000507 0.0003729083 -0.0018300212 0.000879525 0.0012101885 0.001293187 0.0006640861 0.0006990675 0.00042467657 0.0013925591 -0.0022320412 -0.0015425977 0.001901506 0.0008290147 -0.0001579551 -0.0021874865 0.0017020642 -0.0017363601 0.002047875 -0.0017274093 -0.0021451912 0.0011584344 -0.0001993326 0.0009077734 -0.0018373837 0.0011281795 0.0020580501 -0.0008137247 -0.00043759798 0.0020617517 0.000572548 -0.0012391248 -0.0024910064 -0.00045549776 -0.0005241409 -0.0010149154 -0.0015131092 -0.0019767177 -0.00181651 0.0014074659 -0.0018315911 -0.0011744767 -0.0010590962 0.00022391789 0.0006470436 -0.0024629666 -0.0015502714 0.0018700301 0.0019988078 0.0005679182 0.00094091776 -0.0016840958 0.0023191376 0.0010329515 -0.00064196135 0.00041286554 0.0020543071 -0.0014885592 -0.0018755555 -0.0013210701 -0.00073188485 -0.00210288 -0.0015520339 0.00078196474 0.0019740122 -0.00069974933 0.0016507665 -0.0007887152 0.0006552839 -0.0023364502 -0.0008830866 -0.00026046252 0.00030296436 -0.001422351 0.00028144778 -0.0021254967 0.0004924969 0.0024912022 -0.0007917428 -0.001090745 -0.0004418369 -0.0007921704 -0.0014544034 -0.0004997214 0.00043989788 -0.000544165 -0.002243715 0.0016676318 -0.00046280026 0.00030493387 -0.0019642864 -0.0010734462 -0.00010013487 -0.0023447738 -0.0017884013 -0.0008879665 -0.0016905087 0.001837072 0.0011306899 4.6849484e-05 0.0014785142 0.0024614236 -0.0024396281 0.0014921632 0.0014379933 -0.0016931209 0.000597975 -0.000881794 0.0012697002 -0.002148221 -0.001263901 -0.000856095 -0.0014637947 0.0017399983 -0.002331125 -0.00011687633 -0.0023114525 -0.0024381918 -0.00027100067 0.0009905912
As 0.00023821136 0.0013528073 0.0016154172 0.0021853377 -0.0016582381 -0.0021469784 0.0021826462 0.0012762472 0.0012716707 -0.00214927 0.00014098827 0.00024528312 -0.0015501976 0.0023994986 0.00015556696 0.0013423243 -0.0009578663 -0.0023727985 0.0004016324 -0.0013331681 0.000726782 -0.00061411026 -2.9550865e-05 8.089235e-06 0.00047182315 0.0007203587 9.469548e-05 -0.00028796517 -0.0008092567 -0.001780729 0.0020360085 0.0007327902 0.0024502678 0.0014868653 0.0009157497 0.0012011703 -0.0022966044 -0.002446985 -0.0022109486 -0.00036723237 9.1130845e-05 -0.0004294822 0.0018766127 0.0012209914 -0.0014532041 0.0018131761 -0.0016800221 -0.0010711625 0.0009956944 0.00047724554 -6.8563735e-05 -0.00073162466 0.0024498357 0.0018485002 3.000372e-05 0.00016899966 0.0012043479 0.00017564604 0.0006139602 -0.0009168106 -0.00035686907 -0.00025391788 -0.0019346648 -0.0022685106 -0.0011998182 0.0016774316 -0.0018041388 -0.0009691941 0.0012593495 -3.9008446e-05 -0.0016166887 -0.002225599 -0.0011663357 0.0024084328 -0.00089731126 -0.002191882 0.0017751614 0.00059359125 -0.0003642838 -0.0015342465 0.0010770254 0.0020182757 0.0013967454 -0.0023700309 -0.0017777393 -0.0010898662 -0.001245819 0.0010721798 0.0010690838 0.0014309492 0.0009050851 -0.00030346867 0.0013575086 -0.001311925 0.0008502011 -0.0015695303 -0.0024359773 0.0003168995 0.0022851718 0.0021374403 -0.00018496299 0.002309646 -0.0013871046 -0.00078209396 -0.00105705 -0.0022787547 0.0012032071 -0.0020040965 0.0013321394 3.8100407e-06 -0.0006689972 -0.0012296471 0.0024783541 -0.0010548922 0.0014425651 0.00079909526 -0.0023630878 -0.0009933254 -0.0022997695 0.00086492975 -0.0014855826 -0.0016767868 0.0013806417 -0.00078926026 0.0020431485 -0.00016792445 -0.0004721603 -0.0021832173 -0.0011784205 0.0016533108 0.0024919375 -0.0018284126 -0.00043800496 -0.0022803475 -0.0021110452 -0.00013813144 -0.0018948781 -0.00081884384 -0.002257305 -0.0009992954 -0.0005514246 -0.00033376273 0.0021533738 0.0010785777 0.00036951224 0.0010400822 0.0024263603 0.0019877306 0.0018272777 0.0010074452 -0.0018015202 -0.0021073404 -0.0003194043 0.00026738713 -0.0020391508 -0.0006544485 0.0024361424 -0.0010207886 -0.0001277423 0.0007770937 0.0009890739 0.000216858 -0.0021896611 0.0006662314 -0.0017437923 -0.002047573 -0.0023876615 -0.0010213014 0.0012966713 -0.00085291767 -0.00092626957 0.00064471806 0.0022161743 -0.0017275956 -0.0003342908 -0.0019515409 0.0024577528 0.0018580765 -0.001394304 -0.0024418968 -0.0008042342 0.0024374672 0.00024400023 0.0018169885 -0.0017788883 -0.00035373238 0.0010164352 0.00065360847 -0.0020339005 0.0024459315 0.0007722613 -0.00025682035 0.001426579 0.00044948957 -0.002048644 0.0010427879 -0.0018952938 -0.0010485637 -0.0006121346 -0.0008143198
they 0.0023421599 -0.00020221272 -0.0010688984 -5.575386e-05 -0.0022020107 -0.0019452488 -0.0019943877 0.0024821186 -0.0017276701 -0.0018529206 2.7066562e-05 -0.00027765543 -0.0016278678 0.001584304 0.0012304178 -0.00027548918 0.0006085411 0.0022787382 -0.00025819312 -0.0010989588 -0.0023282291 -0.002480807 4.1376334e-05 0.0021806876 0.0016335999 0.000903809 0.0021158052 -0.0014026979 0.0024358225 0.0018670224 -0.0022887047 0.002315946 -0.0010603794 -2.6349444e-05 0.0020482205 0.00016442407 0.00012206496 -0.0012767374 -0.0024244618 0.0014974154 -0.0016581216 -0.0016995545 -0.0023348522 -0.0018636726 0.002477617 -0.0014101118 -0.0018443572 -0.0014452287 -0.0018808051 0.0019342671 -0.0018608078 -0.0018583455 -0.002163623 -0.0020581775 -0.0024908113 -0.0007335928 -0.0017329745 -0.00047030486 -0.0015945187 0.0010995644 -0.0021348034 0.00036208122 -0.00042298948 0.00016543339 0.0022721784 -0.00011514127 -0.0016026961 0.0015427792 0.0019765622 -0.002406427 0.0011858363 -0.0016396951 0.0009571782 0.0024192813 0.0009454801 0.00064277626 -0.001149432 0.0021422766 0.00017870613 -2.626446e-05 0.0024490668 0.00041380385 -0.002246451 0.0018914421 -0.0013914034 0.00012594578 0.0013196385 0.0022736443 0.0020611403 -0.0023314394 0.000250292 -0.0010027098 -0.0015941148 0.0016654022 0.0005224722 0.0019230032 -0.0017911685 -0.0016352775 -0.0003838539 -0.0010777104 -0.002005909 -0.0010683212 0.001316129 8.776225e-05 -0.0013213867 -0.0016296983 0.0015588542 -0.00039109145 9.646034e-05 -0.0014297127 0.0023498894 0.00073475786 0.0009670276 0.0019875998 -0.0003102175 -0.0005985021 0.0012054627 0.00015530619 -0.0019173974 0.00017110887 -0.00011122832 -0.0008148914 -0.0014855787 -2.5897752e-06 -0.0024458366 0.0013314318 -0.00083205965 -0.0018014153 -0.0015425849 -0.0015125817 0.001436884 -0.0015168345 -0.0006836263 0.0018163077 0.0003362638 0.0006912763 0.00032113143 0.0018114909 0.0006308458 0.0016377275 0.0005973289 0.00087879295 0.00061678165 6.2647276e-05 0.0011346298 -0.00020758691 0.0011615395 -0.00050577754 0.00205884 0.0015143561 -0.00068820023 -0.00084288116 0.00021627569 0.0002714924 0.0012139827 -0.0019076633 0.0008064392 0.0015228726 0.00088167423 -0.0019068827 0.0017742226 0.00093313935 -0.0024373394 -0.0016444891 -0.00058733555 -0.002226786 -0.002013162 0.002432337 0.0011205056 -5.603605e-05 0.0019705268 -0.0013177559 -0.0012702959 0.002392639 -0.00094032555 -0.0020020814 0.001255258 -0.0014786955 -0.0021639536 3.9580744e-05 -0.000102374936 0.00057860115 -0.0023553795 -0.0015889697 -0.0022223282 0.0009848948 -0.0010267636 -0.0016262117 -0.00037133764 -0.0014988628 0.001915602 0.00049400795 0.0009550045 -0.0009808502 0.002477191 0.0005051589 0.0009706039 -0.00076001673 0.0006229477 0.0008177513
evolve, -0.0023781331 0.0018389514 -0.0008095369 0.0006488669 1.3145618e-05 -8.945353e-05 0.0020713964 -0.0010558543 0.00061312877 -0.00011886051 -7.519964e-05 -0.001988702 6.0815364e-06 0.0024703918 -0.0016133898 0.0003566395 0.0019417759 0.0018668277 0.0010875713 0.00063021947 0.0024567745 -0.0004852775 0.002244229 -0.0013019225 -0.0015377095 -0.0022551985 -0.0019641125 -0.002455995 -0.0007398537 0.00077876705 -0.0014478832 2.5830464e-05 0.00065532187 0.0020343135 0.0004796267 0.0024387185 0.0008807492 0.00015929528 0.0003386715 0.002294485 -0.002185725 0.0012061286 -0.00081144774 -0.0015984573 -0.002198623 0.001988396 0.00015417463 0.0010263487 0.0023010527 -0.0017851135 -0.0021257878 -0.0016660478 -0.0004381598 0.0024933633 -0.0024515681 0.0009355128 0.0013567831 0.0022200327 -0.001211515 0.0003626924 0.0013826876 -0.0019914252 -0.0018024835 0.002167929 0.0019037742 0.00081591285 -0.0019511768 -0.00043062423 0.001921135 0.0008539539 -0.0017011687 0.0015671453 -0.001722188 -0.0022804406 -0.002010585 0.0018163389 -0.00025361683 0.0023386073 -0.0018221484 0.0004336834 -0.00091002905 -0.00029138918 0.00068362034 -0.00087868806 0.0017406116 0.00097121205 9.834161e-05 -0.0015787077 -0.0013224918 -0.0022395663 -0.000222506 0.0019481177 0.00097111915 0.0006171027 0.00058981753 -0.001344416 0.0019242512 -0.0013452062 -3.1866133e-05 -0.00021916651 -0.0016192343 0.002088578 0.0008996641 0.002046654 -0.0014211085 0.0011581015 -0.0001703722 0.0008182896 0.0015930007 0.0003720033 -0.0013940904 -0.002236791 -0.00025425456 0.0010004428 -0.00048234197 -0.00025487877 -0.0023050194 -9.2792325e-05 0.0013112419 -0.0004000417 -0.0013594618 -0.0024449893 -0.0008202025 0.00047977874 0.0003197419 -0.0023578184 -0.0022439295 0.0015969053 0.0011029469 0.0005265558 0.0001258729 -0.0003617257 0.001945246 0.0017126114 -0.0014105436 0.0010328242 -0.002088333 -0.0023338639 -0.00075845513 0.00018927525 -0.0022403586 0.0015207278 0.0013959098 0.00036919978 0.001936446 -0.0016763434 8.935016e-05 0.0013283233 0.0007898363 -0.0022891934 -0.0009386068 -0.0023664332 0.0014043341 -0.0014186337 0.0014659492 0.0012190074 0.0010494471 -0.00020297151 0.000861068 -0.0017788594 -0.00059153524 0.0018436811 -0.00011525187 -0.0018665504 -0.00094289624 -6.7567453e-06 0.00021252898 0.00096664275 -0.0013529524 0.0020625475 -0.00087443204 -0.00021704286 0.0020354507 0.0009860592 -0.00024157343 0.0021873144 -0.0015664422 0.00040395814 0.0015676338 -0.0024765881 0.00072233356 0.0001841425 0.00074772537 -0.00054866134 0.0024268772 -0.0024849388 0.0005830645 -0.0015172424 0.00063664117 -0.0011540008 -0.0006837243 0.0005317428 0.0010375234 0.0020029908 7.662247e-05 -0.0013112285 -0.00039429404 -1.4594756e-05 -0.0012051647 -0.002494763
manipulate 0.0010991767 0.00024746358 -0.00081791135 -0.0013945308 -0.0024247663 -0.0010077402 -0.0018249532 -0.0006981853 -0.00030323048 -0.0008942917 -0.0006578439 0.00011688261 -0.00016758475 0.0011170926 -0.00080881116 -0.0010354399 -0.00017479155 0.0014535403 -0.00024131592 -1.9627158e-05 -0.0019938468 0.0022102133 0.0012807774 -0.0022268211 -0.0022548866 0.001415696 -0.0012981668 0.0018858705 -0.0006545868 0.0022014664 -0.0020108293 0.0011805627 0.000774296 -0.0007533765 0.00023166928 -0.0024614385 -0.0010282081 0.00076085795 0.0016226517 -0.0013966685 -0.00048054405 -0.001975198 -0.0024974474 0.00075353147 0.0024707196 0.0017448659 0.0002466282 0.0018563 0.0020836494 -0.0024076956 0.00082670944 -0.0017004495 -0.002471116 -0.00039449846 0.0022288142 -0.0024896965 -0.0016899621 -0.001234068 -0.0007923868 -0.0015458527 0.0018159733 2.3864908e-05 0.00091037503 0.0017474438 0.0022005583 0.00014364277 -0.0015541639 -0.0017170962 -0.0018981745 -0.002299422 -0.002032112 -0.000343916 0.001190197 -0.0016117068 -0.0018586467 0.0017393082 -0.0022845543 -0.00025888137 7.978268e-05 -0.0011739301 0.00015169661 0.0005805481 0.0024106777 -0.0005468214 -0.00086825364 0.0024263714 -0.0008667052 0.00084622833 0.00075323926 -0.00031915493 -0.0015081555 0.00023020129 0.001657295 0.0016102339 0.00017585536 -0.0018733307 -0.0018193203 -9.6662436e-05 -0.0016401687 -0.0015010008 0.0023670034 0.000700664 0.00044298475 0.0016496442 0.0008594352 0.002272179 -0.002083453 0.001357019 0.0005332432 0.00043153577 0.0023400048 0.0016146512 -0.0013288537 -4.437752e-07 -0.0020710728 -0.0020453082 0.00079578464 0.0010013077 -0.0006290099 0.00063227373 -0.0022823077 -0.00025110808 -0.0018163001 0.001085521 0.00015898235 0.0006792885 -0.0010099187 -0.00014648982 0.0008368506 -0.001269381 0.0010386491 -0.0016457158 -0.00092701823 -0.00095072656 0.00019435608 -0.0005403734 0.0014518886 -0.000331301 -0.0006648862 0.0013091108 0.0016384088 0.0020811395 0.00014951173 -0.0021921927 0.00104036 -0.0014019215 -0.0018624486 0.0006747851 -0.0009846401 -0.00045870175 -0.00074348063 0.0005679857 -0.0015354973 -0.0007506475 0.0021369667 0.00064972485 0.0006994179 -0.0021079378 -0.0020036392 -0.0015488269 -0.0011303007 -0.0008825377 -0.00013133278 0.0021923059 0.000635935 -0.00067820516 -0.0020930222 0.0020014686 -0.0018793035 0.0004297893 0.0011587476 -0.001514303 0.0014161775 0.0011415875 0.00037093693 0.0019568717 0.0018329909 -6.259885e-05 0.0012237227 -0.000288937 -0.0016193581 -0.0013076921 0.00053528347 -0.00060956564 -0.0024093692 0.002013301 -0.0016929593 -0.0010560665 -0.00032119057 -0.001003825 -0.00073487696 -9.5747644e-05 -0.0018918151 -0.0011298943 -0.0014090278 0.00061727525 0.00012866268 -0.00011507422 0.0016489737 -0.0013329014
other 0.0062023923 0.0003274648 -0.003800372 -0.0022962585 -0.0036734228 0.009687076 0.0014496513 0.006104208 -0.009003587 -0.0050843433 -0.003923933 0.0060810857 0.0024000837 -0.0026642426 0.0040196376 -0.006560511 -0.012611223 0.002155476 0.00030018884 -0.015691448 -2.9037526e-05 0.0031666995 -0.006118536 -0.014521696 0.008807922 0.0030356748 0.0061634947 -0.0030614329 -0.0023577488 0.006136985 -0.000990462 -0.018685088 0.009486543 0.00066085963 -0.0067715603 0.0019053671 0.0066947653 0.001068941 -0.004432417 -0.0021022153 0.014649075 0.0047138897 0.0012715099 0.008043914 -0.00097409834 -0.011099659 -0.0033275224 0.0025744757 0.0008452727 0.0034640601 -0.0026116355 0.0049063955 0.006107062 0.00015385948 -0.0004402657 0.004543174 -0.009050743 -0.003109807 0.0076259123 -0.0035823646 0.009901336 0.0008665821 0.0064812754 -0.004309798 0.0059529888 -0.0060408036 -0.006855668 0.010476947 -0.0028867591 0.015034851 0.012152368 0.00047062238 0.0047660624 -0.0044609294 -0.00748519 -0.0033605893 -0.0026411065 -0.011223735 0.005727628 0.0012537122 -3.732813e-05 0.009311177 -0.008178239 0.0065825568 0.005639052 0.00028174816 0.0046073277 0.008801966 -0.0015937615 0.00056742545 0.0027599442 0.00824332 0.0047216006 0.0076884474 0.0052193264 0.0060945856 -0.0018014227 0.0036547175 -0.0048253094 0.0041334773 -0.0007248019 0.0043832236 -0.006099879 0.00361473 -0.002020719 -0.010299941 0.012413013 -0.009924968 0.00061433145 -0.003701058 0.0078124627 0.00094179413 0.0020848168 0.007237979 0.015864495 -0.0028103562 -0.01566539 0.011728723 0.00094095315 0.0006802001 -0.012157715 -0.0026207832 -0.0040624514 0.000101221885 -0.00034500813 0.0013273592 0.002601167 -0.004128295 0.0031305952 0.0027603083 -0.013594243 -0.0064009516 -0.00068632094 -0.00835929 0.004163423 -0.008682849 0.006766155 -0.0006364836 0.010162024 -0.0021335038 -0.0118660545 -0.008206615 -0.002879201 0.014992789 -0.0048075756 0.006631424 -0.00038663571 0.01268105 0.0023461415 -0.009395206 0.0005602719 -0.013315583 -0.0042039 -0.00086918665 0.007021101 0.0019638247 -0.003607328 -0.0016090136 0.003458833 -0.00078798865 0.004995713 0.0043102093 0.0042802743 0.012135015 -0.0040310225 -0.0029253613 -0.0072342255 0.006851851 0.019838782 -0.0036338235 -0.0030338059 -0.013756817 -0.008842337 0.0068905745 -0.009370065 -0.0038217448 -0.004045849 0.01099913 0.0028133153 9.599259e-05 0.0036062638 0.010608484 0.01082957 -0.0033517727 -0.010738296 -0.0017088705 -0.004301962 -0.0016577222 0.006521912 -0.0048820674 0.00020762286 -0.0043880185 0.005269875 -0.0033548307 0.005008017 -0.015760988 0.0039690286 -0.010554259 -0.007898858 0.002904186
things 0.0058040293 0.00016857559 -0.005313747 -0.0003048584 -0.0025723737 0.009692565 0.00044188634 0.006660133 -0.011721771 -0.003075456 -0.0034890745 0.005704528 -0.00021111418 -0.0017674961 0.0036854113 -0.004492182 -0.01268324 0.00039814095 0.00030464007 -0.016123587 0.0017502458 0.004563311 -0.008523063 -0.014036562 0.007658123 0.0040336847 0.005948586 -0.0050407555 -0.0024237933 0.009616093 -8.799061e-05 -0.016446192 0.011646201 -0.0027394183 -0.0060232575 0.0030827585 0.0062816553 0.0006551568 -0.005960662 -0.0026759582 0.015251268 0.0012289006 0.003188936 0.0070959087 -0.0017380168 -0.010011865 -0.0009887547 0.0018661171 -0.000971674 0.0033647579 -0.005480986 0.004877848 0.007253261 -1.5702657e-05 0.0013660945 0.004157411 -0.009453595 -0.006844828 0.0067906724 -0.0061408253 0.008942867 0.004263612 0.005260878 -0.0027167804 0.006341014 -0.008219368 -0.005350223 0.012622598 -0.0029575324 0.01624441 0.013863184 0.0007117169 0.0055299285 -0.007193568 -0.003193028 -0.0005265353 -0.00080431433 -0.009633654 0.0059871976 0.00047253768 0.0034672937 0.011460979 -0.009128203 0.008661568 0.003484712 0.00010200851 0.0028069513 0.005498997 -0.0008909838 0.0039355154 0.0016563471 0.0077054715 0.004662215 0.007360936 0.0042587733 0.008916687 -0.0026212523 0.006424255 -0.0049734483 0.0036608614 -0.00078562845 0.002280754 -0.0030572754 0.0055822018 -0.0059600333 -0.010796518 0.012466075 -0.0098147495 0.002416571 -0.0043992377 0.011353617 -6.926255e-05 0.0019391272 0.002790768 0.016464185 -0.0023424125 -0.015385291 0.011336734 -0.00030460136 -0.00367703 -0.013029893 -4.6054018e-05 -0.0026114332 0.0021706421 -0.0012468228 0.0038870063 -0.00051483413 -0.0055880323 0.0025593354 0.005042963 -0.015444069 -0.0049095363 -0.0055266214 -0.008462058 0.002537625 -0.0082905525 0.008279127 -0.00070707046 0.006819729 0.00087607984 -0.008788132 -0.003915193 -0.0023502447 0.014182436 -0.0039289957 0.007511783 -0.0006007784 0.010452891 0.0014620604 -0.008579813 0.0021606945 -0.014146469 -0.0034464386 0.00016889068 0.007141373 -0.0004556613 -0.004998695 1.8934163e-05 0.0007225642 0.0018294024 0.0056721894 0.008039198 0.008261574 0.016022727 -0.0033607646 -0.0011744912 -0.0103133945 0.006073496 0.021146331 -0.005438662 -0.0030297174 -0.01379594 -0.006452671 0.0067610363 -0.0060442123 -0.005993993 -0.007951903 0.012056041 0.000910275 0.00061493804 0.0029166127 0.010495228 0.012303229 -0.0005788381 -0.009771342 -0.0065677585 -5.3199867e-05 -0.0043046516 0.0031959838 -0.0047040195 -0.0031666914 -0.0047873813 0.005274796 -0.0058785775 0.004388419 -0.014274855 0.0017090411 -0.008382042 -0.007293583 0.0009191405
data. -0.0016035488 0.00033321464 0.001494817 -0.0022007339 -0.0023990998 -0.00092232646 -0.0010380938 -0.00046702777 0.0016845334 0.0007997323 -3.3827033e-05 -0.0005182158 -0.001053319 -0.0014519712 -0.00017371261 -0.0009491098 0.00082875835 -0.0003973674 -0.0021668305 0.0010111635 -0.00077328505 -0.0003429479 -0.0013834429 -0.0023517497 -5.4546632e-05 0.0008654522 0.0015611057 0.0012610462 0.0018166034 0.0015170248 -0.0003017229 -0.00050427974 0.0002016786 0.0019331351 -0.0020436412 -0.0004648324 0.0017163609 -9.869062e-05 0.0020916364 -0.0023220542 0.0006259319 0.00063225976 -0.00029785116 0.0018895473 -0.0013522943 0.000239752 0.0017876267 -0.002445537 -0.00021758047 0.001518928 0.0009865612 0.0014447113 0.0008140928 -0.0014381105 -0.0003671341 -0.0011364883 0.0008035025 0.0008038471 -0.0010349101 0.0023139669 -0.00021452666 0.0008865427 0.00093600154 -0.00044449652 -0.0011491147 0.001768366 -0.00083115185 0.0021499177 0.0017950251 -0.000763551 -0.000408852 -0.00038155727 0.00085526565 0.0011795356 0.0022402494 3.4133438e-05 -0.0012056732 -0.001918484 0.0010950193 -0.0019731491 0.0017377688 0.0005152675 0.0012418777 0.00082759024 -0.00061246427 0.0013684321 -0.0013128745 0.0016035633 -0.001586461 0.0006448573 -0.0019257256 0.0015639025 0.0020961221 1.8676743e-05 0.0013717005 -0.0016637756 -0.0016605868 0.0013715916 -0.0011402577 -0.00069185346 0.0016576801 -0.0001239425 0.00015316694 -0.00044082035 0.0013449565 -0.0021252849 -0.0006615999 0.0022776388 0.0012556734 0.0005162447 -0.0024062474 -0.0022930785 0.00010080519 -0.0013378635 0.0017965157 0.001133011 -0.001804361 -0.0020420551 0.0011889378 -0.0020525444 -0.00051264535 -0.0019409269 0.002339323 0.00028609182 -0.00084785465 -0.00024276553 0.0017329971 -0.0019658774 -0.0021310109 0.0014977651 -0.0018122026 -0.00022632838 -0.00020136381 0.00025306502 -0.00046527316 -0.0006441965 0.00040535512 0.0023133708 -7.936964e-06 0.0006161353 -0.002200787 0.0012234228 0.00060694665 -0.0003053667 -0.0018469468 -0.0018667638 -0.001115765 -0.0023809723 -0.0011170027 -0.0020606744 -0.0020031603 0.0023854459 -0.0024143395 0.00039095012 0.0010164531 -0.0013169035 -0.0024540743 0.0018856679 -0.0011897888 0.0018253732 -0.002016668 -0.0024523863 0.001179676 0.00086927554 8.920347e-05 0.00033213082 0.0016246303 0.0014785887 0.00043106964 0.0015916852 -5.26004e-05 -0.0024123483 -0.0023911544 0.0016281907 -0.0016427741 -0.00090441015 -0.0015179177 0.00045307074 3.0309893e-06 -0.0014883679 -0.001730625 -0.0011279726 -0.0019971859 0.0017063282 0.0011653677 0.001983834 0.002361029 -0.0013226628 0.0002739844 0.0011768604 0.0024685604 -0.002090797 0.0006482515 0.0011111307 -0.0010479268 -0.0013484514 -0.0024194727 -0.0021135944 -0.00060356734 0.00064053177
The -7.6432014e-05 -0.00091915275 1.16177835e-05 0.0024848385 0.0010241196 -0.0011299377 0.00067224656 -0.00045709498 -0.0021184937 -0.0007543904 -8.311216e-05 -0.0009147179 -0.001659167 -0.00015718024 -0.0020538974 0.001819165 -0.0017907463 0.0023933235 -0.0023872086 0.00075746304 -0.0015829196 -0.0016830822 0.0011853175 0.0011184358 0.00210873 -0.0015157557 0.0010661471 0.0012821266 -0.0022043916 0.0024719173 -0.0008539567 0.002042279 0.000686022 0.00021961099 -0.002060873 -0.00014727446 -0.0001473024 -0.0006843469 0.0007332391 -0.00084941986 -0.0018070238 0.0022222204 0.0024045287 0.001593587 0.002365179 0.0020012069 0.0003146273 0.002175006 -0.0019568773 0.002323362 -0.00028218236 -0.0010590467 0.0020576706 0.00074972445 0.001527295 -0.00186363 0.0016448568 0.002157655 -0.0011631644 -0.00085411186 0.0020730798 -0.00020671543 -0.00044954754 0.00026295404 0.002386664 0.0012291621 -0.002165184 8.613081e-05 -0.002311745 -0.0022852228 0.00054276804 0.0013265463 0.00047441176 -0.0005436253 0.0021017469 0.0022596829 -0.002490216 -0.002067587 -0.0002639047 0.0020339414 -8.097221e-05 -0.00059149705 -0.0015276237 -0.0023752572 -0.001044403 4.4957735e-05 0.0021753404 -0.0024149402 0.00031107245 0.00018263375 0.0023554568 -0.0017794704 -0.00041969866 0.0022612726 0.00067702914 0.0020684977 0.0013389816 -0.00064596266 0.0011796353 -0.0012303906 0.0019134907 0.00073903915 0.00077729276 -0.0020184964 -0.0002914148 0.0006334891 0.0012148025 -0.0008303198 0.0024502366 -0.00057846634 0.0015173578 0.0021909326 0.0012872308 -0.0012804595 -0.0021540236 -0.0016276434 0.00073554507 -0.001417225 -0.00015382655 -0.0023813054 0.00049556047 -0.0008221414 0.0012328699 -0.00033638743 -0.0021064712 -0.0006236833 -0.0013377994 0.0019659442 -0.001956741 0.0018142955 -0.0015525927 0.001911772 -0.00227326 0.0018980377 0.001352747 0.0006158254 -0.00015110802 -0.0011026844 0.0022270586 -0.00045090844 0.00067107077 -0.0021976514 0.0015955698 -0.00081971404 0.001693991 -4.4384506e-05 0.0019747089 0.0019479375 0.001272236 0.00016182102 0.00051719183 -0.0015840817 -0.00097288424 0.0018931106 -0.0014311048 -0.0012076499 -0.001535828 -0.0019611767 0.0022187913 4.9776165e-05 1.1075987e-05 0.0019852286 -0.00023976737 -0.0012861431 0.0009098416 0.0022974275 0.0018227468 -0.0011957919 0.0024401746 -0.0016315123 0.0014064242 -0.00067032874 -0.0021436505 -0.0016118968 -0.0018970263 0.0017413348 0.00023131422 0.0015622415 -0.002212301 0.000408147 -0.0023920375 0.0014873291 0.0006653522 0.0022734432 -0.0019810684 -0.0011322239 0.001647302 0.0023004366 -0.0018687684 0.0002946779 -0.0023992728 -0.0023595404 0.001641171 4.5024557e-05 0.0016953186 -0.0011643693 -3.0638184e-05 -0.00076416426 -0.0001496633 0.00026586652
evolution 0.0003319194 0.002243245 -0.0021390372 -0.0023501078 -0.0009378346 0.0022032582 -0.00033659 0.001823504 0.0013642353 -0.00019126805 0.0015019057 -0.0014743725 -4.5421766e-05 -0.0015628621 -0.0010180137 -0.0012477252 0.0015197056 0.00054226676 3.4862198e-05 0.00030181208 0.00019082963 0.0013465642 -0.0011076549 -0.00062032486 0.002381545 0.002183306 0.00034292694 -0.0004202393 -0.00012601493 -0.0021818932 0.0016480181 0.0017020451 -0.0016714733 0.00036235387 0.00034060772 0.0018074019 -0.0003337874 0.00011907914 -4.8045767e-05 -0.00073686335 -0.0016830614 0.00047116913 -0.00086651475 0.0024930108 -0.0014507589 -0.0018545284 0.0017277617 0.0016183238 -0.0022004417 -0.002486493 -0.001585986 0.00062663085 0.00017937087 0.0012254994 0.0018609222 0.0023907716 0.0022648699 -0.00031948322 -0.0005901897 -0.0020517688 -0.0009175264 0.00018714787 -0.0014584028 0.00208409 -0.0021590155 0.00015603309 -0.0007342807 -0.0009254372 -0.0006047392 -0.00031558564 -0.0006638062 -0.0018004107 0.0016904906 0.0011471887 -0.0010916978 -0.00193212 0.0010860702 -0.0003369432 0.00029728166 0.0018944535 -0.0013189157 -0.0011430457 -0.0017908693 -0.0004216202 0.0015573506 0.001697537 0.00078568724 0.0024872012 -0.0014323035 -0.0017124229 -0.0021756655 0.0015217606 0.0013685843 5.0896313e-05 -0.0022518595 0.001559468 -0.0018013204 -0.00037899963 -0.00075159967 -0.0015846798 -0.0011369049 -2.9644929e-05 0.00020946795 -0.0005961865 -0.002160257 -0.00027027493 -0.00028855028 0.002302901 -0.0006825703 -0.0021436908 -0.0015014305 -0.0014399376 -0.0014326777 -0.00090895745 -0.0014443713 0.0014140122 0.0016843714 -0.0022292372 -0.0019627549 -0.0014310214 0.0024321857 -0.0020532387 0.00015477603 -0.0019121846 0.0010692519 -0.0008219192 -0.0014923095 0.00052975374 0.00071911654 0.0017883708 -0.0017926877 0.002184134 0.0023039076 0.00034756958 0.0005024716 0.0020831837 -0.0013141584 0.002318283 0.0006235414 -0.00016565109 -0.0018043705 0.0009480682 0.0022094878 0.0024968553 -0.00071281614 -0.002272568 -0.001825833 0.00069366116 0.002231704 -0.0024529004 -0.00026250212 0.0010153358 -0.0020432281 -0.0005180517 -0.0022261452 -0.0010186255 0.0010292986 0.0005989319 0.0021428056 -0.0024829623 -0.0024527966 0.0013273668 -0.00033251313 0.002239165 0.0015398441 0.0020451336 0.000602606 -0.0007053694 -0.0017301152 -0.002458716 -0.0002820175 -2.1220418e-05 -0.00067054655 0.0007463123 -0.001318517 0.0006220734 -0.002201968 0.00237644 -0.0011044093 0.00090877153 0.0014181207 -0.0014428707 0.000103670405 0.0011224155 -0.0018686446 0.0019235881 0.00031886972 0.0014169151 -0.0009806368 -0.0009659418 -0.00043816026 -0.0010260462 -3.1828647e-05 -0.00013377052 0.00045961444 -0.0012029347 0.0017656721 0.0022338326 -0.0024041468 -0.0023190635
process -0.0006856745 6.144517e-05 -0.002389707 -0.002157451 -0.001858431 -0.0008654463 0.0001590848 0.001619692 -0.00038439478 0.0024901638 -0.0006513172 -0.0022752404 -0.0013573306 0.0008846212 0.00039796135 -0.0023454952 0.0022984403 -0.002129537 -0.0023835464 0.00087066647 0.0020192815 -0.0008351016 0.0018796744 -0.00047051813 -0.00029080058 0.0018899767 0.0009794948 0.0010337767 -0.002037065 -0.0020681664 0.00034894282 0.0010746247 0.0018110615 0.0021179742 -0.0009218344 -0.002239102 -0.00069898786 0.0018944005 0.0024528988 -0.0010987642 -0.0008608025 0.00011167396 -7.627439e-05 -0.00016068458 0.0011924652 -0.00042193686 -0.0016045704 -0.0010019067 0.0020889645 -5.649659e-05 0.00081897737 0.00063959486 0.0011140399 0.0015356755 -0.0022583946 -0.0008341101 -0.00066423265 -0.0012834781 0.00075388886 -0.00125431 0.0015372424 -0.00073533447 0.0016151234 0.0019112942 -6.8658264e-05 -5.2688643e-05 -0.0016132265 0.0024436777 0.0023403866 0.0023160805 -0.000276668 -0.0013951682 0.00068177935 0.0024393885 -0.001389096 -0.00016003335 0.001595729 0.00032956665 -0.00076687837 0.002039927 -0.0011823263 -0.00029458874 7.692631e-05 -0.0012124523 0.0017329613 0.0024799681 -0.00092464173 -0.002431471 0.00053451536 0.00090311025 -0.0023565742 -0.0016493943 -0.0003964596 0.00089667295 0.0021640356 -0.0024333366 -0.00088210043 0.0021622623 0.001522691 -7.615518e-05 -0.001175929 0.00014056778 -0.0016978472 9.617931e-05 -0.0013995903 -3.535766e-05 0.0021257186 0.0021265326 7.828674e-05 -0.0005841362 -0.0019871118 0.000848765 0.0018900982 -0.0004255476 0.0024979198 0.0018908805 -0.0010291481 0.0002888448 0.002419236 0.002449782 -0.0013700321 0.0018759379 -0.0020680688 -0.0021585256 0.002026176 -0.00032302248 0.0024107061 -0.0024795192 0.001176896 -0.0012858468 0.0019685673 -0.0012104445 -0.0024841353 0.0022669602 -0.0024420938 -0.0007580039 0.00061140745 -0.00034951605 -0.0005053624 -0.0017334905 0.0021073916 0.0012421776 0.0018967162 -0.00032715965 -0.0018866211 -0.0015853214 -0.0023165774 -0.0010086984 0.0014329101 0.0022626277 0.00038060942 -0.00059903704 0.00051205256 -0.0019549336 -0.0018692269 -0.0010541842 0.0017910874 0.00015247543 0.0018944219 0.0015744083 0.0024621622 -0.00037090736 0.00048201205 -5.334476e-05 -0.0022256565 0.0017995397 -0.0019883716 -0.0006070408 0.00035418337 -0.0015188068 7.0817536e-05 0.0021973238 0.0010344672 0.002378548 -0.0020432912 -0.0008703568 -0.001587083 -0.00035950402 -0.0003457435 0.0010664163 -0.0016501596 -0.00015799794 -0.00020457595 -0.00038312282 -0.00224336 -0.0011977139 0.00031805364 -0.0010380157 0.0023646671 -0.0011766737 0.0018481733 -0.00043415092 0.0022011022 -0.002424594 0.00086934306 -0.0016774205 -0.0010916432 -0.0024408647 0.0005542054 -0.0005418069
is 0.0019074664 -0.0017661055 -0.00041970168 0.0018869634 0.001981432 8.224277e-06 0.0021087388 -0.00017745141 -0.0023944494 0.0023384676 0.0015576379 -0.00048084487 0.0014301995 0.002195334 0.001280139 -0.0008794778 -0.000116372714 -0.0023878056 0.001245456 0.0013155842 0.0008261595 0.0007861301 0.00056893704 -0.0019301977 0.00040466688 0.001248084 -0.001197921 0.0017690677 -5.5065146e-05 -0.00030761724 0.0018645125 -0.00038771634 0.0024332623 -0.0023625195 0.0019841576 -0.0012263235 -0.0024844345 -0.00091451104 -0.0014103266 -0.0020752456 0.0005897882 0.00075533544 0.002237345 0.0014683865 0.002110186 0.001694697 -0.0013899079 -0.001429592 -0.0011580864 -0.0023962066 -0.000186919 -0.0015085536 -0.0018168571 -0.0023759524 0.0015545795 -0.0010313222 0.00021902076 0.0021782331 -0.0006134835 0.0022166432 0.0011918428 -0.0011124518 -0.0015458136 -0.0018005955 -0.00092929276 0.0019121263 0.0017055613 0.0016069333 -0.0007609647 0.0013891931 0.0010001429 -0.00031201844 -0.0015068662 -0.0023510128 -0.002476026 -0.0009620186 -0.001021688 -0.0024321883 -0.0006594667 0.002144463 -0.0019061277 -0.0012766081 0.0017307261 -0.0024913677 0.0016476279 -0.00047853845 -0.0011809212 0.0019575167 0.0014379481 0.0022848598 -0.000481379 0.0022979095 0.00078579015 0.0021119309 0.0016846638 -0.0023351605 0.0022531115 0.0022150106 0.00068837847 -0.0009457028 0.0023928406 -0.00025613257 0.0011164227 -4.3577747e-05 0.0010065695 0.0013428803 -0.002075145 -0.0018461549 -0.001356715 -0.00067757163 0.0016118297 -0.0017004097 0.0024247766 -0.0018696707 0.0011680706 0.0018971078 -0.0005170128 0.0017866278 0.0022262353 -0.002321584 0.0013044693 5.991361e-05 0.0016966136 0.0021563862 0.0005313214 0.0016363868 0.0015015891 0.0008700604 0.0014442629 0.00048215757 -0.0019605511 -0.0004489543 -0.0012020033 0.0012503248 -0.0005317689 -0.0024564122 0.0016861791 0.00018782774 -0.0023083233 0.00070136646 3.7587946e-05 0.0008275735 -0.0010138878 -0.0011611067 -0.0009441179 -0.00044035772 -0.000956718 -0.00050098053 0.00059203897 2.498459e-05 -0.001639226 0.0012997773 -0.0016944346 -0.0017511633 -0.0022625753 0.0021328526 -0.0021799556 -0.00058726966 0.0010164778 0.0004851946 -0.0011973887 -0.0012303179 -0.00029537617 -0.0011138385 -0.0018697404 0.00044205692 -0.0024828012 -0.0010123712 0.0007185193 -9.590993e-05 0.0019806898 -0.00044052373 0.00028030924 0.0004977342 0.0004452134 -0.0009943763 0.00077358657 0.00073042326 -0.0012759542 -0.0016104067 -0.0018683728 0.0019419948 -0.0024585302 0.00104342 -0.0023144921 0.00015627267 -0.002079124 0.0007293748 0.0024607275 -0.00013761898 0.002479996 0.00031593977 6.862078e-05 0.00031368108 0.0015994371 0.0013057976 0.0012567341 0.0014328593 0.00015168427 0.002247231
directed 0.0022050878 -0.0021597496 -0.00011686259 0.001622552 -0.00071286166 0.00067724194 -0.001050134 -0.0011511969 0.00046436186 0.0008188707 0.00039593456 -3.6365353e-05 -0.0021487295 0.0011465361 -0.000448043 -0.0021110277 3.6633108e-05 4.9723778e-05 0.0016769241 0.0024828129 0.00056094443 0.0015125806 4.1591935e-05 -0.001650919 -0.0018194332 -0.0006868681 -0.0014487222 -0.0018563026 -0.0011678969 0.001428809 0.0013095164 -1.935265e-05 0.0020667696 0.0013708083 0.0011697018 0.0006286255 0.00010806648 -0.0024578169 -0.0003681106 0.00013244012 0.0015464178 0.0016181986 0.0024891696 -0.0022697842 -0.00020316546 0.001773221 0.0010123616 -0.00034269667 0.0015461328 -0.00051808334 0.00037410925 0.0017913333 0.0007088231 0.0004597779 0.0024653194 0.0017102677 0.001441244 -0.00096111954 0.0008097908 0.001478605 0.0010610118 0.00028232252 0.00065136 0.0006832129 -0.0006471488 -0.0011616149 0.00024388195 0.0006416314 -4.363805e-05 0.000720297 -0.0005640718 0.0013462368 -0.002410075 0.00026907376 0.0014344878 -5.9391605e-05 0.0018430133 0.00045081694 -0.00044242898 0.00015190244 -0.0012177724 -0.00026917993 -0.0012537146 4.04187e-05 -6.978004e-05 0.0012930522 0.0013890665 -0.0008836326 0.0011585464 -0.0012621765 0.0010183775 -0.0011440864 -0.00084192806 0.0003564614 0.0021576462 -0.0016592002 0.0012029146 -0.002031087 3.60033e-05 -0.0018170344 -0.0015998986 0.00040582987 0.00047082873 0.0001872459 -0.00025696494 -0.0003106743 -0.0022610158 -0.0004289206 0.0014138059 0.0018526055 0.0023521571 -0.0015969315 -0.00042829453 -0.0024988668 0.0016051815 -0.00062962447 0.0012311626 0.0004205685 -0.0014386651 -0.0022526213 -0.0013342857 0.0022356221 -0.00010117493 -0.0010374582 0.00029704068 0.001372841 0.0006462855 -0.0006947947 -0.001212632 -0.0011164447 -0.0014597443 -0.0023352625 -0.0023795392 -0.00087841775 0.001668002 -0.0005651808 0.0015572114 -0.0015557529 -0.0005085417 0.00068724365 0.002292261 -0.0022620445 -0.0012010258 0.0022985553 -0.0013406422 0.002319124 -0.00015150313 -3.7493184e-05 -0.0021345725 0.0021540602 -0.0021942472 -0.0017041685 0.0017433208 0.0004945684 -0.0022894372 0.0024817893 0.0008067866 -0.00044696033 0.0014640763 0.0012268934 -0.0009795716 0.00057798065 0.0018676976 0.0017589168 -0.0010108921 -0.0021941592 0.00022364664 0.0006351932 -0.0020157057 -0.00040458213 0.0006641159 0.0005682907 0.0017881049 -0.0005938348 0.0016893591 -0.0013862625 -0.0007882863 -5.623838e-05 0.0012482046 0.0019583642 0.0016831877 -0.00082032057 -0.00064821506 0.00069728727 0.0009324837 -0.0021132885 0.0011365518 -0.0016861581 -0.0018917236 -0.0012686902 -0.0013820803 -0.0014376652 -0.0011112251 0.0022064648 0.00053454936 -0.002048759 0.0004356394 0.0023200465 -2.1506567e-05 -0.00049207476
by 0.005653422 -0.00057932775 -0.003127028 -0.0032108857 -0.0056945183 0.0069333212 -0.0011413259 0.0060662664 -0.0072243046 -0.001205988 -0.001636188 0.0042112353 0.0012941649 -0.0018265556 0.004282931 -0.00595576 -0.012888065 0.00035795386 0.0015389309 -0.01475604 -0.0028945506 0.0005240611 -0.0076462724 -0.013672067 0.005901589 0.0009092485 0.009035524 -0.0041426937 -0.0029220427 0.0070786397 0.0015664248 -0.01855828 0.00939144 -0.0013814701 -0.0062230756 0.0031284525 0.005493184 0.0007123214 -0.0059182094 -0.0028847982 0.015291448 0.004791986 0.0031089815 0.005718939 -0.0045882403 -0.011457593 -0.0005432862 0.002526409 -0.0022131393 0.004948553 -0.0053182957 0.004905093 0.0042249165 0.0017362962 0.002635142 0.004522696 -0.010538969 -0.006858216 0.0058792504 -0.0052355435 0.010461226 0.0040331185 0.0077171964 -0.0048798993 0.0037330948 -0.007982742 -0.0074668564 0.01334116 -0.0022135659 0.014026388 0.010808072 -0.0019082035 0.0036988948 -0.006617955 -0.008152124 -0.0029486958 -0.0022159833 -0.0075147185 0.00488122 0.0014107131 0.0024979345 0.011835725 -0.00557156 0.0048505617 0.0033005914 0.001920553 0.0021468531 0.009280441 -0.0006309684 -0.000693067 0.004992943 0.0058813742 0.00549018 0.0033241806 0.005464738 0.0077854586 -0.0010300922 0.004087988 -0.0029479596 0.0056162328 -0.004628825 0.004760951 -0.0028292877 0.0042201434 -0.006579699 -0.008632365 0.01096732 -0.0104822 0.00072672544 -0.004780814 0.011097414 1.320107e-05 0.0012721318 0.0070722885 0.01695572 -0.002503302 -0.016648559 0.012596498 0.0011706983 -0.0017503395 -0.01137695 0.00051047 -0.005587097 0.00087842334 -0.003153458 0.00012659832 0.002085062 -0.0037671092 0.004306188 0.0049331235 -0.014434282 -0.004872226 -0.0018767929 -0.006213917 0.0029855054 -0.004392015 0.007864824 -0.0017191927 0.009457631 -0.0029968137 -0.011190436 -0.008400981 -0.0034769825 0.013776253 -0.0054857903 0.0063442225 -0.0016823988 0.011834461 -0.0008055967 -0.01034563 0.0004079983 -0.014261238 -0.0032979979 -0.0016400809 0.006428091 0.00042998517 -0.004628481 -0.0016045471 0.0022287169 0.0017152099 0.00914799 0.008624523 0.0069890874 0.01623666 -0.005238319 -0.0017483659 -0.009437133 0.007813276 0.021465437 -0.0034365149 -0.0014734324 -0.01221345 -0.00545818 0.00701964 -0.008988195 -0.0069090254 -0.0048886873 0.0122878095 0.00060753303 0.003635293 0.0002477352 0.008419889 0.010796043 0.00055009633 -0.011093671 -0.005152408 -0.0002207198 -0.00555423 0.0037285024 -0.0074500777 -4.955675e-05 -0.00067344704 0.00840138 -0.0050856713 0.006061083 -0.0145233255 0.0041679954 -0.007987011 -0.007125969 4.879199e-05
pattern 0.0032501847 -0.0029760576 -0.0031464165 -0.0024240694 -0.0047756303 0.0061356677 -0.0002713431 0.004134025 -0.010896447 -0.00058226695 -0.0014017822 0.0068780086 0.0012306635 -0.0021730459 0.000805339 -0.00682034 -0.01367784 0.003835711 -0.0009903589 -0.01752852 0.0010248793 0.0034805425 -0.00845375 -0.013323691 0.0073152776 0.00082838524 0.0086935535 -0.005261302 0.00032330537 0.00887954 0.0036441188 -0.018530035 0.010932042 -0.0016509955 -0.0066040657 0.0028839838 0.004843675 0.0010254219 -0.0052335956 -0.0019789955 0.0155087365 0.0052477997 0.004884272 0.0081440145 -0.0055790367 -0.011179239 -0.00318561 0.0041289045 -0.0019141987 0.0045661945 -0.006028513 0.0061651757 0.006806722 0.003797273 -0.0002982366 0.006685184 -0.009137922 -0.006718942 0.008308094 -0.004730881 0.007511198 0.0032253212 0.0046546366 -0.004148245 0.005867002 -0.009192503 -0.0038853767 0.013729317 -1.5454928e-06 0.01617371 0.0143264895 0.0013899063 0.003851504 -0.005036154 -0.008072196 -9.7576e-05 0.00060878583 -0.010443643 0.00446851 0.0030548165 0.0005378676 0.012429193 -0.005213154 0.007264698 0.0047360277 0.0033345427 0.005276543 0.008349519 -0.004317636 0.004119029 0.0036702 0.0063041532 0.0042944592 0.003602173 0.0047092265 0.008832389 -0.0029647653 0.00598219 -0.0029401756 0.007786093 -0.0032243894 0.006774533 -0.007763671 0.0013122736 -0.0022721011 -0.011925022 0.012111739 -0.011103997 -0.00057599763 -0.0041339984 0.012163338 0.0007228179 0.00500207 0.007382904 0.01271473 0.0012321238 -0.017169042 0.013282636 -0.0022383952 -0.0020935023 -0.012997452 -0.0025282213 -0.003881913 0.003487985 0.00014545165 0.0013494497 0.0005078277 -0.005821139 0.0032696081 0.0035088395 -0.013287558 -0.0024217034 -0.00088872557 -0.008341254 0.0002542594 -0.0075658523 0.00761713 -0.0024698258 0.009167611 -9.5954994e-05 -0.011151427 -0.0071803154 -0.0027520768 0.013167443 -0.0028205235 0.007490417 -0.0031926318 0.0127990935 0.002611454 -0.0074977023 0.005370861 -0.013110922 -0.002440259 0.00029904477 0.0033958245 0.000184077 -0.0066831233 -0.00017506079 0.0037642492 -0.0014067977 0.007969011 0.005498285 0.008662686 0.014432806 -0.0037439764 -0.00078426965 -0.01015973 0.005448025 0.021068852 -0.0051868954 -0.0026912421 -0.014562552 -0.007381485 0.009233222 -0.005959543 -0.0073713744 -0.0073731076 0.012453199 0.00055980735 0.0027809518 0.0016683049 0.010398341 0.010465 -0.0023606715 -0.009323274 -0.0041580833 -0.0038885009 -0.0040746466 0.0052144653 -0.0048731198 -0.001972906 -0.0046277195 0.008811403 -0.0015776621 0.0052712862 -0.013194961 0.0058043986 -0.010630241 -0.008815408 0.0032189675
rules -0.0020810324 -0.0020003563 0.0010303443 0.0021459097 0.0019239425 -0.00019935286 -0.0017075216 -0.00046331645 -0.0005123059 -0.0014299538 -0.0020511926 0.0006632933 0.0024973354 -0.0021682214 -0.0023225215 -0.0024867675 -0.0018313258 0.00050065015 -0.00021582493 0.0006022805 -0.0020814743 -0.0018883669 0.0004076159 -0.0022390415 0.0014763577 0.0023603276 0.0018230984 0.0013766666 0.00047404855 0.00025553792 -0.0004638643 -0.00018197158 -0.00046229595 -0.00074362184 3.3768825e-05 0.0010172962 -0.00085079786 -0.001786211 -0.0015983456 0.00088149635 -0.0003900947 -8.095498e-05 -0.0008457928 0.000717347 0.00041531795 0.00019067968 -0.0016859617 0.00026920438 0.0012609162 -0.0018877077 -0.0017607617 -0.00027315854 0.0014950098 -0.0015705719 0.00068904646 -0.0011222473 0.000582824 0.0024699685 -0.00041230652 0.0014314274 2.4715671e-05 0.0011631201 -0.0015260738 -0.0021274642 0.0012740304 0.00046753045 -0.0018703856 0.0009574115 0.00024451292 -0.00013820501 0.00025221147 -0.0013075784 -0.0022650189 -0.0020577519 0.00038990984 0.0005434591 -0.0010549953 0.0001144663 0.0013301896 0.0018398114 -0.00081448106 0.0014014011 -0.0020972136 0.00027766498 -0.00019186968 0.00021254388 0.0023058257 0.0021616248 -0.0010544547 -0.0003214064 -0.0018698415 0.0005860254 0.0013297864 0.00092670997 6.856653e-05 -0.0024638602 -0.00022416259 -0.0012653673 -0.00086534466 0.0018072892 0.0002963459 0.00038666185 0.00029214984 0.0006528613 0.0010867929 0.0005368318 0.0022496548 -0.0020965936 0.0017460235 -0.0004526619 -0.0018622938 -0.0023770335 -0.00013072602 0.0005019442 -3.5877805e-05 0.0015068576 0.002359081 -0.000599992 -0.001943599 -0.0010266849 0.00055108755 0.0014107958 0.0014891038 0.0010013646 0.0014186287 -0.0016829347 0.0024589137 0.0018536304 -0.002001877 0.0004783722 0.0021821065 0.0008882182 3.0334108e-05 -0.0014228725 0.0011624577 0.00063982164 0.0022719689 -0.0002411094 0.0018119868 -0.00051947497 -0.0008570384 -0.0021825612 -0.0015522256 0.0020621233 8.057058e-05 0.0024036523 -0.0020793292 0.001955871 0.0017115185 0.001524827 0.00093529513 -0.00042717345 -0.0008662536 0.0010539133 0.000108671375 0.0006196783 0.0009329852 0.0009155432 0.0021405122 -0.002134636 -0.00031889463 -0.0016884126 0.0015291343 -0.0009729784 0.0014747283 -0.00030611455 0.0023638797 0.0014001944 -0.0014968893 -0.001919454 0.0007444252 -0.0012440833 0.0004133007 0.0023100139 -0.00086775515 0.0003625648 0.00055417186 -1.0982854e-05 -0.0021562034 -0.00091836695 -0.00018577208 0.0011312577 -0.0024459155 -0.0022724876 -0.00045649614 -0.0022314577 0.0024435977 0.0018160008 -0.00025331764 -0.0018864259 0.00014921813 -0.0005073161 -0.0012972289 0.00039633084 -0.0016280788 0.0023330804 -0.0006205556 0.0012718199 0.0007835177 0.0022027716
program. 0.0022672964 -0.0010374963 -0.0014037037 -0.002346623 0.0015099524 -0.0010507273 0.0013806601 0.0013929808 0.0007096615 0.0013843784 0.00017890753 -0.0024156412 2.2009946e-05 -0.0010518658 0.0013550096 0.0021597124 0.0009485923 0.0007824665 -0.0016232016 0.0024140994 0.0009089138 -0.00025228667 0.0017916439 0.0022076098 0.0013613277 -2.7656555e-05 -0.000290266 -0.001832158 -0.0019351646 0.00048011355 -0.001191377 -9.946828e-05 0.00048235315 -0.000699515 -0.0021830322 0.002376128 -0.0004220151 -0.0011727539 0.0010877927 0.0016545202 0.0017638714 0.002085297 0.0021922295 0.0007289699 0.0017183311 0.001168607 0.002032897 0.00018155179 -0.0013144288 0.0013878811 0.0010044519 -0.0021322868 -0.0007784292 0.0013363331 0.0009463313 0.0005066949 -0.0015215253 -0.00039685378 -0.00083457143 0.0004306906 -0.0024201937 -0.0013086506 -0.001223359 0.00031961594 -0.00202175 0.0011793196 -0.0013496408 0.000730684 0.0006700151 0.00023726257 0.0009144044 0.0016215639 0.0009547705 0.0017245929 0.0023450702 -0.00012873928 0.0017168024 -0.00039860606 -8.2165e-05 -0.000716688 0.0012173757 -0.0009639567 -0.0011091148 -0.001942659 0.00017632963 -0.00028398028 0.001974658 0.0005402963 -0.0011864003 0.00024029333 -0.0019916603 -0.00089051307 -0.0009309023 0.00085802795 -0.00087313564 0.00011136383 0.0005598429 -0.002241203 0.00025370275 0.00014486047 0.0013311296 -8.547679e-06 0.00038904673 0.00031681033 0.0019045244 -0.0023144882 -0.001324501 -0.0020875838 -0.0021785833 0.0019490714 0.0019173301 -0.0012404656 0.0010144964 -0.00063264905 0.0018555955 -0.00020803325 0.002428291 -0.001199789 0.0015826975 0.0011517233 0.00051695853 0.00012766384 -0.0007949867 -0.0024249672 -0.0023038979 0.0015072632 0.00057218573 0.0016326611 -0.00037270435 0.00020288886 -0.00070482725 0.0008000755 -0.0024665333 -0.0012040501 -0.0013546437 -0.0005101189 0.0013370453 -0.0016978129 -0.0024325938 -0.0023753527 -0.0007013872 0.0003457358 7.572328e-05 -0.0015015557 -0.0024245554 0.00032178406 -0.0010248753 -0.0013269433 0.0012072583 -0.00022173743 -0.0014196214 0.0017922455 0.0014720391 -0.0023220694 0.0007435372 0.0024033422 -0.000897727 0.0012295807 -0.0020014413 0.00014611403 -0.0014103332 4.891306e-05 0.0006028018 -0.0013228833 0.0013125022 -0.0017049348 0.0022721211 -0.0024811712 0.0006673527 -0.0009184625 4.828209e-05 0.0014276113 0.001307467 -0.0007466993 -0.0020556278 -0.0021081471 0.0007736122 -0.0009669205 -0.0013854393 -0.0006692463 0.001969506 0.0017514252 -0.0020008453 -0.0018608742 -0.0005031375 -0.0016683697 -0.00052985805 0.0023757927 -0.0019780695 -0.0018298342 -0.00028929627 -0.0014882212 0.0018440718 -8.005579e-05 -0.0019520682 0.001423032 -0.00024397066 -0.00014751288 0.001380499 0.0004348231
