50 200
UNK -9.245961e-05 0.0019640396 0.00024970225 -0.0009016007 -0.0009170129 -0.0009978309 0.0011181503 -0.0013017517 -0.0002511614 -0.0016971636 -0.0014471668 0.0023197536 -0.0022388056 -0.00065981713 -1.7267419e-05 -0.0005347268 -0.00038063037 4.4373795e-05 -0.00059435423 0.0021051206 0.0016907626 -0.0019808307 0.0023214952 0.00075941253 -0.0018746394 0.0018200306 -0.0003211873 -0.0023360492 -0.0014323497 0.001596807 0.0017437814 0.0021423963 0.0021819724 -0.0010552563 0.00087089697 -0.00027361512 0.0009364006 -0.000774084 -0.0017878106 -0.0024734915 -0.0011487153 -0.00061163516 -0.00077075535 -0.0012854108 -0.001794335 0.0018630116 0.0005975291 0.0011565655 0.0006254583 0.0011113109 -0.00044905278 0.0024631787 0.0011757542 0.0023817215 -0.0022929288 0.002111338 -0.0012580445 0.0004677868 0.0018139156 -0.002128335 -0.00077738555 -0.00142723 -0.0018995616 -0.0015491133 -0.0021385113 0.0005937503 -0.0021766531 0.0017414568 0.00025885156 -0.0010435056 0.0019441964 0.00037316233 -0.001147953 0.0013737711 0.00028846506 0.00066840206 0.00050230464 0.0020954874 -0.00058675173 0.0017480836 0.0017054505 -0.0006674656 -0.0020548329 6.9257803e-06 0.002092971 -0.00090388977 0.0012405289 0.0009069068 -0.0014486992 -0.002086692 0.0024929307 0.0012988553 0.0010830399 -0.00033423607 0.00037830044 -0.0016155129 -0.0023214575 0.0020320509 -0.001948595 -0.0012869518 0.00015196856 -0.0017309468 -0.0016203653 0.0008666699 0.00013813842 -9.1648195e-05 0.0013314155 -0.00075739913 0.0006384521 -0.0020174298 0.00062523386 0.0024205674 0.0011105174 0.0015307553 0.0009047997 0.0014775852 0.001007641 0.0007657225 0.0020108721 0.0024931845 0.0010355317 0.002009741 0.0019506472 -0.00090682716 0.00060792617 -0.000835911 -1.5632249e-06 0.00018620398 0.0005442088 -0.0018108487 -0.00040014973 0.0017151544 -0.0018994262 -0.000959289 0.00016157329 -0.0010500955 0.0021342402 0.0019067386 -0.0024037566 0.0007394552 -0.00058393565 0.00019338098 -0.0021515237 0.00094529474 -0.000682584 -0.0024391355 7.577473e-05 -5.5884477e-05 -0.00040352973 -0.00023416965 0.0024915687 0.00085326633 0.002495458 -0.0014419782 -0.0022252444 -0.0012448751 -0.0023736476 0.0018167468 7.309229e-05 -0.0014390623 -0.0016456824 0.0012352674 -0.002197167 -0.0022486108 0.0012559423 0.0013395248 -0.00027884054 0.0015334152 0.00012874324 -0.00047849468 -0.0015256067 0.00032127788 0.00010399381 -0.0018741062 0.00087400386 0.000744957 0.0015003686 0.0009320483 -0.0007409039 -0.0020257537 -0.00062515074 -0.0014091115 0.0004253697 -0.0013099834 0.0010194893 0.0019294182 -0.0003743202 -0.00064305693 -0.00063190726 -0.0015662574 -0.0013768673 0.000907843 0.001966042 -0.0008645153 -0.0018993991 0.0024627033 0.0011903297 0.0001510731 0.00014016172 0.0016030986
of 0.00036583864 0.0007124513 0.002484451 0.0018271194 -0.0012362439 0.00054213544 -0.00236012 0.0012906708 -0.0011727863 -0.0021891678 0.0016735783 -0.0009494852 0.002172375 -0.0016594448 0.0021097339 -0.0016563606 -0.0015673584 -0.0021498983 -0.00074821024 0.0012341898 0.0019422574 -0.0023594946 0.0015862398 0.0006572765 0.0014425362 0.0009056316 -0.0008437446 0.0005936555 0.0014119572 -0.000510026 0.0017408994 0.00036001718 0.0024346728 0.002254305 0.0006146375 0.00070074457 -0.002085047 0.0012972231 -0.0017941615 -0.00081589306 0.0019341181 0.0006383606 0.0017417269 0.0012069428 -0.0020302008 -0.0004255881 0.0016063126 0.00077340566 -0.0014313402 -0.001696609 -0.00038569444 0.00095215975 0.001133221 0.0015270808 0.001048618 -0.0014581654 0.0018152888 -0.00070944964 0.0010684379 -0.0021468776 0.0004590794 -0.00018058252 0.0024567172 -0.0016211199 -0.0007675692 0.00026494777 -0.001564174 0.00203986 0.0008387654 0.0016061296 -0.00029084715 0.002049352 -0.0011121843 0.00016963133 0.00018329569 0.000741479 -5.1423907e-05 -0.0002443618 0.0004843215 -0.002308139 -0.002118516 0.0009278741 -0.0016729888 0.0020037983 -0.0024663666 -1.3161218e-05 -0.0004984208 0.0013738337 0.00050441385 0.0011003094 0.0014486467 0.002428676 -0.0022226162 0.0011224989 0.0024920423 0.0016896836 0.0012603339 0.0016302154 -0.0024082665 0.0020756861 0.0023699263 0.0020514084 0.0018991195 0.0023812614 -0.0017797634 0.0008477615 -0.0015602664 -0.00056273397 0.0016943994 0.0023029624 0.0007266747 0.0021359501 0.00011004857 -0.0010679907 -0.00162076 -0.0018022871 -0.0023557283 -0.002074345 0.0016213674 -0.001888185 0.00012186845 0.0021984167 -0.0018772613 0.0005843302 0.00023559667 0.0016184682 0.0012031323 0.001871035 0.0019478658 -0.0004913893 0.0013217321 -0.000991436 0.0022382443 -0.001006394 0.00036937394 -0.0009838542 0.0017896504 -0.0014445566 0.0020926613 0.0021442585 -0.0018561032 0.00034366688 -0.0005310916 -0.0012063831 -0.0012538871 -0.0018186877 0.001163173 0.0011621765 0.0005835898 -0.0023184835 -0.002247515 -0.00022438588 0.0020948267 0.0009214578 -0.0022962387 -0.0011929986 0.0006294253 0.00040407386 0.0012290359 0.00045928988 -0.00038967747 0.00039682444 -0.0015208104 -0.0006799081 0.0004913453 -0.0011362124 0.0018871729 0.0013711241 0.0012484558 0.0010037837 0.0018245806 0.0017812601 0.00075606164 0.0005124309 -0.0012633103 0.0015793024 0.00065121404 0.0023096814 0.0011561925 -0.002439881 -0.0019570228 0.0024399115 0.00012710295 0.00014312472 0.0014033213 -0.0024513607 -0.0018552109 -0.000971716 -0.0012377294 0.0015037735 0.0003300875 -0.0013911059 0.0022422657 7.141894e-05 -0.000670625 -0.0023759715 -0.002413355 -0.00013556355 -0.0008207023 -0.0018879502
a -0.0014342053 -0.015901754 -0.0047620498 -0.0021860003 -0.0044094026 -0.0023980672 0.005324811 -0.004486763 -0.011360098 -0.0032871526 0.0044798655 0.0003119046 0.0004035435 -0.0008180722 -0.028019667 0.009141592 -0.035022892 0.011291981 0.0049266685 0.017239133 -0.00813421 0.0149727585 -0.0004159597 -0.002138424 0.017389193 -0.012729521 -0.008354736 0.004656021 -0.0061834306 -0.004789855 -0.0050601177 0.014364544 -0.021087872 0.011599202 0.00854149 -0.015367417 -0.011729137 0.004578622 -0.0035426577 -0.007012546 -0.008641291 -0.011976871 -0.0029984163 0.010242607 -0.013145863 0.0055891047 0.014158578 0.0186763 -0.0048699947 0.007164915 -0.007900458 -0.01486917 -0.009353951 0.023913933 -0.0007357252 -0.012604969 -0.0044615525 0.005087698 -0.0036872793 0.012155943 0.0059930407 -0.0050982167 0.0022549287 -0.014842878 0.025009232 -0.029192116 -0.018781425 0.027447406 0.013085307 0.010479282 0.021355396 0.002107717 0.0069025485 -0.019907214 0.00784268 -0.0050114077 -0.015433143 0.01047644 0.0060349847 -0.0038164698 0.012593693 0.0026726539 -0.0016367697 -0.0013920569 -0.0015963047 -0.017081754 0.0025303378 -0.016855607 -0.013291575 -0.0022309623 -0.010003355 -0.021421282 0.010205717 0.0014008086 -0.004789232 -0.018054403 0.019393254 0.0026537532 0.007601164 -0.01599208 -0.014923248 -0.008718167 0.008514939 0.00010751702 0.016903672 0.0044115814 -0.005227036 -0.023300195 -0.008585265 -0.010058689 0.022262288 -0.015228182 -0.0037534055 0.0025061872 0.012039518 0.009836708 0.0032819896 0.006831348 0.010942783 -0.0032116743 -0.0003925747 -0.021316757 0.0035332306 0.018980239 0.0027132148 -0.017516423 0.006130798 -0.011104175 0.013576267 -0.007080414 0.010364759 -0.013253851 -0.021010665 0.013362428 0.020363037 0.0046623186 -0.005369873 -0.0077407416 0.00036819212 0.012107842 -0.00034632857 -0.01929939 -0.010314473 0.0026815007 -0.00044824101 0.016895778 -0.005350707 0.010672391 -0.0074865217 -0.008911738 0.007890515 -0.013126192 0.011169981 0.011340954 0.011568735 -0.0044543813 -0.020770732 0.0009089259 -0.009456173 -0.0073690675 -0.0004137257 0.008459219 0.010869383 0.018474018 -0.012592703 0.014075441 -0.008164713 -0.0056501525 -0.016659856 0.0021789272 0.001140041 0.005663664 0.0071609514 -0.0059095384 -0.01938215 -0.0030669987 -0.0045323027 0.013563223 -0.0029522162 0.015523583 -0.0012232694 -0.017862892 0.020964688 -0.0022677442 0.0023353957 0.0010197829 0.007599714 0.025726626 0.00032614468 -0.0022939572 0.01657975 0.0022029907 -0.011152654 0.018364118 0.014415553 0.01532721 -0.0021485914 -0.008362515 0.02023069 -0.0028386216
the -0.00018082862 0.002000562 -0.00066466036 -0.0003634605 -0.0017937701 0.0011445379 0.0011188956 -0.0014679014 0.0022041341 0.0022407374 0.0021538446 4.2423373e-05 0.001239978 -0.0008081496 0.0012882547 0.0022614626 0.00071208854 0.0018400098 -0.00095398957 0.0006866979 0.00057347864 -0.00119634 -0.0019034671 -0.0011748039 -0.0024731308 -0.0015519431 0.0012629395 0.0007114031 0.002034558 -0.0006136944 0.0016572061 -0.0011154118 -0.0018025886 -0.0020727105 0.0022767065 -0.0016688895 -5.7168305e-05 -0.0009910732 -0.0007250217 0.0022736816 -0.0015846356 0.001299167 0.0012784961 0.00064204726 -0.00042469683 -0.0013577493 -0.00074703724 0.0022510965 0.00069509493 -0.0001987645 0.0013833379 -0.00018782029 -0.001634533 -0.00022658054 0.000105041545 0.0021700687 0.0006426817 0.0004536272 0.00058533717 0.0016776626 0.0002057571 0.0017397879 1.4255289e-05 -0.0016359345 -0.0008168941 -0.001622669 -0.0014761501 0.0011636261 0.0022433726 0.0007290852 0.00014433824 0.00094875693 0.0004151126 0.00023241062 -0.0018575146 -0.002088435 -0.0010673255 -0.00055741693 -0.00078176253 0.00047598034 -0.0007473737 0.0024864767 0.0002074251 0.00014919136 -0.0024626413 -0.00035401573 0.0005267346 0.00039859675 0.0022393768 0.0005656723 -0.0015202975 0.000995449 -0.00062066887 0.00071819266 0.00035341177 -0.00069952034 -0.0019325921 0.001486131 0.00011253171 0.00080969953 -0.00025565503 -0.00060847576 -0.001528986 0.0015023006 -0.0007199192 -0.0019841525 -0.0010801264 0.0017469055 0.0020929007 -0.0005835035 0.0006550872 -0.0008888006 0.0010187933 -0.00055185857 -0.0012689877 -0.0014672998 0.00068283407 7.162802e-06 0.00096532167 0.0022695726 -0.00012369361 -0.0016844785 -0.0010964771 -0.00051215827 0.00016441918 -0.0020001149 -0.0018689444 0.000762983 0.00077145547 -0.0013793682 0.0016620294 0.0024276194 -0.0018509959 0.0001792023 0.00066838926 -0.0005899054 0.0013493663 -5.000853e-05 0.0013867493 -0.0016778472 0.00045055547 0.0009048956 0.0017997054 -0.0012696672 -0.0022467405 -0.00071747333 -0.00039416808 0.001589016 0.0005421373 -0.0007086098 -0.0024125695 0.0022913567 -0.0013699532 -0.0018053087 0.0021456936 -0.0017899137 -0.0018461099 0.0014574905 -0.0009143981 -0.0021052565 0.0009767008 -0.0014734106 -0.0013468522 -0.0007428208 0.0020468659 -0.0006592622 0.0024465541 -0.0011255136 0.0020332467 0.0015553287 0.0014681197 -0.0013450203 0.0014570067 -0.0017994887 -0.0020164012 -0.0012088659 -0.002407287 -0.00029373076 -0.0011259052 -0.00073730585 -0.0018578835 -0.0017924265 0.002332874 0.00014784187 0.0023854137 0.0011524323 -0.0023418334 0.0020870864 -0.0005404602 -0.0020227106 0.0018335064 0.0022174828 0.0008815818 0.0019761343 -0.00033939537 -0.0010060892 0.00034444663 -0.001655963 -0.00065038295 -0.0008909794
are -0.0017915332 -0.001906974 -0.00039021694 0.0022810744 5.7895668e-05 0.0019329339 -0.00142225 0.0022020792 -0.00083352893 0.0020551272 0.0023286482 -0.00082846906 2.2417866e-05 0.0005302271 -0.0013302031 0.001003766 -0.0014419993 -0.0016584569 0.0012682248 -0.0013740027 -0.0008624118 0.0013557165 -6.7879446e-05 -0.0015094259 0.002416641 -0.001335639 -0.0023065857 -0.0016328215 0.0021746387 4.9782684e-05 -0.0015047451 -0.00032313168 -0.00081277126 0.0024558385 0.0017048959 -0.0010724198 0.0013163984 -8.997857e-05 -0.00030437554 0.0008028615 0.0010671192 -0.0010012591 0.0010603114 -0.0016622909 -0.0021887766 -0.00021251966 -0.002356986 0.000884247 0.0003179717 -0.0006028977 -0.000824185 0.0018358747 -0.0013791134 0.0022934256 0.002073424 -0.001960151 0.0010114466 -0.0005359205 0.0005447576 0.0018562456 0.00035354425 -0.00076208357 -0.002352896 0.0022273893 0.0017278721 -0.0020587125 0.0014205407 0.0017553242 -0.0006710035 0.0018210686 0.0003607648 0.00031267246 -0.0011765134 8.503324e-05 0.001385456 -0.0004307723 -0.0004980194 0.0015827445 0.002034118 0.0023156404 -0.00048533408 -0.0013411972 9.23106e-05 0.00029315124 0.0015816567 -0.00083229307 0.0002827153 -0.0010536778 0.0014392631 2.9893592e-05 0.0015185527 -0.0017983532 -0.00062439323 0.0015811534 0.0009553421 -0.0011968294 -0.0019213294 -0.0002862725 -0.0015429943 -0.002175883 0.0018984769 0.0008658678 0.0001208859 -0.00063425873 0.0016005705 -0.0019441461 0.002281099 -0.0017543453 0.0023981421 -0.0012823275 0.0020728107 -0.0024331468 -0.0024351692 0.0012559018 0.00012492784 -0.0022725423 0.0011961812 0.0015350962 4.4236425e-05 -0.000781765 0.0013249198 -0.0012359289 0.00043866364 0.00036218204 0.0022434457 -0.0022098457 -0.0024163777 0.0023292624 0.0023557972 0.0014402382 2.3735454e-05 4.1782157e-05 0.00094111357 -0.0017458436 0.00015279092 -0.0009533247 0.0015768013 -0.00036979862 -0.00026396848 0.0023299698 -0.0005578047 0.00075960835 0.00021760585 0.0009409508 -0.0017258385 -0.0004180572 -0.0022929176 0.00027272827 -0.0017049393 -0.0013282225 -0.00026261527 0.0016467357 0.00127868 -0.00029612263 -0.0009601 0.0012824724 -0.0015323242 0.0009372479 0.0003087183 0.0017338851 0.00017595431 -0.00079570524 0.0010789807 -0.00199415 -6.5797474e-05 -0.0009110742 -0.0010697775 -0.001197724 0.0012264547 -0.0009996555 0.0001097559 0.0022067828 0.0005342867 0.0015134434 0.0006135858 0.0008175536 -0.002075687 0.0017935922 0.0014488939 -0.000693711 0.00018616137 -0.0012436104 -0.0011192834 0.00025060214 -0.00012461632 -0.0018670654 0.00080853957 -0.0017672294 -0.0018049115 -3.189058e-05 5.781674e-05 -0.001484361 0.0015888647 -0.00093442376 0.0021541477 0.0013492387 0.0015947488 0.001452635 -6.247009e-05 -0.0016817146
to -0.00013964297 -0.00026956922 -0.0019692972 -0.000984356 -0.0010156017 0.0018839678 -0.001159215 0.0012960597 -0.0007032126 -0.00020488538 -0.0017098227 0.0015872144 -0.00012912718 -0.0016023307 0.0023259763 0.0019075712 0.00031077047 -0.0024327084 0.0009479213 -0.002422512 0.0010998119 0.0018779757 -0.001238271 -0.0013063896 0.0017258925 0.00019435072 0.0012014613 -0.0020697783 0.0014502369 0.001710488 0.0013349366 -0.0009200504 -0.0008943635 0.00013051112 0.0009674614 -0.0015317964 -0.0022925367 -0.0017833024 4.948117e-05 -3.1518284e-05 -0.00019414374 -0.0021838832 0.0011107507 -0.00021275459 0.0003999567 0.0016059675 -0.0006741324 0.0017183395 0.0016727769 0.001479255 0.0006952414 0.0011444814 0.0015068017 0.0014302665 0.0019408884 -0.00087589584 -0.0017449298 0.0023484714 0.0004598964 -0.00068274466 -0.0020598923 -0.00015974813 -0.0022223159 6.710505e-05 -0.0021834746 -0.0011922834 0.0020273882 -0.00076325797 -0.0014420348 -0.00071054336 0.0020333552 -0.0021025413 -0.00050181616 0.0012989887 -0.0013164202 0.0024248394 -0.0010666788 0.0015898268 0.0009922797 0.0022159591 0.0018090843 -0.0017512636 0.00017289212 -0.0012049383 0.0024692472 0.0015370902 -0.0023971 -0.00031891814 -0.000121762976 0.0021785898 -0.001500883 -0.0022316233 -0.0019485815 -0.0019303011 -0.001951029 0.0018668897 0.00043134275 -0.00057661475 -0.0014060977 0.00043705734 -0.0013889191 0.00059710094 0.00096413936 0.001857114 -0.0022635227 -0.001945782 0.0005814105 0.0014582612 0.0019559315 7.096538e-05 -0.0016859185 0.0009281542 0.00046254904 0.0018183957 0.002243747 -0.00093078974 -0.00028124033 1.1282507e-05 -0.0021876707 0.0019472134 -0.00017112028 -0.00010010321 -0.0022295073 0.00019540126 -0.0017777202 -0.0008765125 0.0002950516 -5.193986e-06 0.0022127177 0.00016573211 -0.0016047591 0.0014226786 -0.0010884291 0.0024457509 -0.00042828382 0.0006650132 9.12582e-05 0.0006685718 0.002274891 0.0013016372 -0.0017165875 0.0022265809 0.0005598306 0.000791735 0.0012773017 0.0014454103 -0.00031058956 -0.0012720764 0.00014166464 -0.00075307034 -0.0011323887 -0.0012213779 0.0023289328 -0.0016107017 0.0024835845 -0.0021493423 0.0015760409 0.000537104 0.0010608372 -0.0011829749 0.0004161622 0.0012557316 0.0022999858 0.0024281726 -0.0019341469 -0.0012226483 -0.0017371898 0.0018324149 1.0845019e-05 -0.00084289047 0.0012849462 -0.0005894882 -0.0011366814 0.0012351938 -0.0010328784 -0.0023902776 0.0023154453 -0.0010969421 0.0007514879 0.00039917976 -0.001251817 0.0010859512 0.0013472128 0.0007276018 -0.0005982908 0.0015346734 0.0011521443 -7.4827345e-05 -0.00034590135 -0.0024517993 0.00085689104 -0.0022479668 -0.0006015876 -0.0017351753 -0.0018807452 0.0013016611 -0.0020552261 -0.002311779 -0.0017216739 -0.00062129134
processes -0.00087017927 0.0021123178 -0.002079145 -0.0011324441 0.0011828765 0.0011726043 0.0016840096 -0.0008291006 0.0006324246 -0.00014170469 -0.0004193813 -0.00085626694 -0.0015235767 8.998276e-05 -0.0010476426 -0.0010506954 -0.0024753364 0.0003234332 -0.0012363326 0.0023630993 0.0022131437 0.0011755025 0.0016676364 0.0015264023 -0.0016872918 -0.0004132262 -0.00067059963 -0.0016918337 -0.0012108925 -0.0012126884 0.0015540817 0.0013605857 0.0012341321 0.0017259652 0.00082653854 -0.0011293244 0.0023276475 -0.0020038763 -0.00043550692 0.00069479574 -0.0016727026 -0.00024381257 -0.0013195181 0.0021560309 0.0011868395 -0.00091684517 0.0003351795 0.0015288801 -0.0019605544 -0.00014422205 0.0013534492 0.0020141513 0.0015034243 -0.0003548481 0.002442053 0.0015908265 -0.0007330325 0.0022558728 -0.0016056987 0.001574859 0.0004569462 -0.002365289 0.00072344276 -5.1194336e-05 0.0024521016 0.00215382 -0.001914921 0.0014162194 0.0018518777 0.0010974815 -0.00015575439 -0.00051129586 0.002147511 0.0011255702 -0.00053398916 -0.0017671129 0.0005344397 0.001446764 0.0021460485 0.0017086812 -0.0014391389 0.00038062432 -0.0020649394 -0.00079912785 9.0349e-05 0.0019044746 0.0015505878 -0.0004347975 -0.00074036233 0.0019587954 -0.0022990885 0.00065338914 0.0011850169 0.0021257084 -0.001462731 -0.002135232 0.0016317936 -0.002207891 -0.0006113654 0.0019317619 0.00018055318 0.00016268971 0.0014099427 -0.00081568176 0.00080692116 0.0020738356 -0.000654296 -0.001994675 0.002136272 -0.0023500966 -0.0014857115 -0.00029525626 -0.00081634545 -0.0019322922 0.00017979625 -0.0006931019 -0.00032472936 -0.0011770842 -0.0018383824 0.0020606238 -0.001323606 5.4689357e-05 0.0012562997 0.0004121845 0.0002844641 0.0023931721 -0.0017844299 0.001562044 -0.00068383897 -0.0011927893 0.0007196856 -8.2347775e-05 0.0017175754 -4.5347027e-05 -0.00036927406 -0.0011708582 -0.00067901495 -0.000526967 -0.00057789974 -0.0017779529 -1.5317695e-05 0.0016515437 -0.0008217725 -0.0022253448 0.002439655 0.00015379908 0.00063829054 0.001198278 -0.001852802 0.0018873285 -0.002196706 -0.0021836928 -0.0013079282 -0.0010106539 0.0020744875 0.0019101785 0.0015256153 0.0005929421 0.00044565997 -0.0009989112 0.0018278095 0.0015413584 0.00035728933 -0.0008808017 0.0015919898 0.00044045062 -0.001351035 0.00025580009 -7.6177064e-05 0.0006964577 0.0007054091 2.7799513e-05 0.001092239 0.0013723169 -0.00061538245 0.0020887684 -0.0009782219 -6.383145e-05 -0.0014931088 -0.0014015478 0.0017575161 0.002378195 0.0014711297 -0.0012743955 0.0015778947 0.00025830208 0.001381688 -0.0002813139 0.0024554133 0.002498143 0.0007584216 0.00042631407 0.0023956648 0.0004155666 -0.0014498692 -0.00056788325 -0.0017611029 0.00028564804 -0.0015713983 -0.00092027034
abstract -0.0011390618 0.0017572478 -0.00017041946 -0.00048265257 -0.0020958812 -0.0018545317 0.0010921084 0.0010121246 0.0007174129 -0.0003035278 0.0010740606 -0.0010957374 -0.0015729517 -0.0010037145 -0.0023689058 2.1579908e-05 0.0011692329 0.00060014124 0.0021113553 -0.00037761126 -0.0020293193 -0.0010323515 0.001816134 0.0003523312 0.0014479742 0.0016348697 -0.0014230659 -0.0012189427 0.0020182608 0.001039901 0.0020693694 0.00077458983 0.001481472 0.0015927027 0.00056852424 0.001103479 0.0001910606 0.0019969423 -0.0014173931 0.0008364471 0.00031815981 -0.002465266 -0.0022476711 0.0015331302 -0.0021770918 -0.0011766773 -0.0023751743 -0.0005208403 -0.0017024281 0.0015000543 -0.002146937 -0.0014703604 -0.00019311067 0.0016785781 -0.0023780584 0.0015624221 -0.0022987302 0.00091520953 -0.0014143139 -0.0003465726 0.002174132 0.00051379413 0.0020682537 0.0024356716 -0.0007878023 -0.0012248447 0.002027846 0.0020517511 -0.001429882 0.0022350536 0.001888738 -0.0008641863 0.0005862871 0.002069268 0.00049599865 0.00010156864 -0.0014768528 -0.0003925832 -0.0021491693 -0.0013117068 0.0016304059 -0.0015370615 0.000678499 0.0013186929 0.00071649044 0.0016956953 0.0017570807 -0.0021410289 0.001315112 -0.0014263096 0.0002908546 -0.00032915245 -0.0012001938 -0.0020849104 -0.00043168338 0.0024673715 0.0022127666 -0.00022275327 -0.0024851223 0.0016699266 0.00035668793 0.0017770743 0.002181796 0.0009997264 -0.0014982977 0.0020553395 -0.0011732288 -0.0024162703 5.085743e-05 -1.2833159e-05 -0.0022818148 -0.0011886089 -0.00076736126 -0.001644926 0.002022388 0.0020593326 -0.00039769267 -8.509215e-05 0.0013731092 -9.0698246e-05 -6.938353e-08 0.0017982842 -0.0015074735 0.0003770392 0.0021235067 -0.0007358277 0.00049258047 0.0021274611 -0.00025061215 0.0021662666 0.00013538892 -9.51346e-06 -0.0010448241 0.00016978849 -0.00047851028 -0.0009630573 -0.0017246684 -0.00058547617 -0.0016045806 0.0007170865 -0.0012586024 0.0024280278 -0.0008970329 0.0009826508 -0.0018958232 -0.0019289628 -0.0024523085 0.0010449823 0.0015763594 0.00091719837 0.0020087603 0.00042836484 0.0023967563 -0.002340085 0.002031595 -0.0021365064 -0.0005449166 -0.0010378057 -0.0016179988 0.0019021691 -0.00021936605 0.0012855602 -0.0017036817 0.000821267 0.0018473649 0.0024810694 -0.0024146324 -0.0013300502 -0.0020002285 -0.0014427998 -0.0015145602 -0.0014771869 -0.0002117136 -0.0016995084 -0.001162464 -0.0016038626 0.0018761931 -0.0018809438 0.00055249035 -0.001398023 -0.0018673354 0.0007582414 -0.001733796 -0.0011621418 5.021831e-05 0.00050225784 0.001565625 -0.0014819714 0.0006621131 0.00063189724 -0.00065880234 0.00047526974 -0.0005240801 -0.00097633654 -0.0023623419 0.0018229182 0.0010320595 0.00027800142 0.0018174076 0.0015432672
called -0.00085011957 -0.01706053 -0.00475363 -0.005774973 -0.0036837533 -0.0036845212 0.0050482643 -0.0022677495 -0.012749951 -0.0019217351 0.006173921 0.00014696598 0.0006569288 -0.00033753688 -0.028499639 0.009906399 -0.03471523 0.009385551 0.00018804678 0.016300121 -0.0060640126 0.012652393 0.001518717 -0.0016910052 0.016451824 -0.012756352 -0.010746939 0.0070684175 -0.0038757506 -0.0036889117 -0.003806359 0.014636114 -0.018868642 0.012221322 0.011995274 -0.012618833 -0.013610288 0.00427864 0.0002629099 -0.0051571187 -0.0074876044 -0.0073232995 -0.0031442721 0.010321025 -0.013688177 0.005845516 0.009333413 0.01917592 -0.00035540198 0.006418287 -0.005006606 -0.01381755 -0.006330117 0.024671596 -0.0043457123 -0.015563397 -0.0024390593 0.0077761738 -0.0058355406 0.010029817 0.007482833 -0.0078064185 0.005513955 -0.01380327 0.024833417 -0.028890628 -0.018649098 0.027074104 0.016029142 0.011047017 0.02432852 0.0021518355 0.0039027387 -0.021908805 0.007163193 -0.0057274317 -0.01583532 0.0110296495 0.008443083 -0.007435195 0.009924572 0.005933032 -0.0011593637 -0.0051996484 0.0018998872 -0.01637027 0.0023718453 -0.0187435 -0.010504076 -0.0014866665 -0.009172344 -0.021372227 0.01062059 0.004121343 -0.008173884 -0.021284657 0.01670886 0.00430688 0.004165504 -0.015262085 -0.015618989 -0.009808067 0.0076991934 -0.0007816516 0.014909951 0.001658537 -0.0030132737 -0.023076443 -0.0066999374 -0.008287158 0.021822669 -0.01595006 -0.0045869206 0.0069551105 0.01093007 0.008943203 0.0052533587 0.009547604 0.011589317 -0.0052438043 -0.002059332 -0.01973393 -0.00028878116 0.016596574 0.0010818011 -0.014630263 0.0033660666 -0.013181033 0.014088225 -0.0053917714 0.011430372 -0.009930003 -0.02312964 0.014447015 0.01723418 0.007279975 -0.006032721 -0.007929871 0.00010948226 0.013860228 -0.00089883286 -0.018352767 -0.011275465 0.0025101951 -0.0026948634 0.013816734 -0.00630311 0.009702672 -0.0056876 -0.006927097 0.010394177 -0.012432926 0.011961572 0.009436537 0.008839597 -0.0042294627 -0.022248982 0.0032031378 -0.00819966 -0.0047460506 -0.0018648889 0.0070585315 0.010772166 0.018128911 -0.012500824 0.012373701 -0.006023376 -0.006222183 -0.01470038 0.0032567328 0.0043978947 0.003789971 0.004561634 -0.0049574124 -0.019218978 -0.004233178 -0.0089891795 0.012341326 -0.005074599 0.014845784 -0.0010170399 -0.01785479 0.023727756 -0.0031683708 0.0013810247 0.002917371 0.0045210407 0.0250786 -0.0013231233 -0.00084504473 0.013905072 0.0020025033 -0.009352899 0.020491926 0.01526436 0.017913146 -0.00036263082 -0.0067898445 0.022909934 0.00082549464
We -0.0018608561 -7.714657e-05 -0.00040606502 -4.447368e-05 0.0013552748 -0.000382517 0.0002477183 0.0006994391 -0.00044343597 0.0023222305 0.0004438772 0.0022776658 0.0014443127 -0.00055559515 0.0002770587 -0.0010882347 -0.0010302797 -0.0006904197 0.0006114284 0.0018802625 0.00070629176 -0.0024516266 -0.0008523101 -0.00042851293 0.0016726474 -0.0024826883 -0.0011077567 -0.0024267093 0.0020963945 4.4845045e-05 0.00039936393 2.069329e-05 -0.0017519414 0.00039634877 -0.001766138 0.0021264465 -0.0017041138 0.0021039238 0.0003936696 -0.0010717645 -0.0013363356 -0.0018988361 0.00057709985 0.0009692097 0.0010500946 0.00012029521 -0.0019761794 -0.0024650372 0.002428581 0.0009538557 0.0006721604 -0.00077740464 0.00035278965 -0.0015698618 -0.0019046941 -0.00046697794 0.0009351999 0.00018792576 0.0008713945 -0.0007991126 -0.0019519937 0.0010682622 0.0011731887 0.00027431408 -0.0019161165 0.001205998 -4.1736756e-05 0.0024382486 0.0012433757 0.0011178276 0.0017598011 -9.4774645e-05 0.002244058 0.0010470292 -0.0012150952 0.0006344118 0.00083753397 0.0019172588 -0.0024924777 -0.00014385022 0.00018090406 -0.00025699427 -0.0018835226 0.0019424418 0.0011497415 0.00055443705 -0.001875784 -0.0020160615 -0.0015760222 -0.0017692253 0.001545121 -0.0024192855 0.00019539916 -0.00022432022 0.0022976436 -0.00010384433 -0.00013336563 0.0008864566 0.0018573911 -0.0015715086 0.0018324326 -0.0022656876 -0.0022414527 0.0024669552 0.0023839963 -0.0013677123 -0.0012709441 0.0014235736 -0.0024927761 -0.0014578247 -0.0018995695 0.0010456922 0.0017036432 -0.000907245 0.00020564371 -0.0018719512 -0.0018545493 -0.0010633998 0.0017197416 0.0007570968 -0.000568195 -0.00016922597 0.0012523716 -0.00069319666 0.0013211484 0.0021919277 0.0011721146 -0.00042945798 0.0010654333 0.0018403628 -0.0012169328 -0.0012880646 -7.3187985e-06 0.0003014647 0.00036317343 -0.001578293 -0.00083487865 0.00024746428 0.0016605579 -8.807122e-05 0.0023286273 -0.0012702503 0.0019146181 -0.0012059393 0.001510493 0.00043231715 0.0023520798 -0.0020284136 -0.0013675973 -0.00064015144 0.0014988361 0.0014159414 0.0018975916 -0.0016189094 0.0011170169 0.0015696958 0.0024304609 0.0011992604 -0.0008600878 -0.00026456243 -0.0012635862 -0.0009944555 0.002020123 -0.0022186497 -0.00047561317 -0.00022578426 -0.001971125 0.0017027226 0.0008612736 0.0021378938 0.0010791107 -0.0022418725 -0.00014135707 -0.0014738995 0.0004323842 0.00064667873 -0.00066135917 -0.00062220485 -0.00070279476 -0.0013076365 0.0008115021 -0.0016729278 0.0021480625 -0.0012043321 0.0010656579 -0.0021841594 -0.0016068897 0.0023868415 0.0009062737 -0.0009972069 0.0001458514 0.0004229981 -4.5009656e-05 -0.0015680733 0.00030329917 -0.0011698961 -0.0014866096 0.0011344482 0.0013387862 0.0016719266
about -0.0013132715 -0.0006757352 -0.0017798375 0.0004353174 0.0022557545 4.3057604e-05 -0.00045842188 -0.0015462693 0.00082434434 -0.001368649 0.0014892006 -0.0017404606 0.0024530534 -1.9762432e-05 -0.0011340684 -0.002497424 0.0015320079 0.0014407272 0.0019581658 -0.0017481586 0.0014143554 -0.0009884223 0.0021313508 0.00051339366 0.0015210719 0.00016242196 0.00094238715 -0.0010650834 -0.00013154186 0.00044696545 -0.0010520437 -0.0011777868 0.00036468124 0.002388177 -0.0002693208 0.0017834892 -0.0015980122 -0.0005980652 0.0021434594 -0.0019169995 -0.00064559036 2.6327092e-05 0.00144294 0.0017688852 0.002203112 -0.0006115702 0.0017507286 -0.0008391505 0.0018910123 -0.0020634609 -0.0020874923 0.0012485569 -0.00051900884 0.00094000367 -0.00083804363 0.0014000002 -0.0018611556 -0.0011250293 0.00020858902 0.00074891513 -0.001619769 0.0021201717 0.00046076416 0.0002559619 -0.00093883066 -0.0013292974 0.0015848596 -0.0016810745 -0.00066989753 0.00043488946 -0.00014874432 0.0004552931 0.0014766208 -0.00032985187 -0.0018112006 0.0014568716 -0.0006170783 -0.0012651124 0.00031538727 0.0023409883 -0.00035167346 -0.00016349321 -0.0003143656 -0.0014792045 0.0016299868 -0.0019287991 0.0008408511 0.0024549798 -0.00051878626 0.00034189154 0.0015965975 -0.0015583276 0.0011702226 -0.0021394666 0.0014419113 0.00012698001 0.001890677 0.0010047059 -0.0024149683 0.0022317846 0.0020587202 -0.00030895392 -0.0021605827 0.0011924177 -0.00014386652 0.0022408306 -0.0011009627 0.0009771276 0.00032802927 -0.0024310462 -0.0020498442 0.0024066507 0.0020236224 0.0018240986 -0.00018840912 0.002220458 9.540282e-05 0.0024451609 0.00053160754 0.002476422 0.0015916675 0.0018661995 0.00064639095 0.0016078842 0.001153561 0.0021179924 0.0017618779 0.0011938044 -0.001058286 -0.0013516378 0.00090882485 0.00032646512 0.0006886348 -0.0006642493 0.0005735946 -0.0024116107 -0.0005678653 0.0014169388 -0.0007390535 -0.0019544843 0.0012925491 -0.0018631103 -0.0020902404 0.0007160497 -0.00018309406 -0.0014642995 0.00010308437 -0.0021594635 -0.001728357 0.00074303383 6.9446396e-06 0.0024152999 0.002176412 8.962443e-05 -0.00097290694 -0.0009390991 -0.0004135091 -0.0024530701 -0.0006608275 -1.42669305e-05 5.8781123e-05 0.0021482264 0.00067345356 0.0024072877 0.00071686483 0.00162793 0.0010484529 -0.001822291 -0.0014572111 -0.0023937619 -0.001020512 -0.0014042073 0.0018665139 0.0015916266 0.00086035184 0.00083194487 0.0007523615 -0.00063094613 0.0006324046 0.00017089583 -0.0014246425 -0.0010127026 -0.0023138174 0.00016961526 0.0018342775 0.00089665945 -0.0013048974 0.00095259445 5.351845e-05 -0.002306238 0.0013323047 0.0024138195 -0.0017290786 -0.0005754905 -0.00143074 -0.0005716714 0.00085261604 0.002244492 0.00035229255 0.0010493591
study 0.0015982678 0.0017027352 -0.00084068323 0.00118701 -0.0014087209 0.00077503524 -0.00076225365 0.0013148384 -0.0011756485 0.0009806666 0.0013434582 0.0005820098 0.0006013119 -0.001907131 0.0021898947 -0.00112971 -0.0012401222 0.0005224212 -0.00011644396 -0.0016283622 -0.0010021058 0.0005429841 -0.0007888243 -0.0015236577 0.0022893227 0.0023640497 0.0016023004 0.0015531937 -0.0020455795 -0.0008504656 0.0024333387 -0.00045351335 -0.001164082 0.0021328283 0.0024170876 -0.001077269 0.0013943275 0.00084176357 0.00051163766 0.0017497991 0.0018558996 0.0011827219 -0.0016924764 5.354127e-05 -6.758538e-05 0.0022868505 0.002468742 0.0018936615 -0.0005518794 -0.0007736813 -9.445008e-05 0.00050719385 0.0018454595 -0.0022582596 0.00081225927 0.0009917829 0.0018952847 -0.0023007195 -0.0014754143 -0.0013722961 0.0019224808 0.0022554742 0.001998038 0.0023819478 0.0011851972 -0.00032305485 -0.0010526102 0.0011117733 -0.0019366201 -0.0007690906 -0.0023633796 0.0016721343 -0.00065623375 0.0010107455 0.0012231546 -0.0023816912 -0.0015322578 0.0018376065 -0.0024473846 -0.00140302 -0.001014963 -0.0018777364 -0.0019646573 0.0015175352 -0.001513685 0.0023421953 -0.0016107714 0.0016325428 0.00066321436 0.0021061818 -5.4416014e-05 0.0009830073 5.7160854e-05 -0.00068260275 -0.0021881473 -0.00089698436 -0.001519303 0.0011791696 0.0019619716 0.0015258207 0.0008415121 -0.0007918426 0.002249457 -0.0015318254 -0.0012354922 0.00079880096 -0.0020290252 0.0003728352 -0.0023093864 -0.0014187113 -0.0014110729 0.00033454923 0.0017582695 0.0021762443 0.00046331552 -0.00014510215 0.0002696442 -0.0018564692 -0.0024455192 -0.0008599642 -0.0016923326 -0.0015823098 0.0024594418 0.0017848089 -0.0017818734 0.0009135171 0.0010397001 -0.001937876 0.0018481463 0.00225328 -0.0016102449 -0.0015693498 -0.0010493597 -0.0005327014 -0.00055217836 0.0012794808 0.0019503064 0.0003538325 0.00072618155 0.00013239007 0.00241306 0.0005112651 0.0022818623 0.0006288355 0.0014844383 -0.0017182764 -0.002480179 -0.0013213074 -0.00043917098 0.0023878268 0.0013552015 0.00018756976 3.7611462e-05 8.8681234e-05 0.00093967863 0.002154204 0.0007599043 0.0019527245 0.00039762724 -0.00094139995 0.0019461224 -0.0018649199 0.0010057602 0.0015839366 0.0018594046 -0.0009933244 0.0017074877 0.0016420744 0.0009931733 -0.0022774427 0.0020176442 -0.00035288604 0.0018965118 0.0011220637 -0.0017410198 0.00013202126 -0.0002887731 -0.0004488451 -0.0024110994 0.002385796 -0.000676294 -0.0020119047 -0.0021300158 0.0014175237 -0.0021096992 7.188413e-05 -0.002418376 0.00031079794 0.00092921103 0.0020141723 0.0018680207 -0.00039412407 -0.00060969323 -0.0010346222 -0.00199261 0.0018473659 0.0024682162 3.0878e-05 0.0011308624 -0.001862004
idea 0.0014725686 0.0014669518 -0.0003900833 -0.0002942558 -0.0008875191 0.0006456899 0.0010699611 -0.0017759437 0.00027128216 -0.0011692238 -0.00064956665 0.0018405337 -0.0007085338 7.19002e-05 0.0018256283 -0.0002532918 0.0022951262 -0.002193309 -0.0020777571 -0.0014942982 0.0022164593 -0.0008480045 0.00088473666 0.0017989851 -0.0006166622 -0.00070802774 -0.0012901867 0.0011333076 0.0013204257 0.0014416203 0.0019395524 -0.000507707 0.002180643 -0.0020308471 -4.3026404e-05 -0.0006345704 0.00037059444 0.0010314118 -0.002334574 -0.0023338161 -0.0009225514 0.002102117 -0.00011946284 -0.0010829022 -0.0002819621 -0.0024091678 0.0024714232 0.0003313478 0.0010548085 -0.0005818248 0.0020383624 -0.0003457733 0.0021858723 -0.0002487416 0.0024732728 -0.002060406 -0.0012201898 0.0016459073 -0.0015064919 0.0021744538 0.0021952046 0.0012390607 0.0021405197 -0.0010640961 0.00025235186 -0.000826953 0.00030990993 0.00015379046 0.0017720112 9.343843e-05 2.2250693e-05 -0.0013115045 -0.0013222882 0.0003450655 -0.0011501116 0.0016569984 -0.00094527565 -0.00064178195 -0.0019185671 0.0009771266 -0.0008603587 -0.0010495511 0.0024387739 0.00044301897 -0.0008078015 0.0010409332 -0.0015992995 0.000613339 0.0007160255 -0.0011639809 -0.0004659011 0.00087753823 0.0010984445 -0.00018892111 -0.00017856271 -0.0004030827 -8.195173e-05 0.000624242 0.00088124815 0.00048534782 0.000109732384 -0.0024427506 0.00028190482 8.473685e-05 0.0006931168 7.017469e-05 0.0010251417 -6.751623e-05 -0.0005090046 0.002266394 0.00015544659 0.0006279554 0.0022925804 0.00018038927 -0.0004750907 0.002097738 0.0004473927 0.00018744194 0.0020551449 0.00017232099 0.0004472353 -0.00037673255 0.0002498841 0.00062839943 0.0004149843 0.0007795184 0.00137218 0.0003211347 0.0021924977 -0.00017657061 0.0001603486 -0.0015324869 -0.0020568147 0.0011875967 -0.00037246058 0.00015476416 0.0014880039 0.00161698 -0.0011628213 -0.0003943483 0.0018534358 0.0003778427 -0.0011292669 0.0019582412 0.00072459993 -0.0019623179 0.0021719919 0.00016028294 0.0019549155 -0.00038899994 0.002295787 0.0013920623 0.001034382 0.0017876364 -0.00047545065 0.0015172041 0.0016484684 0.0017979564 0.00030268962 0.0017750217 -0.0006912756 0.0009960341 0.0023171385 0.0011115009 -0.001553562 0.0023019076 0.001487737 0.0024269116 0.0020669727 -0.0017820143 0.0021082424 0.0009060246 0.0017713518 0.001813082 0.0018164152 -0.002079251 0.0008769969 -0.0023450202 -0.0006116545 0.0012008303 0.002013925 -0.001746715 -0.0009244373 0.002002759 0.0011927325 0.0014916323 -0.00031901826 -0.0019956285 -0.0007051652 -0.0014868089 0.0011869757 -0.0014975998 -0.0022552568 0.001580094 -0.002234115 0.0016308487 -0.0004020778 0.0008095666 0.00136823 0.0021861847
computational -0.00067433564 -1.2262724e-05 0.0023446037 0.0023660283 -0.00020018569 0.0010044596 0.0016721808 0.0016686246 -0.0015246975 0.0012990078 -0.0018364122 0.0018372023 -0.00023157289 0.0021759812 0.00077727577 -0.0009237564 -0.0012228143 0.0009606825 0.0024621007 -0.0018164525 -0.0010691216 -0.0001705545 0.0024588834 -0.0017033925 0.0018749083 -0.0014083773 -0.0023311393 0.000624693 -0.0020863032 -0.00095916004 0.0024336413 -3.3710385e-05 0.0012665375 0.0002457823 -0.00020909403 -0.0017535207 0.0010523146 0.0010854334 -0.00036784657 -0.0010901722 0.0015174462 -0.000838893 0.0021455 -0.00016660686 -0.0010064688 -0.00029565697 -0.0009752988 0.00059806276 -0.0024656684 0.0010829528 0.0009754861 -0.00026958296 -0.0011875834 0.0004699987 0.0023887195 0.0018843459 -0.00020160596 0.0017105038 -0.00074056827 0.0011035283 0.0015880568 0.0018632119 -0.0014535716 0.0001600068 -0.0023419398 -0.00050273025 0.0017029475 -0.001201702 -0.001933895 0.00018003257 0.0011338573 -0.0016702202 -0.0011401477 -0.0018148958 0.0024348847 -0.0006270888 -0.0018868609 0.0019121924 0.0009962406 0.00079425937 -0.0012335405 -0.00032936572 0.001188159 0.00015506055 0.0013039825 0.0017739078 0.0010910602 -0.0011052543 -0.0014841261 -0.00058895105 -0.0011195445 -0.0010100194 -0.00060110365 0.0014975267 0.00094531616 -0.0014858634 0.001316472 -0.00053251116 -0.0009828768 0.0002610716 -0.002204872 6.8226364e-06 0.0002537521 0.00090618315 0.0012562373 -0.00021192431 -0.002301841 -0.0019397107 -0.0019626878 -0.000118501484 -0.001458655 0.00051709823 -0.0019971472 -0.00061028777 0.000895296 -0.0014389205 0.0023713587 0.0006360938 -0.0021557235 -0.0014537611 -2.637785e-05 -0.0024563228 -0.00068499916 0.0008905786 -0.00017597433 0.002182085 -0.000106598716 0.0017770366 0.0012561332 0.0021598218 -0.00085146073 -0.0009662664 -0.00015941798 -0.0024353126 0.0021195142 0.0013459772 0.0013935282 -0.0013109666 0.0022441507 -0.0010510099 -0.0004728909 0.0009599838 -0.0022182357 -0.0018710991 -0.0008943054 -0.0020678616 -0.0012172976 0.0009266096 0.0016399189 -0.0023715147 0.0020900597 0.0019311686 0.0017631506 0.0012444595 0.0010736352 0.0020282725 3.6878046e-05 -0.0023080665 0.00012291037 -0.0012873971 0.0022366778 -0.0024233304 0.0006254944 -5.3197145e-05 0.00035577826 0.0017501549 0.00043292204 0.00023655733 -0.00045244256 0.0020379517 8.6335465e-05 -0.0019445838 0.0018535932 -0.00018934789 -0.002251889 -0.0020308571 -0.0004268072 0.0017856145 -0.000407523 0.0004973465 -0.0023439357 0.0024397234 -0.0018229246 -0.0018882754 0.0003309818 0.00024660002 6.0071703e-05 -0.00090697885 0.00035856455 -0.0018887058 -0.0009962857 0.0021505621 -0.0012050715 -0.0010181427 -0.00074074476 0.0014057544 -0.00026560645 -0.0024735327 0.0011111901 0.0024931831
process. 0.0007377416 0.0014419653 -0.00024642562 0.00010617357 0.0011846332 -0.0016910108 -0.0009808382 -0.0013256788 -0.0010218015 -0.00028844806 -0.001439965 -0.0014065349 8.185953e-05 -0.0013747045 0.0024719131 0.00076215435 -0.00015089242 0.00037558842 0.0011550309 0.0003351306 -0.0006466558 -0.0024691408 -0.0014556744 -0.0016692539 0.00016976288 -0.002066113 0.0012605235 0.0014229738 0.0013448696 -0.0018360156 0.0014622007 0.00031281123 6.1128056e-05 -0.0001501576 0.0014911653 0.00018176367 -0.00036251335 -0.00030619907 -0.0019676613 0.002103548 0.00041163107 -0.0018937307 -0.00017447583 -0.0011430916 0.0012423454 0.0019351696 0.00018824032 0.0011241923 0.00013833074 0.00056844973 -0.00046926178 -0.0013702747 -0.0010214305 0.0023763967 -0.0021737912 0.001203828 0.002461337 -3.249012e-05 0.0004847038 0.0016976958 -0.0001809448 0.00024872064 0.002242886 -0.0017544331 -0.0018449038 -1.974171e-05 0.0022268463 0.0001645363 0.0009389883 0.002123516 -0.0007246628 0.0024304385 0.00064967386 -0.0010940939 -0.0020278697 0.0022035972 -0.0024786037 0.0012729322 0.0013508231 0.00015031034 -0.0020864876 0.00014599226 0.0012570845 0.0024906415 -0.0022256875 -0.0007480064 -0.00022410532 -0.0024401313 5.9659826e-05 0.00036926335 -0.0012911549 0.0016739024 -0.0015455359 -0.00209773 0.0019755769 -0.0011314515 0.00075150724 0.0013187511 -1.184619e-05 0.0024420265 0.0012217644 0.0024039168 0.0023011188 0.0019458104 -0.0011505493 0.0021013985 0.0024555158 -0.001138711 0.0007094494 0.0024764184 -0.000796695 0.001564364 0.002192617 -0.0017526373 -0.0012714926 -9.258394e-05 0.00048732827 0.00026479247 -0.00055890146 -0.00010643783 0.0017849226 0.002322401 -0.0024518024 -0.00237853 0.001567666 -0.0020611288 0.0021793703 0.0010019774 0.0013363396 -0.00086652907 0.0007288712 0.00040228874 -0.0016737529 0.0006397839 0.0024429015 -0.0019364416 0.0016443483 0.0019684485 0.0010614195 0.00064132083 0.00037082634 -0.00039020507 -0.00069397385 0.0018823682 0.0014818362 -0.0014265403 0.00049012154 0.0020061354 0.0023756162 -6.986223e-05 0.00046589738 -0.0020371175 -0.0018916139 -0.00047743088 0.00076162047 0.00071197446 -0.0015990731 0.0016601128 -0.002351121 -2.772035e-05 0.0019419733 0.0009111648 0.0015640077 0.0010789633 0.00010582502 0.00079526263 0.0015333495 0.0015103845 -0.0003215163 -0.0019827134 0.002147594 -0.00065277156 0.0006710093 -8.1525184e-05 -0.0022853778 0.0015526833 -0.00023383205 -8.922536e-05 0.0024372688 0.00041185739 0.0021432494 -0.0009858364 0.0016824664 0.0020405115 -0.0003323257 0.00032452843 -0.00089736935 0.0012309423 -0.0006255349 0.00040622614 0.0023943284 -0.00012313039 0.0018325723 -0.0013219311 0.00010853028 0.0011581078 -0.0010763904 0.0020957505 0.0011793887 -0.001789416
Computational 0.001517171 8.193939e-05 0.00092425174 0.001666144 -0.0020229763 -3.548828e-05 0.0009847363 0.0010783288 -0.00037424383 -0.0022352443 -0.0020604646 -0.0001758316 0.0014970722 -0.0022867094 0.0012548219 -0.0014758437 0.001898576 -0.0009755695 -0.0006126842 -0.0006261044 -0.0018560602 0.001909411 -0.0019787808 -6.8390975e-05 5.7411147e-05 5.9409067e-05 -0.0001672688 0.0001772677 -0.0013530278 0.0022945316 0.0016492056 0.0012432009 0.00087934383 0.00046640635 -0.0001288876 -0.00036904216 -0.0015433249 -0.0023505068 -0.0002728284 -0.0022875424 -0.0010722607 0.001793921 -0.00060257944 -0.00050422666 0.00043828157 0.00040073902 -0.001835393 0.0015774192 -8.5985754e-05 -8.7711494e-05 -0.0021146375 0.0023363954 -0.00094880105 -0.00091550045 6.642891e-06 -0.0018279597 -0.0006505769 -0.00037760218 -0.0016483718 -0.0008133778 -0.001722258 -0.002051917 -4.873122e-05 -0.0013106754 0.00080610113 0.0013235637 -0.0008328366 0.0011314158 0.0019948692 -0.0008070582 -0.0012186068 -0.0013546132 0.001642433 0.0020306078 -0.00016877055 -0.00033980748 -0.00057655096 -0.0016256949 -0.001402269 0.0011548521 -0.0016871666 0.00014902186 -0.0013340175 3.77018e-05 -0.0020781115 -0.0018043536 -0.00048579462 -0.0007263302 -0.0010217472 -3.0861003e-05 0.00077420054 -0.001099504 -0.0010623384 -0.0023811678 -0.0011616286 -0.00041729142 -0.0014984369 -0.0019081654 0.00035139802 0.0014486862 -0.0023310534 -0.00092573965 -0.0023110663 -0.00069691334 0.0018377742 0.0014840099 -0.00095602486 0.00053945626 -0.00095426675 5.8084726e-05 -0.0003416168 6.1007682e-05 -0.000852879 0.0014868621 -0.000843938 -0.0013678893 -0.00035769935 -0.0002753511 -0.0007208943 0.002309172 -0.001948959 -0.0015591264 0.0015605665 0.0017459611 -0.00095334265 -0.0001696425 -0.0006079263 0.0009144475 0.0024000006 -0.0015999561 0.0005512901 0.0017879861 0.00011955807 -0.0014124658 -0.001890467 0.0018655052 0.0009103741 -0.001167928 0.0021963161 -0.0016873863 0.0018275981 -0.00066417747 -0.0006983405 0.001577273 0.0010777714 -4.965416e-05 -0.0011798491 0.0007257911 0.0015290785 0.0024337796 0.0017496762 0.000884969 0.0015368545 0.0014055411 0.0015779068 0.00019199401 0.0013082027 -0.0013611439 0.00012486149 -0.0019564638 -0.00085851573 -0.0014970901 2.1257205e-05 0.0011424827 0.0019639567 -0.0018894281 -0.00044960668 -0.0017947878 -0.000324704 -0.0014817711 0.0022799703 0.0006630325 0.0014005834 -0.0024661697 0.0021648998 -2.145092e-05 0.0014680023 -0.002403752 0.0011269012 -0.0015386166 0.0022288207 -0.00075855816 0.0010500622 -0.0003740897 0.00072276616 0.0010967928 -0.0018424417 0.00044002174 0.0018866723 -0.00043087336 0.0012364336 0.0021099187 -0.0021726212 -0.00041058473 -0.0021070137 0.00052389596 0.002498527 0.00080684386 0.00020053913 0.0007762001
beings -0.0022748306 -0.0023367659 0.0008143496 0.0016412707 -0.00041767536 -0.0022791377 -0.001023615 0.0010454634 0.0011129167 0.0005027279 -9.147846e-05 -0.0004343586 -0.0014912313 -0.002313967 0.001099505 0.0017312663 -0.001364572 -0.0007060957 -0.0012596347 -0.0003903422 -0.00018704822 0.0009937785 -0.00067749945 -0.0017085746 5.4148026e-05 -0.0022788648 -0.00031081028 0.0014051946 -0.0022988939 -0.0009456569 0.0021401453 -0.0022127489 -0.0008309537 -0.0010550612 -0.0019156607 -0.0021459714 0.00061108056 0.0022871816 0.0017068428 0.0024889763 0.0021130005 -0.001858662 0.00012062304 0.001825775 0.0006109495 0.001948934 -0.00022506574 0.00033305585 0.0011694042 -0.0014351398 -0.0015877497 -0.0014677184 -0.0005453455 -0.001405906 0.00079021696 0.001223383 -0.0006196818 0.0015377477 0.0009591519 0.000776337 0.0004274107 -0.0017667797 -0.0015923646 -0.0022240833 0.0018900638 0.0015492649 0.0005455094 0.0022071968 -0.0012420621 -0.0013722798 0.0011851678 -0.00089906366 -0.00234463 -0.0007982865 -0.002497245 0.00019571325 -0.0023086949 -0.0021722747 0.0018974748 -0.0021337913 -4.7255075e-05 -0.00086392637 0.0015809746 0.002361795 -0.0016255534 0.0016629361 0.00061437394 7.474795e-06 -0.0016557428 6.4892694e-05 -0.0016671859 -0.000298328 -0.0010003232 0.00047998782 -0.0016453671 2.6736874e-05 0.0016366816 -0.001006523 0.0009258988 0.00088490546 0.0023802067 -0.0016967696 0.0016329987 -0.0009980976 -0.00012852158 -0.0013384816 0.0012627013 0.0010986833 0.0023632133 -0.0014927655 -0.0004040138 0.0017860299 -0.0017726353 -0.00078831636 -0.0013467704 0.00082510407 -0.0024284846 0.0009474517 -0.0014158841 0.0018398394 -0.0022086492 -0.0013438591 -0.0013218274 0.0016031857 -0.00067701424 -0.0009039771 -0.0020690653 0.0021228627 -3.3892924e-05 0.0010969755 0.0019265292 0.00016952073 -0.00072190317 -0.0021094945 0.001859251 0.0016761608 0.0016493653 -0.0014364272 0.00052735326 0.00052465615 -0.0020997678 -0.00021170732 0.0014475984 -0.0006190145 -0.00073476136 0.00076812925 3.985106e-05 -0.0023784973 -0.00087912614 -0.00031391764 -0.00025901385 -0.0023025982 0.00034063612 0.0017002467 0.0014571245 0.00014810055 0.0017680251 -0.0018179256 -0.00016756216 0.0016426439 -0.0013715982 0.0018472117 7.5085554e-05 0.00041372632 -0.0011743777 0.00027752924 0.00035091792 -0.0011310673 0.0019215327 0.0009886515 -0.0023970308 0.00033947593 0.0022808206 0.0022900486 -0.0017315149 -0.0020044215 0.0021925205 -0.0010480556 -0.0008010551 -0.00084630575 -0.0011638501 0.0019608224 -0.00025393907 -3.5251724e-05 -0.0017746498 -0.0015142864 -0.00036137062 -0.000344916 -0.0014160192 -0.000355402 -0.0007872444 0.0016799583 -0.002053854 -0.0006274056 -0.0018200846 0.0012334299 -0.00064810424 -0.0010804331 0.00046324637 0.00091422466
that 0.0011867348 0.000552231 0.00057376525 -0.0011223563 -0.00022889371 0.0012218403 -0.0024000779 0.0019953586 -4.033977e-05 -0.0021603424 0.0019209445 -0.0021065199 0.00048146374 -0.0012291166 0.0023813816 -0.0023888021 -0.0017252236 0.0017716787 -0.0017944807 -0.0015528989 -0.00020122761 0.0017987243 0.0024735318 -0.0006494444 -0.0016837126 -0.00141404 0.0003700382 -0.0007681056 0.0024275542 -0.000712443 0.0005742202 -0.0010681468 0.00018342142 0.0012245721 -0.0021565445 -0.0014308873 0.0021847785 0.0019061682 0.0021336102 -6.2054954e-05 -0.0020975524 0.0011520588 0.00068955007 0.00049749133 0.0002625822 0.0016173231 0.00044491026 -0.0022917765 0.0021984912 -0.0008249935 0.00011339877 -0.0024881081 0.002392557 0.00029765512 0.0011232698 0.00176507 0.0014244812 0.0023857607 0.0014062356 -0.0011961206 -0.0021559498 0.0015059868 0.00018926384 0.0019472623 0.0023646336 -0.00087870413 -0.0005185108 0.0024144272 8.535478e-05 -0.0011643198 1.2344448e-05 0.0020112158 0.0023789434 -0.0015306767 -0.001073088 0.0014459318 5.5473065e-05 -0.0004936757 0.00013833074 -0.0005330073 0.0020940527 0.0008295884 -0.001547023 -0.0014093167 0.001424009 0.0022329022 0.0015380094 -0.0009615761 -0.0015131562 -8.092378e-05 -0.0016147876 0.0013245528 -0.000603753 4.6236208e-05 0.00052620866 0.0004143212 -0.00048998604 5.1159877e-05 -0.00022998522 -0.0005282785 -0.0013175026 0.00048932363 -0.0017285919 -0.0013037657 0.0018699081 0.0007840111 -0.000326809 0.0005989345 -0.00043106754 -0.0021075543 0.0011799189 0.0020055566 0.0017086421 -0.0016931668 0.0014960212 0.0020649368 -0.00082740816 -0.0001887742 0.00010484387 0.00042731455 0.00010514329 -0.0014564951 -0.0016130354 -0.00051243836 -0.0016888129 0.002406945 0.002241638 0.0014376994 0.0001100034 0.0014422233 0.0016877679 0.0009855668 0.0024380265 0.0007275245 0.0009725129 -7.191603e-05 0.0003574111 -0.00041842228 0.001181646 0.0015640236 0.0023932485 0.0013290336 0.00044051767 -8.779741e-05 -0.00088934624 0.0008520507 -0.00032393704 0.0005368155 -0.00038842298 0.0016480051 0.001987739 8.765375e-06 -0.0014955106 0.00023200549 0.00062767556 0.00028419192 -0.0013792276 0.0014555808 -0.0006462141 -0.0018174874 0.00090259314 0.0006701767 0.000531835 0.0020042346 -7.178029e-05 -0.001956922 -0.0002767914 -0.00065473944 -0.0010229605 0.0010806166 0.00044170977 0.0024509616 0.0017685392 -0.0004724732 -0.001578483 -0.0012702319 0.0013263873 -0.00071527425 -0.0024443907 -0.00070472504 -0.00017795851 -0.0022075288 0.0012477573 -0.00218652 -0.0011760467 -0.00030839886 0.00032903906 0.0005272699 0.0011126802 -0.00052258815 -0.0024591796 0.0015982897 -0.001963133 0.0015451997 0.0014947793 0.0013651827 0.0012220782 0.0020613084 -0.0024565952 -0.0013789111
inhabit 0.000112443464 -0.0009472781 0.001994736 -0.0012310508 0.0016512186 -0.0019450479 -0.00058198743 -0.001373356 0.0011124122 0.001431379 0.001449259 -0.0010387418 -0.00039454433 0.0015403242 0.0013316914 0.0009358295 -0.0005510717 -7.507601e-05 -0.00034670974 0.0013101029 0.0016177632 -0.0015108383 -0.0024647664 -0.0015827632 0.0016041789 0.0022748462 -0.0020483385 -0.0014033631 0.0015546829 -0.0013020819 0.0024793204 -0.0001784591 0.0022384096 0.00094671897 -0.0019305008 0.0015364364 -0.00036784355 -0.0017390018 -0.0010729157 0.0023943363 0.00055915234 0.0016304511 -0.0021095483 0.0013535726 -0.001333892 -0.0005423697 0.00012217066 -0.0018119084 0.0008587288 -0.0019060003 0.0019786628 -0.00074811664 0.0005104258 0.0004827336 0.0010161649 -0.00062215177 0.0005608129 0.001710807 -0.0016684195 0.00026287348 0.0011200472 0.00083870976 -0.00047405413 -0.0009869385 -0.00068927824 -0.0022538318 -0.00086435163 0.0016076607 0.002226993 -4.4109533e-05 -0.0006138935 0.0015316061 -0.0022745202 0.0015813345 5.7062134e-06 0.0011826477 0.0004999137 -0.0014439264 -0.0017613807 0.0020318185 -0.0007180461 0.0005611854 0.0023954273 0.0015654434 -0.00057045755 -0.0020441695 -5.4183416e-05 -0.00013163709 0.00172436 -0.0023906743 0.0010958435 -0.0011467856 -0.0019376626 0.00042149983 -0.0019083505 0.0012337535 -0.0022543613 0.001075505 0.002413562 -0.00012811413 0.0019060955 0.0012609414 0.001941374 -0.0008233178 -0.0011992854 -0.0003304223 0.0019967463 0.0005508226 0.0019845674 0.00012745615 0.001374396 -0.0022492635 -0.0019176849 0.001584434 0.00163827 -0.0008683854 -0.0016429037 -0.0021900441 0.0022523962 0.0012978464 0.000898574 0.0022434671 -0.0015682157 0.0023269798 -0.0015346393 -0.0022603946 -0.00026606163 -0.0009872639 0.0023880173 0.001704446 -0.0005410465 -0.0014708688 0.002000005 -0.0019686755 0.0023798589 0.0022362606 -0.0009310078 0.0017489046 -0.0016744968 0.0006979641 0.0022833631 0.0012497867 -0.0023456733 -0.00028542965 0.0019363915 -0.0023153923 -0.0005056227 0.001893119 -0.0011147201 -0.0011617073 -0.0002149574 -0.0011655199 0.001927834 0.00020944444 0.0011812919 -0.0021774548 0.0011352901 -0.0016450535 -0.0019444006 -0.0009593058 7.457519e-05 -0.0022976059 -0.00078486267 -0.0016017421 -0.00028080377 0.0007311001 0.002286051 -0.0016367623 -0.0018085288 0.001619556 0.002221264 0.001619034 -0.00021120906 -0.0017316756 -1.2323959e-05 0.0018816972 0.0006915026 0.00022074766 -0.0015900999 -0.00054412195 0.0008314338 -0.0016330593 0.0018636603 -0.0012161124 0.00056726905 -0.00025145384 0.0009103203 0.0009756633 0.00038054073 0.00122101 -0.0016169962 0.0013987394 -0.0013541874 -0.0007894045 -0.0018109842 0.0017232499 0.0007143731 0.0013087625 0.0023504049 0.000741035
computers. 2.157176e-06 0.0009078211 -0.00044972007 -0.001996127 0.0004982897 -0.0006858653 0.0018674345 -0.0014472285 0.0017873216 -0.001139262 -0.00052356324 0.001573788 -0.0013971862 0.0017083911 0.0006834634 0.0002951608 0.0014393362 0.0013548755 -0.0014299708 -0.000985651 -0.0023210978 0.00069728494 0.0015110327 -0.0022578049 -0.00027093198 0.0009867952 -0.0013823536 -0.0018579438 0.0018200432 -0.00065251265 0.0010772394 0.0016732076 -0.0010884964 6.804592e-05 0.00058221095 -0.00047358847 -0.0002571682 -0.0013336614 0.0009215106 -0.0021783193 0.00011555175 -0.000578393 -0.0006102851 -0.0018009255 -0.00095494324 -0.0016031503 0.001761104 0.0020384463 -0.0022270703 -0.0009360742 0.0011597062 0.00087370956 -0.0007658994 0.0005046802 -0.0024299747 -0.0016921728 0.0003453889 1.4426187e-06 0.00036172546 0.00047911098 0.0021206168 1.4705583e-05 -0.0017540535 -0.00034898613 0.000933693 0.00031369855 0.001721744 -0.0012316292 0.00087893615 -0.0014094164 -2.5541522e-07 0.0013985178 0.00017632334 -0.00016288552 0.0013217861 -0.0018136664 6.776233e-05 0.0019014678 0.0024554748 -0.0018155214 0.00015980401 0.0013127946 -0.0010469964 0.0018910216 0.0003120529 0.0011195177 -0.0019766442 -0.00044055004 0.0014054044 -0.0024464643 -0.0017509474 0.00020531844 0.002320996 -0.0018556919 -0.001884684 9.3336916e-05 0.00041036122 0.0023533208 0.0019383072 0.0013801905 -0.0019330499 -0.0005923447 0.000101817306 -0.0017764689 0.00044486183 -0.0021006707 0.0017147679 0.0010059252 0.0021746196 -4.3630833e-05 -0.0022748548 -0.001971707 -0.000143277 0.0010755796 0.0013705236 -0.002423823 0.0005453699 -0.0005469185 0.0017570457 -0.0008651152 0.0016930439 -0.002074351 -0.0011709413 0.0009614846 -0.0015205776 -0.0002614502 0.00050591887 0.00039380975 -0.001530582 0.0024080537 -0.0014178327 -0.0010347557 0.00087605533 -0.00063311483 -0.00092481764 0.0011376832 4.6273228e-05 -0.002295213 0.0020812606 -0.0011896428 0.0011232479 -0.00079583377 0.0024451008 -0.0017450985 -0.00047227344 -0.0002260136 0.0022035115 -0.00045072148 0.0024253777 -0.0016887586 0.00036565564 0.00022157095 -0.00030527916 -0.00039664842 -0.00017434265 -0.00020071096 0.0011876139 0.00016750698 0.0009776303 0.0013973438 -0.0004313453 -0.000884473 -0.0018631592 0.002078982 -0.00068688684 0.0017551607 0.00017520157 -0.0005428833 1.39919575e-05 7.12825e-05 -0.0017420929 -0.0014049056 0.0009202794 -0.0017783439 -0.00035999855 0.00083304406 0.0017547929 0.0011740995 0.0016549821 0.0017160876 -0.0010727938 0.0020068963 0.00021166238 -0.00071165175 -0.0006353116 0.0015171748 -0.0005722699 0.0015140302 0.0017013852 0.0003681404 -0.002135815 -0.0002893391 -0.0005845118 0.00016001612 0.0023586596 -0.00033051637 -0.0014186435 0.0013246215 0.00074837124 0.0022759591
As -0.00087993685 0.002471852 0.0018402035 -0.000662238 -0.001132498 0.0013156638 -0.00077758345 -0.00053462153 -0.00089356117 0.00075173285 -3.7762802e-06 -0.0015776092 0.00041294517 -0.00012870552 -0.0010738575 -0.0024488638 -0.0005116707 7.3115574e-05 -0.0008818066 -0.0014199683 -0.0023233846 -2.5169225e-05 -0.00018951809 4.940573e-05 -0.00029001618 0.0020889542 -0.001960429 0.0011575823 0.0006186939 0.0005510836 -0.0009494338 -0.0013973971 -0.0019182223 -0.0019839453 -0.0024552764 -8.964213e-06 -0.0007248458 6.897561e-05 0.0004567036 0.0013563382 0.002400341 -0.00016782712 0.0010995567 0.0021407679 -0.0011168635 -0.0009934929 -0.0007109633 0.0010416661 0.0003134287 0.0018884409 0.002402104 -0.0011462984 0.0002941573 -0.0010709083 0.0007242048 0.0020151753 0.0010907808 0.00055325706 0.00024339696 0.0022112215 -0.0021242457 -0.0020150729 0.0013807877 0.0005357519 0.00022252044 -0.0012670335 -0.0013347196 -0.002237339 0.0006000248 -0.0004318487 0.00060811616 -0.0024612087 -0.0016304203 0.0023473352 -0.0018261316 -3.423239e-05 -0.0010260319 0.0012083913 -0.0024053187 0.0016734754 -0.0015461287 0.0012507695 0.0008036541 0.00031351647 -7.947534e-05 -0.002343331 0.0016642539 -0.002372062 0.0014188392 -0.00019080425 0.0014282353 0.00078834617 0.0018589348 -0.0012697816 0.00061709085 0.00013281498 -0.0018078845 0.0014947229 0.00039245002 -8.252566e-05 -0.0012671503 0.0011354315 -0.0020698516 0.0015127752 -0.0004908764 -3.8803322e-05 0.0018921113 0.00075518014 -0.001966995 -0.00040590344 -0.0009191078 0.0019191792 0.0012909931 0.0013699522 -0.0011373915 -0.0012158629 -0.002084414 0.001730361 -0.0016410928 0.001913318 -0.0009784364 -0.00013753888 -0.0007715946 0.0007490462 -0.0014482954 -0.001230992 -0.0024317463 0.0020249095 -0.00039849943 0.0010374435 0.0015505943 0.0019094204 -0.0014512938 -0.002412638 0.0012356441 -0.0005937135 0.002014996 -0.0009922445 0.0015289942 -0.0018760446 -0.0010369233 -0.0010169643 -0.0016533767 0.00013268739 0.0016261917 0.0015572603 0.0005826836 0.0012213767 0.0013729562 0.0005521849 0.001470292 -0.0023477334 -0.0017230049 -0.001412608 -0.0007277727 0.0017846436 -0.0009489014 -0.0005086437 -0.00031244755 0.0014298977 0.0010665322 -0.0019111349 -0.0005648497 0.0019223597 0.001995895 -0.0016075784 0.00015453319 -0.0017203635 -0.0009926405 -0.0015488341 0.0014319508 -0.0021361783 0.00022519403 0.0019143196 -0.0022700918 0.0004090548 -0.0020342288 -0.0018540951 0.001271893 0.0011278463 0.0012474565 -0.0024108514 -0.0003925732 -0.001450119 0.0022426378 -0.00070105994 -0.0007080233 -0.0023335437 -0.000630599 0.0012628201 -0.00028129597 0.0020570657 -0.002417626 -0.00089381216 -0.002087982 0.00056393305 -0.0010508182 -0.0014273634 -0.000739572 -0.0010645589
they 7.322733e-05 0.0007565636 -0.0021606237 0.00088491826 0.00057031517 0.00034930627 -0.00045326375 0.00013785064 0.0023734574 0.0024205707 0.0021821042 0.00020700344 0.0020633829 0.00034272065 -0.0009033552 0.0020274646 0.0018436811 -0.0010486809 0.00039030518 0.0006414787 0.0010984119 0.0004315218 -0.00047167158 -0.0014841944 0.002131795 -0.0018739691 0.0001504561 0.0012880554 0.001741868 0.00035907445 0.0023244945 0.0016457373 -0.0017431627 0.0010797072 0.00046696933 0.0011274947 0.0018327306 0.0022162185 -0.0005613363 -0.00015465287 0.0017296304 -0.00043464755 -0.0010387495 -0.001610381 0.0011471692 -0.0003424373 0.0012964238 -0.0003476399 0.0004489089 0.0023919847 -0.0024810606 -0.0018174282 0.0014327588 -0.0006320324 0.0019439338 -0.00059163186 -0.0018287015 -0.00021162396 -0.001629473 0.00056624017 0.00249585 -0.0003076347 -0.0021777698 -0.0010701928 0.0003905343 -3.8521597e-05 -0.0016616986 0.0010125851 -0.00063374185 -0.0012394562 -0.0006454461 0.0024802666 0.0011394306 0.0021673315 -0.0008072177 -0.0016854977 -0.0010515616 0.0010694372 -0.0006570157 -0.002262087 0.0011156728 0.0020617326 0.0019593583 0.0020540436 0.0017445427 0.0023028986 0.0008136139 0.001077207 0.0011480357 -0.0009572697 0.0007048007 0.0012811304 0.0015097936 -8.317805e-05 0.0015692636 -0.0012285879 0.0021509505 -0.0017336821 0.0021702047 -0.0014176249 -0.0021865966 0.0014876379 -0.0010678562 -0.0015775904 0.002319634 -0.002362826 -0.001603195 0.0017403583 0.0016166223 0.00069854804 -0.0015614366 0.0013944018 0.0012058858 0.0023776032 -0.00027870387 -0.00092935713 0.0018097186 0.0020295344 -0.0003075183 -0.00065036083 0.0020074556 -0.0010422077 0.0019801636 -0.00079436775 -0.0018196616 -0.0017617508 -0.0006518775 -0.00097106094 0.00037457026 -0.0007532295 1.9019004e-05 -0.0011435583 0.00071845204 0.00060827006 0.0016042716 0.0012903053 -8.725189e-05 0.0022670506 4.421035e-05 -0.00047743227 -0.00036215433 -0.0009479112 0.0015916792 -5.888287e-07 0.0013885426 0.0023199888 0.0012285728 0.0023535169 0.0023023621 -0.0010425296 0.0018062037 -0.0017535469 -0.0019248166 0.00019180542 -0.0017221307 -0.002245409 0.0017328514 0.0016895337 0.0018609618 0.00053491537 -0.0011967828 -0.0008953726 0.0016323207 0.0020121252 0.0015332866 -0.0019175899 -0.0023079093 0.00038795522 -0.0014958986 -0.0013403564 0.0012488186 0.0018225797 -0.00079507136 -0.0011445683 -0.0016466525 0.0015907208 0.0018209568 -0.0017771288 0.0012736621 0.0015192349 -0.00036248122 0.0022668634 -0.0017540168 -0.0021973627 -0.0011169735 -0.002026121 -0.0019359237 -0.0009900543 0.0023921719 0.002238798 0.00027731387 0.0016725967 0.001714644 0.0016985587 -0.0008987817 0.00132856 8.4627885e-05 -0.0018294149 0.0014340137 -0.0024596187
evolve, 0.0004664158 -0.016674142 -0.0067479145 -0.0058052675 -0.0029278647 -0.006026336 0.0038985047 -0.0032270355 -0.011416625 0.0014150756 0.0048480136 0.0015991564 0.0019370246 -0.0005323833 -0.027496736 0.011076963 -0.034500986 0.012969587 0.0035909181 0.016064327 -0.0043258755 0.012085443 -0.0005250725 -0.0025070293 0.017370556 -0.011617755 -0.008475196 0.0076933554 -0.0076670786 -0.0028784503 -0.003952673 0.011996654 -0.021609187 0.013392267 0.012275664 -0.0132944025 -0.015485045 0.005236761 -0.0025218953 -0.0049981154 -0.0081421845 -0.011557948 -0.002167849 0.010824234 -0.015102668 0.00466213 0.0103563825 0.019434933 -0.004648044 0.008141385 -0.003937972 -0.014942426 -0.00923003 0.02516627 -0.001653448 -0.01579993 -0.0038903176 0.008088642 -0.0020162314 0.011982341 0.007656086 -0.005023001 0.0050625694 -0.010973085 0.02390178 -0.028632758 -0.015471394 0.025326136 0.01432517 0.009650071 0.02178388 0.0044318726 0.0044738567 -0.018742518 0.0040688347 -0.0016964144 -0.01320014 0.011732868 0.0071452116 -0.00517538 0.012831991 0.0041551567 -0.00338595 -0.0014305734 0.00034276667 -0.01781209 0.0049481937 -0.018644687 -0.011659491 0.0018433894 -0.009406456 -0.022301018 0.007163181 0.002859304 -0.008922193 -0.02172782 0.018740254 0.0020301414 0.00866128 -0.018314213 -0.014887236 -0.0117270425 0.008921 0.0037909192 0.01700009 0.0038140977 -0.0056042154 -0.022890592 -0.01088162 -0.008244407 0.02301157 -0.014590622 -2.8611066e-05 0.0038889376 0.011758851 0.00865149 0.004141777 0.0056941686 0.013229302 -0.0046647717 -0.0032860728 -0.021236457 0.0032607126 0.019289503 0.0012062503 -0.015131692 0.0037804025 -0.011753158 0.0102955615 -0.0045489627 0.0127018355 -0.012455967 -0.022191174 0.014307506 0.019960683 0.0074117924 -0.0037172795 -0.010240462 -0.0043105874 0.012427644 -0.002264903 -0.018626336 -0.014036595 -0.0005992576 -0.0022938764 0.013879636 -0.0050670556 0.009824696 -0.0044550076 -0.00860402 0.009489278 -0.012647567 0.0072157905 0.008936308 0.011061414 -0.0038030823 -0.021375941 0.0015737759 -0.007013215 -0.007868791 -0.0019564845 0.00406729 0.014219921 0.017554957 -0.012616031 0.009763777 -0.008091177 -0.0059987097 -0.0153826 0.0025764967 0.004041363 0.00653624 0.006283832 -0.0077470834 -0.015853917 -0.0065480233 -0.0058745947 0.009303505 -0.0036256649 0.014526028 -0.0019766903 -0.017547833 0.023717536 -0.0008891055 0.0055713523 0.001245223 0.008094677 0.023704074 -0.00040746003 -0.0052935677 0.015979748 -0.0018313717 -0.0073184744 0.020043824 0.01515986 0.016635321 -0.004504084 -0.0071171857 0.022639513 -0.0013324968
manipulate 0.0020256257 0.0007732918 -0.0005888087 -0.0017784582 0.0007894931 -0.0008362415 -0.0012548318 0.00096803275 -0.002479714 -0.0012588641 -0.00055434194 -0.001274823 0.00035329303 0.0019750101 0.0002240818 -0.0003417048 -0.0011301056 0.0005057175 0.0017609079 0.0010220977 0.00050091324 -0.0019568165 -0.0014776957 0.0021357308 0.0016550976 -0.001934387 0.0008944287 0.002351901 0.00038294191 0.0014049765 0.0011455282 0.0016297968 -0.00032352656 0.0014963541 0.0013231752 7.681525e-05 -0.002450859 0.0019701044 0.0021701166 -0.0004893446 -0.0012766597 -0.00139261 -0.0024157236 0.0008428695 -3.98173e-05 -0.0011253437 -0.0023410297 0.0006916642 3.4513185e-05 -0.0022008994 -0.0018653043 -0.0006586611 0.00034878217 -0.00051945914 -0.0014153918 -0.0020725909 0.0003692964 0.0007508397 0.0012675433 -0.002409096 -0.0019129184 -0.0005038285 -0.0004751722 0.00075814244 0.0008227562 0.0024056686 -0.0015529257 -0.00012755394 0.0010041797 0.0006246227 0.001904645 -0.0010002565 0.0022687865 -0.002288159 -0.00045859464 -0.0021190047 -0.0018534153 -0.0013167056 0.0010989658 0.001604619 0.0009878399 7.3630596e-05 0.0015122509 -0.0023600315 0.0006340698 0.0013302278 0.0016388823 0.001610701 0.0016177185 0.0016148738 0.0004791161 -0.0021589827 0.0021136398 -0.0013416085 0.0007989304 0.001263954 -0.0015618631 -0.0014940267 -2.218713e-05 0.00041302526 -0.00049395184 -0.00014798809 0.00105412 -0.0021399176 0.0022937758 0.00068411673 -0.001974525 -0.00034748483 -0.0020770445 -0.00063919846 0.0007940929 0.0024465076 0.0017578872 -0.0013224721 0.0015653027 -0.0017175486 0.0010230634 -0.0013108122 0.0015543802 0.0019927756 0.0021247878 0.0014193202 -0.001530959 0.002275595 -0.0008278105 -0.0020431927 -0.0018230104 0.001832502 -0.0015468111 -0.00073420885 0.00021752366 0.00068412325 0.0023981403 0.0012249674 -0.0008068213 -0.0021988472 0.0010103486 0.00023574242 -0.0012201119 -0.0014036798 0.0012811432 0.0017991783 -0.0021975255 -0.0007489824 0.001448784 0.0024140486 -0.0019284168 -3.150245e-05 -0.0018899825 -0.0010245693 -0.0009515083 0.00021873624 0.00161087 0.0005727855 0.0006216704 -0.0005842098 -0.0012626824 -0.0022485685 0.0018657539 -0.00068881956 0.002098747 0.00026883255 -0.00039886078 0.00011312403 -0.0019390064 0.002279263 -0.0013471234 -0.0022318705 -0.0013896674 -0.0002940991 0.0005838701 -0.001872451 -0.0006303862 0.00024001091 -0.0017160745 0.0014785295 -0.00037519634 -0.0012625444 0.00033298228 -0.0017570527 -0.0003152818 0.00044468557 -0.0008361584 0.000867547 0.0015430381 -1.7661136e-05 0.002044457 -0.0006654528 3.883452e-05 0.0024682367 0.0015253983 -0.0003822255 0.002255491 -0.0023875993 0.00046417327 -0.0022601064 -0.00084533717 0.00050422945 0.0002905375 -0.0005463641
other 0.0018749991 0.00015337882 0.002065817 -0.00040541077 0.0008653109 0.0021898635 0.0019612908 0.00167024 0.0019223411 0.0002698528 -0.0015244165 0.00037103565 -0.0010433715 -0.0017739662 0.00021967152 -0.0016201192 0.001040783 -0.00020431401 -0.0018705511 -0.0008994425 0.0006379632 0.002260312 0.0022495422 -0.0018165752 -0.00086621824 -0.0013868838 0.00235138 0.002086253 0.002332001 -0.00094038807 0.0006224513 0.0012800214 -0.002160777 -0.0010770032 8.388283e-05 0.00014366349 0.0020572543 -0.0012869283 0.00017880555 0.0014187298 -0.00031503523 0.00014025951 0.00034193043 9.784242e-05 0.0010203072 0.0013952288 0.0017180108 -0.0022687113 0.0014913664 -0.0015405025 -0.0023600012 -0.0015471387 -0.0015996199 -0.0010579142 -0.0010415337 0.0007018966 0.00028734026 -0.0012420788 -0.0009416663 -0.00045594247 -0.0012569544 0.0017841193 -0.002413672 0.00022460101 0.0003719998 0.0014255387 0.0021417267 -0.001288807 -0.0015645656 0.0016833073 -0.0015642282 0.00050430535 -0.00082188274 -0.0007305497 0.0016499888 -0.0013713756 -0.0016325772 0.0015682103 -0.00051228516 0.000408079 0.0017619831 -0.0009502574 -0.00024561607 0.0014830194 -0.0023006394 0.0018363078 -0.00088000053 0.0019240743 0.0015359111 -0.0021763947 -0.0011277312 -0.0021764683 9.442866e-05 -0.0013644533 0.0009189721 0.001879463 0.0023409254 -0.001766054 -0.0019614492 -0.0024748822 0.0019167359 -0.0024938649 0.0004842293 0.00048630685 0.0024299733 0.0012441396 0.00029541552 -0.00017167511 -0.0024865796 -0.0013662266 0.0009343866 -0.002274651 -0.0014588484 -0.0009102302 0.0011618161 -0.0016734647 0.0006493307 0.00053174933 -0.0006521224 0.0014998824 -0.0017337289 0.00145151 -0.0009338808 0.0022634533 0.0007954987 -0.002448426 0.0018842556 -0.0024447446 -0.00051677204 -0.0016679794 -0.0015169113 -0.0012512564 0.00072874245 -0.0018694415 -0.0024061555 0.00011078734 -0.00025492255 0.00037164032 -0.0017509558 -0.0009922382 -0.0009180459 0.0019515567 -0.0018935341 0.0011766285 -0.0019535432 -0.0005117897 0.0024793865 0.0024442784 0.0024910546 -0.0017440703 -0.0017033296 -0.001781333 -0.00016147434 -0.00010156096 -0.002147584 -0.0009686699 0.0017074826 0.00025862525 -0.0024134906 -0.0009912571 0.0016705683 0.00085684005 0.001697666 -0.00067020475 -0.001721856 0.00028845598 -0.00091824494 -0.0018040806 0.0014977944 -0.00047229324 -0.0005398907 -0.0014680662 -0.001223867 -0.00016948907 -0.00063550496 -0.002325622 0.0013478333 -0.00048212195 0.00012472714 0.0017914884 0.0007345602 0.0023363815 -0.0019450954 -0.0009097513 0.00034716935 0.0012232256 0.0010630647 -0.001217297 0.0022801356 0.00050356705 -0.0021321196 -0.0017858538 0.001312865 0.0011881471 0.0017873188 0.0016588331 0.0008621039 -0.0014218738 0.0017430848 -0.0009237849
things -0.0018595147 -0.0008249461 -0.0021269345 -0.00090521807 -0.001238088 -0.0016714486 -0.0015670743 -0.0022470881 0.0005095198 -5.1862095e-05 0.0016567893 0.0023080297 0.0005332434 0.000999599 0.0010227249 0.00012507895 0.001372315 0.002058859 -0.0016181916 8.274056e-05 -0.0002395236 -0.0013876116 -0.00244795 0.0020198338 -0.0022563483 0.0015274985 -0.0018029651 -0.0021949017 -0.0022939513 -0.0016735741 0.0022310186 -0.00076642097 -0.0015079823 0.0019252361 0.0018478376 -0.0012460393 0.0019480465 0.002137654 0.0008162726 -0.0004140234 -0.0022748518 -0.0023284287 0.00062636053 0.0007157773 0.002168457 0.0011559215 8.9035835e-05 0.0018927702 -0.0004429852 0.0018246975 -0.0015621495 -0.0010731182 0.0014557177 -0.0004138879 -0.00022336538 0.0011645192 0.0023684255 -0.0021710002 0.0005113289 -0.0011608874 -0.0013876405 -0.0011560437 -0.002140749 0.0023703384 -0.0008320826 -0.0012705254 -0.001817069 -0.0013454368 0.0013709269 0.00060983095 -0.00016259518 0.0013249505 -0.0013606963 -0.0019926415 0.00049072015 0.0016813213 0.0023620925 0.0005770987 0.0017158617 -0.0015139043 0.0022505284 0.0006855638 0.0023627598 -0.0011665839 -0.0010504249 0.001985969 -0.002464454 -0.00020329002 1.7392449e-05 -0.0007171518 0.000856685 -0.0024253055 -0.00044816383 0.0021486748 -0.00249196 0.0017361776 -0.00052603637 -0.0024622425 0.0016404605 0.00045486935 0.0006269524 -0.0015698972 0.0008289765 -0.001023787 -0.0017278576 -0.00046547712 0.0019443021 0.0010692549 0.0013809344 -0.00016401266 -0.00022560335 0.0004991656 -0.0014718922 -0.0023563583 -0.0013005543 -0.00026260014 0.0007273904 -0.0015558501 0.00061839167 0.0003881196 0.0004182316 0.0022416622 -0.0014512566 -0.00048544025 0.0021808925 -0.0024319761 0.0017873268 -0.0024439304 0.001597831 -0.0018521314 -0.00156764 0.0023082644 0.0005978828 0.000833221 0.002464211 0.0018090238 0.0009972125 -0.00022650487 0.0020008855 5.592429e-05 0.002113196 -4.7566835e-05 -0.0022392329 -0.0018262034 -0.00021748175 0.0005327796 -0.0015148685 -0.00053989375 -0.00022545038 0.0012089296 -0.0014914691 -0.00077553955 0.00018719886 0.001946514 0.0018560463 -0.00096602016 -0.0021561321 0.0020401282 -0.0018815887 0.0007902235 -0.0013800797 -0.00084479654 0.0021553244 -0.0012412656 0.001203069 -0.0020679105 -0.0008185145 -0.001296154 -0.0024763935 -0.0018012119 -0.0013167155 -0.00071208924 -0.0014992207 -0.0016069397 -0.001952635 0.00070446334 -0.00032535312 0.00029622205 0.0008184875 0.0020289798 8.4771775e-05 0.00078366464 0.002048314 -0.0020526098 -0.0016759606 -0.0008153346 -0.0008970129 0.00015544659 -0.0012657454 -0.00036470243 0.00019902084 -0.0006182379 0.0009381762 -0.0017694774 0.0012481727 0.0011897911 0.00021690456 0.00045204908 -0.001819683 0.0012763718
data. -0.0024353361 0.0018152706 -0.0021785367 0.0018720208 0.0010786038 0.0007794306 -0.0021742042 0.0022886326 -0.0014580389 -0.00094575726 0.00062952586 0.0024743266 -0.0003286833 -0.00087162224 0.0018655495 0.0012842948 0.0007658205 -0.0020494338 -0.00034279143 0.0006793197 0.00088168145 0.0005777746 -0.001589216 -0.0005546337 0.0016617519 -0.0023544563 -0.0009759057 0.0019387295 0.00079249474 0.00051105535 -0.00018956 0.0014327103 0.001928587 0.0012416153 0.0017874022 -0.0013443339 0.0017157192 0.00023559155 -0.0012563315 -0.00082534936 0.0015338501 0.0021829037 0.0011347856 0.0011338308 -0.0013877031 -0.002362194 -0.0011061948 -0.00045412034 -0.0016459447 -0.0018539345 -0.0013132602 -0.0006304481 -5.6152e-05 0.002076813 -0.002137842 0.0014190148 0.00044878828 -0.00017193146 0.0010569093 -0.00030925544 0.0013987273 -5.021249e-05 -0.0011193353 0.0005017475 0.0002643948 -0.0014747471 0.0018611131 -0.0016836587 -0.0013094696 -0.0008193501 0.0014614067 0.0014176224 -0.0021188636 0.00012107007 -0.0022737514 -0.00081466464 -0.00026926538 7.109763e-05 0.0011446481 -0.0016249514 0.0009034297 0.0024056449 0.002002906 0.0020270632 -0.0014869701 -0.00027742144 0.0003528488 -0.0017649564 -0.0007139817 0.0021160604 -0.0018584224 0.0010765465 -0.00096107693 -0.00030818465 -0.0006143877 0.0010824564 0.002093793 0.00030245818 0.0023161522 0.0015049409 -0.001241044 0.00096390094 -0.0019553846 0.00021760934 -0.0013398683 0.0013963152 0.00016200985 0.0010257522 -0.00055871427 0.0009048132 -0.00096564053 -0.0008542815 0.0010533847 -8.565583e-05 -0.00065756915 -0.00074615027 -0.00165294 0.0022060494 9.415718e-05 -0.00034389528 -0.0016880548 0.002112717 -0.0007968757 -0.00012909947 -0.002175118 0.000749558 -0.002116009 -0.0023143773 0.0003067169 0.00023432332 -0.0008045131 0.0013375173 -0.00028061145 0.00079616276 0.0022292188 -0.0015750616 0.00040537422 0.00023239455 -0.0021315045 -0.0013517787 0.0022466327 -0.00036745635 0.0009527188 0.00058911205 0.00085185724 0.0020018239 0.0005797108 -0.0014948135 -0.0024418812 -0.0024865132 -0.00020521437 -0.001501652 -0.00071145885 -0.0008164239 -1.0015676e-05 -0.0007107493 7.269671e-05 0.00040147267 0.0011992722 -0.0013851529 -0.0021815724 0.0023617363 -0.0014076638 0.0005043892 0.0016977722 0.00097941 0.0024889703 0.0015438958 -0.002204581 0.0006048605 0.00029582763 0.0020849365 -0.0003920677 -0.00041823508 -0.00010477402 -0.00033046934 1.29377e-05 0.0012034948 -0.000708862 0.0017923638 0.0005926434 -0.0020532906 -0.0023444775 0.001962422 0.0019199918 -0.0006371406 0.0018708268 0.0012328911 -0.0014885372 0.00031318003 -0.0015205008 -0.001743645 0.0021392303 0.0010425185 0.00031592348 -0.0017347282 0.0022040373 -0.00091200264 -0.0020260736 -0.0013889071
The -7.652398e-05 -0.0017681019 -0.002492095 -0.00060067826 -0.00015315972 0.00130503 -0.00080485106 -0.0023894256 -0.002021445 -0.0017843312 0.00038820505 0.00041102828 0.0013083059 0.0013207728 -0.00081691623 -0.0001710474 -0.0018356427 5.4333825e-05 -0.0017450377 0.0019908394 0.0011130555 -0.00072777155 0.0014682352 -0.0020527646 0.0003985546 0.0008843688 -0.0011840856 -0.0003818532 -0.00020483276 0.0016485755 -0.0017432189 -0.0014155632 0.0009393457 -0.0007614123 -0.0021410831 0.00016447017 0.0021521505 -0.00040245196 -0.0012294509 -0.0014262003 0.0018307273 -0.0002786622 -0.00087271514 -0.00041203713 0.0023666415 -0.0009636426 0.0005032888 -0.0009911645 0.0012105673 0.0024935622 -0.00210505 -0.0016387835 0.0021958458 0.0012765147 -0.0004802423 0.0014952612 0.0022960263 0.0009374586 0.0016347999 -0.0001891267 -0.00015478348 0.0022183964 -0.0013191897 5.4546632e-05 -0.000738923 0.0019551585 0.001034308 -0.0005682537 -0.0011020005 -0.0024961545 0.0022789896 -0.0016879207 -0.0004861171 0.0002744312 -0.0007743221 0.0010578507 -0.00080544886 -0.00015152362 -0.00076427695 0.0010573193 0.0010980419 -0.00058371364 -0.0007737449 0.0022201845 0.0009643417 -0.0024437734 0.0014743144 -0.002129967 -0.0020105594 -0.0015331048 -0.0005430805 -0.0007609761 -0.0013268319 -0.0023686686 3.4715747e-05 -0.0006008205 0.001438817 -0.0023539704 -9.2766946e-05 -0.00029838504 -0.00061171467 0.0009948274 -0.00018808432 -0.0021840783 -0.00047353003 0.00039029936 -0.0015647893 0.00020261761 -0.0023950732 0.0019739275 -0.00087378675 0.0017198399 0.00086350995 0.002363387 0.0009193206 0.0015774779 0.0017687823 -0.0008999938 0.0018142639 0.0022583283 -0.0024708093 -0.0020439276 0.0011251944 -0.000593352 0.0018646242 0.0023621665 1.4893478e-05 -0.0008897084 0.0003446329 0.0017173863 -0.00022694073 0.0012561395 -0.0024451367 8.1155216e-05 0.001768033 0.0021394053 -0.0009218827 -0.00014707376 0.00041702203 0.0023554391 -0.001449252 -0.0012843183 0.0002750049 -0.0010364153 -0.00044888188 -0.0013590266 0.0005673743 0.001401976 0.0016070069 0.00052703824 -0.0023954588 -0.002493836 -0.0016347864 0.0015318156 0.0020483718 0.0011238575 -0.0003180399 0.0010667453 0.0004998641 -0.0022552018 -0.0012944996 -0.0014796605 0.0013997117 -0.0023159385 -0.00074202684 0.000943284 0.0017420547 0.0009986523 -0.0024329196 -0.001690883 -6.770855e-05 0.0006488352 0.0010925177 -0.0018552544 0.00226922 -1.1504861e-05 0.0003787747 0.001968279 -0.0018431898 -0.0020110302 0.0010294998 -0.0011784801 -0.001365227 -0.00063342985 -0.00014914456 -0.0015680414 0.0009837225 -0.0005863622 -0.0022642778 0.0009201183 0.0022822903 0.0023386888 -0.00018286426 -0.001852307 0.0011294137 0.0011241052 -0.0014358809 0.00084744114 -0.0018383828 0.0020945664
evolution -0.0020184077 -0.015322338 -0.0067547644 -0.003646434 -0.005051353 -0.004535962 0.0035688148 -0.0019338878 -0.012816902 -0.0010782323 0.0091707725 0.0010571341 0.0025414692 -0.00054540497 -0.028506326 0.009378617 -0.031496957 0.012983092 0.0038734155 0.016987795 -0.006071975 0.015418047 -8.234961e-05 -0.002692692 0.01718128 -0.009420602 -0.007852654 0.006489469 -0.0052654296 -0.002034211 -0.0012549284 0.01583589 -0.022670189 0.010680102 0.010888105 -0.015995279 -0.015844263 0.0044207517 -0.0036821836 -0.008248488 -0.005070377 -0.010355388 -0.002824252 0.010640839 -0.0119677875 0.00873054 0.009757337 0.015820878 -0.002635957 0.005522075 -0.0035255966 -0.01110159 -0.0056677484 0.02138525 -0.00011211079 -0.012288976 -0.005368126 0.005606703 -0.0021864257 0.00983205 0.0056298724 -0.004093703 0.007004801 -0.0144633 0.02566018 -0.029055387 -0.017202938 0.025804823 0.013592925 0.01192363 0.023524309 0.00020665968 0.004516563 -0.022532592 0.007131919 -0.0021118135 -0.015068084 0.011338516 0.010803309 -0.0035896853 0.012893828 0.0011712625 0.00074663706 -0.0011772175 -0.00048738002 -0.01590516 0.0016063249 -0.015560081 -0.012778409 -0.0001690956 -0.007793981 -0.019825157 0.0109573705 0.0004458381 -0.006165954 -0.020599194 0.02022105 0.0025751384 0.006819322 -0.018542742 -0.014730816 -0.009289724 0.009492891 0.0018700465 0.014038843 0.0007206484 -0.0056725615 -0.023557663 -0.009788809 -0.0064852876 0.022943567 -0.015593443 -0.0042941123 0.003079034 0.008391419 0.00672494 0.0035963873 0.0058165155 0.013362015 -0.005408153 -0.0035955613 -0.018742066 0.0019851346 0.020528946 0.0036224276 -0.015074115 0.002256608 -0.008437454 0.012917606 -0.0069508706 0.010175621 -0.0127102425 -0.02297756 0.0118885655 0.021210019 0.0031381792 -0.00497168 -0.008017975 -0.002660785 0.015040448 0.0009578604 -0.018070128 -0.011820428 0.0016926307 -0.0021133132 0.014555504 -0.0047481973 0.009192145 -0.0056951293 -0.008066526 0.005486229 -0.014289243 0.009573314 0.010852146 0.009172927 -0.0011897708 -0.023043077 0.004698559 -0.0060610627 -0.0044375616 -0.0020248727 0.007173297 0.011339443 0.017605096 -0.013389099 0.011227893 -0.008739811 -0.005096629 -0.013820403 0.004016753 0.004717563 0.002531788 0.005151177 -0.0067106173 -0.01702985 -0.0070787515 -0.008561247 0.012903682 -0.002557205 0.0139621645 0.0010033393 -0.020008542 0.023204856 -0.00016693538 0.0015118599 -0.00037398085 0.0062418412 0.026519096 -0.002205237 -0.0010625636 0.017804964 3.1049534e-05 -0.010281451 0.018274076 0.016006246 0.017275551 -0.0039249347 -0.0063998634 0.021095477 -0.0016522141
process 0.00030423375 -0.0012450138 0.0019201832 -0.0020010301 0.0005863812 0.0011297984 -0.0020522086 -0.0009365544 0.0009900676 0.0009953799 0.00058463775 -0.0011639845 -0.0013312828 0.0016227905 0.00050785206 -0.0005098621 0.0019095964 0.0015345495 -0.00026456942 0.0008079952 -0.00010750303 0.00022929022 -0.00032651727 -0.0012805664 -0.0003630591 0.0003541119 -0.001251206 -0.0021450373 0.0017770128 0.002318942 0.0017350777 2.8152484e-05 -0.0020909777 -0.0006806222 0.0021753092 -0.0015105918 -0.00066126615 0.0006860343 -0.00015663751 -0.0015765452 5.7417667e-05 0.00058651925 -0.0010630768 0.0011721891 -0.0021880013 0.00027990807 0.00043447013 -0.00067653414 0.0009510168 -0.0011922702 -0.0020489148 -0.0019050583 -0.0018910944 0.0023911684 -0.0004027197 0.00051263627 -5.4027652e-05 -0.0018679735 0.00018705335 0.00027734507 0.00068826694 0.00081415614 0.0022366284 -0.0009484115 -0.00030942052 -0.0024164044 -0.0020474247 0.00031055394 0.0018499894 0.0006158352 -0.0004661635 0.0013991131 -0.0007513284 0.0003002882 0.000750839 -0.00043668924 0.00203331 -0.00070063653 0.002250574 0.00072816433 -2.184743e-05 0.0019765585 0.0020301677 -0.0023985275 -0.0006762546 -0.0021938402 0.0016488261 0.00013613678 0.0015087957 0.0017752391 -0.0021322034 0.0010435297 0.0004156183 0.00026774872 0.00072136824 -0.0011566165 -0.0019712714 -0.002065873 0.0014863638 -0.0022134527 -0.0010250282 0.0018246006 0.0005599102 3.9638253e-05 -0.0010607663 -0.0007824319 0.0020228056 -0.001225636 0.00019283989 6.176834e-05 0.0022929674 0.0009480957 -0.0022872742 0.0014153328 -0.0020930544 -0.0010690409 -0.0016792247 -0.001499933 0.00022782711 0.0004619155 0.0011504472 0.00018291594 -0.0023896715 0.00094742514 0.002246492 0.0012295458 2.967706e-05 -0.0020936762 -0.000983575 -0.0007818636 -0.0005555677 0.0006593191 -0.0012692836 0.0006348451 0.0016936962 0.0003408983 0.0021834197 -0.0017346474 0.00022335583 0.0011265662 0.00060368143 -0.0020556578 0.0019738916 -7.917965e-05 0.002356079 -0.0001231255 -0.00024031033 0.0021164455 -8.696597e-05 -0.0021534138 0.0014223922 -0.00096414774 8.0949394e-05 0.0013417567 0.0013173898 -0.0023481706 0.0004937134 -0.001946277 0.002234839 0.0010844558 -0.0009635135 -0.0016880545 -0.0023384204 -0.0016982502 0.0015808959 0.0015201108 -0.00024962355 -0.0023310748 -0.0007726606 -0.00032195263 0.0018474213 0.0011395172 -0.00013162289 0.0010622414 -0.0015208438 -0.0015866787 -0.0005741045 0.0024220417 0.0023419256 0.0007626617 0.0021733562 -0.002452945 -0.0006067923 0.0012890487 0.0015519555 -0.00014115102 0.0001490193 0.0006436149 -0.00090186414 0.0007697076 0.0019795615 0.00033576763 0.0010469772 -0.0024005668 0.0022231191 0.00069436664 0.0017903978 -0.0016428668 0.0021834974 -0.0022710129
is 0.0018572053 -0.01671858 -0.006657921 -0.006130006 -0.0036999583 -0.005493988 0.0030207192 -0.0040005282 -0.011036927 0.0010810487 0.007730487 -0.0011474646 0.0023341104 -0.0015492968 -0.026035622 0.009294075 -0.03433786 0.012863495 0.0017996461 0.012890481 -0.0061672158 0.013749019 0.00017208375 -0.00085053145 0.01428998 -0.010579138 -0.0085494965 0.00523541 -0.003935342 -0.003505812 -0.0031307458 0.015583452 -0.021999776 0.013378848 0.011450454 -0.015405051 -0.013196599 0.0019058727 0.00070556864 -0.008304318 -0.0078137275 -0.0117201675 -0.00492697 0.010758588 -0.015940456 0.008851892 0.012842193 0.020032652 -0.0021647657 0.0051544537 -0.0039512003 -0.014206468 -0.008321275 0.021178825 -0.0028595463 -0.014988118 -0.0028138212 0.0053952844 -0.0041568712 0.0091861 0.008195472 -0.005145312 0.006034071 -0.012803521 0.024358675 -0.0293976 -0.018085847 0.027998116 0.016286306 0.0116113555 0.02367781 0.0014186156 0.0050204443 -0.022444693 0.0062626707 -0.0045677484 -0.0137290945 0.009605539 0.009196479 -0.0075853905 0.012944167 0.0024243384 -0.0012260374 -0.0018639695 -0.0026699936 -0.018154727 0.0025660698 -0.018732822 -0.01104726 -0.0012281807 -0.008964427 -0.018109253 0.009352485 0.0018667218 -0.008283886 -0.018663688 0.01995324 0.004208067 0.0077913944 -0.019153146 -0.013605436 -0.010703183 0.010502395 0.0003200758 0.015703794 0.0015734669 -0.0065066605 -0.022165276 -0.009081488 -0.010621989 0.01937622 -0.012171484 -4.2205582e-05 0.0043819305 0.011851 0.007694063 0.0011184677 0.0073033962 0.008773585 -0.0045267823 -0.0012979495 -0.020126896 0.0023052753 0.021153072 0.0032491724 -0.017035961 0.004380622 -0.011816783 0.014697628 -0.0075771403 0.01033523 -0.012406277 -0.020148443 0.014018253 0.021386689 0.0066514364 -0.004684605 -0.0058756685 -0.00267247 0.010955951 -0.0032091076 -0.019033391 -0.0137255415 -0.00093099877 -0.0031163355 0.017019846 -0.0037254337 0.008636903 -0.0040650144 -0.0092009865 0.00667397 -0.01129795 0.008824369 0.007638651 0.011762227 -0.0018705402 -0.02253253 0.00028003275 -0.009455176 -0.004179724 -0.0036071015 0.00753804 0.011312073 0.016468689 -0.010337376 0.013550734 -0.008724831 -0.007248619 -0.016218245 0.0023086495 0.0024324995 0.0048329215 0.007207711 -0.009455648 -0.016682114 -0.0063989325 -0.005718308 0.013011262 -0.0009324398 0.010912567 0.0015915851 -0.019151116 0.021496637 0.0006752817 0.0058169365 0.0011339447 0.005363551 0.026831362 0.0012155261 -0.0012516729 0.017416244 0.002399825 -0.009158982 0.018912483 0.014556545 0.013823833 -0.0017266165 -0.008873703 0.0224836 -0.0026960738
directed 0.0019597455 -0.016895374 -0.0049313847 -0.0033525238 -0.0006042673 -0.0049407636 0.0019486386 -0.0006349135 -0.012906816 -0.0030214542 0.007005591 -0.002641354 0.0010135794 -0.0014633175 -0.026590282 0.011555976 -0.032105535 0.011340692 0.0020870983 0.017499924 -0.0046398253 0.013356683 0.0012211188 -0.00048435334 0.017867923 -0.01046677 -0.010754891 0.0030820756 -0.007405795 -0.0011673566 -0.0011336381 0.014253424 -0.023178644 0.011442436 0.009747786 -0.012888403 -0.015912 0.0017533373 0.0004790304 -0.0042320034 -0.007735778 -0.010323489 -0.0004991432 0.011166073 -0.013681643 0.008735084 0.014141386 0.019561134 -0.0010849909 0.007767935 -0.0055715623 -0.013242925 -0.0050643105 0.024937592 -0.003373554 -0.012715946 -0.0038197206 0.008317358 -0.0052201487 0.012046235 0.0077383397 -0.006267179 0.00568696 -0.015199416 0.024044361 -0.02928356 -0.018264474 0.027142936 0.015880775 0.012618606 0.023922266 0.0014205059 0.006600098 -0.02241599 0.008200113 -0.0032345143 -0.016468568 0.009239267 0.010232217 -0.007438674 0.011418041 0.0057570064 -0.00085059274 -0.0037357348 0.0011595659 -0.015779708 0.00407141 -0.018787237 -0.013067472 -0.002606758 -0.0072099557 -0.021893114 0.010044018 0.0040133633 -0.006341924 -0.021862742 0.018006865 0.0015295234 0.0047898153 -0.01972928 -0.0146475 -0.012278993 0.0069998554 0.003804172 0.01316816 0.0017944629 -0.0053828084 -0.019529022 -0.009406076 -0.009509903 0.022894228 -0.01608671 -0.00028797 0.0025990042 0.008437258 0.006617999 0.0018553745 0.009196833 0.012612648 -0.0053029936 -0.0010117841 -0.018530453 2.708604e-05 0.018619478 0.0009422183 -0.016116938 0.0039579696 -0.0121955415 0.011670488 -0.005049801 0.009986823 -0.014019357 -0.022168472 0.014842349 0.021519214 0.003957861 -0.0019589409 -0.009962199 -0.0040501095 0.0139947515 0.0010708865 -0.0150080165 -0.013015809 -0.0011019782 -0.00041428528 0.015791245 -0.004799585 0.008176535 -0.0072014015 -0.006638453 0.0075803245 -0.012661607 0.011154696 0.011481807 0.01042237 -0.0035394498 -0.022332072 0.0048797987 -0.008743548 -0.0059889187 -0.0005606954 0.0064091347 0.013331552 0.01869058 -0.009166444 0.013422996 -0.005913304 -0.007666728 -0.013771989 0.004665293 0.0030595432 0.005656687 0.0049436297 -0.008791652 -0.017471258 -0.0053655473 -0.008980564 0.011549225 -0.003119281 0.013106542 -0.0024472205 -0.0197697 0.020163491 -0.0031857172 0.0048098033 -1.3309392e-05 0.0061588725 0.02741105 0.0010072421 -0.005342021 0.016935319 -0.0018509446 -0.0098450985 0.017704692 0.016639533 0.01666814 -0.003439016 -0.0065761292 0.022388957 9.545649e-06
by 0.0010302935 -0.015163367 -0.007598107 -0.001191353 -0.002771865 -0.00302691 0.002686678 -0.004060517 -0.012358919 -0.00066195877 0.008957219 -0.0027210044 0.0029324444 0.0005628534 -0.028456843 0.011647059 -0.034219462 0.012970384 0.004374962 0.012658326 -0.0072734253 0.010342326 -0.0026914885 -0.0017125232 0.016817797 -0.010050143 -0.008958327 0.005095799 -0.006076926 -0.0031896525 -0.001830527 0.014680991 -0.023566596 0.0113960095 0.009116169 -0.015006904 -0.013847874 0.0017412594 5.4040265e-05 -0.003965253 -0.009632045 -0.010725756 -0.0014819618 0.0116463145 -0.0148806255 0.008958643 0.011954517 0.01659038 -0.0023375282 0.0068321587 -0.007398724 -0.012650935 -0.009443621 0.02395932 0.00061095064 -0.0144459475 -0.0014373561 0.0061261845 -0.0024426365 0.010411898 0.0069941063 -0.0033127135 0.0061391448 -0.01462348 0.023756908 -0.027215276 -0.019723466 0.02760603 0.012658329 0.008721145 0.023538996 0.0051284884 0.0041238596 -0.022329047 0.007439656 -0.0059459633 -0.014022282 0.008703421 0.009569608 -0.0045318035 0.010751195 0.0053466978 -0.0034270422 -0.004927218 -0.00238432 -0.0134411985 0.0018720658 -0.01632234 -0.008888264 0.0007796894 -0.009033884 -0.020161012 0.010033963 0.001306652 -0.007818388 -0.020802576 0.019754045 0.0024004222 0.0049101184 -0.017746385 -0.014141815 -0.011498081 0.009757408 0.00084433286 0.016493862 -0.0001975011 -0.004125172 -0.02132888 -0.009435423 -0.0076047317 0.022851544 -0.013385121 -0.000702022 0.006319888 0.011449322 0.0071774456 0.0046570883 0.00474457 0.010295143 -0.0063800216 0.0001455194 -0.018322043 0.0008986349 0.019311124 0.0032699313 -0.012819329 0.0062354705 -0.011381816 0.013459622 -0.0075720944 0.012641336 -0.009259682 -0.020049129 0.015368993 0.0191942 0.003547446 -0.0041680667 -0.009791985 -0.0019260002 0.0130361775 -0.0028166662 -0.019043101 -0.011560815 0.0017943323 0.0003877467 0.013953267 -0.0054674963 0.0070341676 -0.005258081 -0.008005967 0.010242232 -0.014516209 0.011220455 0.008851592 0.011598359 -0.00408772 -0.022109982 0.0040057744 -0.006232901 -0.007904414 -0.0032506185 0.0034376697 0.014239906 0.015053563 -0.011235336 0.013980794 -0.008435881 -0.0035548203 -0.015597754 0.002895416 0.00065154344 0.0021461542 0.008230061 -0.007812545 -0.019745208 -0.0029572179 -0.006990246 0.013340778 -0.005072945 0.014213386 0.0022642538 -0.019116655 0.022980735 -0.0004476529 0.0035232282 0.002760322 0.005169805 0.026671208 -0.00092734915 -0.0046093334 0.017753761 0.0002681766 -0.00728063 0.018268943 0.014994841 0.016617233 -0.0034955298 -0.005153935 0.021103418 -0.0020592413
pattern -0.002378302 -0.0020324432 -0.001654604 0.00020887796 0.0007185519 0.0014070477 -0.00096333143 0.001399827 -0.00064247905 0.0021076412 -0.0003164229 0.00047329091 0.0022163638 0.0005254629 -0.0013057557 0.00029034144 0.0021713772 -0.002081564 -0.00018982566 0.0009646809 -0.0007576394 -0.0007772413 -0.0009963876 -0.002031382 -0.0020924876 0.00029605697 0.0005153748 0.0017751809 0.0010658139 0.0022090012 -0.0014964041 0.0006959443 0.001622716 0.002178656 -0.0022444944 -0.0023232945 0.0023800535 -0.00029917504 0.0021925257 -0.0023054252 0.0017200322 0.0004988122 -0.0017559403 -0.00066583697 -0.0013068431 7.508346e-05 0.00057022995 -0.0010489663 -0.0003821978 0.0021858104 -0.0022895688 0.0021799225 0.0013797104 0.0011714334 -0.0010074961 0.002447839 0.0011022305 0.0018371595 0.00029889494 0.002338278 0.001541575 -0.0024634183 -0.00019403338 0.0013086768 0.0023460914 0.0023217998 -0.0013676303 -0.0018212306 -0.00055766397 -0.002285474 0.0014558164 -0.00015017996 0.0006072812 0.0012360844 0.0010260066 0.0012914464 -0.0010826874 0.0002187374 0.0022766897 -0.002362801 0.0014923336 0.0004922745 -0.0016289115 0.0010581801 -0.0018101304 -0.0018045637 -0.00020095357 -0.00036249752 -0.0002577703 0.0010196415 -0.0010903648 -0.0012800887 -0.0015116023 -0.0023067226 0.0017451374 -0.0021248579 0.002026571 -0.0016739701 -0.001324121 0.0007398862 -0.001775417 -0.002093581 0.00071484246 -0.002451814 0.00024150964 0.0019696378 -0.000105591724 0.002361355 -0.00064248114 -0.0016623004 -0.001239965 7.000705e-05 -0.002261049 -0.00067184924 0.0006866383 -0.0018829915 0.0003534793 0.00036507752 -0.00038253842 0.0021127705 -0.0014917018 -0.0005646744 0.00069020665 -0.0021522688 -0.00094730046 -0.0005104139 -0.00066666363 -0.002319018 -0.0017834646 0.0013243866 0.0019474216 -0.0012678596 1.650094e-05 0.0017593959 0.0019081724 -0.0005342283 -0.0016749226 -0.00063203275 0.0015093624 0.0019837026 0.0019223527 0.0003304889 -0.0011497709 0.0015445305 0.0020153918 -0.0021118505 0.0024999012 0.0010889831 -0.0010266692 0.00026439806 0.0024205549 -0.0006531897 0.0008701738 -0.0016631358 -0.0018804192 0.0015958822 -0.0004731738 0.0024909652 0.0008458297 0.0017751404 0.0021820604 -0.00039848755 4.6260422e-05 0.0023468584 0.0018562721 0.0006201754 2.1236017e-05 -0.0012721303 0.00084267254 -0.0024718116 0.0022058454 -0.00082042965 0.0011352813 -0.0011474072 -0.0018838199 -0.0014178401 -0.0017399353 -0.0014254915 0.0020287852 0.002243463 0.0014555724 0.0011441892 -0.00018714345 0.0018157633 -0.00035532564 -0.00097021577 0.0015104981 -0.001985746 -0.00074819115 -0.00036920258 -0.0023503408 0.00065943506 6.665313e-05 -0.0023574212 0.0015760362 -0.0023796218 -0.0023350483 -0.0015849089 0.001346784 -0.00077626377
rules -0.0016006038 0.0016557146 -0.0009785577 0.0022480995 0.0021025585 -0.000930103 -0.0008551711 -0.0007154638 -0.00010451046 0.0005255856 0.001260634 0.0017163088 -0.0013447383 0.0023188437 -0.0019064164 0.002221256 -0.00096438196 -0.0013018742 0.0012275863 -0.0002881342 0.0024052714 -0.0022453335 -0.0023916 -0.00014458387 -0.0015239876 0.002475909 0.0017960984 -0.00040626968 -0.0014447266 0.0024621845 0.0017033629 -0.0023671994 -0.0011073005 -0.0020305917 -0.00022537028 0.0014483095 -0.0004606438 0.00048595644 -0.0011440495 -0.00021333387 -0.0006229031 -0.0024008718 -0.001040298 -0.001911588 0.0006481982 0.0019270345 -0.0016946068 -0.0022138369 -0.00025355 -0.0016991487 -0.0007397303 0.0017800257 -0.0021120822 0.000525167 0.0023619113 -0.0019833613 -0.00040400634 0.0020580054 0.0012997666 -0.0009534827 0.00077624526 0.0015977235 0.0010836455 0.002243043 -0.0005079445 -0.0015838834 0.0013345629 0.0010487831 -0.00051822374 -0.0010572368 -0.002424499 -0.00027226028 -0.0021532082 1.8434599e-05 -0.0022081486 0.0021837638 0.0008171799 -0.0019807073 -0.00015044236 -0.0023381286 0.00095727015 7.697614e-05 -0.0010192937 0.0008318522 -0.0016878662 0.0015071803 0.0010511819 0.0010579759 -0.0007608569 0.0016931645 -0.0020730647 0.00055154855 0.0020827372 -0.002297528 -0.0011347737 -0.002118081 0.0024096402 0.0006411108 -0.0005703374 -0.00198348 0.00030227215 0.0017720168 0.0023238664 0.0017483677 -0.0017046264 0.0018549846 0.002086192 0.000432248 -0.0020801576 -0.002104204 -0.0020910022 0.0021809405 -0.002423901 -0.0012456098 -0.0018204758 0.00046779425 0.001196007 0.0007891101 -0.0024152559 -0.0023873951 0.0018549892 0.0019582398 -0.0018548399 0.0014764578 0.0011095684 0.001524087 0.0023482726 0.0022249455 -0.00042114384 0.0022528637 -1.9012485e-05 0.0021224404 -0.002180617 0.00024704728 -0.00064504414 0.0013788675 0.0012337682 0.0024731043 -0.0006243726 0.0018159272 0.00022888253 0.0007551359 0.0012709254 0.0023631477 -0.0012914183 0.0019872994 0.0008515408 0.00042030984 0.00059974496 -0.0013595279 -0.0015005368 0.00047175284 0.0023125177 -0.00026111514 0.0006812238 0.0010345706 -0.0015246558 -0.0012278043 -0.0008952016 0.0023172046 -0.0023868873 0.0006325925 -0.0014119592 -0.0017694556 -0.0019224521 -0.0017451665 0.0014800243 -8.507725e-05 0.0017575473 0.00010459148 -0.00212341 -2.880278e-05 0.00081971847 -0.0012745702 0.0015820055 -0.00070746744 0.0013136014 0.0011841974 -0.00018968456 -0.0014158979 0.0008943158 -0.0015719056 0.0012508889 -0.002420361 -0.0016760062 0.0020900033 -0.0017910948 -0.001171951 0.0016418225 0.0022727782 0.001110092 0.0008948641 -0.00039940467 0.0023553763 -0.0017629528 -0.0020132936 0.00040877704 -0.0019927854 -0.0016058283 0.0016613556
program. -0.00083721906 0.0013757711 0.0024920627 0.0006641352 0.0016980814 0.0023360117 0.002201077 -0.00016461243 -0.0017123248 0.0024171034 -0.0009865969 0.0002622113 1.85424e-05 -0.00013228715 -0.001903508 -0.0012882587 -0.00081584393 -0.001129641 0.0013615577 -0.00024045142 0.0013696593 0.0013906236 -0.00033459882 0.0024137828 0.0008764232 0.0012924627 0.0018655518 0.0002825081 0.0013478282 0.0008114467 -0.0011490836 0.0013043548 6.982824e-05 0.0009690623 0.0010209787 0.0023749527 0.00060723396 -0.00087663054 0.0018147919 -0.0018275749 0.00015010801 -0.002068881 -0.001696876 -0.0006992206 0.0010835177 0.0018648938 0.0014310502 -0.0011009591 0.0006522881 0.0022514393 -0.0011070734 -0.00091362325 -0.0024303284 0.001044593 0.00022240123 0.0005680898 0.00042481697 -0.0023580745 -0.0014221021 0.0015880549 0.0004053039 -0.0015081825 0.0022547324 0.00077287713 -0.0005262417 -0.0009535465 -0.0020690723 -0.0022882153 0.00085041276 1.688907e-05 -0.0014586659 -0.0011786196 0.0008096688 0.00093257404 0.0008010906 -0.0020006667 -0.0011907849 -0.0010508257 -0.0010058536 0.0023423098 0.001839465 0.0017187241 0.0022610286 -0.00039323187 0.0019962275 -0.002013192 0.00087835547 0.0017317464 0.0020794976 -6.413227e-05 -0.00023037707 -0.0008079177 -3.252807e-05 -0.001046 -0.00074468553 0.0010848287 0.0021068738 0.001935015 0.0021323157 0.0004591609 0.0015693572 0.001646929 0.00030079135 0.00049660867 -0.0020472792 -0.0021512117 0.0015830551 0.0009942781 -0.0011101055 -0.0014516946 0.00012478558 -0.00069622486 0.00018251757 -0.0015519243 0.00027986825 -0.0020687291 0.0005651 0.0023369128 0.0014430345 0.0022026328 -0.0013115605 0.001036786 -0.0021674891 0.0016172836 0.0024184412 -0.001083664 0.00069020083 -0.0014358062 0.0021919361 -3.0496158e-05 0.0011148667 -0.0024358314 -0.0012270686 0.0007313716 -0.0023091673 0.0015611411 -0.00026204088 -0.0014406895 0.0018312414 -0.000813173 -0.00050179847 0.0003665986 -0.0019994732 0.0018967963 0.0022743717 -0.0006101405 0.002274034 0.0010100326 0.0018240721 0.0009789031 -0.0004127028 0.00083951023 -0.002335155 -0.0016311115 -0.0012585563 9.521935e-05 -0.0013551915 0.0020803646 0.0016327775 -0.0024520413 -0.0011389407 0.0015931404 -0.00042053778 0.0010227517 -0.001959072 2.4051173e-05 -0.00043655513 0.0007570705 -0.0010729969 -0.0014194819 0.0009728519 0.0013900849 -0.0024262469 0.000158092 0.0017476501 0.0009760186 0.00085982936 0.000595727 0.0015300759 -0.001463919 -0.0018387258 0.0008504451 0.0014638524 -0.001680659 0.0002547421 -0.0020077208 0.00023093051 4.939502e-05 -0.0021767514 -0.001644504 0.0023993421 -0.0005521175 -0.0011697268 0.0006840222 -0.0018995355 -0.0020167555 0.0001274196 -0.0011773014 0.0017041694 0.0012274622
People -0.0022750588 -0.0132958945 -0.0052141817 -0.0017719846 -0.003922062 -0.0037986974 0.005645929 -0.00014013602 -0.012652062 0.00064611336 0.009290956 0.0016967213 0.002965418 -0.002257563 -0.025991445 0.011272277 -0.03458388 0.010113723 0.00030865887 0.016244495 -0.0074135587 0.014779209 -0.002757027 0.0006549518 0.012657294 -0.012820739 -0.010344069 0.0054350276 -0.0053478247 -0.0022204588 -0.0029931897 0.012934567 -0.023131281 0.011560472 0.0088888975 -0.015965873 -0.012004201 0.0023529879 -0.00375989 -0.00754521 -0.009782349 -0.007920369 -0.000503694 0.010634542 -0.013451717 0.0059090434 0.013828476 0.017119836 -0.0041180295 0.0039295736 -0.008222532 -0.014719334 -0.007794058 0.024562074 -0.0040861 -0.0141716115 -0.004444035 0.0055184434 -0.005094238 0.01149696 0.0055313287 -0.005989186 0.0020087077 -0.013610935 0.024970904 -0.025965778 -0.019267244 0.025786083 0.012300143 0.00961798 0.020375594 0.005056473 0.0056196474 -0.018471926 0.004489227 -0.0041485173 -0.013652809 0.0075421506 0.010213492 -0.0048854095 0.012182329 0.0041894354 0.0006189217 -0.001939946 -0.0018305486 -0.018069012 0.004158049 -0.018767493 -0.013055089 -0.0018412488 -0.006811965 -0.022085605 0.012043109 0.0040650554 -0.0048163775 -0.016965877 0.019595817 0.003937475 0.00839586 -0.018222814 -0.015815578 -0.011799019 0.010296875 0.0030276626 0.013148388 0.0026348638 -0.004948183 -0.022923559 -0.008906256 -0.006792876 0.018631293 -0.013260873 -0.002518158 0.0057509984 0.009928571 0.0099436 0.003375278 0.008745269 0.010291277 -0.0048034615 -1.7515966e-05 -0.018658735 0.0025091977 0.020658808 0.0038628937 -0.017035497 0.004570271 -0.011356796 0.010007705 -0.006604562 0.008583995 -0.011204609 -0.021551097 0.012525208 0.018635772 0.0040452546 -0.0047076102 -0.00881201 -0.0034457399 0.015099085 -0.0021193037 -0.01932186 -0.013360858 0.0001576856 -0.00011147991 0.014718323 -0.0058278893 0.005565616 -0.0054956893 -0.0071578086 0.0067254133 -0.014628453 0.0075375703 0.0066140504 0.009105473 -0.0052506365 -0.021882808 0.0040035355 -0.008750922 -0.004327146 -0.0038453718 0.0039992062 0.013667758 0.016124174 -0.012281161 0.013630034 -0.0078139985 -0.00750351 -0.016868977 0.004220328 0.0007493754 0.006734528 0.008496064 -0.0095021855 -0.01957719 -0.0074819564 -0.0056179166 0.011741975 -0.0012942214 0.014122301 0.0001891685 -0.018386193 0.023227409 -0.002719287 0.0022165473 -0.00081081735 0.005390722 0.024496721 -0.00055399793 -0.0028268113 0.016885323 -0.0019347193 -0.007975571 0.019826757 0.013252309 0.017944241 -0.0043080673 -0.007866016 0.02064568 0.0019545443
