50 200
UNK -0.0007899514 -0.0022905818 0.001617603 -0.0020555588 0.0019494141 0.0013339599 -0.00073114596 0.002130807 0.0021303557 0.0011126068 -0.002159495 -0.0017484333 0.0011542614 -0.001953234 -0.0016312345 0.0011148166 0.0017386964 -0.00021689245 0.0018034703 -0.0005719316 -0.00058578665 0.0024620513 0.0011826449 -0.000922021 -0.0018464902 -0.0020181572 0.0005498894 0.0022235871 0.0016141455 0.0020778603 -0.0009623816 0.0018852232 0.0007506404 -0.0013484072 0.0018053968 -0.00040499982 0.0010693904 0.0020075697 0.0020415098 0.0010007014 0.000662555 0.0011169254 -0.00062733144 -0.001657024 -0.0013290909 0.0009567663 0.002186453 -0.0014873546 -0.001932739 0.0013892187 -0.0022533806 0.00039984589 0.0021799407 -0.001102382 -0.0020779471 0.0017901333 0.0005529239 0.00037196744 -0.00025356258 0.0012614247 -0.0012594488 -0.00079965615 -0.0003519992 -0.0015192798 -0.0007835445 -0.0013845479 0.0011791671 -0.0011732003 0.0015682215 -0.0009610775 -0.0009577912 -0.00020705396 0.00247369 -0.00056840305 0.0002623077 0.000121261226 -0.0024823835 0.00014871289 0.00011777226 0.001981821 0.0016061277 0.0016025812 -0.0017295757 -0.002232156 0.001944196 -0.0021924453 -0.0023597048 0.0022550444 -0.0011233628 0.00025167293 -2.1511223e-06 4.4782646e-05 0.0008788258 -0.0021086 0.0012663931 0.0021880157 0.0015054108 0.001397585 -0.0013842344 7.855031e-05 -4.4605928e-05 0.00020049699 -0.0013385963 0.0010266658 -4.894822e-05 0.0016595996 0.00068530254 0.0012178216 0.002278679 -0.00063033367 -0.0017209733 -0.000376028 -0.0011584788 0.000871636 -0.0011437014 0.0005737492 -0.00054549845 -0.002444871 0.0023725769 0.00076653785 0.00053343107 0.0005107019 0.0012196156 0.000874595 -0.001956541 0.00027894904 6.3474756e-05 -0.00011315127 -0.0024483213 -0.0017002802 0.0012837036 0.0004294389 -0.0014538184 -0.00044285273 1.535099e-05 0.0024977536 -0.0016569283 -4.789047e-05 0.002013918 -0.0012420854 -7.14364e-05 -0.0014174974 0.0012422623 0.00012750062 -0.00072232576 -0.0022193661 0.0015162355 0.0023837686 0.001018059 0.0021484233 -0.0012759146 -0.00060690846 0.0012486393 -0.0023213588 0.0015491606 -0.0014552753 0.002264096 -0.00017414917 2.3568049e-05 -0.002471318 0.0010036384 0.0011273457 -0.0021574225 0.00018194388 0.0016069971 0.001767477 0.0017081187 -0.00012924848 0.002122588 -0.00023242692 -0.0023604499 -0.002377614 0.0013362323 -0.0009925171 0.0012383773 0.0005107105 -0.0020818892 -8.9341076e-05 -0.0016367543 -0.0018285319 0.001354442 0.00027097575 -0.0011840299 0.0008553881 0.0015144506 0.0016070683 0.0023541567 -0.00044736126 -0.0016344457 -0.00030821958 0.00017371261 -1.8891646e-05 0.00031461683 0.0016002799 5.4241158e-05 0.0004190891 -6.685383e-05 -0.001376234 0.0019497983 0.0020504948
of -0.04998242 0.19818524 0.043048024 0.13182603 0.073062934 0.01305698 -0.109547 0.10000333 0.10648212 0.13769001 -0.09335051 -0.18793686 0.007874741 0.0588276 -0.083671905 -0.093325004 -0.20536888 0.05025611 -0.021020213 -0.15729955 -0.08282332 -0.038413778 0.017421914 0.044479094 -0.085268706 0.11828639 -0.13747959 -0.07376737 0.16987832 -0.05000187 -0.038372643 -0.08121571 0.070849024 -0.13306488 -0.035349388 -0.1403564 -0.03210521 0.06572639 -0.017842464 -0.0057610055 -0.19525097 0.1861477 0.12587507 -0.05520818 -0.08012449 0.08202554 -0.04340162 -0.04811094 -0.13939027 -0.010695038 0.10039138 -0.057420067 -0.026524171 -0.097441725 0.045512587 0.097876415 -0.0868329 0.09297583 -0.11607377 0.042516537 -0.015847135 0.06821606 -0.0052113337 0.03912353 0.01316291 0.056039363 -0.04802524 -0.033525106 -0.06609068 -0.089187376 0.065724775 0.18022364 0.15101509 -0.015805012 0.052746434 -0.009646495 0.12246575 -0.054353613 -0.07547433 -0.078643344 0.02006975 -0.015842965 0.09912084 0.16929476 0.040816944 0.12215591 0.054071132 -0.07470978 -0.15298514 0.010366963 0.17657956 0.111460894 0.009044515 0.04360398 0.030616106 -0.123420835 -0.0076142023 -0.11920145 -0.11114761 -0.0652109 0.14113612 0.10553247 -0.0069126296 -0.023472907 0.005945257 -0.084431015 0.13292845 -0.110406786 0.20396255 0.08701607 0.09764264 0.07504572 0.15521973 -0.058050785 0.106911995 0.032150466 -0.11269105 -0.18631138 0.1073794 0.050572272 0.01232619 -0.038426332 0.0022830362 -0.020162988 0.092511915 0.04313948 -0.17007436 -0.114667356 0.06759627 0.12565288 0.110741444 0.017485686 -0.0840263 -0.04998605 -0.046132397 0.12687187 0.1306076 0.023672676 -0.109312475 -0.03765219 0.04943664 -0.07298045 0.033435248 -0.07567859 -0.03655156 0.11659002 0.07231463 -0.07255287 -0.03393751 0.045356635 -0.05471384 -0.07159046 0.024602437 -0.0840914 -0.10021678 -0.06347827 -0.07339174 -0.09414056 -0.08191966 -0.025776427 0.025766242 -0.06773065 0.06842015 -0.021744413 -0.1555247 -0.02339025 -0.032196235 -0.050703585 -0.0295483 0.03630577 -0.022904593 -0.10042941 0.1319367 0.065160185 -0.11320533 -0.17308159 0.12983924 0.13291538 -0.09500371 -0.13299741 0.010167782 0.08759653 -0.08193467 0.012131577 0.035560116 -0.03220401 -0.0039640022 -0.02218389 0.04998756 0.112418875 0.031381715 0.016912417 -0.120818995 -0.03681172 0.07867186 0.1714407 0.08300822 -0.082463086 -0.05193948 -0.033970352
a 0.0019102031 6.3238665e-05 -0.00029234355 -6.206427e-05 0.0017836522 -0.00088121416 -0.00038362644 -0.00026106345 9.9370256e-05 0.0010276353 0.0009996232 0.0023396485 0.0013240867 -0.0018865401 0.00246013 0.0019347537 0.0005998274 -0.0011571524 0.0022337995 -0.0017541894 0.00061521865 0.0020980318 -0.001934494 -0.0019545173 0.0024141725 -0.001305247 -0.00094605796 -0.0014877688 0.0005370113 -0.0007021179 -0.0008354747 0.0009890047 -0.0022162441 -0.002449238 -0.00048674736 0.0024961806 0.0017426051 0.0006546059 -0.0010895506 -0.00079329463 0.0018642312 -0.0011179897 0.001038732 0.0020651524 0.0013235777 0.00083199027 -0.00090148055 -0.00046465546 -0.0014937815 -0.00061598653 -0.0024128687 -0.0007814381 0.0010930176 0.0012679314 -0.0005564883 -0.0005090651 -0.0014100136 0.002415848 0.00046084053 -0.0014908862 -0.0010055995 -0.00014913944 -0.00032824604 0.0012615668 0.0005605465 -0.00062219496 0.0017377851 0.0018636221 0.002148584 -0.0014394203 0.0009302071 -0.0010603502 0.000852535 0.0008569453 -0.0020349403 -0.0011672535 0.0010535535 5.4159435e-05 -0.0016396558 0.002049746 -0.0011331525 -0.0011314433 0.0022872435 0.00026400597 -0.00062702957 -0.0022352329 0.0013435229 -0.0005285784 0.0007291341 -0.0018257531 0.0005944476 -0.0012756544 0.0005298599 0.0009599894 0.00099767 0.0022189305 -0.001996601 -0.0021949979 -0.0012523475 -0.0024059843 -0.00045303116 0.00025496515 0.0001532915 -0.0013876915 0.0009132351 8.6368294e-05 -0.00027831458 -0.0003492958 -0.0012041968 0.00028613862 0.0019197892 -0.00016548182 0.0020770482 0.00018301792 0.0014344747 -7.8566605e-05 -0.0012885669 -0.00025724387 0.0018251832 -0.0023899262 -0.0017148154 0.000271681 -0.0020603994 -0.0015322902 -0.0009319207 -0.0017912418 0.00032835966 0.0016856855 7.16201e-05 0.00097394874 -0.0017584362 -0.0010532156 -0.0005357566 0.0022246558 -0.000785914 -0.00019571162 -0.00037238863 0.00017110142 -0.0020673692 0.0010137737 -0.002443695 -0.000687125 9.0575544e-05 -0.0019476714 0.0016774149 -0.0013990676 0.0006656635 -0.001976425 -0.0024146866 0.0012093058 -0.0021835035 -0.0014431137 0.0003323194 -0.0006990278 0.0004142085 0.00013753702 0.001757035 0.00051125884 -0.0005482269 -0.0013115114 0.0005215772 -0.0009744271 -0.0014883017 -0.0010191607 0.00013950234 -0.0008169791 -0.0011337572 0.0011344082 -0.0016192284 0.0007970431 0.002358289 0.00030561 -0.0020574196 7.883925e-05 -0.00019113184 0.0019825227 -0.0019906803 -0.00029462785 -0.00091849826 0.0013865838 -0.002439453 -0.0017900616 -0.0010463387 -0.001500065 0.0018614824 -4.9260212e-05 0.0010070694 -0.0008396044 -0.0013033658 -2.8485432e-05 -6.0396735e-05 -0.0020555612 -0.0021692286 0.00096988166 0.0015432863 -0.0001428544 -0.0018293743 0.0012898992 -0.0009991833 -0.0014392766
the 0.0007740867 0.0020507704 0.001912172 -0.0022342314 -0.00079353957 -0.0017487768 0.0010552921 -0.0016026726 -0.0009605285 0.0024267798 0.00090123503 0.0011386394 0.00062019494 0.0002446482 -0.0007792654 -3.236183e-05 -0.0013649598 0.00058428594 -0.0019449552 0.00093226484 -0.0023100744 -0.001168043 -0.0010809927 0.0011288642 0.0006683308 0.00024672993 0.0019670213 -0.0024398514 0.00056144036 0.00021451525 0.00059554656 0.0018448653 0.0021884828 -0.0007437145 -0.0018915697 -0.0011796951 0.001059324 -0.0007825291 0.0017277296 -3.1967647e-05 0.0018139533 -0.002131361 -0.000376513 -0.00014883582 -0.002173472 0.0009561444 0.0014991537 0.001503414 -0.0020519325 0.001530732 -0.0007040098 0.0009164291 0.0018608319 -0.00038736733 -0.0003549531 0.0004778402 0.0009443364 0.0006271824 0.0010129625 0.0006597403 0.0010787051 -0.0024111145 0.0008137154 0.0017785882 -0.0022022286 -0.002091098 -0.000120561104 0.0019661784 -0.0011157524 0.0015586368 0.0006768205 0.0008063426 0.0024234862 -0.0020841712 -0.0013756626 0.0015178332 0.0012611323 0.0015361533 -0.0019776842 -0.0021306917 -0.0012597755 0.0022946796 -0.00044536823 -0.00234344 0.00031154626 0.0004371435 0.0022765445 0.0023226603 0.0007993204 -0.0001751883 -0.00016762456 -0.0014662275 -0.00086079026 -7.667928e-05 -0.0019000589 -0.0024458354 0.0005457399 -0.0011321887 0.0005869081 0.0020189523 0.0007302901 -0.0018461513 0.0009879882 -0.0020572871 -0.00232592 -0.001014353 -0.0008818343 0.0019261683 -0.00010209717 0.0019687866 -0.00087947573 0.001605609 -0.0012094935 0.0023586643 0.0016855029 0.0021713893 -0.0021003296 9.982893e-05 0.001165886 -0.0012508419 -0.000616363 0.0015765373 -0.0009850594 -0.0023961817 0.00020178617 0.0016506049 -0.0015756112 0.0007797084 -0.0008835128 -0.0016199339 -0.00083298923 0.0010888958 0.0005527125 0.0019298135 -0.00066747935 -0.0014277324 0.0012020662 -0.0018795668 -0.0013869258 -0.0019076639 -0.0007285845 -0.0014486619 0.0014124378 0.0019290918 0.0006543186 0.0011248642 0.0015397626 0.0023581102 0.0013633554 -0.0022125014 0.00010380242 0.001440506 9.79281e-05 8.673547e-05 0.002017438 0.0021894379 0.0015820102 -0.0005245113 -0.002422056 0.0015174369 -0.00026777992 -0.0013077682 -0.0003405891 -0.00042558997 -0.0015800439 0.00061963405 0.0017509079 0.0023263823 0.0016075387 -0.00020478736 0.0010151963 0.0017594122 -0.0016942418 0.0023163264 0.00065024407 -0.00036335667 0.0024308353 0.00055167335 0.0022329786 0.0016678413 0.0012848421 0.0020364234 0.00039390055 -0.0014094373 -0.0016366043 0.0003964263 0.001534597 0.0004138297 -0.0012343234 -0.0023808728 -0.00019655586 0.002223473 -2.5150832e-05 -0.0010037151 -0.00021597836 -0.0010544348 -0.00026884605 -0.0010133747 0.00065180706 0.0015810886
are -0.00027905917 -0.0014242723 -0.00048693945 -0.0009910688 -0.00055967027 -0.0022178153 0.0010120312 -0.0014650094 -0.0020718563 0.0019388432 0.0021927836 0.0017941478 -0.002308187 0.0021781856 0.00152109 0.00069183717 -0.0013905069 -0.00022899755 0.00030702073 -0.00053173536 0.0014630058 -7.828465e-05 -0.0018801454 0.0016446589 -0.0009166816 0.0017122878 8.448004e-05 0.0019041882 -0.0018575245 -0.00030022673 -0.0009284222 0.00089176744 -0.0009992719 0.0024141152 -0.0012179273 -0.001714572 0.0013355957 -0.0022832009 -0.0015468147 0.0020241868 -0.0004058075 -0.0017037734 0.0023343326 0.0023668841 -0.0020846473 -0.0012291321 0.0005790696 0.0019784663 0.0019160183 -0.0010933053 -0.00021324097 0.00164686 -0.00020294706 -0.0023107417 -0.00014223089 0.0007081053 -0.0018071496 -0.00056687323 0.0018070592 0.0014141821 -0.00053486624 0.0016113333 -0.0011899871 -0.0018725264 0.0006302544 0.0005212717 -0.0005955058 -0.0011261797 -0.0012435272 0.0011993519 0.001655241 0.0015866361 0.0012833255 0.0024775858 -0.0018178376 -0.0014525434 0.0008956557 6.2562525e-05 -0.0001546978 -0.0010337475 0.0022451011 -8.830009e-05 0.0023680786 0.002380252 0.00245404 0.0011498539 0.0021301382 0.00031827693 0.002011415 0.0015095244 0.0017897976 0.0013447362 0.0014166841 -0.0022068506 -0.00020795711 -0.0015308324 0.0015387703 -0.00014066347 -0.0017785138 0.00107791 0.0008414837 -0.00090059487 0.0022263844 0.00068297447 0.0007417246 0.0014995527 -9.8546036e-05 -0.0022728243 0.0011456741 -0.0005163681 0.000591527 0.0013643033 0.0018353472 0.00016603433 -0.0015311146 0.0015524058 0.000277417 0.0020822696 0.0012008403 0.0022160579 0.00017649564 0.0009570485 -0.0010330242 0.00050640176 -0.000674588 0.00074942876 -0.00011897227 0.0012612618 -0.0005361652 0.0017733788 0.00060453615 0.000842215 0.0018177484 -0.00073403027 -0.0022498062 -0.00058925385 -0.0001468889 0.0019808947 -0.0023271795 -0.0012384984 -0.0004510472 0.0015462041 -0.0006765523 -0.0019883327 0.00235302 -0.0018413638 -0.0006364435 -0.0020024332 -0.0024152964 0.0016639824 0.00011957344 -0.0019065574 0.001381288 0.0014465642 -0.0017209422 0.0006257524 0.0011220598 -0.001353671 -0.0022113342 0.0009166759 -0.0019055428 0.0006153444 0.000103531405 -0.0008351117 -0.00042526098 0.0012011186 0.00054727914 -0.00032361713 -0.0020946066 0.0015382343 -0.0020259023 0.00014300621 -0.0020123527 0.00010755472 -0.0024439024 -0.0014582538 -0.0023810929 0.0013436025 0.0012708246 -0.001389462 0.0011728052 0.0012877826 0.0008122667 -0.002215254 0.0010139965 0.0015948121 -0.0018191529 -0.000507653 0.001991427 0.0012850934 -0.00012049102 0.0010044521 0.0007588749 -0.0010129716 0.0006069953 -0.0010184934 -0.0006687265 0.0017565377 -1.6940758e-06 -0.00073130755
to -0.0020412132 0.00015853066 -0.0013337275 -0.0015470063 0.00014349376 0.0020714263 0.00012935093 0.00068431953 0.00058717816 0.0002179232 0.0013765183 8.945237e-05 0.001661526 0.0023813043 -0.0022815373 0.0012155136 0.0018664375 -0.0019451841 -0.0016485462 -0.0017220676 1.8027145e-05 -9.954069e-05 0.0006142757 -9.1749476e-05 0.0013629328 -0.00088651024 0.0017544678 -4.999619e-05 0.0011895674 -0.00029289164 -0.00036677276 0.001691469 0.0012854566 0.00060247886 -0.0015769997 -0.00222258 0.0023335358 0.00034963223 0.0001307372 0.002003178 0.0023358036 -0.00093853706 -0.0021311417 0.0019937586 0.0011802348 0.0010268388 0.00027194968 -0.002452812 -0.00024980493 0.002252929 -0.0006210804 0.0001432451 0.0021694158 0.0007659355 -0.0021154135 -0.0022941034 -0.0006233981 -0.0023744102 0.0007580372 -0.00058767584 0.00047731423 -0.0005389934 0.0005611384 -0.001662378 0.00023424276 0.00038595637 0.0013620751 -0.00020452146 -0.0016436434 0.0015727202 -0.00091009855 0.00076362747 0.0016475958 0.00040115323 -0.0010186537 -8.027069e-05 0.00086510205 0.001203805 -0.0008284572 -0.0013886528 2.4077948e-05 0.00032586418 -0.0017404971 -0.0001365093 0.0019906014 -0.0021449435 0.0009642362 -0.001569977 0.0021913429 0.00013730489 -0.0010913244 -0.0024530326 -9.0303365e-05 0.0022259313 -0.00078187045 0.0015996965 0.0023761038 0.002414361 0.00060122693 0.0024982784 3.5669655e-06 -0.00090513285 0.0013459441 -0.0005345738 -0.0012067402 -0.0021345944 0.0012955847 -0.00080985844 -0.00054879906 -0.00022264663 -0.00038433308 -0.002289673 0.00075248815 -0.0020941426 6.147497e-05 0.0005387487 -0.001249105 -0.0018118286 -0.00074921094 -0.00034932233 -0.00037573 0.0018665469 -0.0024144687 -0.0022484108 0.002105236 -0.0008723369 0.002031465 -0.0017430991 0.00048787985 -0.0021909445 0.0012294445 0.0013109094 -0.0017172396 0.00085237203 -4.1921623e-05 0.0014863564 -0.0021338211 -0.00095603045 0.001984436 0.0013779528 0.0007559187 -0.00019651232 0.0010884518 0.00043850997 -0.0015529623 -0.0010240718 0.00073316344 0.00070873625 0.0014783959 0.00042582932 -0.0023292962 8.612475e-05 0.0004560107 0.000947651 -0.00012259535 -0.0022139803 -0.0012376618 0.0021737758 -0.0024955862 0.0012879535 -6.92443e-05 0.0010589289 0.0006934812 -9.267242e-05 -0.00064946804 -0.00025281496 -7.727835e-05 -0.001047039 -0.002440706 0.00018017413 -0.0018311578 0.0020609046 0.000876623 0.0007089565 0.0012659279 6.587128e-05 0.001229154 -0.001083276 0.00022973749 -0.0013241625 0.0024440573 -0.0021480748 -0.0017360323 0.0015516123 -0.0008104211 -0.0023119687 0.0017697546 0.0023564897 0.00047664018 -0.0002190515 -0.0013395598 -0.00029390375 0.00095709646 0.00024755183 0.001500275 -0.0013305077 -0.0014899388 -0.0020132656 0.0009449362 -0.00044544018
processes -0.0023937437 -0.00044225994 0.00097302813 -0.00081484974 -0.0015167781 0.0020051794 0.0010566716 -0.0010745245 0.0015130322 0.0012835597 -0.0009972492 0.0007634666 0.0012831304 0.00080406526 0.001922939 -0.0011699041 -2.7123373e-05 4.5757508e-05 0.0023588133 0.0014300677 1.1365628e-05 0.0013881198 -2.7903821e-05 -0.001903468 0.0014655553 0.0007648545 0.0018733069 -0.00075064506 0.0014485661 -4.912098e-05 -0.0018658887 0.0014824704 0.0008483075 -0.00018659746 0.00092241494 -0.0018416032 0.0018376191 0.0017335443 -0.0012119162 0.0017071944 -0.0016724154 -0.00075533334 -0.00043612183 0.0011396739 0.0012872498 0.0005964809 0.0006200278 -0.0017219887 0.00235654 0.001364755 0.0022868984 0.0020859386 -0.0012839844 0.00043541729 0.002465384 0.00043282798 0.0005843106 0.00042632758 0.0019387463 -0.000675829 0.0005705368 0.002337994 -0.0024374293 0.0006240732 -0.0007722846 -0.00047942367 0.0020960416 -0.0013186601 0.0004024005 0.0012051568 -0.0010430225 0.00038832868 -0.0014610942 -0.0021561843 -0.0004975947 -0.00017219805 -5.2089803e-05 0.0016365736 0.0024357974 0.0018667048 -0.0014674232 0.00083112903 -0.0011303851 -0.00043244008 -0.00090295076 -0.0019840715 0.0008286645 -0.001685861 0.00070437277 -0.0011922165 -0.0004557129 -0.0024649906 -9.861658e-05 -0.0016685638 0.0015705973 -0.00035566767 -0.0024808194 0.0013142941 -0.0004784367 -4.0450133e-05 -0.00031642523 0.0009724987 0.0018320293 0.0005824915 0.0024507828 -0.00181394 0.001705884 -0.0022795289 -0.0019397906 0.0020701718 -0.001187647 -0.0021813982 0.0023014331 -0.0013621708 0.00074521895 5.8198348e-05 0.00015684892 -0.0014557883 0.0017349035 -0.0016682982 0.0021795281 -0.00026887376 0.00047399872 -0.0012486222 0.0020031733 -0.002473822 -0.0020647708 0.0018521799 -0.0020179406 0.00124292 0.0009239712 -0.00046327477 -0.00040762033 -0.00023110444 -0.0010426717 -0.0005156831 -5.047326e-05 3.7092017e-05 0.0018414734 0.0017827749 0.0004204281 -0.0012550366 0.00046346989 0.0018466767 -0.0016983869 -0.0018140059 -0.0008215568 -0.0021905901 -0.0005915242 0.0010775183 0.0009255386 -0.002398732 -0.002132715 -0.0006629705 0.0023822123 0.0014026046 0.0023376471 -0.0018356692 0.0017626416 -0.0019578328 -0.00097523746 -0.0016169858 0.0020841472 -0.0005545601 0.0015437119 -0.0019522273 -0.00040756376 -0.0007506955 -0.0012821454 -0.00014563766 -0.0022116997 0.00046891067 0.0008970902 -0.0024133185 -0.0014313647 -0.0015439757 0.0024818336 -0.0013608575 -0.0019150088 -0.0022652224 0.00043204078 -0.0008927238 0.0015211217 -0.0006899247 0.0020037037 -0.0010630112 -0.0015579065 -0.0018903383 0.002331316 0.00015055714 -0.0016622855 -0.0018333682 -0.00052713277 -0.00024599442 -0.000120076584 0.0021294234 0.0021521156 0.002355734 -0.0019390687 0.0015328038
abstract 0.00047657033 0.0006064442 -0.0024899947 -0.002474116 0.0009685459 0.0007471228 -0.0023557527 -0.00032477616 0.00080589997 9.95677e-06 0.0012983799 -0.001432816 0.0010586071 0.0016773394 -1.4561927e-05 0.0014795177 -0.00063480437 -0.0016467726 -0.002033241 -0.00043271156 0.00012162537 0.00216024 0.00062145386 0.00093464693 0.0016937847 0.0015447931 -0.001738514 0.0020893035 0.0019296403 0.0014464352 0.0015226058 0.0010390857 0.0016033826 0.0019643595 0.0023850943 7.865555e-05 -0.0018271303 0.00031639333 0.0016731666 -0.0024895275 0.0011845657 -0.0020110484 -0.0008153042 -0.00042391894 0.0021692775 0.0021298458 -0.0024133616 -0.00051016454 -0.0020503437 0.00047424436 -0.002309922 0.00011563697 -0.00095448457 -0.00030551176 -0.0018138578 -0.0012812334 -0.0018730315 -0.00084760424 0.0024903403 -0.0001881381 -0.0014790765 -0.001152422 0.0020169178 -0.0018837001 0.00042675762 -0.0018119996 -0.0013060775 0.001000362 0.0014663949 -0.001880765 0.0019376446 -0.00053345854 -0.0005389673 0.0021958542 0.001966618 0.00022580381 0.0001646895 -0.0023050073 -0.0007074609 1.9154046e-05 -0.0024328032 0.0017591012 -0.002194891 0.0022414806 0.0015671337 0.0011427479 0.0023059268 -0.0015562761 0.0008185669 0.0015045442 0.0005308825 0.000445202 -0.0005946263 -0.0019015431 -0.00028737984 0.00037251646 -0.00064276275 -0.00059761165 0.0009759222 -8.118455e-05 -0.00037195627 -0.002154955 0.0021172934 0.0013300749 0.0023670248 0.0022416664 -0.00093579234 -0.0023156984 0.0021135444 0.00073662004 0.0010271422 0.00058591506 -0.0017911876 4.6901405e-05 -0.0019995223 0.0011455768 -0.00020042085 -0.00081645907 0.0016479474 0.0015620906 -0.0006077414 -0.0012940213 0.0014615506 -0.00030733552 -0.0007915648 -0.00067337835 -9.348011e-05 0.0023128819 0.000321368 -0.0011071836 -0.002029084 -0.00081902975 -0.0018588873 0.0007558423 0.0005473278 0.0007068396 -0.001981699 -0.00048614014 4.2607076e-05 0.0022422397 -0.0016667327 -0.0024633438 -0.0011172392 -0.0013195607 -0.0019747587 -0.000924358 0.00213137 0.001593736 -0.0010041648 0.000116713345 -0.002438981 -5.3544994e-05 -0.0018479606 -0.00060320436 0.0016470794 -0.0008642697 -0.0020322131 3.1158095e-05 -0.0010651645 -0.0011798644 0.0012099785 0.00014519598 -0.00011959323 0.0007289646 -0.0019204286 0.0014074366 0.0023824074 0.00044317124 -0.0017005431 0.00051853503 -0.0019498795 -0.00036675134 -0.0024939065 -2.5439076e-06 0.00075261854 0.0023973896 0.000901378 -0.0024551307 0.0014493745 0.00028613233 -0.00016542408 -0.00017470238 -0.0021017292 0.0015324075 0.0009240832 -0.0004564044 -0.00079390965 0.00116316 -0.001288718 0.0013454948 0.00020167045 -0.0020282068 0.0020513036 0.0009803872 0.0007368128 0.0012661191 -0.00041975174 0.00026705116 -0.0017575994 -0.00044139568
called 0.00036359672 0.0016689999 0.00078770635 0.0021163868 0.002169781 -0.0012264925 -0.00048386562 0.0019351998 -0.0018458529 0.0016983426 0.00095915305 4.266342e-05 0.002436554 -0.0018821978 -0.0015343934 0.0021903939 -0.0014955389 0.0014931667 0.0006782885 0.0017534778 0.0006371015 0.00010861317 0.0016980954 -0.0011212608 0.002185741 0.002102024 -0.0009774872 -0.0010413161 -0.0009379565 0.0008873369 0.00021239836 0.0015230463 -0.001695269 -9.693741e-05 -0.0018457868 -0.00023071119 0.0012634259 0.0024068882 -0.0010287311 0.0012485681 0.0003579927 -0.002154042 -0.00033820537 0.0006352032 0.0016660937 0.0020242757 -0.0017666251 -0.00058329676 0.0013585829 -0.0011684713 -0.0007907691 0.00048785727 -0.0018203363 -0.001787286 -0.0018744194 -0.0014339957 -0.0005832559 -0.00058871054 0.0010563256 -0.0012148162 -0.00080309424 -0.0015065437 -0.0017612701 -0.00048781582 0.0022729603 0.0011641618 -3.2462412e-05 0.0023370823 0.00018635252 0.0016613281 0.0017832709 -0.0022568638 0.0018141675 -0.0024985566 -3.8004247e-05 -0.0018898707 0.0019786367 -0.00014531193 -0.0024316427 -0.0021026218 0.0024740035 0.00026293006 -0.0008252087 0.0009270469 8.4504485e-05 -0.00062464597 0.0011619423 0.0009878257 0.0021734922 0.0016255872 -0.0014318287 -0.0008629429 0.0012776356 -0.0017687576 0.0013676595 0.0020535016 0.00086717354 0.0008556 -0.0023133876 0.0024190964 0.0003532716 -0.0019078588 0.0004222854 0.0019375184 1.3068318e-05 0.0024558245 0.00086052576 -0.0022376876 -0.001113525 -0.0007817885 -0.0010923299 -0.0009786882 -0.0013980588 0.001531323 -0.0016397675 0.0014658044 0.0013832366 -0.001149914 0.0007599925 -0.0012812722 -0.0012616595 0.0003883124 0.0016162293 0.00032744533 -0.0016482177 -0.0013812899 0.001299761 0.001464677 -4.0544663e-05 0.0010548097 0.00013295142 -0.000759584 0.00086529367 0.0011639309 -0.00088216155 -0.00013969443 -0.0007830018 0.0020628432 0.001008404 -0.0003449216 -0.0016823527 -0.00055121654 -6.632926e-05 0.0022204285 0.0016503553 0.0004632217 0.0005874103 0.002475263 0.0021692617 -0.0021260555 -0.0012690797 0.0024511176 0.0020689429 0.0012294564 0.0014118082 0.0017370521 -0.0022316885 0.00073025166 -0.0010901493 -0.0012544923 0.00082995393 0.0009024348 0.0008382746 -0.002180016 0.0007050908 0.0012148574 -0.0009480879 0.002118736 0.0023362776 0.0006675762 0.002356065 -0.0004014573 -0.000509243 -0.00029742322 -0.0009377238 -0.00092362135 0.0021803863 0.0005852168 -0.00074146746 0.00024867035 0.00062206364 0.00032090326 0.0017600036 0.0010850965 -0.0007723713 0.0011609173 0.0015791808 0.001049624 0.0019727624 -0.001654852 0.0016833097 0.0018234183 -0.0008514428 -0.0016798729 -0.0017221749 -0.00014504069 -0.0022634685 -0.00091502094 0.0022500432 0.0002930283
We -0.0023388716 -0.0010099384 -0.0021082603 0.00011403975 -0.002386554 0.001206873 -0.0011520067 0.00052561844 0.00045905728 -1.1113472e-05 -0.0007754734 -0.0008977044 0.001367822 0.001582494 0.0013318735 -0.002066871 0.000625005 -0.0019171454 0.002186316 0.0005147562 -0.00018403865 0.002446488 0.0013853742 -0.0004379421 0.0006647366 0.0012735925 -0.0017820862 9.859214e-06 0.0024573947 -0.0014476224 -0.0010710265 -0.00208703 0.0006252881 0.0016581826 0.00045368006 -0.0016155516 -0.0021805938 -0.0011003339 0.00069186 -0.00196013 -9.372481e-05 -0.0014383125 0.0003970198 0.0020841593 0.00044011953 -0.0021993746 0.00092646293 -0.0023812281 0.0011421333 -0.0019748784 -0.001795013 0.0010840266 4.0065963e-05 0.0017407225 -0.0012738768 -0.0007032666 0.0017382447 -0.00023696362 -0.0011364123 -0.000598304 -0.0012431869 -0.0020082383 -0.0011099541 0.0010184296 -0.00017786026 -0.0010111216 0.0016144658 3.4926925e-05 -0.0011253273 -0.00079784275 0.0008983577 0.0015507196 -0.0010214511 -0.0014626267 0.0014588293 0.0014569554 -0.0004768935 -0.00062225224 0.00057247095 0.0010145821 0.0007686182 -0.0006705299 -0.0023077312 -0.00017922348 0.0017990544 -0.0018329701 0.00037743663 -0.00077737356 0.0008058571 -0.0015425849 -6.065704e-05 -0.0015033501 0.0022298428 -0.002462163 -0.00085355225 0.0006456997 0.0008666094 -0.0007307234 -0.00061699364 -0.0015722767 -0.0016079589 -0.00031059352 -0.00018170709 0.0018715565 -0.0012702486 -0.0014105901 0.0019890126 0.0013083848 -0.00080338144 0.0020531262 0.0019392227 -0.0021406645 -0.00079985114 -0.0012298643 0.0004603914 0.001976184 0.0006423625 -0.0014881736 0.0008809441 -0.0018296 0.00082777115 0.001528793 0.00024847686 -0.00053007086 -0.0011046344 -0.001157287 -0.000692631 -0.00068151916 -0.0010109234 0.0018365849 -0.0009082925 -0.001740922 -0.0009188965 -0.0010421542 -0.0009855533 0.00017255964 -0.0014914563 -0.0024188505 -0.0012680584 0.0019913386 0.0022564926 0.0012785434 0.0010611361 0.00088472175 -0.00063897343 1.4198944e-05 -0.0003781945 0.00063650124 -0.00058616337 -0.0013570908 0.0001183704 0.000837517 -0.0014217809 -0.0011652684 -0.001682499 0.0002487055 -0.0005048993 -0.001511706 -0.0019314658 0.0017916863 -0.0003524511 0.00024357531 0.0017873566 0.0015312047 0.00042039575 -0.0021631606 0.00074831094 0.00055335346 -0.0020152521 0.0021299203 -0.0008033264 0.00043127895 0.0018586391 -0.0017128554 0.00096025364 -0.0009450164 0.0021384624 0.0013771614 -0.0016598075 -0.00025891396 -0.0023164388 0.0017409902 0.0014922256 -0.0024701436 0.0017157728 0.0017480874 -0.002317706 0.0011854353 -0.0002732221 -0.0018589722 0.002364797 0.00046784012 -0.0012226113 -0.0003739649 0.0006762189 -0.0019512429 -0.0005321584 -0.0004437042 -2.864562e-05 0.0005686425
about -0.0022873615 -0.0013208573 -0.00030979817 0.00090539106 0.0006754759 -0.0016500931 0.0019416916 -0.001583802 -0.0016874071 0.001999753 -0.0011276003 -0.00094231847 -0.0015462199 -0.0009254416 0.00047563133 -0.00079262315 -0.0013549643 0.0014066533 0.0011195296 0.0015612366 0.0010916137 0.0024930448 0.0015442716 -0.0015411878 0.0012954215 0.001399036 0.00071804994 -0.00092332624 -0.0024064737 -0.001963215 0.0014079129 0.00010310626 0.0015595597 -0.002493872 -0.00073137763 -0.00030464074 -0.001500537 0.001729243 0.0013106829 0.0013714922 0.000459505 0.00066703884 -0.00081582845 -0.0022482807 0.00244463 -0.0009346184 0.0016817669 0.0019133068 -0.00025104638 0.00054053636 5.1849987e-05 0.00024409941 0.0010392391 4.854519e-05 0.0024411469 0.00044833147 -0.0011232996 0.002282484 0.001834407 0.00045080832 0.0009840794 0.000818094 -0.002258945 -0.0009861925 0.0012478172 -0.002069651 -0.0009412882 -0.00041218614 -0.0018900232 0.0023231632 -0.00021222048 0.0009640148 -0.0013101819 -0.0010417186 -0.0006173175 -0.00022790674 0.00034752837 -0.00049536256 -0.001346165 0.0007560458 -0.00022648997 0.002264175 0.0020792512 -0.0018783069 -0.001009159 0.0018141414 -0.001192629 0.00011491845 0.002177691 -0.0006874752 0.0003008016 0.001984634 -0.001472873 -0.002209459 -0.0008183605 0.00095738354 -0.0016036662 0.0010500725 -0.0007654977 -0.0017040714 -0.0017002921 0.0012963172 -0.00035004248 -0.0013760579 0.0013119522 0.0024463073 0.0016732565 0.001580934 0.00088913343 0.00025469367 -0.00010479544 2.361834e-06 -0.0017155858 -0.00015191501 0.0017885761 -0.0023538088 -0.00084338454 0.002160279 0.00016917381 -0.00023511797 -0.0016729857 -0.0015475026 0.0004869278 0.0007794129 -0.0018895837 0.000514457 0.00110096 -0.00074145256 -0.0021412543 -0.0012884652 -0.0020300022 -0.00047830562 0.00035146065 -0.0021148245 0.002196943 0.0017650421 0.0024015228 -0.0017928609 -0.0012352326 0.0011125854 0.00048282393 -0.0013171876 -0.0015907085 -0.00075082004 0.0021055453 -0.0008490124 0.0001338122 -0.0017657815 -0.0018492723 -0.0009606844 0.0005192817 0.0011912861 0.0020800112 -0.002172914 -0.00032924674 -0.00027042767 0.0012744674 -0.001392726 -0.00041475403 0.001458535 -0.0002156815 0.0019945716 0.0021110503 0.002390258 0.0021122107 -0.00083248527 -0.0021774182 0.00024180417 -8.623698e-05 0.002276644 0.0009564643 -0.0004710257 -0.00026970264 -0.0004109377 0.0022317544 0.0018075835 0.0019322736 -0.00076817244 -0.0012926545 0.00046407362 0.000317747 0.0018334044 0.0008739638 0.00037066033 0.0016865642 0.0013942837 0.0015721889 -0.00064630655 0.00052514183 -0.00022501429 0.0010022533 -0.0011941945 -0.0010763323 -0.0020910357 -0.0013793033 -0.0011389899 0.000113175716 0.00011802232 0.00035922346 0.0009848704
study -0.0023822861 0.0014646281 0.0013763674 -0.0005445946 -0.00059640466 -5.6238845e-05 -0.0023499154 0.00063337246 1.52087305e-05 0.0020533288 -0.00210224 -0.0018646803 0.001362229 0.0023217918 -0.0022567622 0.0021253312 0.0011037411 -0.0009224871 0.00029855943 -0.0009036922 -0.0020405683 -0.00081580074 -0.0012747064 0.00018759305 -0.0012293804 0.0012691317 0.00076207845 0.0010273084 0.0014460329 0.0021932693 0.000101507874 -0.0015613469 0.0023656185 0.00033381907 -0.0013676148 0.0016377554 0.00029624393 0.0005348283 0.0024682865 -0.0018962905 -0.0009783896 0.0006960565 -0.002458773 0.001209005 0.00093372725 -0.0024138116 0.0023585418 -4.636799e-05 -0.001395187 0.00020014355 0.001053598 -0.0023253346 0.0018141577 -0.00074124394 -0.00094089506 0.0023644753 0.0015503992 0.00038810167 0.0019419654 -0.0009776631 -0.0022762448 0.0017568334 -0.0022068121 -0.00040383078 -0.0013781291 -0.00038102712 -0.0013391706 -0.0024641955 0.00079667754 3.150222e-05 -0.0022789298 0.0009857356 0.0021232907 -0.0024347657 0.0013050633 -0.0005664793 -0.00041479943 0.00019538798 -0.0013383892 0.0018480704 0.0014462802 -0.002020528 0.00015109475 -0.0014741921 0.000772228 0.00071227946 -0.00059869676 0.0021113288 -7.383432e-05 -0.0014385849 0.0020201104 0.0018351944 -2.9010233e-05 -0.0011818906 -0.00018811203 -0.0024701527 -0.0016287589 0.0014130534 -0.0019758097 -0.0010257065 0.0022477708 -0.00011287653 0.0017884951 -0.0003460669 -0.0020567202 -0.0010780945 -0.0020670788 -0.0005324434 0.0019423519 -0.0012952855 0.0017610136 8.986355e-05 0.00037929835 -0.00047536613 -0.00243146 0.002023289 8.134567e-05 -0.0005911848 -0.0006391546 0.000873188 0.0011011183 -0.0006256348 0.00096464204 0.00033760373 0.0013970244 -0.00017405627 -9.6228905e-05 0.00057546585 0.0013384221 -0.0008838972 0.0002751085 -0.0020178445 -0.00035404926 0.00014469493 0.0021796324 0.0019153683 -0.001269865 -0.0021181165 -0.0024919577 0.002498289 -0.0011483907 0.0006745632 -0.00012129103 0.0011829056 -0.0017157707 0.0010198324 0.0009728202 -0.001600292 0.0013925829 -0.0018382143 0.0012343079 -0.001972819 0.00097399205 -0.0016811313 0.0021839407 0.0004456567 -0.0015459012 0.00069086696 -0.00069449726 -0.00036616507 0.00072971755 0.0015036254 0.0018145 -0.0024969156 -0.0024980076 -0.0023643973 -0.0016535216 0.00031917938 -0.0012796082 -8.241506e-05 -0.00025405502 0.00023939693 -0.00028874702 0.00066755177 -0.000120065175 -0.0016202327 0.0011195373 0.0020942367 -0.002478475 0.00014509051 -0.0015021929 0.002251084 0.0021168105 0.000532703 -0.0015910144 -0.001936368 0.0019843895 -0.0019886778 0.0023440742 0.00070028775 8.5262116e-05 0.0021102321 -0.00041987235 0.0021057944 -0.00096117996 -0.00079341594 -0.0001333796 -0.00029674242 0.0018222583 0.0006990803
idea -0.0021134086 -0.001494129 -0.0018286264 0.00055478024 -0.0021355834 -0.0023065181 0.0014115614 0.0017472026 -0.0010013082 0.00053913053 0.0011594484 -0.0012808996 -0.0006574914 0.0019225082 0.002047286 0.00086755445 0.001808221 0.0001515469 -0.0014181348 -0.0015706283 0.0020564948 0.0015419349 0.0020759264 -0.00035829307 -0.00074554386 -0.0019594154 0.0008942357 -0.00040021725 -0.0017474305 -0.0022370657 -0.0014037939 -0.002370539 -0.001665321 -0.001279638 0.00021761516 0.0019071437 -0.002243879 0.00066745793 -0.0023520929 -0.0017965176 -0.0009060976 0.001800315 -0.0020161218 -0.0018817377 0.0007913308 0.0022971127 -0.00014856341 -0.002272013 -0.0006906211 -0.0009064963 -0.0017647111 -0.0005649418 -0.00068205886 -0.0021381688 0.0004790076 0.0016585849 0.0008866887 -0.0012866914 0.0018719914 0.0024120244 -0.0019135501 0.001643802 -0.00028291997 0.001404769 -0.0024346656 0.0008052811 -0.00094852026 0.0008863306 4.6166824e-05 0.0024417276 0.00094173546 0.0019595777 0.0018721092 -0.0011967566 0.002264243 -0.0021775889 0.002318547 -0.0016869649 -0.0012303891 0.0001296252 -0.0014193311 0.0013032751 -0.0009796467 0.0024940055 0.0011855324 -0.0007514134 -0.00064877514 0.0005666937 -0.0005190638 -0.0004917318 -0.0008560198 -0.0013129734 0.0024255966 -0.0013906413 -0.0021026433 0.00044482457 -0.001115031 0.0016064565 -0.00010288623 -0.0015356638 -0.0018402371 -0.0018794512 -0.0023303307 -0.00062481733 -0.0021445453 -0.0022596265 0.00057439273 0.0014193407 -0.001973944 0.0012346276 -0.0014310204 9.598234e-05 0.0006339522 -0.001390855 0.00028669555 -0.0008311301 0.0021872944 -0.0021511908 0.0001327896 -0.0018495559 -0.0007130465 -0.00097167166 -0.0014052244 0.0016039484 0.0024514557 8.13487e-05 -0.00080560264 0.0012220507 0.0020254655 0.0019783424 -0.0005655807 -0.00014309515 0.0017335406 0.001960015 -0.0021272996 -0.0008121603 -0.0018711977 0.00029078755 0.00017076172 -0.0024427432 0.00020444323 0.0021452243 0.0014570281 0.0017844546 0.0009093315 0.0010117295 -0.0013025438 0.0018942454 -0.000536961 0.0024789777 -0.0004465729 0.0010506681 0.0013981615 -0.0003508397 -0.00019491673 0.00025003543 -0.00080024987 0.0018091719 -0.00030323374 -0.0022259708 0.00086477865 -0.000576772 -0.0011652336 -0.00069190713 -0.0010390582 0.0002501458 -0.0020861812 0.00043904595 0.0017634802 0.0020197593 -0.00055848155 -0.0008471599 -0.0017738205 -0.0012338164 -0.0018095156 -0.0013438433 -0.0013741368 0.0011950245 7.149787e-05 -0.0009851137 0.0012376388 2.5878893e-05 0.0013386658 -0.0013354411 0.0019824957 0.0017973403 -0.0013480783 0.0002392875 0.0018409602 -0.0010528391 -0.0011440581 0.0018527769 -0.0010160741 0.0005916413 -0.00041762134 0.0024920674 -0.0007835835 0.00065709837 -0.002311781 -0.00039093592
computational 0.0008465657 0.0018821629 0.00070629455 -0.0007027206 -0.0024809584 0.0021439726 -0.001387816 0.0012147403 -0.00029955176 0.00077827694 0.0010260832 -0.00044487067 -0.002063101 0.0010297797 6.252923e-05 0.0023110854 0.00052742637 0.0009427923 0.0017445488 -0.00047026784 -0.0024759 -0.0018990422 0.0017806133 -0.0013665792 0.0021965425 -0.0014136514 -0.0016790056 0.0016244221 0.00036400324 0.0017466964 -0.0018549296 0.0021474743 0.00033575273 0.0013173567 0.00060397945 0.0012487257 -0.0018743451 -0.00042766542 -0.0011699426 0.001664781 0.0001628166 0.00022727158 -0.0012868041 -0.0015251389 -0.00020067394 0.0018900954 -0.0015214267 -0.0017213027 0.0016686595 0.0005142826 0.0011231578 0.0011897241 -0.00072391774 0.0006486487 0.0018722168 0.0017622593 0.0015838179 -3.2152282e-05 -0.0003474513 0.0010474641 -0.0024877363 6.3472195e-05 0.0011002638 -0.0012804624 0.00012817979 0.0022061877 0.00026297057 0.0004254242 0.0013996745 -0.00021848339 0.0016124612 0.0006511831 -0.0018974266 -0.0019511105 -0.0003613762 -0.0014901536 0.0015434753 -0.0004875185 0.0021520173 0.0017550676 0.0010129318 0.0011057619 0.0018137246 -0.0024122247 -0.001960297 -0.00088643434 -0.0012358645 0.00024325331 0.0013561884 -0.0016328131 -0.001760497 -0.0014594775 -0.001770834 0.0005196489 -0.0009991949 -0.0024247244 0.0011593963 0.002036211 -0.0008732644 -0.0024682712 6.190222e-05 0.000745778 -1.5774975e-05 0.00010918314 -0.001876185 0.00047498383 -0.0007726174 0.0021777116 0.0014515929 -0.00018012733 -0.00014625816 0.0014386931 -0.0018626146 0.00075576385 -0.0017811274 0.00034460658 -0.00052123284 -0.001351802 -0.002189015 0.0010169791 0.0008048264 -0.00053684297 0.0020637512 0.0019457177 -0.00031689066 0.0010764557 0.0012851697 -0.0003279841 -0.0011198547 -0.0023464158 -0.00094605866 0.00019956357 0.0020026197 0.002419245 0.00093788374 0.0015799105 -0.0015691351 0.0008213008 -0.0014173534 0.0021440638 -0.00017995946 -0.0017955569 0.0009016269 0.0015548351 0.0018088687 0.001908544 -0.0009020525 -0.0013340085 -0.0020207884 -0.0015089568 0.0021930276 -0.001427452 0.0015073866 -0.0011397445 -0.0012785294 0.0013211085 -0.0015954899 0.0015058243 0.0002561002 -0.0020334106 -0.0003351646 0.001957864 0.0016248883 -0.0015834561 0.0020087892 -0.0002915177 0.00047967513 -0.00032773847 0.0002176622 0.0019733948 -0.0010746043 -0.001413804 0.0005079615 0.0011686888 0.0017813896 0.001603621 0.00096049136 -0.001246443 -0.00031360146 0.0018219552 -0.00033691712 -0.0016107762 0.0016559828 -0.0009643495 -0.0017572579 0.00088501116 0.0024075815 -0.0022024277 0.0006566432 -0.0010094931 -0.00041983463 0.00022262149 -0.0015513754 0.0006172147 -0.001732715 0.0015358692 -0.00038904767 -0.0013727689 -0.00029303343 0.000658141
process. -0.002261116 -0.0018089646 0.0020976015 0.0001220312 -0.002460845 -0.0024195092 -0.0005375806 0.00022379775 0.0012740821 -0.0002846599 0.0009781283 0.0015085186 -0.0009566664 0.0024823383 0.000860824 -0.0016606483 0.001337939 -0.00018115761 -0.0003187128 -0.00037772418 -0.0011595952 -0.00048318575 0.0009621219 0.0005171404 0.0010154017 -0.0017731318 0.0013461947 -0.00017792499 0.0020559244 -0.0022648 0.00096537475 -6.832415e-05 -0.0010107907 -0.0021749628 -0.000702351 -0.00024238368 -0.0010872948 0.00094825774 -0.0009427783 -0.0023739294 -0.00036807498 -0.000666213 0.002373544 0.0008086001 0.0012856531 0.0014184737 0.0005242028 0.00018435577 -0.002201122 -7.78283e-06 2.3264904e-05 -0.0004148737 -0.0021891873 0.0013667694 0.0020128167 -0.0004902333 0.0013272613 0.0010890292 -6.198697e-05 0.002078435 -0.0013277947 -0.0013271287 -0.00042364746 0.0016802736 -0.0012044731 -0.0017281026 0.0024312772 0.0007542544 -0.0017143547 0.00017559552 0.00045844377 0.0006393932 0.0011772139 -0.000615946 -0.00059029285 0.0022226367 0.00014301692 -0.00027293712 -0.0007057929 0.0019153934 -0.0001397198 0.0022642915 -0.00021684589 0.0015643514 -0.001410022 0.0013146063 -0.00019141356 -0.0019186699 -0.000936256 0.0017301566 -0.0012925246 -0.00047201104 0.00047193887 0.002183435 0.001732036 -0.0011880805 -0.0017731683 0.001283892 0.002274612 -0.0008411312 0.00066063344 0.002090047 -0.00237756 0.0006795097 0.0010852828 0.0013159397 -0.00087058335 -0.0021730252 0.0013598644 -0.0021927422 -0.001273267 -0.0002733718 -0.002066718 -0.0004694641 0.0023846105 -0.00094804016 -0.0014137775 -0.002106463 -0.0010442871 0.001272758 -0.0017564734 0.00150551 0.0015516053 0.0003882579 -0.0013591206 0.00023814291 -0.00068292883 0.00018182071 0.00047657453 -0.002332069 0.0007097956 -0.0003755691 0.00076101604 -0.0016668644 -0.0021461614 -0.00088311103 0.0013089979 0.00019195955 -0.0023807317 -0.0024983226 0.00019197492 -0.0004276717 -0.0023197627 -0.0010420686 0.00096367556 0.00065532234 4.3674372e-05 -0.0008532902 0.0013945454 0.0012196826 -0.0024412924 0.0016600317 -0.0021019953 0.00051130494 0.00041185715 -0.0021091478 0.002443478 0.0018433649 0.00046605268 -0.0021328856 0.0017603193 -0.0013624579 0.0010135612 -0.002489869 0.0009964057 -0.002265166 0.0021957872 -0.0024288648 0.0005935705 -0.0022640037 -0.0011643731 0.00071119214 0.0012710341 9.1379974e-05 -0.0022920698 0.00108971 0.0009850124 0.0015575532 0.0013875547 0.0014056382 -0.002367343 0.0006798769 -5.6818128e-05 -0.0016792956 0.0005962874 0.0019976432 0.0008479494 0.0021109036 -0.0014499715 -6.856909e-05 -0.00055942626 0.0013964011 0.00051830825 -0.0012578147 0.00036411593 -0.0010200107 -0.002432433 -0.0017800585 -6.6326e-05 -0.0017673553
Computational 5.2331947e-05 0.00054390123 0.0024964036 0.0008486679 -0.0019354622 0.0014599985 0.00071449555 8.066185e-05 -0.0013064757 0.0017654579 -0.0022389942 0.0009224487 0.0020186524 -0.001516844 -0.0021421756 -0.0014906134 0.0019449331 0.0019371151 -0.000515688 0.0021944372 0.0015041167 -0.0016881207 -0.0020238932 0.0016282061 -0.0009399721 -6.079371e-05 0.0015286864 0.0022340277 0.001364141 -0.0021065979 0.002410519 0.00044412608 -0.0006327367 0.0010913082 -0.0014547243 0.0009661105 -0.0013142049 0.0008188379 -0.0013289597 -0.0016249868 -0.00026268978 -0.0018230798 -0.0017601034 0.0023950515 0.00023677805 -0.0015930468 0.0008998397 -0.00036960957 9.810389e-05 0.00044205273 -0.0024851765 0.0008962613 0.0019402234 -0.0018703487 -0.0016616824 0.0014184411 -0.0024376132 0.0023292908 -0.0021068882 -0.00012292317 -0.0005922138 -0.0013810998 0.0003004747 -0.0007496363 0.0022530672 -0.0012333334 -0.00040936284 -0.002005098 0.00086035184 0.00037051667 -0.00051462767 -0.0018402906 -0.0018319872 0.0006795679 0.002394889 0.0011276046 -0.0004355174 -0.00066946866 -0.0015532703 -0.00044588605 -0.0016590231 0.0016447026 0.00070708874 0.0014160597 0.0016397433 -0.0019523206 0.0016659461 -0.00070745463 0.0014996896 0.0022442825 0.002051617 0.001956562 -0.0010660014 0.0011287739 0.002389012 -0.0015228825 -0.0007685656 -1.4699297e-05 -0.0019519639 0.0022958885 0.0008651819 -0.0020808429 0.0022598053 -0.00016354024 0.0013919731 0.0024414067 -0.0016867137 0.0012065067 -0.0008517036 0.0010680226 -0.00064632716 -4.085689e-05 -0.0024899312 0.0008311707 -0.0006515292 0.0018082331 0.001856491 -0.0016316086 0.0003543042 -0.0015038567 -0.00092049653 0.0022528316 0.0007765265 0.0011216169 -0.0022870854 0.00068724924 -0.00011798227 0.0005205821 0.0021947012 -0.00029836665 0.0010840171 -0.0024715955 0.0009343254 -0.00074497703 0.0005013596 0.0015522623 0.0023629153 -0.00057313556 0.00010139262 0.0013156685 -0.0011678617 -0.0019668029 0.0016094549 0.0014051776 -0.001309973 0.0005550436 0.002418572 -0.001491715 -0.0019779368 0.00093348 -0.0011371189 -0.0013146907 0.0014207391 -0.001502018 0.002277004 -0.0015952899 0.00061885035 -0.0007743465 -0.0014693051 0.0019990434 -0.0019166103 -0.0014693838 0.0005854359 0.00045368169 -0.0011166682 0.0018400331 -0.0016764647 0.0016961307 -0.001741204 0.0012507015 0.00022379961 -0.00033320556 0.0011157307 0.0011246416 -0.002106474 4.475005e-06 -0.001188684 -0.0018478011 0.0023825187 -0.0010965159 -0.0006641998 0.00048805866 -0.0006050378 0.0013186829 -0.0024366232 -0.0023934918 0.0019048895 -0.0011964273 0.0013782317 0.0009433511 0.001147147 0.0012774339 -0.0023773091 0.00057065417 -0.0005194219 0.0014535054 -0.000988858 -0.00022758567 0.00013246038 -0.0009571832
beings 0.0003091402 0.00044858363 0.001074767 -0.0010394605 0.0014328868 0.000714171 0.0021292004 -0.0022882228 -0.00047303713 0.0009190014 -0.002082782 0.0019609304 -0.000847353 -0.0006935075 -0.00042830012 -0.0002850839 0.0012436614 0.0020921137 -0.0022808698 0.002415217 0.001971065 -0.0023960264 0.00064825197 0.0015767817 0.00095476233 -0.0010717147 -0.0007744053 0.00046790182 -0.0007653334 -0.0010525748 -0.0024058293 -0.0006879213 -0.0019392818 -0.00048802025 -0.0015936038 -0.0009747511 -0.00088870013 0.0019071717 0.0024212324 -6.043515e-05 0.0008538037 0.002393017 0.0023921607 -0.002161938 -0.0023626606 -0.0016529264 -0.0023363947 -0.0024344788 0.0004347514 -0.00069082016 -0.0021876704 0.0012189168 -0.0005035922 -0.00048306398 -0.00020998972 -0.00051783235 -0.00049090036 -0.0024738528 0.00024482678 0.0019260291 0.0023710942 -0.0019661225 -0.0024196862 -0.0008024436 0.00021032756 3.73777e-05 -0.00096108706 0.0011229413 -0.00059359404 -0.0011713018 0.00095978496 0.0018130527 0.0022474374 0.00059680943 -0.00048752944 0.0009806643 0.00234704 0.0010648221 -0.001921508 -0.0011909937 8.0783386e-05 0.0011778686 0.0018619299 0.0022618952 -0.0017088595 0.0009657829 -0.0024625615 0.00077980733 0.00077159377 0.0019258354 0.0020167767 -0.0013048548 0.000669722 -0.0004416129 0.002183483 0.0017809267 0.00040191668 0.002390616 0.0015831119 -0.0014240074 0.001553487 0.001577266 0.0020924332 0.0014555049 0.0023189355 -0.00056835625 -0.0003938889 -0.0016120772 0.0013048265 -0.0011821538 0.00027493061 -0.002235833 0.0014299131 0.0013739306 -0.002198107 0.0006161246 0.0021968493 0.0014215042 0.00080082053 -8.3525665e-05 -0.0008362398 0.00080017233 -0.0013062775 0.0008137063 -0.0020787353 0.002418256 0.0021873945 -2.3167813e-05 0.0007264707 0.0016501425 0.0012773012 -0.0020378153 -0.00053367484 0.00046450226 -0.0012916365 -0.0019708867 0.00039384025 0.0016521658 -0.0016531497 -0.0012937643 0.0018089856 0.00016310718 0.00042589032 0.001733718 0.0023989202 -0.0015079769 6.426149e-05 0.0014202227 -0.0007715472 0.00014608214 0.0013695427 0.0021345532 0.0021047303 0.0014413213 -0.002378396 -0.0021441386 -0.0016955441 -0.0006897622 -0.0005972418 -0.00062540534 -8.386886e-05 -0.00054316106 0.0022504795 -0.001013155 0.0011322012 -0.0012226122 -0.00029752427 0.0023842868 0.00062482385 -0.0015103202 -0.00025364617 0.00037227687 0.0008316771 -0.0012800667 -0.0010995683 0.0013018132 -0.0016085827 -0.0010766849 -0.0011132917 8.140365e-05 -0.0015817531 -0.001717529 0.0015616114 0.00032059336 0.0005279344 0.0017074184 0.0013485979 0.00052946154 0.0008242193 0.0021614442 -0.001103295 -0.001237871 -0.001021223 0.00012640143 0.0022838018 0.00077865366 0.0012883267 -0.00010200287 -0.00080254884 -0.001384618
that -0.00026108208 -0.0008160705 0.0018797778 0.0015754001 -0.00026275194 0.0004744467 0.0012195143 0.0020338302 0.0007266847 -0.0010253885 0.002009512 -0.0007100812 0.00094161415 -0.0014746644 -0.0023684502 0.0016499329 -0.0013255065 0.00038103992 -0.0024236357 -0.00076423434 0.0023689237 -0.0016266671 0.0016142083 -0.00083512394 0.00035853754 0.00210119 0.00092418585 -0.00011897553 -0.0007134753 0.0014626416 -0.0006684571 -0.00033728592 -0.001896871 -7.431675e-05 0.000175172 0.001007976 0.00046331156 0.002150801 -0.0012980407 -0.0010378751 0.0024583829 0.00047531095 0.0008359072 -0.0015385285 -0.0015871164 -0.0012228495 -0.0023513457 -0.0008962753 -0.0018601911 -0.00075914885 -0.0015702477 -0.0019215369 0.0010684624 -0.001502 -0.0017975345 0.0010531528 -0.00070290687 0.0016932385 0.0008406611 -0.0010105681 0.0012203921 -0.0010096832 -0.0013295468 -0.0013438729 -0.0017511472 0.0018140152 0.0016119443 -0.00013327668 -0.0011196104 -0.00075558864 0.0021453057 -0.00046870857 0.002319757 0.0020956374 -0.0012974686 -0.0015927246 0.0011546549 0.0018107579 -0.0006026005 -0.00052356045 -0.0017633759 0.0016667829 -0.0016249209 0.000913969 0.000881213 -0.0017095071 0.0016733147 -0.0014096143 0.002170126 0.0010517561 0.0024973191 0.0020644274 0.00023772009 0.002065158 0.0018158667 -0.0020486084 -0.00055724615 0.0015708017 0.0014324631 0.001018587 0.002157372 0.0010513209 -0.001584003 0.00165076 0.00022303709 -0.0007982644 -0.0024453423 -0.001092681 -0.0012688658 0.00091797323 0.0002909773 0.0022819783 -0.0006667047 -0.0016531595 -0.00063173857 0.0008530691 0.0020450223 0.0013080135 -9.15979e-06 -0.0006853938 -0.00012381072 -0.0018029446 -0.00085476425 -0.002134058 -0.0018394687 0.0015281201 0.0024522552 0.00054291403 -0.0018624014 0.00021213759 -0.0004678229 0.0011867809 -0.0001429671 -0.002030912 0.001132031 0.001360374 -0.0012408587 -0.0021860022 0.00198336 -0.002276965 0.00083671766 -0.001515353 -0.0024094793 0.0013584748 0.0022789994 0.0018097856 -0.0024844697 0.00075043435 -9.1526425e-05 0.00069719646 -0.0024837258 -0.0004342792 0.0018020235 -0.0005284124 -0.00034350483 -0.0021039671 -0.00017462601 0.0014751991 -0.00086300133 -0.0020370344 0.00062015024 -0.0010493887 -0.0017952155 -0.0024864718 -0.0020968392 -0.00046900264 0.00011286116 -0.00050891703 -0.00049060164 -0.0024500492 0.0017110519 0.002497347 0.0001776996 0.0018812479 -0.00079570827 -0.0017309054 -0.0001652434 -0.00092862966 -0.002039181 -0.002121597 -0.0018717321 0.001602611 0.002292254 -0.0012350228 -0.00016394025 -0.00035796384 -0.002387332 0.00152817 -0.0015360283 -0.0010268873 0.0006169239 0.00080653327 0.0011463868 -0.00059248565 0.0007982168 1.4561927e-05 -0.0004604056 -0.00011851732 0.0023306469 -0.00014282484
inhabit 0.0019844873 -0.0024844338 0.001783229 0.0014679185 -0.0013252613 -0.0008171877 0.0007199419 -0.001341131 -0.0018909308 0.0011948908 0.0010450112 0.0013224676 0.0009674183 0.0017667306 -0.0006836989 -0.0005080637 0.0019066618 -0.0004705158 -0.002345359 0.0013525048 0.002221832 0.001967785 -0.0014841037 -0.0013297453 -0.0021328724 0.001779444 0.0009976777 -0.0006280914 0.00093516684 -0.00187377 -0.0015803089 -0.001040836 -0.0010780173 -0.001492849 -7.3789386e-05 -0.0014584598 0.0018570884 -0.0022027742 -0.0013067671 -0.00094349915 -0.00081107195 -0.00069131376 -0.0021907932 -0.0006924671 0.0004675507 -0.000977208 -0.0015604987 -0.0016236671 -0.0018332473 -0.000993714 0.0013557463 0.0006769707 -0.0024657738 -0.00037975283 -0.0017516147 -0.0012500643 0.00236134 -0.0017525724 0.0010441113 0.002095784 -0.0010082208 0.0004866626 -0.00074965565 -0.0011820587 0.000852481 0.00080193975 -0.0020454284 9.1244e-05 0.001139306 0.0006316975 -0.00013341941 0.0005651291 -0.000682916 0.0021931934 0.000478548 -0.00211514 -0.002068824 -0.0015689537 0.0021469234 -0.0009376141 0.0018213121 0.0010718966 -0.0012512832 0.002295495 -0.0006161296 0.0021636887 -0.0005209306 0.0023252 -0.0003003343 -0.0015827038 0.0022539934 -2.7937815e-05 0.00014300225 0.0014168457 -0.0007356253 0.0012287765 0.00064314017 0.00011581043 -0.0011931395 0.0017797495 -0.0019077598 -0.00064191106 -0.0014548459 -0.0014234802 0.0018811757 0.00022575515 -0.00092935294 -0.0011986428 -0.0009429782 9.6215634e-05 -7.272372e-05 0.0021260455 0.0011787976 0.0021396424 -0.00029459596 0.0007244246 -0.0013188525 6.9777016e-06 -0.0017705816 0.00052685686 0.00039666472 -0.0021855321 -0.0020506594 -0.0010959879 -0.00233665 -0.0016846517 0.0020900136 0.0023702546 -0.0024206392 0.0015580296 0.0020258604 0.00067797024 -0.0022893855 0.00067238556 -8.622417e-06 -0.001591041 0.0016809311 -0.0014482402 -0.002043525 -0.0021023548 0.0005061347 -0.0019548447 -0.0010844267 0.0004118795 0.0011386434 -0.000406262 -0.0022526826 -0.000865879 0.0009825679 -0.002483578 -0.0018134033 0.0005569146 -0.00056400173 -0.0008510995 0.00026446301 -0.0024692141 -0.0008311904 -0.0011581584 0.0011860919 0.0019422672 -0.0019582137 -0.0009877434 -0.00081244856 0.0011384422 0.002450137 -0.00015981309 -0.0024900346 0.0023706658 0.0011862963 -0.00240393 -0.0024855833 0.0011087111 -0.0020777083 -0.0004538002 0.00054509705 -0.0015351754 -0.0020987198 -0.0013121947 -0.0010132173 -0.00085561094 -0.0019812142 -0.0017882889 0.0024171835 -2.8293114e-05 0.0010935487 0.0023554224 0.00032151304 0.0024380544 -0.0017842548 -0.0019565118 0.00015431666 0.0005504871 -0.0009316382 0.0018677101 -0.0015939814 0.0006112533 0.0022245138 0.00035479548 0.0010913981 0.001675724
computers. 0.0020445543 0.00016489392 -6.862916e-06 0.002338077 0.0022333018 0.0023004822 0.0003491526 -0.0012536496 0.000118541764 0.00026317593 0.0018432285 0.0013909554 -0.002332893 -3.597676e-05 -0.0013613793 -0.0006282821 -0.0015536639 8.630892e-05 0.0014100042 -0.0022046652 -0.0006952685 0.00029837736 0.0007106846 -0.0023335419 -0.0016206711 -0.0013291171 0.001031439 -0.0018888649 0.0013911291 0.00078016636 -0.0011503958 0.0022033933 0.0024122284 -0.0009050092 -0.001288453 0.0013205945 0.0006806224 -0.001921283 0.0018330254 -0.0011062449 0.001288261 -0.0007884782 -0.00047185994 -0.0013771397 0.002429598 0.002466774 0.0010102256 0.0023567355 0.001873102 -0.002227995 0.00053568115 6.286055e-05 -0.0021040423 0.00020794268 0.0016110209 0.0005999461 0.0006497514 -0.000814495 -0.0004479906 -0.0011856535 -0.0019929486 -0.00050208624 0.0021285592 2.350239e-05 -0.0022042408 0.0009529209 -0.0002985394 0.00035948493 -0.00029139547 0.0015303115 -0.00054696493 0.0021405662 0.00087610143 -0.0008488366 0.0020387652 -0.0023681906 -0.0015792951 0.00035371515 0.0015283925 -0.00230455 0.0012243197 -0.0011930555 -0.0007555556 0.0013831526 -0.0014640474 0.00037423638 0.00014927844 -0.0018801955 0.0005773555 -8.1188045e-06 0.00097072637 0.0007466485 0.0015799953 0.0014631758 0.0014146469 -0.0009720918 -0.002469875 0.00092327176 -0.0018971383 0.0014385991 0.0012615847 0.00150475 -0.0021129975 0.0018705954 -0.0005899876 0.0018521445 0.0007092031 -0.0010675337 -0.0013658433 -0.0007743895 -6.558886e-05 0.0024452521 0.0013494771 0.00027730176 -9.888876e-05 0.0023625433 -0.0010939571 -0.00056570314 9.707664e-05 0.0023757718 -0.0006363803 -0.0011023488 -0.0021503668 -0.0022727442 0.0009239814 -0.00067418755 -0.0006967175 -0.00036114012 -6.866339e-05 -0.0012422445 -0.00217112 0.0016102055 -5.80349e-05 -0.0024764712 0.0002889547 -0.0009217593 -0.0014364475 -0.0021940763 0.00073758 -0.0015021598 0.0014356854 -0.00014441973 -0.002332053 0.0009148482 -0.0024000634 0.002147472 -0.0021170175 0.0015330962 0.00022415724 -0.0011249286 0.0020867265 -0.002036458 0.002055849 -0.0021508168 0.0008244326 -0.002432519 0.0021254783 0.0020281277 0.0018713013 0.0018259753 0.0016315333 -1.930655e-05 -0.0014356404 -0.0010935357 -0.0013334841 0.0011965705 0.00096008717 -0.0024648155 0.00029454636 -0.00055426266 -0.0022571292 -0.0008926075 -0.0012297042 6.644195e-05 0.0016056723 -0.0006865603 0.00043763965 0.002452503 0.00045238086 -0.00057943433 -0.0011260307 0.00027980586 -5.6521967e-05 0.0015043039 -0.0021552064 0.002020096 -0.001277583 0.0011868298 -0.0014068913 -0.0018091472 -0.00216797 0.0020375182 0.00037583732 -0.0017918167 0.0021163998 0.0007207724 0.001975276 0.0007743549 -0.00057881896 -0.0005948165
As 0.0010183388 -0.0017955154 -1.4087884e-05 -0.0001490768 0.0014244332 -0.001637904 -0.0021435644 -0.00021991436 0.0008070108 0.0005593698 0.0005797609 -0.0019855262 -0.0015569099 0.00080952584 -0.0016505161 0.0018214835 -0.0005024362 -0.0021945827 0.0024251463 -0.00041121058 0.001625896 0.00010454771 -1.3399171e-05 0.0002396414 0.0017591156 0.00095808716 0.0008283744 -0.00203153 0.0016157115 -0.0022663823 0.001371647 -0.0018400231 0.0014585825 -0.001175382 0.00033892714 0.0023080814 -5.3980155e-05 0.0018205312 -0.0017244616 0.0010135788 0.0019094013 0.00045891432 -0.0005132302 0.0012215779 -0.002000096 0.0011790425 -0.0019145671 -0.0022377651 -0.0010166875 -0.0013449898 0.0022898354 -0.0017080655 0.0016614832 -0.0014395525 -0.0006984973 -0.0019625495 -0.0016523468 0.0014549135 -0.00017238827 0.00036818092 0.0011158509 -0.0015574857 -0.0014504557 4.008133e-05 -0.0012076717 -0.00144454 -0.0019331091 0.001150372 0.00070997025 -0.0010841042 0.0023859115 0.00026546675 0.0013816699 0.0011400904 -0.002239671 0.00087887165 0.0003129118 0.0014741314 0.00014533103 -0.0004252342 -0.0008117276 0.00067432737 -0.00071677926 0.0001186477 0.0008995554 -0.0018589204 0.0018212427 -0.0018765029 0.0013496997 -0.002491612 0.00066832895 -0.0010482839 -0.00032536988 -0.0022240046 0.0009844466 -0.0019532917 0.001806274 0.0014520423 -0.0010853213 0.0023398255 0.0004873902 0.0020440868 -0.0011426973 0.0002123909 0.0005000883 0.0017299606 0.0013839181 0.00032495917 0.0017591175 -0.0024009657 0.0011118415 -0.0007857734 0.002233685 -0.0014009472 -0.0014536884 0.0012415841 -0.0006039274 0.0016489304 -0.00072336406 0.0014328919 -0.0016383629 -0.00031088712 -2.670195e-05 0.0003213517 -0.00080547505 0.0013322716 -0.0017071202 0.0019934135 0.0022154036 -0.001889173 -0.0008265072 -0.0024794743 -0.00233669 0.0014137416 -0.0017216972 0.00065424596 -0.0016208913 -0.001974326 0.0018513082 -0.0011640164 0.002349563 0.0005486363 0.000553082 0.0012496307 0.0011145081 -0.00094758 0.001139459 0.00029817224 0.0014275098 0.0019458402 -0.0014492276 -0.0003618782 -0.000737477 0.0020495052 0.0013566168 -0.00018440816 -0.00055410806 0.002291955 0.0018261056 -0.00083523 -0.00047727395 -0.0018693492 -0.001716938 0.0014119227 0.0015781997 -0.0016319433 0.0017387131 2.8854702e-06 -0.00045952015 -0.00055394764 -0.0010584092 -0.0005494901 0.0017871796 0.002358792 0.0005211574 -0.0015512606 -0.0015123507 0.0008017535 -0.00013103569 -0.00021909038 0.001488429 -0.0017708787 -0.0008792409 -0.0014708015 0.0012111852 0.002142996 -0.00040334463 -0.0016380483 -0.0010275549 0.00024681003 0.0010993353 0.0016312976 -0.0008097482 0.0019600498 -0.00063780847 0.0004792905 0.0010648775 0.0021823184 -0.00057147385 0.0012362916
they -0.0018571403 0.0024612308 0.0022063805 9.046309e-05 -0.0010044401 -0.000834994 0.000990195 0.0015699184 0.0013934525 -0.0018656566 0.00061152247 -0.0017573213 -0.0004947025 0.0006861356 -0.0012769097 -0.0015483403 -0.001697973 -0.0004896913 -0.0009277201 0.00055160886 -0.0019937693 -4.9045775e-05 -0.0021983455 -0.0010986871 0.0019422802 0.0007241713 0.0019428823 -0.00075216 0.00048298948 -0.0019564023 -0.0001084113 0.00046810624 -0.0018647264 -0.0006744084 0.000608369 0.0014764005 0.0011364694 -0.0024620031 -0.0023736262 0.0008619523 -0.00045621418 -0.0020131292 -0.0022873478 -0.0018382289 -0.0017728405 0.0006586355 -0.00085917267 0.0020787702 0.002438732 0.0016025226 0.0008340145 -0.0014503627 -0.000552797 0.0007066289 0.0005790496 0.0019215588 0.0022306335 0.0012039107 0.00033219787 0.000743452 0.00088497763 -0.00014089397 -0.0004557236 6.8600755e-05 -0.002302902 -0.001863918 0.00044820458 2.9289164e-05 -0.0017200978 -0.0012662623 -0.000551832 -5.0820643e-05 -0.0001743245 -0.0023151413 -0.0009775355 0.002099818 0.0015016966 0.0015339111 0.0020016227 -0.002176188 0.0022667586 -0.0018275476 -0.0013022702 0.0020291451 0.0013069164 -0.0021562846 -0.001439099 -0.0018292695 0.0024936032 0.0001700418 -0.00041044177 -0.0011600592 0.0022204518 -0.0015242383 -0.00042357226 0.00089294463 -0.0017354407 -0.0007450214 -0.002366374 -0.0016545099 0.001513951 -0.0018842595 -0.00095453346 0.002396965 0.00032529747 -0.0019324501 -0.0020593558 -0.0008037373 -0.00052538 0.00025061308 -0.00093230966 -0.0019493583 -0.0019722297 -0.00070326834 0.0014912006 0.00090375054 0.0012449068 -0.0017629677 -0.0015700146 -0.0013238376 0.00095265405 0.00020517223 0.0006015226 -0.0019247582 -0.0018550676 -0.0013312038 -0.00079783145 0.00016620243 -0.0010217801 -0.00046450947 0.0017479025 -0.0013241019 -0.0011020156 -0.0021287638 -0.0022441873 0.0017166687 8.3234394e-05 0.0010741216 -0.0011732599 -0.0014559323 0.0024898318 0.0021304283 0.0016222186 -4.4699525e-05 -0.0023580985 -0.001212008 -0.0014941809 -0.00059188216 0.0014516786 2.9104995e-05 -0.0009514359 0.00025753863 -0.00089212565 0.0020729387 0.0020824745 -0.0012941986 0.0020396705 0.0003117465 -0.000812622 -0.0006432724 0.0016838484 -0.0022320128 0.0010275438 0.0015736516 -0.0018123975 0.0010185314 0.0019273618 0.0014252341 -0.0023471664 0.00042862887 0.0008781855 0.00018950365 0.0012019763 0.00090900925 -0.0006421304 -0.00042084488 0.0014249398 -0.0010249976 -0.0007614767 -0.0011152633 -0.0003791491 -0.0006615978 0.0005703792 -0.0014902848 -0.0006997639 0.00072972267 -0.0016576803 0.00013793656 0.0003205859 -0.0009201836 -0.0019091328 -0.002126643 0.00065310067 -0.0014808056 2.6400434e-05 0.0016726488 -0.0011342284 -0.0018989807 0.0002475828 0.0017060325
evolve, 5.948986e-05 -0.0014940697 0.0017082025 0.002427321 -0.0008022472 0.0011681041 0.00069090375 -0.0019996506 -9.662332e-05 -3.028987e-05 -0.0010107588 -0.00027487148 0.0009032306 -0.0018254477 0.0007959225 -0.00091340893 -0.0022113929 -0.0012985733 -0.0013092926 -0.00016589533 0.00086893677 0.0011588519 0.0017566527 -0.00037756632 0.0020160512 -0.0016964199 0.0017071953 -0.0007516012 0.0017924304 -0.00024804147 4.34909e-05 0.00016305503 0.0023120404 -0.0022126904 -0.0019172039 -8.811243e-06 -0.002378528 0.0022479598 0.00057510403 -0.0003836956 0.0023513571 -0.0013686155 0.00010697986 0.00027671177 -0.0007795497 0.0019174414 0.0014956156 1.2315111e-05 -0.00044410164 0.00073146075 -0.00239016 0.001558213 0.002227455 0.0016721538 0.0005808079 0.0020977212 0.0011227152 -0.0016962418 -0.000405974 -0.0020886424 -0.0024601584 0.0008615542 -0.0017130214 3.112969e-05 0.0018635998 0.0011839736 -0.002354323 -0.0021791856 -0.0017695159 -0.002266425 4.6354253e-05 -0.0013666144 -0.00087536837 -0.0008354684 0.0004541909 -9.3199546e-05 -0.0010147175 -0.00029765838 0.00044637523 0.001246108 0.00062429416 0.0013131851 0.00028999383 -0.00071346306 0.0013208252 0.0012681168 0.002036781 1.994078e-05 -0.001998856 0.0018189554 0.00033636997 0.0024878937 0.0022950266 0.0021688216 0.00080163544 -0.0018079787 -0.0015182304 0.0013729078 0.0006093434 -0.0018766948 -0.0022748199 -0.0022915131 0.00014689448 3.0545285e-05 0.0008561157 0.0009283894 0.00046206382 0.0021098936 -0.0006048647 0.00027704006 -0.0008273423 -0.0011705911 0.00022553862 0.0021782448 0.001886527 -0.0024088656 -0.0014628377 -0.000494628 0.0006622609 0.00030253222 0.0018444578 -0.0022805624 -0.0022037458 -0.0001403091 0.0007333907 0.00061071874 0.000523326 -0.0013827285 0.0014260728 0.001728673 -0.000365142 -0.0014931401 0.00166472 0.0015944606 0.0016613514 -0.00080146606 -1.9492814e-05 0.0004364855 0.00062714727 -0.0022164637 0.00055990694 0.0023266678 0.0011324412 0.00031341217 -0.00074054836 0.0022840998 -0.0004709158 0.0015931898 0.0006494785 0.002356294 0.0009906727 0.0015385235 -0.0002846704 0.0012454803 0.0014727842 0.0017571519 0.001287302 0.00090631517 0.00063976017 0.0010239324 0.001553406 -0.00029514544 -0.00097109494 -0.0023944187 0.0013763641 6.848341e-05 0.0004393193 0.00035968563 0.0015324126 0.0019426206 0.00080055115 -0.0011610585 -0.00225666 -0.0013865411 -0.000854386 -0.0005934477 -0.0023723342 0.0022362461 8.334429e-05 -0.00180381 0.0017491779 0.0011894742 0.00025816401 0.00070468546 0.00064458745 0.0012006622 -0.0006959778 -0.0009920206 0.0003950002 -0.0022668606 -0.0017217794 -0.0011393965 0.001961812 0.0019787853 0.0012268706 -0.0019176016 -0.0024801844 -0.0015712657 0.00014702627 0.0012163583
manipulate 0.002405997 -0.0008156132 -0.00093992555 -0.0010655754 0.0024812547 0.001145415 0.0006885235 0.00086670695 -0.00045146234 3.7069665e-05 0.0010505957 -0.0007304844 -0.0014119777 -0.0016160938 0.0006070307 -0.0005392516 -7.484667e-05 0.00029080594 0.0009419492 0.00033055572 -0.0012428972 0.0014169482 -0.0015993589 0.0023991684 -0.0011130917 -0.0009399116 -0.0024824424 0.00065751467 -0.0012590417 0.00016035861 0.0010009939 0.0009997243 0.0016057636 0.0020995894 0.0021539931 0.0016273987 0.0004765957 0.0014510276 -0.0012229045 0.00016882992 -0.0018926032 -0.0024182617 0.0022779745 0.0009751462 -0.0012041134 -0.00043033948 0.0006371173 0.0012210298 0.00035706046 -0.0023686427 0.0020071054 -0.0016484307 -0.0017760524 0.00045283278 -0.0015111675 -0.0022600708 0.0022084313 3.7319725e-05 0.0019405866 0.0011306766 0.0010724184 -0.00049942243 -0.0005371175 0.0020198012 -0.001897977 -0.0012764182 -0.0018924894 -0.00036331615 -0.00088096736 0.0009926062 -0.0018853133 -0.00066538574 -0.00045506773 0.00028193998 0.0011533964 -0.0020220901 0.0013588187 0.0017459737 0.00041250396 0.0009949615 -0.0007679871 0.00045178062 0.0014589103 0.0023530475 -0.001997587 -0.0017149051 -0.0013994476 0.0023807758 0.0011311751 -0.0019071687 0.0006210238 9.026611e-05 -0.0023501478 0.0017255056 -0.00015686476 -0.0024303307 -0.0015001183 -0.0020788573 -0.0013036868 -0.00044607627 0.0017561712 -0.001626977 -0.0008007708 0.0010686668 -0.00071224594 -0.0011786341 -0.0002723583 0.0012878564 -0.0018131962 0.0011643644 0.00096586486 -0.0019310589 0.0016274364 -0.0020356146 -0.0014665496 0.0014439486 -0.00087754964 0.0002814876 -0.0018661955 -0.0018578174 -0.0024047855 0.0011115202 0.0019625067 -0.00080880814 0.0024286294 -0.0018708517 0.0018116394 0.0014404249 -0.0020389908 0.0005199986 0.00054004136 0.0021476503 -0.0015875653 -0.002355006 0.00042140065 0.00089040794 -2.5917776e-05 0.00049694604 -2.5275629e-05 0.00089302775 -0.0020335307 0.00087695685 0.0016017202 0.00061737 0.0013513127 -0.001531293 0.0023300992 -0.0021089998 0.00071929 -0.0018709823 0.0022742408 -0.0006786975 -0.0016795319 0.0013329259 0.00035013282 0.00014406326 -0.0019416806 0.0009685608 0.002110058 0.0018554828 -0.0013519963 -0.00087513565 -0.00076799 0.002349493 -0.0004337537 0.0024089087 0.0005104041 -0.001907421 0.0003736075 0.001976558 -0.0012660611 -0.0010385928 -0.0014016884 0.0010821032 0.0013400859 0.0008183881 3.0559022e-05 -0.0014059397 -0.0005904251 0.000103646424 0.0019791806 -0.0017082577 -0.0012101436 0.001199912 0.0008918487 0.0024397103 0.0015212535 0.002117278 -0.0004061535 -0.00042863702 2.0797364e-05 -0.00073522597 -0.0015772912 0.0014253799 0.0007104627 0.002342083 -0.00066650414 -0.0011614319 0.0013345911 0.00011094217
other -0.0011037898 -0.002199065 0.0008198854 0.0016508899 -4.7267647e-05 0.00032967585 0.000102503225 5.3837895e-05 -0.0007637718 0.0014343639 0.00028575445 -0.0013036027 0.0005893102 -0.0002303191 -0.0002515507 0.00054139295 0.002053738 0.00078024087 -0.00060669123 -0.0019186338 0.00069364137 0.00044067227 0.0024884306 0.0017525894 0.00065601664 0.0023169816 -0.00062668324 -0.0011958692 0.001366853 0.0019679922 0.0005656581 -0.0010429877 -0.00030995044 0.00022611953 0.00013396423 -0.0022455647 0.002422324 0.00024141162 0.0023834268 -0.0006953549 -0.0013159149 0.001013129 -0.0007864678 0.0005665517 -0.0023805066 0.0019533252 -0.00088063325 0.0022252286 -0.0012604623 0.002420953 -9.3722716e-05 0.001747549 0.0017793486 0.0019318252 0.002487774 -0.0018702879 0.0014642868 -0.0020990747 0.0018077306 0.00016852817 -0.0004379102 0.0012692758 0.0023617903 -0.0020058262 -0.0010426893 0.0022947434 -0.00092081935 0.0021216292 0.00086902734 -0.0014192206 -0.0022972666 -0.0013479891 -0.0023950988 0.0002369713 -0.00081886677 0.00074029947 -0.0006715732 -0.00029333774 0.0006928842 0.00148293 0.0017993352 -0.0021912432 0.00053571374 -0.000885559 0.00086035905 -0.0019489753 0.0006721597 0.0010388838 0.0014926214 -0.0021228932 0.001936777 -0.0015540447 -0.00081467326 -0.0007050714 -0.0011844691 0.0019918042 -0.0018758333 5.3216005e-05 -0.00053608534 0.00067559 -0.0023270394 0.00070891436 0.00066788704 -0.0024909761 0.0024139336 0.0009189865 -0.00017286767 -0.001969217 0.00046224706 -0.00075793953 -0.0015529171 0.0005333761 -0.0009929234 -0.001347607 -0.0015505233 0.0014376701 -0.0013989657 -0.0024907535 0.00042284816 -0.00015883218 0.0022279 0.0011731198 0.0005385112 0.0011682631 0.0005301621 -0.0007514575 0.0012733855 -0.0015668928 -0.00024222373 -0.0009852123 -0.0021696496 0.0019189976 -0.0014205247 0.0013496513 -0.0003848651 0.0006085674 0.0008540363 0.0019470281 -0.0013474205 0.0011511852 0.0019513355 0.0022070743 0.00217719 0.00030904287 3.1166477e-05 0.0021996908 -0.0016432214 -0.000345974 -5.7940837e-05 -0.001703676 0.0011219264 0.0022687824 -0.0001746139 -4.5248307e-06 0.0013898658 -0.0019895395 0.0023582666 -0.00093597325 0.0009196927 0.0024846 0.0009961561 0.0010121362 -0.00021271058 -0.0013644048 0.00084160315 0.0013964742 -0.0002838855 -0.0003000081 0.0003510192 0.0017423341 -0.0016361844 -0.0011010155 -0.0011737007 0.0016876385 -0.0014072048 -0.0009128088 0.0009314369 0.0022887536 0.0021136166 0.002486662 -0.00023237919 0.0011202942 -0.00073800527 -0.0014197072 -0.0004942769 0.0005347547 0.0024906732 0.0022075982 0.00096758106 0.0012116744 -0.0011057487 -0.0009018949 -0.002132276 -0.00083116733 0.00089555676 -0.0003765875 0.0023788996 0.0019955314 0.0012659004 0.0005448384
things 0.0009789306 -0.0015998265 0.00078935735 0.0008573893 0.0005960455 -0.0023891437 -0.00020351564 -0.0005194831 0.0004110199 -0.0014592543 0.0005439564 -0.00028216396 -0.00031423825 0.0007219191 -0.0013803395 0.0014076168 0.002121186 0.0023814444 0.0018854104 -0.0022298929 -0.0005116076 0.0016675708 -0.0024806592 -0.00028353836 -0.0018609237 0.0010773223 0.0015908973 0.001538605 0.0023010094 0.0018451423 0.0021895473 -0.0009555572 0.002231503 0.0019252077 0.00016282918 -0.001794835 0.0002978288 -0.0014690392 -0.001957032 0.0023735468 -0.00044018426 0.0023187934 -0.0014092722 -0.0005107247 0.0015199389 -0.00073449814 0.0007401095 -0.0021542124 -0.0012779015 -0.0015492474 -0.0024007536 0.0019608298 -0.0018594858 0.0023183678 -0.0017016735 0.0008177408 -0.000619908 0.00016936893 -0.00031299004 -0.0009600278 0.001723412 0.00025376235 0.00029229233 0.0014079409 -0.00023199595 0.00019780663 -0.0018531218 -0.00077926007 -0.0018116387 -0.0019331297 -0.0013512287 -0.0019780367 -0.00026449817 0.0007430152 0.00029151328 -0.0014196029 -0.0014368623 -0.0008937367 0.001660923 -0.0020257204 0.00088257017 -0.0014571386 0.0022476683 -0.0014709594 -0.0019374569 0.002389328 0.0010277063 0.0024308814 -0.0011089271 0.000494326 -0.0010068065 -0.0013694194 -0.0014900136 -0.0010476336 -0.00016898429 -0.00066546525 -0.0017801392 0.002111211 -0.0015653166 0.0022198656 0.00096025853 0.0017671487 -0.001319614 -0.0003793931 -0.0011793041 -0.0007121274 0.0012798642 -0.00078505906 -0.0023196617 -0.00050763856 0.0023549893 -0.0005844822 0.0005171881 -0.0024732596 0.0019596452 -0.0022662804 -0.00065685273 0.00090280897 -0.0009613171 -0.00053864485 0.0013040728 -0.00015640538 0.00053494517 0.00070829573 -0.002094655 -0.0019306797 0.0012672301 0.00060862163 0.002092659 -0.0009795267 0.00087498594 0.00072700623 -0.0019944673 0.0018698783 -0.0023495029 -0.001072925 0.0014989213 -0.0015354501 0.0003135542 -0.0016283258 0.0009462461 -0.0018805515 0.0005816235 -0.0008747255 0.00016857451 -0.00054967694 0.0010818786 0.0019382215 -0.0016942292 0.0019767992 0.0020491565 0.0016061957 -0.0006542072 0.0019111447 4.257774e-06 -0.00010943855 0.0021426147 0.00017414801 -0.0016119704 0.0016070153 -0.0008486402 -0.0019284138 0.0009946588 -0.0014559688 -0.0010663464 -0.0002913922 -0.00053083966 9.746547e-05 -0.0008793842 -0.00047353795 -0.0013643628 0.0013513493 7.415656e-05 0.0006194669 0.0021827165 0.002001232 0.002152029 -0.0021932083 -3.7651742e-05 -0.0015778649 0.0018584649 -0.0006276512 -0.0014258432 0.00031768857 -0.00087601156 8.3060004e-05 0.0015201839 -0.00024357205 0.0017580213 0.0019211858 -0.00070699514 0.0005611321 -0.00080115825 -0.00058238 -0.001519857 0.002033088 -0.0017517295 0.0010994556 -0.00032617245 0.00046379445
data. -0.002009474 -0.0007824707 0.00044085318 -0.002370197 0.0019016559 8.389377e-05 -0.0013600867 -0.0024698453 0.0017678482 0.0021914882 0.00046628388 -0.0018399986 0.0004259413 0.0010059339 0.0019253707 0.0021299203 0.0019901302 0.00096705044 0.0004949332 0.0016837958 -0.0006893864 0.00082296436 -0.0011629927 -0.0020568243 -0.00034876354 -0.0023057647 -0.0018539488 0.0017519784 -0.0004918594 0.0011218695 0.0019962392 -0.00092117814 0.002399507 -0.0004974415 -0.0016813341 0.0007588428 -0.001216841 -0.0021657795 -6.415183e-05 0.00016798894 0.0024485043 0.00210597 0.0010719951 0.0019429112 0.0019847155 -0.0006304219 -0.0024949657 0.0022019935 0.0007399679 0.0006794813 0.00013772398 -0.0008700737 -0.00017219479 0.0021822602 0.002435538 0.001094151 0.0013563854 0.0021759807 -0.002288691 -0.0022279122 -0.0011662316 -0.0022962906 -0.0008927345 0.001661628 0.00011896412 -0.001996366 -0.0021049895 -0.001984852 0.00059628487 -0.0017987362 -7.81822e-05 0.0010574269 0.0007632957 0.002442285 -4.533748e-05 0.00021222001 0.00067779655 -0.0011566788 -0.0013397938 -0.001963147 -0.001475307 -5.6748977e-05 0.0011290696 0.0013154373 -0.001946237 0.0017062034 0.0011521175 0.0019664923 -0.0012736383 0.00077879033 0.00087009603 0.0021757116 -0.0016786831 -0.0019534281 -0.0023740614 0.0005392635 0.002152672 -0.0015132645 0.000559177 0.0015718997 -0.00012395973 0.00022845902 -0.00017265044 -0.0020292923 0.00035286788 0.0012087517 0.0017505037 0.00069001736 0.0021832054 0.0008688471 0.0021041157 -0.00028567668 0.0010042929 0.0020783278 -0.0005433243 0.0015168483 -0.0024084449 0.0024802242 0.0021414724 0.0023399033 -0.0010619762 0.0003794313 -0.0020055887 0.0003591692 0.0020316807 0.0022092415 0.001403074 -0.001606171 0.0016755485 0.0012274059 0.0008595204 0.00023966725 0.000118610216 0.00014779856 -0.0021032249 0.0006190934 -0.0015874585 0.0021740654 0.0023620878 -0.0023677128 -0.0016667801 0.0010817016 -0.0011185918 -0.0021222937 -0.0009978011 0.00012976676 -0.0015629327 -0.0007456866 0.00095037837 0.0008700271 -0.0012688232 0.0014831857 -0.0006148404 -0.0017734879 -0.00037874072 0.0015851944 -0.0021254413 -0.0023334606 -0.0023815678 -0.001682446 0.00038976618 0.0018857918 -7.6177064e-05 0.00042144558 0.0022837329 -0.0007381865 -0.0008304289 0.002388951 0.0006543421 0.0021511544 0.0008252254 -0.0009239792 -0.0005929881 0.0005622613 -0.0023814952 0.0011749468 0.00077248365 0.0021207375 -0.0017074423 0.0011300633 -5.541835e-05 0.00076476135 -0.0022187969 -0.002054436 -0.0020881072 -0.0011115164 -0.0012537029 0.0010275703 -0.0015338713 0.0009956544 0.001572127 -0.0012021783 0.0011221024 -0.0015435186 0.0018253839 -4.1268766e-05 0.0010016968 -0.001776697 -0.0019297692 0.00096026575
The -9.7101554e-05 0.00035360642 -0.0017214542 0.00085741887 0.00017077709 -0.0005621228 0.0008889737 -0.0008350441 -0.00078136474 -0.0016874912 -0.00083059166 -0.00016205362 -0.00081591005 -0.0014987108 -0.00037132064 -0.0012529898 0.0020198128 -0.0018232458 0.00033586053 -0.0006326246 -0.000695489 -7.577753e-05 -0.0024213484 0.0011660098 -0.00218822 -0.002393828 -0.0014617199 0.0014508544 -0.0021274202 -0.00023179362 -0.0012553831 -0.0006401121 0.0021491265 -0.0012727204 0.0011721049 -0.0011704406 -0.0011519385 0.0001365752 -0.0019134583 -0.0022050962 6.7606336e-05 -0.0019796493 -0.001398049 0.002494453 -0.001879647 -0.0009469249 -0.0013624986 -0.00019433745 0.0022015814 0.0008854901 0.0010176473 0.0021417732 0.0005251758 0.0021793256 0.0021219067 -0.0017897343 -0.001120331 0.0007459477 0.0018649371 -0.001439436 0.0005338732 -0.0011055657 -0.000856868 0.0021253843 -0.001162616 0.0021721665 0.00076522375 -0.0002638849 -0.0022277227 -0.0023832645 0.0008913749 -0.0008678066 -0.0022035644 0.00054680416 -0.002132993 0.002001028 -0.0019573588 -0.0018671744 -0.002254153 0.000928544 0.00095992535 -3.922172e-05 -0.0009523794 -0.00149041 0.0023354818 -0.0004021842 0.0012646986 -0.00025998475 0.0006341478 0.00021140208 0.0012050185 -0.0013143942 -0.00054940546 -0.00066602614 0.0011230996 -0.0007214325 0.00067372527 -0.0014839241 0.0012699056 0.0010464201 -0.002498474 0.0016163029 -0.00014946051 0.00034665666 -0.0016134891 5.238806e-05 -0.0016841086 0.0021267324 -0.0016948478 -0.0022867322 -0.0021479635 0.0024088486 -0.00012023561 -0.001588 -0.0019465694 -0.001150321 0.0019182796 -0.0015172485 0.001401965 -0.0005394574 0.0005210275 0.00040680985 -0.000338051 -0.0010700577 -0.0012691808 -0.00062860164 -0.0016904235 -0.0021641217 -0.0004035416 -0.00047044898 -0.00018635206 0.0014924197 0.001757442 -0.002208906 -0.0018444033 0.002262332 0.0024656053 0.0010684768 0.0016939491 0.0009306276 -0.0014435193 -0.0010222822 -0.00087199244 0.0022890111 -0.0007815 -0.0006836271 -0.0003357241 0.0015372145 -0.001873314 0.0016971636 -0.0004915255 -0.0009991592 8.036266e-05 0.0021731001 0.0012153524 -0.0016460887 -0.0015023366 0.0011542602 -0.0017118636 -0.0012316509 0.0001726267 -0.0015616941 -0.0017667377 0.002040097 -0.002317882 0.001175184 0.0009190587 -0.00042944495 0.00050807116 0.0007657348 -0.00046531716 -0.0008677504 -0.00011357549 -0.0021035466 -2.5652349e-05 0.0010785686 -0.0007330355 0.002017493 0.00048458227 -0.0015801108 0.002073713 -0.0007672048 0.00056818966 -0.000115468865 0.00028666505 -0.0011873922 -0.0009062871 -0.0017640952 -0.00015398837 0.00063599297 0.0005163392 -0.0013964652 0.001956605 -0.0015932732 0.0015915581 -0.00026821694 0.002205377 0.0008982455 0.0001705063 -0.0011685806
evolution -0.0021429341 -0.0019907898 -0.0013603967 0.00036762655 0.0018798099 0.0014308179 -0.0021569645 -0.0013616874 -0.00022758543 -0.0016221148 0.0012030276 -0.0018320793 -2.2247434e-05 0.0017892797 -0.0007851607 0.0007117614 0.0002174871 0.00012551108 -0.00017181877 0.0018654638 0.0015505156 -0.0024057582 -0.0015225929 0.0004922128 -0.0008258218 -0.001412414 -0.002447424 -0.00078035356 -0.0024193656 0.0015951754 -0.0013522168 1.1422904e-05 0.00064335414 -0.00023192912 -0.0015655356 -0.00044751936 0.00064879516 -0.0014516198 0.00015160511 -0.0021356994 -0.00060347014 0.0010893412 0.0020896913 7.2988216e-05 -0.0022739635 -0.0023183657 -0.0019502058 -0.00038203294 0.0017589582 -0.00165676 0.0005007908 -0.0022353167 0.0022593886 -0.002136829 -0.00019858032 0.0018184255 0.0005445534 -0.0024799847 0.002383823 0.0013476112 -0.0011007184 -0.0017347019 -0.0016238359 -0.0011029887 0.0019937428 -0.0011181134 0.00040691276 -0.0014557415 -0.0010743105 0.00036178622 0.0011048764 0.00039834925 -0.0002410973 2.3688655e-05 0.0017307308 -0.00059975975 0.0002022637 0.00065946626 -0.0023715484 -0.0003826376 0.0017807828 0.0011408194 -0.0010287124 0.0011660052 -0.0017337352 -0.0015141389 0.0014445293 -0.0006826505 -0.00023504859 0.0008710595 0.0001034271 -0.0007938829 0.0007338992 0.0019225362 0.0017624572 -0.00081147696 0.0015473701 3.678375e-05 -0.0024847144 -0.00036785658 -0.0018183922 -0.0009075325 0.0015747817 -0.00054635666 0.002060399 -0.0017151856 0.0014857296 0.0019695465 0.0003382743 -0.00093492353 -0.0013199934 -0.0024143131 0.00063508097 -0.001090736 0.0018275972 0.0007597769 0.002009748 0.0019954941 -4.2170053e-05 -0.00012704381 0.0019967798 -6.6841254e-05 0.0006402272 -0.0011068037 -0.0007560045 -0.0006830647 -0.0008561888 -0.0021441206 -0.002453629 0.00041522388 -0.00034012622 -0.001830894 -0.0016065091 -0.0019014766 0.001249424 -0.001232988 -0.0002935552 -0.0017431673 0.0009124575 -0.0022202816 0.0012334615 -0.0024719876 -0.00049433764 -0.0012090754 -8.4946165e-05 -0.0013094892 -5.155336e-05 -0.0020291219 0.0010770562 0.0018345565 0.0008601474 -0.00042170216 -0.0008567944 -2.2370368e-06 0.0015135393 -0.0007099572 -0.0016068589 0.00183916 -0.0013709366 -0.0009039944 0.0003826914 -0.0005612725 1.1621974e-05 0.0022028354 0.0013899696 0.0014776541 0.00093385973 0.0020368393 0.00068269786 0.002138251 -0.0014251071 -0.0010947889 -0.00049384707 -0.00085275853 0.0013148573 -0.00072008313 -0.0020327505 -0.00046402728 0.00021140208 0.0016068369 0.0014640042 0.0014036032 -0.00038516126 -0.0023692206 0.0018708776 0.0014798436 -0.001298947 0.0010336014 0.002040287 -0.00026073167 0.001141296 0.0003556814 0.0024085487 -0.002071511 -0.0015017136 0.0014278479 0.0023533115 -0.0020863668 0.00061523914 0.00013707718
process -0.03396866 0.13953027 0.03207252 0.09082608 0.050243646 0.0091866525 -0.076335736 0.07148171 0.07281682 0.09663011 -0.061157968 -0.13214801 0.0064983927 0.044554204 -0.054618202 -0.06337888 -0.1443924 0.037925955 -0.012306474 -0.11109918 -0.055231087 -0.02429157 0.010100244 0.029094739 -0.062076796 0.079435535 -0.09779539 -0.050104275 0.11954995 -0.036372207 -0.022298444 -0.059078418 0.047841758 -0.092982545 -0.026257932 -0.09675109 -0.025332533 0.04661008 -0.013137782 -0.0024827567 -0.13591856 0.13155428 0.08973255 -0.040079642 -0.052781634 0.05554419 -0.032107487 -0.035209022 -0.09741162 -0.009065624 0.07023532 -0.038418747 -0.019765673 -0.069206014 0.032036103 0.06900124 -0.058768615 0.06410816 -0.081288464 0.029465478 -0.014945151 0.047548868 -0.0035220825 0.026138779 0.00869893 0.0389558 -0.029753152 -0.022545325 -0.043796483 -0.062680006 0.049338553 0.12650119 0.106972836 -0.012058397 0.038855925 -0.0067835343 0.08360145 -0.03754294 -0.049375966 -0.055724297 0.015800346 -0.008706715 0.0679683 0.11763808 0.028080584 0.08706118 0.03548922 -0.050872233 -0.107728556 0.0062078154 0.12315529 0.07510561 0.0071006417 0.03245048 0.019366123 -0.08619829 -0.008589942 -0.08241829 -0.07882548 -0.0447559 0.099715024 0.07248894 -0.0028983103 -0.016646583 0.00023120537 -0.057382386 0.090498954 -0.07956895 0.14300773 0.06217447 0.06692708 0.047994502 0.10809584 -0.03945273 0.07482715 0.025538612 -0.0803482 -0.13054504 0.07595167 0.035196267 0.0049692905 -0.029337447 0.00269954 -0.012990984 0.06427317 0.027741008 -0.12065049 -0.07993426 0.04460547 0.08741082 0.077784345 0.008883412 -0.05856457 -0.032131627 -0.033289637 0.089743674 0.09069669 0.015185537 -0.07542071 -0.02339527 0.032403607 -0.049435962 0.021966558 -0.053064987 -0.024084833 0.08087771 0.04653945 -0.0497423 -0.022341361 0.031826615 -0.037596244 -0.0488633 0.013625393 -0.058733024 -0.069722235 -0.044854883 -0.04888174 -0.064765275 -0.05869739 -0.018007707 0.01952848 -0.049075868 0.046420433 -0.017204583 -0.10897342 -0.014560646 -0.024917884 -0.03810801 -0.021639146 0.025993064 -0.0141151175 -0.07074908 0.094492316 0.045465358 -0.080804385 -0.11994779 0.09082243 0.09093374 -0.06650239 -0.09322441 0.005305337 0.06253268 -0.055203073 0.004717446 0.020792479 -0.022565056 -0.0016070085 -0.013513367 0.03495744 0.08071634 0.019077225 0.009175921 -0.0832007 -0.027479447 0.057584584 0.120367214 0.05605525 -0.05566801 -0.038412523 -0.021950223
is 0.0007246444 -0.00082621246 -0.0018397497 0.000490939 -0.001949971 -0.0006685102 0.0013235 -0.0013462066 -0.0014046165 0.0013997683 0.0006942323 0.0011844728 -0.0012226969 -0.0021613338 0.0015062639 -0.0024895887 -0.0021087762 -0.0023962327 0.0014712927 -0.0017652472 0.002097162 -0.0008780578 0.0004363479 0.0008551064 -0.0019317609 -0.0012330398 0.00042239553 -0.0013842904 0.0020475597 0.0024619345 -0.00054648495 -0.0005920526 -0.002200193 -0.0018867343 1.2848992e-05 0.0022061267 -0.0009937161 0.0015526749 0.0015867511 0.00013906648 0.00026016566 0.0004696555 -0.00070003176 0.0008506321 0.0011563655 0.00060428027 -0.001396619 0.0015049973 0.001200696 0.0020683506 -0.0021120652 -0.0012442031 0.0013165942 0.0016849949 -0.0012311414 0.0024213423 -0.0018289506 -0.0018669667 -0.0023604378 0.001866349 0.0020649005 -0.0014490783 -0.0022686082 -0.0005903512 0.001678057 0.0013893228 -0.00041119545 -0.00061893405 -0.0003664589 -0.0021333802 0.0012080222 -0.002190175 0.0024919696 -0.0014673208 -0.0005381813 0.0005289223 0.0009533006 0.0009519099 -0.001979146 0.002080169 0.0013948991 -0.000103587285 -0.0016973221 0.00054064277 0.00022502802 0.0008867013 -0.0014868312 -0.00170266 -0.00020841532 -0.0016746294 0.0023072008 0.0017244196 -0.00029943697 -0.002293263 -0.0021910095 -0.0010980851 0.0001392453 0.0010106536 -0.0021568898 -0.0008000699 -0.0014607968 0.0014554933 -0.0021146836 -0.00085140765 -0.0017943885 -0.0022002885 -0.0019031998 -0.0004887453 -0.00059334724 -0.0018488565 -0.0024019778 3.1180447e-05 -0.0007843721 -0.0024025808 -0.00016391487 0.00039283698 0.0012590601 0.0013142461 -0.0010393795 0.0010718014 0.0020801704 -0.0021126433 -0.00088368054 -0.0014036495 -0.0020744337 -0.0016110354 -0.0023740374 -0.0024616474 0.00090023526 -0.0011849457 0.0011054461 -0.0013967069 -3.493554e-05 0.0004128355 0.002003185 0.00026325556 -0.0014274251 0.00029075076 -0.0010509208 0.00031066057 0.001797461 0.0020083743 -0.0011212155 0.0015695523 0.00093727047 -0.0021488983 -0.0021534513 -0.000983926 0.0002968309 0.0012662825 -0.0014311689 0.0011822563 -0.0009414428 -0.000110823195 0.0011629015 0.0007918475 0.0020064958 0.0016958625 0.00027593435 -0.0013714996 -0.0016536772 -0.00018286891 -0.00012944965 -0.0013591947 -0.0010724551 0.0008388192 -0.00227525 0.0021097986 0.0014180588 -0.0021848618 -0.00014491938 -0.002293025 -0.00023028557 0.0019314974 0.0014322344 -0.00031560333 -0.0010168054 0.0013391273 0.00060006627 -0.00053878874 -0.0022258838 -0.0011516684 -0.002065247 -0.0007414839 -0.00042071939 0.0010524774 0.0009500312 -0.002041773 -0.0010140565 8.6759916e-05 -0.0011534628 0.0017505069 0.002343216 0.0009903223 0.00076466706 0.0007485675 -0.0014446863 -0.002203978 -0.0011330813 -0.002397218
directed -0.0019309258 -0.0024546557 -0.001403565 0.001357497 0.0007738217 0.0021713567 -0.0023441517 0.00023362064 -5.574734e-05 0.000858956 0.0015925365 0.001304562 -0.0012485316 -0.0010498189 -0.0021915385 0.0024222792 -0.001096391 -0.001424722 -0.0016951424 0.0015383088 0.0009313619 -0.0010542384 -0.002376379 0.000690792 0.00017364253 -0.0015855097 0.00014890195 0.0017630607 -0.00050563924 -0.0020126381 0.000467496 -0.00069820706 0.0023711864 0.0011017802 -8.426071e-05 9.527779e-05 0.0010008682 -0.00046632113 -0.0015071055 -0.0022285702 0.0016401629 0.0022341413 0.0022985241 -0.00063178805 -0.00026778365 -0.001893464 -0.001870338 0.0005354851 -0.00080952584 0.0012389347 0.002170438 0.0003486341 0.0011510479 -0.00027317787 0.0016120849 0.002089859 -0.0016069489 -0.0008410504 0.0018751309 -0.0023876172 -0.001599752 0.0005906732 0.00042487285 -0.0023850307 -0.0006073287 -0.0008230376 0.0020276615 -0.00014650216 0.0010225982 -0.0007182765 -0.0015849366 0.00082935626 -0.001203128 -0.0012004632 -0.00028178166 0.00049809134 -0.0021347124 0.0018390049 0.00072046346 0.00039343676 0.0020500715 0.0010947776 -0.0024939254 0.0016043745 0.002065985 -0.002353292 -0.0012451533 0.0020103161 -0.00067387277 0.0017673275 0.000715408 -0.0018536586 0.001035236 0.0010408887 0.001960339 0.0018196465 0.0004504926 0.00087145367 -0.0024288571 0.0018357108 -0.0021055446 0.001438132 0.0015062666 0.0021069404 -0.0009871983 0.0011274728 0.0020388071 0.0009679063 -5.279621e-05 -0.0014348137 -0.0005725473 -0.0014386529 -0.0009398189 0.002186046 0.0021575484 0.0007285895 -0.00021907617 0.0020638714 0.0008823585 -0.00095677667 0.00042902492 -0.0008567375 -0.00053893216 -0.001412057 0.0015251846 -0.0021340703 -0.0021667923 0.0011734357 -0.0017046023 -0.0017534094 -0.0006135532 -0.0005235034 0.00040337746 0.0014302875 -0.0001232617 0.0017508059 0.0015896792 -0.00015238114 -0.00081573543 0.00074385013 0.0022287942 -0.0014223898 -0.00069718296 -0.0016224601 0.0012702304 0.0014079912 0.0017137704 0.0017237095 0.00018522819 -0.0012519753 -0.001928313 -0.0005335517 0.0021292786 0.00050366996 0.001317454 -0.0016162749 0.0014056296 -0.0006163722 -0.0010536396 -5.1632524e-05 -0.0016570428 0.0008572489 -0.0016371503 0.0013373762 0.0016798154 -0.0023421347 -0.0014604667 0.00087993406 0.0014386768 0.001194092 0.0010251116 -0.0008063009 -0.00087031897 0.00042314897 0.0021586074 0.0012818545 -0.00022365828 0.0011459885 0.0010485395 -0.0014937081 0.0019804598 0.0022811843 0.0014220835 0.0024123257 -0.0013860079 0.001963783 -0.00143029 -0.0010140676 -0.00048337365 0.002209281 -0.00015708781 0.0024562022 -0.001732754 0.0020622169 -0.0017979419 0.001895451 -0.001852985 -0.0012712624 -0.0016363806 0.001961994
by -0.0006609827 0.0022884253 -0.00055195007 -0.00171206 0.0015632189 0.0022608493 -0.0014808768 -0.0011257845 -0.0008630252 -0.0010900962 0.0016354211 0.0024896567 0.0017508292 -0.00119286 0.0022307793 0.0017573829 -0.0001495555 0.0013161981 0.0008687547 -3.8843835e-05 -5.6933844e-05 -0.0017658144 0.0006579233 0.001068905 -0.0021453942 -0.0007056976 -0.00065041427 -1.697708e-05 0.0016055712 0.00016432023 -0.0011695417 0.00021051173 -0.00014800997 -0.00033894414 0.0015880037 -0.00034002028 0.0021936167 0.0019070194 -0.00032899133 0.00016814121 -0.0023339442 0.0018581371 0.0021925806 0.0021118233 -0.0024190715 -0.0023580508 0.00013960176 0.0008457941 0.002262412 -0.00018416066 -0.0022241094 -0.0015918657 -0.00088867603 0.0017002481 1.8815044e-05 -0.0018746245 0.0012203495 -0.00082648906 0.000735692 0.0011317658 0.0021009012 0.0010997856 0.0017140601 -0.0003981858 -0.0014395615 -0.0009782633 0.0021149195 -0.002311247 0.0006254036 -0.0017965683 -0.00041855453 0.0004199841 -0.0013918212 0.0014523771 0.00044628698 -0.0016918676 1.5873928e-05 0.0017203013 0.00069355196 0.0010655967 0.0024754996 0.00038695894 0.0022945744 0.0008929381 0.000193218 0.0008082227 -0.002030339 0.002304003 -0.0003275331 0.00093630794 -0.0013469076 -0.0011479104 0.0013612872 -0.0012210315 -0.0007721797 -0.00097428856 -0.002014123 -0.0011971324 -0.00035801996 0.0004668655 -0.0020535504 0.0016232515 0.0017321743 -0.0012365576 -0.00067282293 -0.0005411706 -0.0006732786 0.002104641 0.00096021616 -0.00035630027 -0.0009179226 -0.00052859075 -0.001070672 0.000707967 0.001351227 -0.0005567011 0.0022200677 0.0002956835 0.0021841782 0.0012092527 0.0016335668 -0.00031620776 0.0016666101 0.0015368788 -0.00025185454 -0.00051225 0.0023491401 -0.0011376643 -0.0010482436 -0.0012703261 0.0012469143 -0.0023159368 0.00085990806 0.0020067715 -0.0019220831 0.00043937657 -0.00034743804 0.00010444131 -0.00026663463 -0.0006360265 -0.002164717 0.0016447739 0.001877388 0.002378059 -0.0016947039 -0.0023674287 -0.00046993583 -0.00044680294 0.0012908503 -0.0023473941 5.5073528e-05 -0.0011221986 -0.001134383 -0.0016517821 0.000188404 -0.0016724938 -0.0012523404 0.0002538103 -0.00024100696 -0.001582427 -0.0019067919 0.002213975 0.0023336369 -0.002144852 -0.0011148447 -0.0005878034 0.0022804914 -0.00047291466 0.0024195588 0.00040227617 -0.00060905516 -0.00067966664 -0.0019243958 -0.00052617886 0.0019154148 -0.0009444371 0.00243509 0.0023731305 0.0012531218 -0.0021573524 0.0007359688 -0.0013459205 -0.0011844689 -0.0012603328 -0.0010728985 -0.00062401383 -0.0013231417 -0.0019472756 0.0010324086 -0.0018931972 0.00010355655 0.00035749702 -0.0011520415 -0.00173855 0.0020073554 -0.00039783563 -0.0007107896 0.002386462 0.002228402 0.0011564316
pattern 0.0009111273 0.0020194477 0.002375145 0.00013270508 -0.0018009499 -0.0007365971 -0.000639039 0.0015010848 -0.0006088185 -0.0022613846 4.2654807e-05 0.0024123988 -0.001723307 -0.00019257725 -0.00092648296 -0.00038456894 0.002086469 0.001343858 0.0003767677 -0.001101225 0.0006951804 -0.0013815534 -0.0013606384 -0.0013533894 0.0020051906 0.00049728574 -0.001385233 0.0024210997 3.2717362e-05 -0.0023114968 -0.0008750438 -0.0024436659 -0.00018882146 0.002423395 0.00012425124 -0.0021437742 -0.0013150978 -0.0013656059 0.00030962937 0.0018537971 0.0024194792 0.0010391248 -5.5702403e-06 -4.9258582e-05 0.00076677115 -0.00041020475 -0.0012364286 0.0016375189 0.00029997434 0.0013449562 0.0016490696 0.0016945377 0.00030345283 0.0021783002 -2.3765024e-06 0.0012458342 0.0001704588 0.0013243174 -0.0011905625 0.0018582144 0.002276339 -0.002113577 -0.0011690473 2.260576e-05 -0.0014757013 -0.00071159774 0.00079273107 0.0022115293 0.0012502084 -0.0024602993 0.0017241514 0.0014763908 -0.0020403329 -0.0018578342 0.0022093477 -0.0018549042 -0.0021237251 -0.0002854613 -0.0023038662 -0.0005414912 -0.002397553 0.0010956242 -0.0016791194 0.0006411215 0.0014596321 -0.0018121868 0.0024663368 -0.0019973135 0.001203686 0.0010322386 -0.002178489 0.001653925 0.0021992843 -0.0014400578 -0.00020327303 -0.00094437087 0.0011463095 5.025952e-05 0.00029950985 -0.0019152793 -0.0015824463 -0.0009137201 0.00043103704 0.0013149369 -0.00016348064 -0.0003202178 0.0009713024 -0.0010086354 0.00012288708 -0.0015035408 0.002290431 -0.0010084384 -0.0007957205 -0.0007412988 -0.0007992666 -0.00086698495 -0.0014523625 -0.0003800285 -0.0024225276 -0.0011610996 -0.00068554643 -0.001583679 -0.0024798037 0.0014685565 0.002344843 -0.0013961819 0.0013197628 0.0024177646 0.0003373432 -0.0018077036 -0.0012530735 0.002476554 0.0012212377 0.0017575435 -0.0018562486 -0.0017376175 0.0023203716 0.0020715399 0.001979326 -0.0022859012 -0.0015412974 -0.002241447 -0.0016631841 0.00058556604 0.0010984251 0.0023541972 0.00045905495 0.00071137375 0.0017944849 0.0022391588 0.00077234465 0.0018336088 -0.0021226727 -0.0012794283 -0.0016075138 -0.001795631 -0.0020227619 -0.0005519894 0.00234506 -0.0012709772 -0.0020451464 -0.0014836139 0.0005687019 0.0003879324 -0.0012930962 0.002331391 -0.0022664717 0.0015265974 -0.0021333094 0.0024185888 0.00019403012 -0.00055318803 -0.001770406 -0.0018657607 -0.0020722193 0.0020781741 -0.0022319686 -0.0009055403 -0.0018360802 0.001355303 0.00032444927 0.002486528 0.0012201392 -0.0012284949 0.0020598164 0.0018550577 0.00072410493 0.0007039204 -0.0014125993 -0.0013821777 -0.00028566457 0.0008907991 -0.0006282771 -0.00062051835 5.70924e-06 0.0012384506 -0.002362183 0.0024894075 -0.0011484855 0.001140882
rules 0.0016006953 -0.00093906873 0.0018143957 0.0011481633 -0.0016304587 0.0019014319 0.0012932527 0.001760398 0.0014575617 -0.0019154435 -0.0005935725 0.0017626202 -0.00021772203 0.00061071245 0.0015474753 -0.00042758323 -0.001654784 -0.0007812774 -0.00065108563 -0.00073457323 -0.00019568321 0.0008594678 -0.0024546671 0.0008913425 -0.0023130288 0.00044217682 -0.0008821174 -0.0015790602 -0.00012762775 0.002396247 7.491675e-05 0.00080135255 -0.0018351539 -0.0022125687 0.0006632572 0.00034264172 -0.00017779297 0.0018363195 0.0017554085 0.0016040807 -0.0016523972 0.001573714 0.0019983612 0.0016360711 -0.00089349656 0.0021018889 -0.0020237323 0.0006619033 -0.0010150551 -0.00046237884 0.0020151506 -0.00040492322 -0.0015680813 0.0012585032 0.002180186 0.0018220954 6.085285e-05 -0.0014345467 -0.0021223288 -0.001993183 -0.0005337226 0.00019800034 0.0004612375 -0.0015981081 -0.00243598 0.0015967451 -0.00079202745 -0.0015325428 0.0014960119 0.00059097447 -0.0013837396 -0.0011838165 -0.0019643172 -0.0023099103 0.001263788 0.00027323212 -0.0023818994 0.0021810932 -0.0017445982 -0.002025597 0.0011666589 -0.0008056953 -0.0010206172 0.00065763923 -0.0013267457 0.0011248544 -0.00028994284 3.922265e-05 -0.0013295074 0.0009457122 -0.0005625364 0.00086613256 -0.0017840685 -0.0014532342 -0.0019608717 -0.00047835428 -0.000170246 0.0007893676 -0.0010267821 0.0015836218 -0.0016718516 -0.00033393688 0.0010107576 0.0018194765 -0.0010969805 0.0019299481 -0.001298975 -0.0014539342 0.0023990697 -0.00013877754 0.0009897018 -0.0002212592 0.0020616213 -9.058602e-05 -0.00017056894 0.002287156 0.0002622637 -0.002085455 0.0021279966 0.0019536852 0.00024145702 0.001582107 0.002468558 0.0011857748 -0.00045961817 8.371053e-05 -9.541446e-05 -0.001089243 0.0012252799 -4.9710274e-05 -0.000726113 -0.0014696353 0.0018622475 -0.00084936316 -0.0019497077 0.000543372 -0.00037591183 3.6210753e-05 0.0010493929 -0.002317367 0.002342966 -0.00070519093 -0.00037038443 -0.00035594078 -0.0015549585 -0.0015440381 -0.0012850221 0.00028461148 -0.0022869573 0.0016184868 -0.0011530551 -0.0020771709 -0.00071670744 -0.0006176913 0.0002658423 -0.0013155928 0.00027120928 0.00085987477 -0.0023624515 0.0010573021 0.0021802625 0.0020638276 0.00038191024 -0.0015791743 -0.00082898943 0.00242743 0.00081071677 -0.0017616558 0.0023640282 -0.0012504688 0.0024077059 0.002397704 -0.0013392001 0.0002584227 -0.0005856651 -0.0013823244 -0.00035650353 0.0004747489 0.0009621002 0.0005006888 -9.981403e-05 -0.00081602123 0.00036841002 -0.0020568848 0.00038106134 -0.00034311973 -0.001419993 -0.00047288835 -0.00028844946 0.0019588498 0.0009138279 0.0016854573 -0.0009821507 -0.0010343826 -0.001383796 0.002360389 -0.0022807487 -0.0017887282 0.0021146657 -0.00020549353
program. 0.0023472505 -0.0017521724 -0.0017296586 -0.00044509745 -0.0012621918 -0.0013222259 0.0007934347 0.0020553344 -0.0010794419 -0.00032385904 0.0014312272 0.00041924417 0.0012160793 0.0003022342 0.0021251747 0.0019143149 0.00025932724 -0.00039862725 0.0012067663 -0.0013238075 -0.0008831135 -0.0019925172 -0.0019065797 -0.0017630004 0.00028474932 0.0004890433 -0.000670917 0.00047404924 0.00017804466 0.0005034348 -1.4521414e-05 -0.0015203115 -0.001881333 0.001311844 -0.002114546 0.001925834 -0.00071702513 0.0021243435 0.00096666417 0.0022421335 0.0017924132 0.0024899063 -1.6207807e-05 -0.0017288834 0.00077418145 0.00075106416 0.0016015233 -0.0019204577 0.0015917439 -0.00091121765 0.0011165494 -0.0006904596 0.0014895243 -8.1929844e-05 -0.0022664845 -0.0017266199 0.00095400633 0.0013672721 0.0021892078 -0.00012131152 -8.248468e-05 0.0022690888 -0.0015445983 -0.000849857 -0.00068317924 0.0011505862 0.00041095912 0.0019558333 -0.0012505408 0.0017217156 -0.0014723652 -0.0020734316 0.00027309498 0.0009710002 0.0024808035 -0.00179723 -0.00058910216 0.0011329036 -0.00067016575 -0.0019027098 0.00047741062 0.00109111 0.001303894 -0.00027875602 0.00049548363 -0.0014680462 0.00071840617 -0.00034016138 0.0021444466 0.0004914978 6.975583e-05 -0.0022162453 0.0014600647 0.00032925536 0.0014755358 -0.0003398112 0.00018315949 0.0011962098 -0.0010165926 0.0020208196 -0.00031460705 -0.00078411994 -0.0008355165 0.0021597561 0.0016584713 0.00014593918 0.0012710784 -0.0021144801 0.001250287 0.0011128015 0.0017548092 -0.00026082504 8.7488675e-05 -0.0019535075 -0.0015282574 0.0007232602 0.001863787 0.001449435 0.0011239199 -0.0009607136 -0.00056365784 0.0016408749 -0.0014915117 0.0017642397 -0.0008772805 0.0019745757 0.0020084707 -0.00017136871 -0.0011767854 -0.0006402212 0.0017951941 -0.0012283039 -2.146489e-05 0.0019408162 0.001215786 -0.001300435 0.002028631 0.00048428657 -0.001010985 -6.7174435e-05 0.0016863598 0.00028227898 -0.0022043122 -0.0006019219 0.0005824547 0.0005212182 -0.00065586297 -0.0024647296 4.9652066e-05 0.001162936 0.00077944854 -0.00053954124 -9.7966986e-05 0.0001361696 -0.0019890852 -0.002299637 0.00015720516 -0.0003535482 -0.0021512443 -0.00010301103 0.0024460289 -0.00094091054 -0.00048649847 -0.0017264988 0.0013131939 -0.00017382833 0.0024033342 4.02797e-05 0.00051830686 -0.000781492 -0.0007963148 0.0010551903 -0.0024636914 -0.0003604442 -0.00084510597 0.0017483244 -0.0011507162 -0.0020003906 0.0012348532 -0.00038159755 -0.0014979297 0.0015055668 0.0015193992 0.0018244134 0.0010628882 0.000310699 0.002434989 -0.001978829 0.0011984718 0.0021492955 0.0017047585 0.002373565 0.0015584552 -0.00056857255 -0.0004714448 0.0018319911 4.19789e-05 0.00078405254 0.0024902006 0.0014181063
