50 200
UNK 0.0018367632 0.002052899 0.002047977 -0.0017116775 -0.00054924726 -0.0007335674 -0.0009454137 0.0014341851 -0.0021723288 -0.00045734784 -0.001232058 0.0007456753 -0.0020683869 -0.0001275742 -0.0012590217 0.00013967184 -0.0011343708 0.001479656 -0.0018021017 0.0014326917 0.0017875815 -0.0008903071 0.002238236 -0.001733535 0.0017197514 0.0022528158 0.00072602835 0.0021647983 -1.5401514e-05 0.0011579057 -0.0016260877 -1.1350028e-05 -0.0016977289 0.0012581076 -0.0023944785 -0.0008321401 0.0016763215 0.00071686273 -0.00185934 0.0017642067 -0.0012060362 -0.0001995021 -0.0004692783 0.0018670666 0.000344472 -0.0015695768 0.001356863 0.001428376 -0.0018911912 -0.001552057 0.0019110842 -0.00092373905 -0.0009146965 0.00094985263 0.00086243986 -0.0012243974 -0.0011765626 -0.00155905 0.001720509 3.8323924e-07 0.0023259004 -0.00015790854 -0.002383491 -0.0019509615 -0.0020852645 -0.0018949597 0.0012959542 -0.00064551295 -0.0012974283 0.001933849 0.0007809468 0.0023945011 -0.0014925601 -0.0013834569 0.0020108665 0.002030875 -0.0020367175 0.0004602715 0.0013508264 -0.0013904473 0.0015211646 -0.0008503342 -0.00081580726 0.0006858057 -0.0016690737 -0.0013613235 -0.0017748454 8.534035e-05 -0.0012928292 0.0019858922 0.0016896501 0.0017452505 0.0005179704 -0.0020613025 0.0005236415 0.0006468287 0.0023106872 -0.0013955077 -0.0023101943 0.0004762106 -0.0006495806 -0.0023366685 -0.0022604978 0.0010274891 0.00040505175 0.0010374654 -0.0007780101 0.0021480117 -0.0016778465 -5.047163e-05 -0.0006000566 0.0005622355 0.00086806295 -0.0007291442 -0.001667099 0.0008642918 0.0022934698 0.00026273052 -0.00059221475 -0.0007259619 -0.00061709585 0.0009043575 -0.0024383443 0.0010820117 -0.0016108364 -0.0010807314 0.0019325889 0.0016213879 -0.0016663012 0.0010378638 -0.0017109924 0.0022372021 -0.0012788876 0.0022948626 0.0016116668 0.0023961067 -0.0010683537 0.0023880848 -0.0015887454 0.0013703131 0.0003023583 0.00016214303 -0.0021278958 0.0019191182 0.00238509 0.0023562652 0.0013392898 0.0017628777 -0.00048372336 -0.001986816 -0.0006293303 0.0006302241 0.0013269626 -7.973309e-05 -0.00070745195 0.0023723338 0.00047553657 0.00096178474 0.0016915854 3.813533e-06 -0.00030813715 -0.0014174774 -0.00040923944 -6.7254296e-05 0.001188488 0.0022065793 -0.00071145024 0.0019175499 0.00034685642 0.0008625956 0.0020130142 -0.0011082011 -0.002275353 -0.00077425747 -0.0012528828 -0.0011803955 0.0019809348 0.00043021282 -4.8251357e-05 -0.0008168947 4.173792e-05 0.0004697279 -0.00056786416 0.0001918266 0.00012012455 -0.0024290665 -0.00084269105 -0.001975847 -0.00082629465 0.0013147444 -0.0011175825 0.001150402 0.00012754346 -0.0018148466 0.001464 -0.00018729991 0.0024282266 0.0021096892 -0.002123321 0.00085651176
of -0.005730118 0.0097294 -0.0044413595 -0.0060842433 -0.019583842 0.00925122 0.004550014 -0.00677338 0.015452482 -0.0052935015 -0.017078016 0.01135183 0.010329691 -0.007586194 0.0026813447 0.0011937303 0.003115352 0.010631314 0.003886279 0.006094131 -0.009507183 -0.0100651095 0.0050672647 0.007991381 -0.0037390904 -0.0008282178 0.010428988 0.006407741 0.0042206985 0.0070554446 -0.013960428 -0.008161326 -0.0048707407 0.0095131835 -0.0021232846 -0.0031149706 -0.007078263 0.015050684 -0.009239068 -0.00087111717 -0.014651309 -0.0049235206 0.01302655 0.009245203 0.0086798025 -0.010681212 -0.011070983 0.002990577 0.015979124 0.004984871 0.0034817702 -0.0028628798 0.008369394 -0.0115752835 -0.010328508 0.005456621 0.013535902 0.014503698 -0.014275537 0.006393316 -0.013724793 -0.01782264 0.005179405 0.00042680622 -0.00073534594 -0.009722025 0.015117158 -0.004095199 -0.015541598 -0.0119947 -0.01339531 -0.0025812436 0.011198364 -0.0049524116 0.016615275 -0.0091740955 -0.0085227275 0.00701149 -0.0019679025 -0.001488168 -0.00015727858 0.0043089543 0.012541203 0.00488295 0.0024120403 0.0025834003 -0.0027135888 -0.0034745038 -0.00701173 0.007646309 -0.0028611538 0.004822094 0.0075088176 -0.006314243 0.004233002 0.016600616 -0.0026563501 0.0109243 -0.010950429 -0.0056952513 0.010268367 0.0060252016 -0.002228523 0.0021808676 0.008187117 0.0003459487 0.0017688386 0.0064661857 -0.01756376 0.00735096 0.005279465 -0.011849997 0.0049265604 0.0012078631 0.020041816 -0.0062926277 0.0010431899 -0.017301947 0.0044692494 0.014946194 0.0061159777 -0.011019821 0.0036654514 0.00037720546 -0.0057591754 0.00737448 0.020814728 0.011320883 0.010669949 -0.00228509 -0.004918271 0.009082453 0.009895513 -0.009749031 0.002702751 0.011602208 -0.016381364 -0.0013294523 -0.0073246355 0.0019005901 -0.009204074 -0.02328476 -0.019071106 -0.012082553 -0.00250173 -0.013584931 0.0093543455 0.011920047 0.00016450997 0.0023962979 -0.00011985108 -0.016383532 0.0032753905 -0.007873607 -0.0020137643 -0.008598385 -0.021119632 0.006141007 -0.009475366 -0.007827648 0.009943794 0.0004745114 -0.003493955 0.0020612436 0.008212945 -0.006661729 0.014360685 -0.010365571 -0.012281976 0.009326414 0.0071626026 -0.012135565 0.0073005175 0.0014004132 -0.00042482893 0.00663829 -0.0049832766 -0.0014672444 0.0027470167 0.00087537465 0.00051913434 0.011597004 -0.0016275046 0.009478333 0.01051886 -0.0020528166 -0.013014143 0.0038458563 -0.012913666 -0.014980983 -0.012692591 -0.007300094 0.0027617656 0.010773078 -0.007522824 -0.011917058 -0.00021245494 0.0024036653 0.01076729 -0.009178376
a -0.0028098316 0.008785549 -0.0028743013 -0.009114685 -0.019539686 0.007096162 0.0076104263 -0.0094639305 0.012355109 -0.0038561607 -0.015641605 0.008907934 0.010676357 -0.0057891887 0.0050410475 -0.00077538186 0.0039688493 0.010189202 0.0072515747 0.0099893445 -0.010161815 -0.012556878 0.0048989453 0.009209704 -0.0062266258 0.0010135196 0.010335387 0.007060661 0.0040708636 0.005682522 -0.016140625 -0.0071780235 -0.0013568711 0.007872084 -0.0018735458 -0.0070780735 -0.005827259 0.015760826 -0.011314473 -0.0047062454 -0.014182225 -0.008891682 0.013835149 0.009236757 0.0069201766 -0.011738406 -0.0105165215 0.00436459 0.019549366 0.0043645506 0.004421547 -0.002203003 0.006645673 -0.012464784 -0.011431242 0.007023594 0.015596608 0.015422769 -0.014056642 0.007948278 -0.014303179 -0.017395832 0.0075829853 0.00068584527 -0.0016096939 -0.006633803 0.01577241 -0.0069289566 -0.012873383 -0.012426285 -0.017387921 -0.0054483647 0.01021909 -0.0040137386 0.016974218 -0.011761815 -0.010753541 0.009884027 -0.001581244 0.0026342068 0.0031426235 0.0075925128 0.013733785 0.007996345 0.002272633 0.00304533 -0.0015780864 -0.0008680543 -0.006352549 0.006606471 -0.0018887853 0.0037136402 0.0054899016 -0.0073224376 0.0043465095 0.015359998 -0.004050985 0.011442278 -0.010258983 -0.008150132 0.010686616 0.0020715552 -0.0035790256 0.005344041 0.010325477 -0.00029724868 -0.0012282147 0.003960451 -0.018687503 0.0067686005 0.009322938 -0.009956059 0.0043638796 0.0034569367 0.019472381 -0.004683661 0.0009878002 -0.01633206 0.0031374814 0.014047324 0.0040476266 -0.012302215 0.000640101 0.0040384186 -0.006851921 0.007132341 0.022842323 0.015218481 0.011159183 0.0020420959 -0.0053831735 0.006164595 0.011479596 -0.006256694 0.004330906 0.009861281 -0.014837284 -0.0058144247 -0.006269745 -0.0020081054 -0.009495418 -0.022817425 -0.014690232 -0.011476759 -0.0034361668 -0.013342634 0.0065666116 0.011412068 0.0045883567 0.0022365667 -0.0005332585 -0.016954228 -0.00060621207 -0.006635433 0.00042203072 -0.004673403 -0.016552595 0.010768478 -0.0063007083 -0.008591448 0.008753558 -0.002400805 -0.004517601 0.0045686206 0.0065780478 -0.006561341 0.013976428 -0.011598681 -0.0117117055 0.006673456 0.0074325004 -0.0120242555 0.0097287735 0.0015925532 0.0009999067 0.008269052 -0.005450475 -0.0020685878 0.0017631922 0.00055913365 0.00026492757 0.014204415 -0.0053414945 0.00949023 0.011157585 -0.0034616508 -0.015912665 0.0020155138 -0.012664785 -0.016180959 -0.012666908 -0.0027861784 0.0015444357 0.009590384 -0.01166801 -0.010692855 -0.0042388355 0.003425512 0.011655023 -0.010514558
the -0.0001618329 -0.0022311097 -0.0023020806 -0.000980308 0.0015245606 -0.0016995227 -0.0016862403 0.0016267835 -0.001352672 0.0007451803 0.0010698659 -0.00052892393 0.0007681695 0.0013253766 1.2178905e-05 -0.0017263594 -0.0020017126 -0.00056853914 -0.001473257 0.0013749229 -0.0023246645 0.0022695628 -0.0013542935 -0.0015957245 -0.0018778255 0.001358849 -0.00095983024 -0.0009304896 0.000667552 -0.00079827546 -0.0009360373 0.0011288438 0.0017189174 0.0016466002 0.0014362964 -0.00043043564 -0.0011772391 0.0012429038 -0.0011466556 0.002301712 -0.0010315952 4.60851e-05 0.0016963203 0.000966897 -0.0017213023 -5.6899153e-05 6.655487e-05 0.001042953 -0.0015006262 -0.0021670102 -0.00024049659 0.0004107249 -0.0019057351 0.0017963867 -0.001977871 -0.00016756915 0.0017032344 0.0024806727 0.0013592115 0.0023654387 0.0010867321 -0.001993342 0.0014279447 -0.0024897438 0.0007339907 0.0006636402 0.0009925608 0.0006713229 0.0012137722 0.0007566712 -0.00049795676 0.0015905825 -0.002329995 0.00073729246 -0.0023271698 0.0020766687 -0.0016535351 -0.0024795947 -0.0007418805 -0.0014457562 0.0018315441 -0.00084258255 -0.00070371386 -0.0005456966 -0.002396077 -9.983266e-05 0.001458142 0.0003119174 0.0017329608 5.2519375e-05 -0.0019252946 0.0024763588 0.0007856374 -0.0022804646 6.428803e-05 -0.0003860516 -0.0010529644 0.0018233852 0.00028949557 -0.001823236 -0.0023575197 -0.002360227 -0.0009868541 -0.0020183865 0.0023583607 -0.0002487593 0.0020444267 0.001402281 -0.0020907675 -0.0023211937 0.0014483123 0.0024897377 0.00040301122 0.0011639828 -0.0013976115 0.00018141884 0.0022872179 0.00064710877 0.0019334326 0.0011719135 -0.0009412342 0.001860607 0.0017459057 0.0010922474 -7.715705e-05 0.001174503 0.00064819516 -3.4928555e-05 -0.0010227468 -0.00020911032 -0.0017881035 0.00096743274 0.0016746805 0.0002465255 0.0005174619 -0.001009981 -0.0021520923 0.0008910636 0.0014682524 -0.00034824223 -0.00033673132 -0.00093528384 0.0003578693 0.002425366 0.0023017055 -0.0010488397 0.0001324045 -0.0022301846 0.00021533389 0.0011433363 0.00079710665 -0.0007681394 0.0021555955 -0.0009395847 -0.0020677894 -0.0018858786 0.0016610259 0.002441497 -0.0005955738 0.0017020465 -0.0024630085 -0.0021536008 0.001665527 0.0012100853 0.0017258511 -0.0001908904 -0.0008186484 0.0013644588 0.0017723329 -0.00024863775 -0.0015317097 -0.00022662943 -0.0014325856 0.00090836454 -0.0003818327 0.00065347366 -0.00224745 0.0005840943 -0.002441252 -0.0019170516 -0.001688404 -0.00045322021 -0.0023486402 0.0011254533 -0.0020886834 0.0012216668 -0.00021003629 0.0014980175 0.00017272029 0.00059932284 0.0022459985 -0.0019100355 0.00029604952 0.002085518 -0.00015796814 0.0013531956 0.0010855542 -3.4214463e-05 0.0014625182 -0.00039702305
are -0.0014056017 -0.0017298835 0.002035682 0.0023770062 -0.0022076755 0.0021392726 0.0012841478 0.0014798739 -0.0016038036 -0.0011214662 0.0018311813 0.00087519106 4.4403365e-05 0.001624702 0.0016384311 -0.0019777503 -0.0016360342 -0.0021995427 0.00048439344 -0.00028972398 -0.001062986 -0.0017340413 0.0016949172 -0.000924091 0.0013398756 -0.00015757023 -0.0014055735 -0.0016732176 -0.0023013677 0.0015598796 0.0018206551 0.00017701741 0.00043314602 -0.0022574177 -0.00013125781 0.00071538147 0.0021060784 0.00096502504 -0.0013541257 -0.00043397862 -0.00036104885 -0.0002539882 -0.00042226491 0.0012386646 0.0003908791 -0.00010119192 0.0017304812 0.0024146186 0.0015942315 0.002075308 -0.002310045 -0.0020673727 -0.00019480521 -0.0019534137 0.0023473445 -0.0014631083 -0.0018443784 0.001868342 0.000121116405 0.00062151905 -0.00084398803 -0.0011659655 0.00055505894 -0.001317932 -0.00069813104 -0.00023468141 0.0023249649 0.0023824759 0.0008431773 -0.0008425468 0.00035883905 -0.0019167864 0.0014916561 -0.0020010718 3.117998e-05 -0.0015090555 0.0005488533 -0.00074315665 0.00096503575 0.0010876877 0.0020231 -0.0024500513 0.0009532443 0.002300649 -0.0022222642 0.0017519961 -2.520252e-05 0.0008278801 -0.0019412129 -0.0015876242 0.0008792626 -0.0016296424 0.0016873637 0.0023879912 -0.00028271368 -0.002252503 -0.0009145874 0.0014931271 0.0012006529 0.00011735759 -0.0013908135 -0.0010005158 -0.0011828708 0.0017698659 -0.0004884463 0.0004059719 -0.0015868696 0.0021760236 0.0020182002 0.0007684734 -0.001394917 -0.0024713734 -0.00015681004 -9.985641e-06 0.0020036525 0.0021082042 -0.00095690635 -0.00045583188 0.00014965748 -0.000977601 -0.0011852231 -0.00094599335 -2.6524998e-05 0.0020806636 -0.0008478388 0.0015443792 -0.0013625156 -0.0009784594 0.0018221163 -0.0010401618 0.0020020637 0.0011595187 0.0003868579 0.001915195 0.0014925436 -0.0020469367 0.0019214456 0.0022592521 -0.0024104377 0.0018678769 -0.0007173902 -0.0009749135 -0.00239846 0.0021221293 -0.0013138646 0.0023765215 0.0016345521 0.00071928254 0.0022230023 0.0021675862 0.0006773451 0.0007481973 0.00032697734 -0.00086987705 -0.00012427242 -0.0023327963 -0.0008152571 -0.002308692 0.0019044615 0.00087052817 0.0004619523 0.002195119 0.00079600234 -0.0012761661 -0.0010176891 -0.00080375583 -0.0006188932 0.0019572233 -0.0014105254 -0.00084557023 -0.0018638017 0.0024464307 0.00045305793 -0.0020793967 0.0014252258 0.0011827615 -0.00092363625 0.0012931742 -0.0005635965 0.0016602292 -0.0014052594 -0.002233948 0.00024403073 0.001491867 -0.0002811565 3.0389754e-05 -0.0015686392 0.0002383655 0.00037533115 -0.000993138 0.002220266 -0.0022654526 0.00027484656 -0.0017614233 0.0012366329 0.0020826594 0.0010114778 -0.0010113892 -0.0009230641 0.00056950236
to -0.002303462 0.0010075939 0.00035244366 -0.0008732673 0.00045785913 -0.001811341 0.0017892206 -0.002341308 -0.00092436164 -0.0024691196 -0.0019816211 -0.00017428189 0.0022047656 0.0012287139 0.0011035602 0.00047701993 0.0006973245 0.0013143574 0.0008960455 -0.001236174 -0.000759947 -0.00019719359 0.0006020197 8.211937e-06 0.00019045197 0.0023808423 -0.0014071946 0.0012528948 0.00045107538 -0.0008498505 0.0006231216 0.0010545854 0.00058244844 0.0013375338 -0.00060599565 -0.00088126503 0.00037752837 0.002066297 0.0021798513 0.0007712706 -8.0955215e-06 0.0022932482 -0.001591787 0.0006186336 -0.00071114325 -0.0011802459 -0.0008674213 -0.001853191 0.0018106503 -0.0018231198 -0.002047294 0.0017723362 0.00025972934 -0.0015191173 -0.0010854146 -0.00014601555 -0.001220104 -0.0002642593 0.0023919204 0.0014760182 0.0016833646 0.00017281086 -0.002425593 -0.00078048883 -0.0022202698 0.0019981558 0.0018989029 0.0015129782 -0.002129344 0.0019177878 -0.00035351538 -0.0023301833 -0.0024384595 0.0019306173 -0.0022139093 -0.000722633 0.00012492598 0.0010179877 0.0012164095 -0.0024969107 -0.0006674975 -0.0023255066 0.0020703808 -7.086038e-05 0.00011044764 0.0020199819 -0.0021199933 -0.0008590495 -0.0020867416 0.00040332368 -0.0007611057 0.0011379914 -0.0023681375 0.0024446482 -0.0016015836 -0.0007072011 -0.001979085 -0.0014967208 -7.025176e-05 0.0004357344 -0.0010664946 -0.00081461424 0.0009372253 0.0015523345 0.00087062875 -0.0023130311 0.0021763067 -0.0013694534 -0.0019791182 -0.00049051293 0.00207535 -0.0017411592 -0.00036108098 -0.001218473 0.0023215222 -0.0009447804 -0.0014807102 -0.0024622555 -0.00013873004 0.001434389 0.001740782 -0.0007098034 0.00080647925 0.0017828094 -0.0005255162 -0.0005156335 0.0011607732 0.0016575027 -0.0012927722 -0.00035413983 0.0013686884 -0.00067143503 0.0010619112 0.0009981107 0.0018286211 -0.0016637968 0.0010029972 0.0022200155 0.00082220556 0.0024704887 0.00039446913 -0.00037106662 -0.00126455 -0.00021249056 0.0010231123 -0.002462167 0.0013648251 0.0011825385 0.0004048557 0.0011496351 -0.00084282306 0.0017984095 -0.0015808925 0.0023129932 0.0015291702 0.001178406 2.2254651e-05 0.0008621628 -0.001257323 0.0024556802 -3.6749756e-05 -0.0007679126 -0.0005888081 -0.00043347664 0.0012135329 -0.00022674678 0.00088027003 -0.000983161 0.0010813049 0.000973498 -0.0016384032 0.002159617 -0.001100918 -0.0015009554 0.0016194484 -0.0008369266 0.0018454255 0.0022691628 0.0022761105 0.0016293577 0.00046214554 0.0016952716 -0.0011996751 0.002305185 0.0024348614 0.00094820675 -0.0013317704 -0.0015643861 -0.00013891305 0.0015828684 0.0011652478 0.0023056348 0.0015628343 0.0014140513 -0.0019632801 0.00052056555 0.0017811344 -0.0016699517 -0.00027295877 0.00042835413
processes -0.0033162737 0.009909778 -0.0023012098 -0.007670832 -0.018310854 0.0072082616 0.008407154 -0.0105831735 0.01485359 -0.0032734917 -0.016286854 0.012102411 0.011719154 -0.008431431 0.0044554425 0.003003154 0.005314791 0.010575915 0.009011493 0.010604936 -0.009167804 -0.0133889215 0.0035283265 0.010213035 -0.006307394 0.001295212 0.010554466 0.0026271166 0.0038561204 0.0077807386 -0.014543699 -0.0061778375 -0.005206107 0.010699939 0.0010298421 -0.006846524 -0.009184511 0.015354719 -0.010126553 -0.00080542715 -0.013929935 -0.0077792504 0.013946964 0.008713833 0.0069785058 -0.0072475867 -0.011682848 0.0041027674 0.018298104 0.0052036904 0.005699319 -0.0020200158 0.0076275426 -0.014304603 -0.0143183125 0.0067030373 0.015862659 0.018408027 -0.014373538 0.007036744 -0.01329809 -0.018404793 0.006463518 -0.00029077477 0.0005501852 -0.009422995 0.01748422 -0.0056542545 -0.014273695 -0.008622895 -0.017090702 -0.004713664 0.01289314 -0.006519063 0.014115034 -0.010907599 -0.010901264 0.006273936 -0.002920322 -0.0016579136 -0.00038217823 0.0065119644 0.011623295 0.006880705 0.002023225 0.00071656524 -0.0048072813 -0.0037677714 -0.006291554 0.006298076 -0.0021509714 0.00562658 0.007995783 -0.004428341 0.003026948 0.013390385 -0.0015806181 0.010594738 -0.013842664 -0.007634391 0.0118957795 0.004023778 -0.004882017 0.0041561956 0.012178349 0.0009946885 0.002660404 0.0062154564 -0.018693646 0.008407068 0.008874305 -0.010830339 0.0033026966 0.0027394088 0.020272657 -0.007405152 0.0025590307 -0.014656998 0.0027307605 0.0113278525 0.008471877 -0.009209642 0.0021467765 0.0029452834 -0.009598489 0.0051946286 0.021387946 0.0153867155 0.0095652975 -0.00013309582 -0.0033026221 0.006974742 0.011364981 -0.0070630545 0.00470918 0.013287634 -0.01641368 -0.0017365066 -0.006510172 0.0020250266 -0.012813391 -0.023065224 -0.01751653 -0.008862773 -0.004013199 -0.01525588 0.010414077 0.011267558 0.0037467 0.0010351199 -0.00014793636 -0.014011478 -0.0002879293 -0.007928044 -0.0025769034 -0.008209963 -0.018895367 0.007320957 -0.00933801 -0.008814431 0.009711663 -0.0024189241 -0.004787522 0.0039548506 0.009353667 -0.005831869 0.009608187 -0.011674619 -0.0120768035 0.010985013 0.0108241765 -0.010611829 0.004980169 0.0014100104 0.0019576477 0.00567154 -0.001383277 -0.0028581927 -3.3670945e-05 0.0035209372 0.002448737 0.015270009 -0.002026249 0.010139949 0.011709157 -0.0033586759 -0.014667772 0.0023455927 -0.013946026 -0.01266173 -0.010220097 -0.00589752 0.00055694056 0.007793471 -0.01127371 -0.011805159 -0.0005300212 0.001659713 0.0125655485 -0.007476032
abstract -0.00208596 0.0062755346 -0.00543173 -0.0063829953 -0.020541452 0.007850496 0.006905373 -0.008823493 0.014058681 -0.005760063 -0.01583047 0.011277142 0.008656677 -0.0065373937 0.0018067465 -0.00029458827 0.004515855 0.011290703 0.0054231538 0.0068587065 -0.0091743115 -0.011038324 0.006064278 0.009615695 -0.007235132 -0.00035578827 0.010323786 0.0058767735 0.00415032 0.003717523 -0.015473114 -0.0046440302 -0.004511536 0.011168126 -0.0008757254 -0.0041969633 -0.0070518805 0.015703686 -0.0122030815 -0.005045332 -0.012084058 -0.0064520123 0.014373017 0.011037024 0.0070501748 -0.0078932755 -0.009848386 0.002696709 0.015978603 0.0021283212 0.0018895366 -0.0025402193 0.008771356 -0.009937699 -0.012184557 0.0073202634 0.015324779 0.014717039 -0.011811488 0.005178594 -0.013515694 -0.017833387 0.0051714233 -0.0005928087 -0.0028948076 -0.010307263 0.017140912 -0.00614135 -0.014950775 -0.010705148 -0.016176196 -0.0040388852 0.011700562 -0.0065356707 0.01375438 -0.0077187414 -0.009833345 0.0084691355 -0.0004941368 0.0024292606 0.0021490902 0.0055482904 0.013384649 0.004047201 0.0045019966 0.001029712 -0.0019427314 -0.004209848 -0.009255885 0.008030133 -0.0040999567 0.007374071 0.0038466032 -0.0043699215 0.0038283784 0.012755898 -0.0027437357 0.009142914 -0.0129956445 -0.0064764074 0.010277486 0.005337739 -0.0013760754 0.004936834 0.010984265 0.002047424 -0.00018127433 0.0064776586 -0.016098645 0.010303695 0.00794995 -0.010912301 0.0015233993 -0.0010270191 0.017952096 -0.0075226086 0.002168654 -0.017765436 0.006278004 0.013011739 0.008500766 -0.011814066 0.0024355836 0.003048963 -0.004876576 0.0037716979 0.022254288 0.013970025 0.011190374 0.0021340374 -0.0053962814 0.0071995677 0.011353519 -0.008720945 0.002216532 0.010990902 -0.011439746 -0.0012267999 -0.00818749 0.0023438884 -0.012274154 -0.021600246 -0.018082904 -0.010383986 -0.0012176463 -0.015313329 0.009368573 0.012039586 0.0015865542 0.00028870947 -0.0008943677 -0.01717715 0.002037358 -0.009134359 -0.00066226005 -0.0048387037 -0.017823618 0.008682168 -0.010475802 -0.004982077 0.010905228 -0.00041771328 -0.0027694728 0.00037274818 0.008507678 -0.0058734287 0.01093614 -0.008819856 -0.0087723695 0.010113548 0.010789825 -0.0127322385 0.009680356 -0.0010917591 -0.0016513952 0.004863353 -0.004166867 -0.000867712 0.0033300323 0.0021915813 0.0012103867 0.014768898 -0.00531047 0.008742487 0.014001377 -0.0021906442 -0.014252889 0.0003576816 -0.013162798 -0.013320996 -0.011078421 -0.0043985737 0.002563334 0.008480493 -0.007465978 -0.011291379 -0.0046692267 0.003245349 0.010715518 -0.008655753
called -0.009006308 0.014586978 -0.008630574 -0.014208812 -0.038856123 0.016481029 0.011636432 -0.01996349 0.025770485 -0.010795083 -0.030843645 0.023947634 0.018243685 -0.011593892 0.00474913 0.002695803 0.006370534 0.020120544 0.012367012 0.017282095 -0.017228631 -0.023341265 0.008050095 0.017083215 -0.012135804 -0.0021596383 0.018638052 0.0075539406 0.011011394 0.010468854 -0.029540842 -0.014722582 -0.008377631 0.018172504 -0.002701267 -0.011224517 -0.0160684 0.028646749 -0.020373564 -0.006587171 -0.02753717 -0.01437761 0.022419853 0.018921252 0.016866436 -0.018401897 -0.01771175 0.0030749924 0.03522203 0.004301529 0.008612686 -0.0018626014 0.016482618 -0.022965362 -0.02624927 0.015190645 0.02424823 0.032600574 -0.025428228 0.013722157 -0.024545107 -0.03279318 0.008623945 0.00034372997 0.0012540509 -0.016612146 0.031366993 -0.00858944 -0.028513648 -0.01991457 -0.029245486 -0.0073948675 0.023177626 -0.0067052837 0.030880338 -0.022407183 -0.020004168 0.017056612 -0.0006235284 0.0024810366 0.005652027 0.008846031 0.024717828 0.01337924 0.0033419423 -0.0005014346 -0.006817378 -0.001430596 -0.013290014 0.014313181 -0.0013843105 0.011731348 0.014509699 -0.0085159 0.0035519875 0.029549155 -0.0054077595 0.021614851 -0.023849964 -0.01320862 0.021864312 0.008302777 -0.005586613 0.009057814 0.0214899 0.005977188 -0.0003298888 0.014219099 -0.036646806 0.017539402 0.01533145 -0.019857042 0.008718691 0.0024921857 0.03668962 -0.015221102 0.004636094 -0.03175961 0.011919497 0.026727375 0.01425305 -0.021240305 0.0013407392 0.005565348 -0.015700167 0.013023868 0.042853817 0.028301952 0.019674284 -0.00012575336 -0.011160047 0.012425736 0.021632703 -0.017281704 0.009669638 0.022691475 -0.028541334 -0.0070863045 -0.014651231 -0.000472525 -0.021581277 -0.04238928 -0.03511872 -0.020037115 -0.0058707246 -0.027845299 0.018163018 0.023025252 0.006870007 0.00033603923 0.0038702835 -0.03254982 0.0021593443 -0.016463706 -0.004728001 -0.012484645 -0.038848955 0.018831732 -0.01583018 -0.012382548 0.019586222 -0.0056839264 -0.008585016 0.0039951294 0.013469279 -0.013617629 0.02486344 -0.02093654 -0.019665597 0.0165815 0.018908732 -0.023105558 0.015095583 0.003353286 0.0032631767 0.013599395 -0.005667956 -0.008080046 0.0061123953 0.007099503 0.00020197584 0.02952455 -0.007945247 0.014302366 0.024687406 -0.0028498946 -0.028925203 0.0072030383 -0.022922652 -0.02900445 -0.024328375 -0.010240452 0.0029701805 0.016678894 -0.020365544 -0.02015945 -0.0055219783 0.008671348 0.017727368 -0.018095838
We -0.0024982118 -0.0015143049 -0.0004459608 -0.0015918866 -0.0024380963 -0.0015547094 0.00035930937 0.00013099937 0.00045271195 -0.0010993204 -0.0015910247 -0.0017199939 0.0011147445 -0.0016990938 0.0011008501 0.00097364606 -0.0023665726 -0.0006466934 0.001172587 -0.00030225771 -0.0021488424 -0.002008518 0.0014949255 0.0022479473 4.7769863e-06 -0.00162691 -0.00036848872 -0.0008449543 0.0010932025 0.0014756615 -0.0023290396 -0.0022914852 0.0024337885 -0.0005656668 -0.0023187986 -0.0012518301 0.0011821571 -0.0010935164 0.0021760147 -0.0015410909 -0.0006142354 0.0010882944 -0.00024147471 0.00044504763 -0.001674906 0.0010608286 -0.00095638714 -0.0020085792 0.0023385137 -0.001918464 0.0022784877 0.0007129656 -0.0015672438 0.001532766 -0.0015047231 -0.0011589443 0.0006941082 -0.0010082483 -0.0010777822 -0.0024588746 0.0018648827 0.0018906514 0.0002874853 0.0023835618 0.0016354267 3.932696e-05 -0.0020898678 0.00035185716 -0.002240662 0.0012297316 -5.367282e-05 -0.0008674732 -0.0007048807 0.0024728095 0.0020998428 -0.0012799156 0.0017395271 -0.00077478227 0.0024717236 0.0016050814 -0.000782639 -0.0011207282 0.0022501135 -0.001113944 -0.0024829747 0.0019127931 -0.00086228934 0.0006132552 -0.00036900886 -0.0011476456 0.0022965497 0.0022480604 -0.0011572271 0.0010933857 -0.0022509333 -0.0014018735 -0.0018767115 -0.0011476025 0.0005657356 0.0007511561 0.0020300336 -0.0014270213 -0.0011314839 0.001440214 0.00025287084 0.0010106838 -9.313575e-05 -0.00059426937 -0.00142836 0.00050981576 -0.0019437864 -0.0012679884 0.002057482 0.001542266 -0.00088135805 -0.0005583373 0.0011722865 -0.0009515423 -0.001390525 -0.0003506618 0.0018736641 -0.002126336 1.40813645e-05 0.0008790633 1.8591061e-05 0.0016742512 -0.0014122903 -0.0001552666 -0.0009509942 0.0005682728 0.0011515566 0.002442779 -0.00071515946 0.0013083038 0.00081890495 0.0018991046 0.0008346534 -0.0014319279 -0.00017121853 0.0014726263 -0.001090489 0.0023706513 0.0016625924 -0.0015959931 -0.00068858976 -0.0016582878 0.000541599 0.00064321747 0.00048487424 -4.8343325e-05 0.00072083017 -0.00073517405 -0.00055284705 -0.002032542 -0.0010932839 -0.00095646677 0.0022835503 -0.0010894325 0.0005427301 0.0021447614 -0.0020671617 0.0011438683 -0.001639567 -0.00078820286 0.00019018701 0.000522973 0.00066831056 0.0014096894 -0.00042575318 0.0019378602 0.0007246954 -0.0012748211 -0.0007727286 -8.475152e-05 0.0013280024 -0.00021141348 0.0012072085 0.0020448752 -0.0012160446 -0.00068676297 -0.0007962474 -0.0014828163 0.0018173088 0.002128458 0.0010188958 -0.0006744107 -0.0005524128 -0.001113465 0.001965948 -0.0009440839 -9.769504e-05 0.0011860204 -0.0023909104 0.0013323543 -0.00070505287 0.00029536476 0.0008398881 0.0009708172 -0.00047348905 0.00036073546
about 0.0005635794 0.0021509463 -0.0017851733 -0.0020646863 -0.0024586958 -0.00070902135 0.00049231853 0.00054623187 -0.0013920512 -0.001942181 -0.0024884944 -0.002078877 -0.002262957 0.00018989574 0.002270321 -0.0017989853 -0.002492313 -0.0015687891 0.0008967996 0.0016890597 0.0007695558 0.0024804245 0.0006853936 0.0005040264 0.0019152099 0.0023511932 0.0022325763 0.0009445797 -0.00113006 0.0018365378 0.00035850564 0.0002092463 0.0006318998 -0.0020999624 -0.0006467339 0.00025848602 0.0017170347 -0.00028747087 0.0022005173 -0.00240178 -0.0021351618 0.0021328223 -0.00030138204 0.00093677826 0.0007277806 -0.00020063063 -0.0013843536 0.0017029657 -0.00034851674 -8.146977e-05 0.0022709644 -0.0016281179 0.0006368917 0.001501543 0.0014185072 -0.00047298195 -0.0008455586 -0.00027556834 0.00074906833 -0.0010308236 0.00070098275 -0.0014546934 -0.0017592174 -0.0020943347 -0.00053191604 9.376649e-05 -0.00028701476 0.0014793845 0.0017324588 0.0011014997 -0.00066643744 0.0020678733 -0.00071249215 0.002306013 -0.0016302594 -0.0019788553 -0.0004304382 0.00020521437 -0.0016456472 -0.0017017606 0.0015891567 0.0014382191 -2.562278e-05 0.00014156499 -0.0011840772 0.0003033462 -0.0014041108 0.0016610152 0.0009911356 0.000824586 0.00060980325 0.0019633882 -0.0015268496 0.0004959635 -0.0009989026 0.0003418664 7.682713e-06 -0.00074794143 -0.00019283243 0.0012835602 -0.002181181 -0.00058780075 -0.0005415294 -0.001069448 -0.0017667037 0.0020144247 0.0022644699 -0.0022719102 -0.0012047836 -0.0018253743 -0.0012682858 0.0013468182 -0.0023275085 -0.0011687124 -0.0012878728 -0.0022251997 -0.00056971726 -0.0016825979 -0.001344667 0.0023106975 -0.0013430997 0.0013371506 0.00089254207 -0.0012356519 -0.0019733408 -0.0021832308 0.0018522064 -0.0021177607 -5.444442e-05 -0.00050214166 0.001554417 -0.0013773158 -0.00242686 -0.00019157957 0.00012837909 0.00048620184 0.00055437046 0.0001068837 0.00010888302 -0.0010097008 0.00074800453 0.00018820772 0.0021082694 0.0012565139 0.0017941985 0.00055886596 -0.00024512317 0.00013828953 0.0002927247 -0.0022321015 0.0017648623 -0.0012072268 0.0016361675 -0.0009097805 -0.0023678918 0.0008842002 0.0010611296 0.001188809 0.0023987042 0.0006646123 0.0019222675 0.00050374004 0.0018108631 -0.0012221589 0.0011886363 -0.0008957344 -0.0003779065 0.0009710004 -0.00084891345 -0.0020714907 -0.0013482884 0.0021763514 0.0011990936 0.00022609625 0.00018612319 -0.0012695488 -0.0005703467 0.001372017 -0.00033620093 0.0022437074 0.0012797292 -0.0024983457 -0.0024699762 -0.0015748417 0.0014496027 7.500523e-05 0.0020349957 0.0020177723 0.0018808166 0.0012469548 0.00085157156 0.0014325613 -0.0014789107 -0.0024432614 -0.0020300031 0.0011317143 0.0014277254 0.00026663183 -0.0014345736 -0.0006369236
study 0.002027927 0.0013073485 -0.0013291657 -0.0022396457 -0.0021680617 -0.0018302833 0.002420532 0.0021773954 0.0015140898 -0.0021863687 0.002463635 0.0001414388 1.5754951e-05 -0.0006829074 0.0009789602 -0.0010250488 0.00086240703 0.0014315476 -0.001859458 -0.00085726497 3.707595e-05 -0.00091669254 -0.0015255439 0.0009107655 -0.0012119334 0.0013839935 -0.001355156 -0.0021656186 -0.0005557323 0.0023807632 -0.0018924582 -0.0020453813 0.00012447452 0.0005385049 0.0020053177 0.00031222845 0.0011980366 0.0016300236 0.0010264264 -0.0015217391 -0.0018187609 0.0002553775 -0.0004786274 0.001682145 -0.0022994524 5.5324752e-05 -0.00043418235 -0.00020489283 -0.0006908369 -0.002276061 -0.0009978473 -0.0009051347 -0.0023679147 -0.0013097754 0.00051549054 0.0017834227 0.0014717947 0.0019657752 0.0015592827 -0.0006723568 -0.0008303666 0.00089070876 0.00047591026 0.0007982997 -0.00030469242 0.00028974027 0.0018816302 -2.966472e-05 0.0011502749 -0.00019203732 0.00013220008 0.0022428818 0.0022754855 0.0024139453 -5.620299e-05 0.0021429919 0.0021404321 -0.0004569909 0.0015499513 0.00052035693 0.0005542815 0.0012339777 0.00219202 -0.0018698764 -0.0015049287 0.0012601346 -0.0024942793 -0.0014065688 0.00017912616 0.0023502172 -0.0024847845 0.00048087654 -0.0010568282 0.00023071864 -0.00041132653 -0.0021640477 0.0007264868 -0.0023333312 0.0008554375 0.0016677845 -0.0013380217 0.0018922086 0.001620023 0.00018724264 0.0023106686 0.002283194 0.0024684058 0.0020232801 6.168336e-05 -0.0017272057 -0.00072337 0.00048090704 -0.0010235637 0.0017331261 -0.0003037157 0.0016185148 -0.00090453145 -0.0006897717 0.002249821 0.0005832545 0.0018108557 -0.0022504246 -0.0010119545 -0.001899418 -0.000879423 0.0009195537 0.00037080678 0.0005295845 -0.0012899685 -0.0019058987 0.0020001899 0.0014932929 0.0010084372 0.001178483 -0.0007584896 0.000972816 0.0013769597 0.0019034282 0.00028139167 -0.00045827427 -0.00076880516 0.0022827853 -0.0018964305 -0.00030212523 -0.001732328 -0.0014883297 0.0012216477 -0.0012396818 0.0009515332 -0.0021670288 -0.0012447524 0.0021563456 -0.0011212421 -0.00080365327 -0.0018158492 -0.00075105485 -0.0014994177 -0.001689797 -0.0008441815 -0.0010907314 0.0023398641 0.0014106403 -0.0011136454 0.00069060293 -0.0019846114 0.0010274288 -0.0008295494 0.0015164153 -0.00053164246 0.0007489568 0.002370766 -0.0010364702 -0.0010892459 0.000980526 0.0016145804 -0.0024867281 0.0009515553 -0.0006321168 -0.0004430702 0.0023623458 0.0017842939 -0.0023049482 -0.0012696779 -0.0019435262 -0.0017099841 0.0010509461 -0.00035963464 -0.0018477052 -0.0012235349 -0.002356306 0.0017808364 -0.00031051575 0.0011986252 -0.0019803843 -0.0018814581 -0.0021866702 -0.0022766376 -0.0023357668 0.0022923178 0.002335344
idea -0.00038971752 -0.0024562557 0.0005659866 0.0015422157 -0.0018066086 0.0009935072 -0.00050481735 -0.00030608382 -0.0024740696 0.0013307438 0.0019782865 -0.0011595807 -0.0005610486 -0.00038563693 -0.002347541 -0.00031571812 -0.00026875734 0.0010404559 -0.0023827737 0.0023779445 -0.0019308429 -0.0001527348 0.00030513247 -0.00017078035 -0.0020868399 0.002003205 -0.0012177785 -0.0013321409 0.0024048043 0.00050496194 0.0022655125 0.0017652549 0.0004792607 -0.0012173074 0.0005206249 -0.0018156716 -0.0017791328 0.0020804335 -0.001563997 -0.0024346428 0.0010785752 -0.0019895858 0.0007126499 -0.0022703228 0.0009074488 -0.00032898434 -0.00029926468 -0.0010340252 0.0011757486 -0.0012471273 0.0002120086 0.002168552 -0.0015522098 0.0023561125 -0.0021089234 0.00018619467 -0.0009333533 -0.0020007775 -0.0020676015 3.9231498e-05 -0.00046037696 -0.0014105508 -0.0024751108 -0.0024875025 0.0023192824 0.0003861338 0.00198214 -0.0005587456 -0.0020263274 -0.0016160288 0.0013876753 -0.001332263 0.00081204413 -0.0014191836 0.00025493233 -0.00036241044 -0.0011169177 -0.0020037475 -0.0006369484 -6.3405605e-05 0.0022867704 0.0007866104 -0.0014504453 -0.0009534854 -0.002274658 0.0024444629 -0.002414217 0.00033320067 0.00055563846 -4.558824e-06 0.0020711408 0.0019743065 0.0018733139 -0.0014752519 -0.0024747374 0.0015812502 0.002368859 -0.00022683153 -0.0017223626 0.0013992626 0.0018052743 0.0014648046 -0.00024555344 0.0008714022 0.0013380002 0.000582329 -0.002256069 0.0020826873 0.0024072803 -4.806975e-05 -0.0005818829 0.0018233792 0.002249496 0.0010794001 -0.0023494975 -0.00089157315 -0.00091613375 0.0016694716 -0.00045871525 0.00056340406 0.0007432562 0.00045370776 0.0010017485 -0.002309893 0.0020226054 0.0014262795 0.001469525 0.002375991 1.4120946e-05 -0.0014522341 -0.0007620102 -0.001674419 -0.0016203391 -0.000737316 0.0010390014 -0.0013835385 -0.00037859776 -0.00022899546 0.0021353555 -0.0001169818 0.001505278 -0.001414656 -0.0011938679 -0.0010064787 0.0023381896 -0.0014233536 -0.00062990247 -0.0023919728 -0.00226454 0.0019126781 -0.00013402989 -0.002406769 0.0023473413 0.0021454054 0.0024549216 -0.0020847034 -0.0018872165 -0.0011651545 -0.0013796082 -0.0017713597 -0.00061289244 -0.0012751379 0.001454087 -0.00086433254 0.0008100101 -0.0014211821 -0.0012902453 0.0011050077 0.00034393487 0.00023154495 0.0003282607 0.0005895593 -0.0014866539 -0.0007651213 0.00065734703 0.000598002 0.0007808844 -0.0020832748 0.0020088954 0.0020336858 0.0013347398 -0.0019007947 0.0022408343 0.00011068024 0.0005268168 -0.001091375 0.00081953406 -0.0018920945 0.00087477313 -0.00028772443 0.0011319646 0.0020859614 -0.00079089764 -0.001001184 0.0022666082 -0.0023105145 0.0022337898 -0.0021882975 0.0010471547 0.0014035264
computational -0.00092156767 -0.0014629391 -0.0019641942 0.00016817125 -0.0014021513 0.0019866289 -0.00014217757 0.0020849053 0.0022870586 -0.00096040964 -0.0010086707 -0.0023025156 -0.00056468486 -0.0009188327 0.00085748965 0.0022849278 -0.001254681 0.0014463891 0.0021890397 -0.0016777765 0.00041755475 0.0022327504 -0.0020618397 -0.0012104177 0.0023725661 -0.0006791783 -0.0023265886 -0.0018926882 -0.0016107827 0.0019677212 8.083647e-05 -0.0017299243 0.00070564705 -0.0019819392 -0.0020094707 0.002089941 0.0016176626 -0.0024048889 0.00058155693 0.002059544 0.001096797 0.001160722 -0.0020237016 -0.0018703612 0.0005518496 0.00017194683 0.0014899909 -0.0014109552 -0.0003616712 0.00027084118 0.0002549081 -0.0023245183 0.0011262258 7.251464e-05 -0.0003766704 -0.0018225806 -0.00020200107 8.238107e-05 0.0011349246 0.001458359 0.001358446 -0.0018614435 0.0017967648 -0.0007528233 -0.00041395496 -6.33318e-05 0.0017444161 -0.0021929487 -0.0007350135 0.0018406603 0.0015656133 -0.0011714279 0.0001097729 0.0006770557 -0.00070781354 -0.0020934206 0.00049210875 -0.0017001098 -0.0006424204 0.00084988587 0.00091004884 0.0012759261 -0.0020311384 0.0006078249 0.002494438 -0.0007499254 -0.0008035969 -0.0017219352 -0.0006506798 -0.0004945826 0.0018030866 -0.0023221236 -0.0016836592 0.0013202007 0.00017510797 -0.00040933397 -0.00064738514 -0.0013280681 -0.0020817288 -0.00028950232 -0.0017251961 -0.0008163265 -0.00019657705 0.00031977985 0.0016602785 -0.0024833009 0.0006957154 -0.0007196489 -0.0019664702 0.000800265 -0.00013826019 0.0003877387 0.0020597368 -0.002323241 0.0017559007 -0.0012231236 0.0015243315 -0.00024448265 -0.0018978423 -0.00039750012 0.0024463409 0.0020184447 0.0002408966 0.00023789704 0.0019196351 0.00078365556 -0.0018890807 -0.0017964506 -0.00026548747 0.00094848475 0.0008587942 0.0015249178 0.0005460868 0.0009660076 -0.0014009797 1.0143034e-05 0.0018987791 -0.0016725457 -0.0020418 -0.0014008203 0.0002019608 0.00030808966 -0.0006390646 -0.001954316 0.0003518071 -0.0017258103 -0.0016213864 -0.0024761453 2.496061e-05 0.001526386 0.0016816887 0.0021181912 -0.0008491421 -0.001442579 -0.0007533815 -0.0013417304 -0.00095122063 0.0004772183 0.001674057 -0.00041917316 -0.00013083871 -0.0016237345 0.0003053525 0.0017295084 -0.0005693319 -0.0014678282 0.00022826646 -0.0008067179 -0.0005692288 -0.0023154023 -0.00079323107 -0.00034537097 -0.002449518 0.0010650575 -0.00013932912 -0.0007819274 -0.0020718728 -0.000712035 0.00024928665 0.0007061418 0.0013968006 0.0024718088 -0.00095785584 -0.0011827048 -0.0013405811 -0.0013218102 -0.0012128034 0.001214562 -0.00090350956 -0.0022414383 0.00065678894 0.002051516 0.0021896712 -0.0014728543 0.0009631156 0.0018374547 -0.0016291025 0.0024496918 0.0019664797 0.0017072726
process. -0.002372213 -0.00080401206 0.0024396013 0.00091311056 -7.619173e-05 -0.0024880182 0.00045588496 -0.00058169547 0.0024943282 0.0018478995 0.0016876557 0.0007049169 0.0008673612 0.0010915217 -0.0010816708 -0.000919227 0.0010266071 0.002205247 0.0010707644 -0.0018075785 0.0018519456 -0.0021091283 -0.0013272199 0.0019140607 -0.0024176573 0.0018057511 -0.0015547886 -0.0008613056 0.000600795 0.0020820792 0.0020389277 0.0021603224 0.00206469 0.00049784174 -0.0005542991 0.0006104007 0.0019153617 -0.0023565898 -0.0017629126 0.0012496293 -0.00068298425 -0.00095796224 -0.00066022994 -0.0024552722 -0.0019563963 -0.00076879025 0.0017180834 -0.0008959245 0.00014504348 0.00028209388 -0.0016156747 0.002408219 -0.0010450932 0.0016653687 -2.300716e-05 -0.0022533515 -0.0012951302 0.0011974683 -0.0015876764 -0.002272041 -0.0011996411 0.0022942876 0.00053397054 0.00054337503 -0.0016032832 0.00088923215 -0.0012477541 0.00030839746 -0.0014297032 -0.0014020851 -9.107264e-05 -0.0010290807 0.0008283078 0.00013740687 -0.002112493 -0.0010403147 0.0012361608 0.0013135395 0.0016585924 -0.00034414 -0.0020532962 0.0023428402 0.0024753008 -0.000541704 -0.00017604092 0.00174578 -0.00029490283 0.0004249278 0.0014663995 0.0012728923 -0.0011380917 -0.0021238306 0.00012691738 -0.00037564337 0.00016958988 -0.00093131687 0.0020144437 0.0020955312 -0.0011136767 -0.0007547325 -0.00041398965 0.000965799 -0.0016326152 0.00084333355 0.0017848224 -0.0002934814 -0.0018014377 -0.0018240284 0.0019897465 -0.0002768922 0.0014877557 -0.00057140086 0.0022703013 -0.0018733325 0.002052865 -0.0019910594 0.00083260844 -0.0023982036 0.0002767127 0.0024662716 8.781976e-05 0.0004364911 0.00081533054 -0.001990239 -0.0014686539 0.0024418836 0.00024063746 -0.0014192098 -0.0018539166 -0.0023343787 -2.3818575e-06 -0.0005439231 0.0020052814 -0.0005747762 0.0022277539 -0.0015024644 -0.0009935474 -0.0022320705 -0.0019472975 -0.0012301746 -0.0022153899 0.0018523438 -0.00034859753 4.4550514e-05 0.00030419743 -0.0005917924 0.00144218 1.5406404e-05 0.0012109566 -2.0665582e-05 -0.00015178625 -0.0013999647 -0.00018863799 -0.0006018161 -0.0006942826 0.001981128 0.00092150085 -0.0017898362 0.00080531696 -0.0014904921 0.0005211404 0.0022891876 0.00039941422 0.002397539 -0.00085817964 -0.002292254 0.00011405861 -0.0013272762 0.0014221556 2.0062318e-05 0.0013485947 -0.00032611727 -0.0011383297 0.00036405842 0.001897973 0.0009723243 -0.0017928528 0.0018086801 -9.4868476e-05 0.0022787321 0.0003192944 -0.001149838 0.0013924176 0.002383364 0.000179969 -0.001381897 -0.00043032574 -0.002256047 0.0005236538 -0.00017703208 -0.0018594294 -0.00044877408 -0.0018422466 -0.0011639076 0.0022136574 -0.0013076824 0.0011950913 -0.0022790686 -0.00040904153 -0.0018300607
Computational -4.868512e-05 -0.00041478104 -0.001645298 -0.0024320988 -0.0022995637 0.0018815934 -0.0005265665 0.00010461174 -0.00051155174 -0.0006682753 7.299194e-05 0.0023353067 0.00091261603 -0.0014050254 0.002164111 0.0003719749 -0.00019127782 -0.0021605943 0.0016108411 -0.002032921 -0.0015731435 -0.0013753548 0.0021632933 -0.0002644139 0.002090822 -0.00024281582 0.0009023207 0.0018590665 0.00064048776 -0.0016810417 0.0010954274 0.0013107113 -0.0018613276 -0.0012307885 0.0021709832 0.0015312065 -0.002411737 -0.0022816444 0.0010100161 -0.002273536 -0.0015367201 0.0010553373 5.414756e-05 -0.0017175719 0.0014155768 0.0017210497 0.0009124845 0.000116329174 -0.0011148807 -0.0014057091 -0.0019857844 -0.0013818785 0.0005530871 0.0001100644 -0.0007264671 -0.00248142 7.398613e-05 0.0007263911 0.0019744104 0.0021352875 -0.0020344295 -0.0012869682 -0.0008909666 -0.00024693925 -0.00145839 -0.001174944 0.0014970987 -0.0003012549 0.0003724713 -0.001422952 0.0012415927 -0.00015128311 -0.0016105777 0.0007904554 0.0006124985 0.0010576365 -0.00033085234 0.001999312 -0.0018589228 -0.0023652946 0.00083200284 0.0020069936 -0.0022052869 1.2046425e-05 -0.0017670235 -0.000825603 0.002082584 -0.0020304325 -0.00015878119 6.0427235e-05 0.00055375835 -0.0011638451 -0.0016515406 -0.001139561 0.00021594903 -0.0022951835 0.0018513552 -0.0017904576 0.0012102586 0.0020351312 -0.0016520616 -0.0003612861 0.001508194 -0.0005225043 -0.001513533 -0.00040950184 0.0015987447 0.00010523829 0.0015142355 0.002323661 -0.00130064 -0.0010295099 -0.00084087544 -0.0011224579 -0.002315953 -0.0014640918 -0.00047912262 4.6696747e-05 0.0023310012 0.0002982861 0.0019114027 -0.0012093364 -0.0007383785 0.0020235078 0.0020133234 0.00023752684 0.0014393018 -0.0022857876 -0.0024168582 0.0014053672 -0.00085889664 -0.00044427696 -0.002448346 0.0003036519 0.00030685985 0.0007285604 0.0022764644 0.001202791 -0.00029631774 -0.0012375802 0.00086653885 -0.0006223214 -0.0007457972 -0.0012878648 0.0008815951 0.00023184484 3.552134e-05 0.0012075785 -0.00169164 -0.001463975 0.0019661332 -0.0016472759 -0.0023486346 -0.002422246 -0.0020919128 -0.0011823755 0.00018916908 -0.00041059474 0.0017363112 0.0002716747 -0.0021388289 -0.0010778591 0.0006757728 -0.002118372 -0.0006040877 0.00038412027 0.0020940905 -0.0016137671 -0.0021387225 0.0021116827 -0.00086728693 0.002340464 -0.00028454093 0.0023298399 -0.0011355397 0.0024058172 -0.0022694652 1.7628772e-05 0.00043887668 -0.0015774297 -0.0015595462 0.002303768 2.0220177e-05 0.0018906505 0.0003043767 0.0018327902 0.00018896977 0.0021622786 -0.0008935961 0.0010682119 2.8906157e-05 0.0018960279 -0.0016698944 -0.0010200149 -0.0016485587 0.0012542957 0.0011578179 -0.0010059885 -0.0019658676 -0.0022497957
beings -0.0003701325 -0.0002184338 -0.002018103 0.0016165776 -0.00034621777 0.0001277763 0.0002857542 -0.0014461657 0.0007969055 0.0015729535 0.00025644922 0.0010939857 -0.0017575606 -0.0024309375 -0.0012537682 -0.0012644749 0.00021636952 -0.0015626162 -0.0022285378 0.0012139138 -0.0018623304 -0.001995014 0.0019068704 0.0009944364 0.0014090012 0.0024985932 0.00090758945 -0.0014285155 0.00010539731 0.0009107182 0.00022021378 9.365147e-05 -0.0020805728 0.001438601 0.0021025096 -0.0010221687 -0.00090174936 -0.0006996539 -0.0015072939 0.0018101567 0.0005867919 0.0023275632 0.0022931262 0.0005409119 -0.0010882908 -0.001695145 -0.002122044 0.0017677033 0.0021391641 0.0011198989 0.0011574011 0.002440224 -0.0024195965 -0.0019983414 -0.0006910679 -0.002308037 -0.0021140086 0.00032593217 8.3973166e-05 -0.0024563845 0.0020693466 -0.0012426972 0.000766475 -0.0015229291 -0.0014447066 -0.00092453987 0.000921692 0.0007172399 -0.00061386405 -0.0015600171 0.0011365556 0.0006410717 0.0021364153 0.0021787952 0.0011373465 0.0011852633 -0.0019658096 -0.0011368816 0.002463669 0.0006933159 -0.00019801757 -0.0015713358 0.0006997469 -0.0010565886 0.00084622717 -0.0012747132 -0.0021975844 -0.001280058 -0.0024270888 0.0022618328 0.00069497526 0.002449525 0.0022207466 0.0017082845 -0.0002775949 -0.0008972314 -0.0014642506 -0.0010191468 0.00090498035 -0.001242806 6.927876e-06 -0.0022335153 -0.0013736913 0.0016471357 -8.848286e-05 -0.0019811022 -0.00062452105 0.0013239274 -0.0012912991 -0.0020189215 0.0006047867 -0.0012091893 -0.00021291221 -0.002225607 -0.002417554 0.00032362877 0.0008740742 0.0010032239 -0.0006542372 -0.0010385338 0.00199149 0.001141907 -0.0004948855 0.00048168423 0.002484111 0.0011198148 0.0023219744 -0.0020484806 -0.00020387792 -0.00060027477 0.0016715229 -0.00037229387 -0.00051666587 0.00027774996 0.0011414813 0.0009223032 0.00059005804 0.00045452127 0.00065409485 -0.00019336771 -0.00021919701 -0.0023691691 -0.0022155924 -0.0024939766 0.0012501338 -0.0015495342 0.0022820858 0.0022785277 -0.00038780994 -0.0023306936 0.0014863326 -3.0176016e-05 0.00049228617 0.0012177946 -0.0005721161 0.0013549894 0.000386548 -0.002105248 0.0015781047 -0.00010271347 -0.0008915084 -0.001777721 0.00093092746 -5.6067947e-05 0.00054477225 0.001277766 -0.0013064372 0.002249897 -0.0008034471 0.0021967134 0.0014657835 0.0006266262 0.0008580175 0.0011733505 -0.000721468 -0.0019966764 -0.0024600308 -0.0007500985 0.0012810756 -0.000906755 0.0012889572 0.00178912 -0.0023128795 -0.0017558315 0.0019390197 0.0020026257 0.0012699906 0.0013737569 -0.0019058031 0.0012796242 0.00074899825 -6.994698e-05 -0.0017575106 0.00041784695 0.00067582005 -0.002351681 0.00025694608 -0.0015435985 -0.0019445177 0.0016007028
that 0.0019319807 -0.002181333 0.0015356783 -0.0008833506 -0.00046910974 -0.0008017367 -0.0020633051 0.0013278252 -0.002107895 0.0015665791 0.00096030463 0.0011912088 -0.0018690387 0.0006026793 0.00039739395 0.00077429926 0.00032057823 0.0012648604 0.00018072547 -0.0023410812 0.0021578348 0.00031333836 -0.001263501 -0.0006481436 -0.002248378 0.00034361938 -0.00047668582 -0.00040460704 -0.0008276951 -0.00015755603 -0.0016813322 -0.0003755649 -0.0010645348 -0.00075622136 0.0017355634 0.00042125676 -0.0002655699 0.0006877894 0.0016655559 -0.0016272517 0.0007440394 -0.0005529496 -0.0018435671 -0.0005674263 -0.0024640902 0.0018687919 0.00052782125 -0.001774932 0.0017173453 0.00049667456 0.0017620604 0.0006467034 -0.001707155 0.0018379702 0.0003039355 -0.00013115071 -0.0018202286 -0.0018886771 -0.0014689427 -0.0017779451 0.001857507 0.000110636 0.0024628504 -0.0014579596 0.00086396583 -0.0011391493 0.0017166962 -0.0017178741 0.00093926536 0.00092329504 0.0005904522 0.00021866104 -0.00044012093 0.00040332484 0.0008932254 0.0012268189 0.00036422838 0.0023281518 -0.0010486761 0.0012961477 -0.0022081882 -0.0010247492 -0.0016690891 0.0008309488 0.0017460142 0.0011341751 -0.002007341 -0.00115751 0.0024484177 -0.0023970273 0.0019064955 -0.002033388 0.0013896558 -0.0016039064 -0.0022856067 0.0016918872 0.0016677501 0.0021309182 0.00043659797 0.00093382085 -0.0005919945 0.0012645158 0.0012059938 -0.002124798 0.0005909563 0.0010148743 0.0016310848 -0.00074176455 0.00027347775 0.0023490796 0.0008323644 -0.0018372244 -0.0014272785 -0.0007685161 -0.0011011716 -0.00036875275 0.0014722864 -0.0018039073 0.001248902 0.00078513706 0.0017669694 0.002291177 0.0018724101 -0.00012358162 -0.0016306093 0.0020892909 -0.0023938294 0.0022593816 0.00045327027 -0.0012199751 -0.0008743864 -0.0018328959 -0.0020096689 0.001323764 -0.0006027835 1.5228754e-05 0.001694826 -0.0012942425 0.0011625367 0.0009782887 -0.0014049911 -0.00042642653 0.00233369 0.00014122482 -4.4104178e-05 0.00012116018 -0.00060272275 0.00078391284 -0.0017965969 -0.0009382721 0.0014128243 -0.00018732157 -0.001244195 -0.0019047144 -0.0015819401 0.0001720644 -0.0015321827 0.002005482 0.0003661078 5.576969e-05 0.0010133311 9.934325e-05 -0.0003093877 -0.0009536698 -0.00032793987 0.0016683592 -7.454073e-05 0.0016025826 -0.0005775717 -0.0017624631 -0.002160449 -0.00054758333 0.0012389105 -0.0008983853 0.0019567693 -0.00036959 -0.0024216755 -0.00023628492 -0.0007252949 -0.0013636553 0.0022577662 -0.0014497396 -0.0013754993 -0.0013193246 -0.0020576916 -0.001743575 -0.0019051376 0.0008380108 -0.00078081933 -0.0011405542 0.00073709106 0.0020765783 -0.0011537537 -0.00092387164 0.00019248249 0.00013341336 0.0009471909 0.0003314847 0.00019974611 -0.0015165705
inhabit 0.0021229112 0.0015278878 0.0015143026 -0.0018683246 -0.00040913373 0.0024958868 -0.0019212883 -0.00074967765 -0.00058049825 0.0009636455 -0.0023883192 -0.0018192276 -0.0015834712 -0.0024261703 0.00043609645 0.0014096154 -0.002322288 0.00031931465 0.0015579234 0.00045870803 0.00079544215 0.0021530855 0.0023838128 0.0019025481 0.00074287853 -0.00054509076 0.00067625544 0.00011077616 -0.0004157615 -0.00027893065 -0.00026546884 0.0016409275 1.2238277e-05 0.00241363 0.0020236704 -0.00024352781 -0.001524465 -0.0023074502 0.0018254109 -6.989157e-05 0.0011964554 -0.002331342 -0.0021593266 -0.002490064 -0.00017586793 -0.0016334229 0.0016644765 -0.001443136 0.00085410685 0.0022506998 -0.00055443344 -0.0011878106 -0.0008835223 0.0021926668 -0.0024330071 0.0018192697 -0.0020898068 -0.00016119401 0.0019784058 -0.00075782 0.0009119194 0.00094729266 -0.002165339 0.00014437619 -0.0007766092 0.00015771738 0.0014296542 0.001471966 0.0022577224 -0.00024369685 -0.0014048555 -0.0023224324 -0.0012450591 0.002416317 -9.419536e-05 0.0019120402 0.0010148645 0.00013231183 0.0004889639 0.0014969329 0.0001244701 0.00022496842 -0.0006408823 -0.00034355232 -0.0022420785 -0.0015245166 -0.0017503857 0.00035098335 0.0022839638 0.0011123517 0.0010662978 0.00062016165 0.00176524 0.0005829232 -0.0014638143 0.0012140751 0.0010717195 -0.0016889188 0.00047435053 -0.0021479896 7.9028076e-05 -8.6277956e-05 0.0011930985 -0.00090438966 -0.0016423212 0.0001704467 -0.0024353468 -0.0014609533 -8.76179e-05 -0.0018727254 0.00021232432 0.001219877 -7.959595e-05 -0.0015598952 -1.165201e-05 -0.0021544697 0.0010432254 0.001427867 -0.0019666885 -0.000738351 0.0012396716 -0.0012239409 -0.0014908782 0.00064764614 -0.0018527466 0.0016691531 0.001411926 -0.0013639891 0.00023868284 0.0017886418 0.0014357516 -0.0012502542 0.0016461178 0.0010253172 0.0017963131 -1.4673453e-05 0.0020942623 0.00013223174 0.0017518993 -0.00072022853 0.00027025375 -0.00015031965 -0.0022776057 0.0019890429 0.00089858496 0.0020573223 0.00018079183 -0.0017148566 -0.0003688368 0.002474893 -0.0017022442 0.0012292012 0.0022184853 -0.0023660397 -0.00077493244 0.0024645529 -0.0019250351 0.00045732432 0.0007913569 0.00077670533 0.0023487527 0.000938789 0.0015336145 -0.0016378795 0.0008055654 -0.00054572173 0.00014852337 -0.0011735093 0.0010377581 0.0013040882 0.0004483792 -0.00058912905 -0.000825524 -0.0014632824 -0.0020671233 0.0019497802 -0.0020635205 0.0014334372 0.00084085576 -0.0023557656 -0.00060554617 -0.0011081778 -0.0016676872 0.0004723242 0.00100245 0.0022842563 -7.3754694e-05 0.0012767941 0.0011924049 0.0019451636 -0.0021183512 0.0011335551 0.0019241609 0.0014446052 -0.0011419621 0.0005209006 -0.0014541199 0.001087642 0.0008958962 0.0006072386
computers. -0.0058688037 0.008955138 -0.0062977695 -0.005942119 -0.019626765 0.005865425 0.0069794073 -0.0079639945 0.012605382 -0.004233774 -0.015513712 0.009580886 0.012138556 -0.0065050186 0.0010024542 -0.0011502824 0.0060548503 0.01001618 0.008577451 0.009862032 -0.006133551 -0.013273701 0.0018704139 0.007310577 -0.0066870237 0.00037781335 0.0072579896 0.0069331266 0.006165252 0.0074777794 -0.013918505 -0.005587615 -0.0030643935 0.0098067345 -0.00067657814 -0.0030181166 -0.005596018 0.016819075 -0.01213567 -0.0014551597 -0.015015431 -0.004187516 0.0129271345 0.009853607 0.0093500065 -0.010232994 -0.008546331 0.0016376933 0.01791138 0.0047513773 0.006390917 -0.0037303169 0.0056914645 -0.012726613 -0.013769894 0.009474495 0.012419271 0.01782457 -0.013295091 0.005887399 -0.012800498 -0.01625472 0.0060168593 0.00012993776 -0.0021173777 -0.009146183 0.016176704 -0.0060969433 -0.013503672 -0.01176246 -0.016507851 -0.00067638175 0.009145889 -0.0066466676 0.015057535 -0.009945615 -0.010982569 0.005957558 0.0003114366 -0.00041290067 0.0033144262 0.0053526964 0.010941671 0.007813218 0.0016836419 0.0024769483 -0.0020037703 -0.0042910576 -0.008172773 0.0044231312 -0.0037117573 0.0064531807 0.008150814 -0.0057087666 0.003110222 0.01422669 -0.0040924763 0.012691443 -0.014450578 -0.009122142 0.01109711 0.0026627637 -0.0040318966 0.0063052666 0.011676685 0.0044564516 -0.001217646 0.0051676817 -0.018123103 0.010002634 0.0063275667 -0.011433978 0.004740029 -0.00059838337 0.016934855 -0.009430384 0.004813363 -0.016823571 0.006660788 0.0101736495 0.004312962 -0.011891641 0.0028756224 0.003185186 -0.0067768395 0.006015005 0.01859649 0.01477219 0.009094306 0.0017684429 -0.006566954 0.007606114 0.011237725 -0.007911916 0.0059841345 0.013863977 -0.013793093 -0.004561785 -0.008216272 0.0011550384 -0.008473654 -0.020672617 -0.01954549 -0.0074789575 0.00010229416 -0.016540896 0.007938039 0.009377477 0.00041225785 0.0011834998 -0.0010148218 -0.016707681 0.00064662227 -0.009947269 0.00042616815 -0.005785175 -0.020123843 0.008564832 -0.0074583744 -0.005447512 0.011406068 0.00040525428 -0.0037918503 0.0018216576 0.009647621 -0.0056102723 0.013046477 -0.0076949364 -0.012957056 0.007228573 0.0077586495 -0.010382865 0.009029108 -0.0011009139 -0.0010147428 0.0073743504 -0.0015210436 -0.004616868 -0.00012168973 0.0039088307 -0.0018421464 0.015171385 -0.0041968757 0.0072941235 0.010488598 -0.0029768755 -0.012712223 0.0015273722 -0.011180879 -0.016133152 -0.009504178 -0.0032064142 0.0033946133 0.010265815 -0.008819444 -0.009746205 -0.0015509743 0.003794194 0.010179836 -0.008505149
As -0.0024514582 -0.00071559695 -0.0019166064 -0.0017613515 0.00016025244 0.0018807547 -0.0005574024 0.0019874116 -0.0015253054 -0.0002969792 -0.0023722642 0.0004819061 0.002182934 -0.0019965607 -0.001790582 -0.0014263242 -0.0005632534 -0.00010900013 -0.0015520215 -0.00082651014 -0.0014075863 0.00044190767 0.0010299804 0.00072155776 0.00043117278 0.0016680737 -0.001180079 -0.0024160566 -0.0021864304 -0.0015095609 -0.00090695266 -0.0022958757 0.0013155644 0.0024916609 -0.0007415855 -0.0019431082 -0.0014065313 -0.0023357146 0.0023957468 0.0022111959 -0.0007461783 0.0020922963 0.0007810318 0.001621569 0.002150815 0.0015964084 0.00209363 -0.0003728848 0.0008873143 -0.0017884221 -0.002227244 -0.00091227377 -0.0004686662 0.0019840212 4.2956788e-05 -2.3025787e-05 -0.0008686307 0.00040519447 0.0006646528 0.0020184899 -0.0016127685 0.00017479272 0.0008176479 0.0018796073 0.0019598645 -0.0004149126 -0.0019996997 0.0002390549 0.0020821248 -0.0006065789 0.00045233895 -0.00013231277 0.00076941587 -0.00045450754 0.000885349 0.0004645877 0.0019382085 -0.001948891 0.00024393923 0.001485324 0.0019212407 -0.00066445675 0.00021270337 -0.0022755973 0.00089076604 -0.0014513644 -0.0018693679 -0.0007265231 -0.0009167718 0.0012845842 0.0019568936 -0.0002721008 -0.0003869098 0.0009904304 0.00034275954 0.0016685845 0.0005020688 0.0014375243 -0.0006391278 0.0014544055 -0.0022598563 0.0004297148 -0.002275435 -0.0011291429 -0.0008768892 -0.0017469486 0.000589174 0.00015717885 0.0007604351 -0.001417618 -0.000177918 0.00045212358 -0.0021928484 -0.0016877938 0.0019955365 -0.00026728353 0.00035644928 -0.0011731249 -0.0003251743 0.0012296236 -0.0024345438 0.001999409 -0.0014700317 0.0009483567 -0.00053688046 -0.0019452947 1.665391e-05 -0.0024324267 0.00044973963 0.00010654796 0.001912904 -0.001965755 0.0010251459 0.00045978045 -0.0022817224 -0.00044957455 0.0009795239 -0.00010681781 0.000795302 -0.0007905271 -0.00037381728 -0.00086727797 0.002228741 0.002026617 0.0015389309 0.00037253578 -0.00052628317 -0.00159715 0.001966651 0.0024721958 -0.0019032666 -0.002440342 -0.0022516304 -0.0008565226 0.00062173186 0.0008669372 0.002481874 -0.0023952245 0.00025212555 -0.00047416356 0.0020391755 -0.0016695887 -0.0012982812 0.001385347 -0.00018041441 -0.00030931272 -0.0006216031 0.0021033231 -0.0018806263 -0.00048105558 -0.0014837094 -0.00044436334 -0.0008574631 0.0004543499 0.0019622464 0.0014453689 0.0008297709 0.0011018633 0.0015010126 -0.0009494319 0.0020341477 0.0022996971 0.0013746035 0.0010246271 0.00089392834 -0.00071565504 0.0011963511 0.00045227446 -0.0024253023 0.0002912695 -0.00044212095 0.000933727 -0.00069507747 -0.002081882 -0.0021201095 -0.00041727908 0.00115587 -0.00146434 0.0012371379 0.0017114081
they -0.00036706775 0.00085437205 0.0019797762 0.0017403713 0.0006202501 0.00054592034 0.0022678329 -0.0020500424 0.00021842425 0.0013770799 -0.002110038 -0.001906479 -0.0024108025 -0.0015396655 -0.00027777022 -0.0013551324 0.00021430082 -0.00031090854 0.0008159133 0.0011194139 -0.00034661987 -0.0016032564 0.0023018462 -0.0019553031 -0.0014793759 -0.0024945098 -0.0011787134 -0.0023957607 0.0010647702 -0.0023503585 -0.0015550058 0.0017681317 0.0017154063 4.7806418e-05 -0.00035646348 0.0015832139 -0.0017676344 -0.00033852272 4.8258575e-05 -4.0496234e-06 -0.001652379 0.0018773638 -0.00081489794 -3.09553e-05 -9.082956e-06 -0.0017243635 -0.0020643228 -0.002296874 -0.0001744174 0.0013731385 0.000602538 -0.00041399756 -0.001044059 -0.0021144692 0.0005919563 0.0019200505 -0.00044887653 -0.0009930956 0.0007600682 -0.0009195447 -0.00013272557 -0.001550148 0.00062821107 -2.9207673e-05 -0.0020662865 0.0002717101 0.0024161632 0.0024861959 -0.0003991148 0.0012897847 -0.0023375868 -0.0022329148 -0.00030485773 0.0006315997 0.0013445939 -0.0010228109 -0.00067940983 0.0016901032 -0.0011922079 0.002051853 -0.0022063558 -0.0007476094 -0.00091196084 -0.0017563661 3.578444e-05 0.0011389481 0.002101468 0.0013174547 -0.0014883775 0.0008887672 0.00011176523 3.0615134e-05 0.0023400686 0.0007418543 -0.0015085661 -0.0023651596 -0.0013400433 -0.00068265083 0.0018887059 0.002460787 0.0009666439 0.0020988178 0.0014395858 0.000771038 -0.0014953071 0.0021556984 0.0014092932 0.0007225103 -0.0016741457 -0.0022996846 0.0013958996 0.0006224483 0.00028939126 0.0009084204 0.0016249972 0.0009890816 0.0010304514 0.0007995642 0.001945042 -0.000407669 -0.00034283916 -0.0012742084 0.0011034915 -0.0021625021 0.001654204 -0.0014841937 0.0020144824 -0.0007233578 0.00032334775 0.00054361136 -0.0013884356 -0.00035187928 0.00076575275 -0.00068052765 0.0005665424 -0.00046310038 0.001145859 -0.00041680457 -0.00015406962 0.0014619953 0.0022559585 -0.00225008 0.00061897864 -0.0021209135 0.0018501235 -0.0023902901 0.0013393892 0.0020476896 -0.0022020938 0.00042330823 -0.0012048408 0.0005814135 -0.00058600993 -0.0007530162 0.0006207486 -0.0019280091 0.0005535772 0.00013344106 -0.00030234642 -0.0002686896 0.0018222416 0.0017195591 0.002062892 0.0002644863 0.002454698 0.00026657735 0.00018024677 1.1144904e-05 -0.0012124622 0.0016081929 0.00055413716 0.00040576328 0.0017397879 -0.00223863 0.001253837 -0.0023715051 0.0015306068 6.134133e-05 -0.0017155682 -0.0015205225 -0.0011624232 0.0003557899 0.0011886286 -0.001250819 -0.0002141071 0.0012284035 0.0011551708 0.0019491897 0.002155391 0.0007739761 0.0020010704 0.0022501457 -0.0011548131 -0.00036670454 0.00032413565 -0.0016361335 -0.002061883 -0.0016665402 0.00028675701 -0.0024833435
evolve, -0.0038618923 0.0066771647 -0.005827136 -0.008684751 -0.02135071 0.0094097145 0.0076875994 -0.008248031 0.013131493 -0.003455667 -0.014273587 0.013006474 0.011502362 -0.008143688 0.0033392003 0.003263497 0.0037074029 0.0073741307 0.0075463895 0.0057967915 -0.006702521 -0.013077362 0.004457926 0.0069408696 -0.008060898 -0.0026742562 0.0092601655 0.0045265323 0.0045980876 0.005213002 -0.016745733 -0.0076683764 -0.0025872118 0.009350449 -0.0004420882 -0.0056634196 -0.0052024354 0.016796399 -0.012153405 -0.0028391357 -0.014732637 -0.007935322 0.010511248 0.009887571 0.0065963147 -0.011357413 -0.011469008 0.004607473 0.016110484 0.0030512155 0.0056867083 -0.00090123684 0.008366081 -0.01341324 -0.012506432 0.006957062 0.01314961 0.017433923 -0.014420763 0.0049154074 -0.013859508 -0.014041742 0.007876816 0.0027782554 -0.001168826 -0.0058158343 0.013017279 -0.0041759205 -0.011822062 -0.008987697 -0.015445855 -0.0015191955 0.010168114 -0.0069265603 0.014893386 -0.01130429 -0.010553796 0.0097183185 0.0010710164 -0.0004661856 0.00046507161 0.007078566 0.010567736 0.00555602 0.004116481 0.0026916775 -0.0051912526 -0.001988863 -0.008793926 0.0056313537 -0.0045234035 0.004433519 0.0042027216 -0.0061523817 0.0020783388 0.016625805 -0.002517798 0.009494602 -0.014470424 -0.0064602806 0.011072432 0.0018632469 -0.005448432 0.0051050973 0.010670414 0.0017136126 0.0022232374 0.0076502315 -0.018760059 0.010427825 0.006246852 -0.010905049 0.0027967393 0.0020074644 0.018531118 -0.00713092 -2.4728315e-05 -0.016167847 0.0073020374 0.013060987 0.0054106996 -0.013339393 0.0003085729 0.0023078197 -0.0085723745 0.0076559773 0.0231303 0.015185456 0.0077505945 -0.0014055687 -0.0070698317 0.009216976 0.01259542 -0.007758553 0.003342415 0.013640258 -0.014042709 -0.005670909 -0.007898677 0.0008789833 -0.012496119 -0.01925812 -0.01895643 -0.010214149 0.00023533603 -0.014573072 0.009314474 0.008336532 2.2649998e-05 0.0005130545 0.0013198887 -0.016839711 0.0025580314 -0.0064672125 -0.001959127 -0.008439968 -0.020902283 0.007029434 -0.008033676 -0.0061889435 0.009404772 0.00085375545 -0.004728747 0.0016608994 0.0071672974 -0.007908885 0.014239693 -0.011667467 -0.011791036 0.0095397355 0.0084095765 -0.009571971 0.0057739043 0.0020380006 8.7745524e-05 0.0060367757 -0.00097269693 -0.0026810307 -0.00025205722 0.0036401288 0.0005465412 0.015488193 -0.0012787738 0.009195138 0.0128589235 -0.0028947648 -0.013627408 0.0036974978 -0.010943644 -0.012928451 -0.010152507 -0.006767548 0.0036125313 0.009891644 -0.010989482 -0.01125557 -0.0036314423 0.004648827 0.01046536 -0.006088701
manipulate 0.0021507405 -0.0015724837 -0.0014223697 0.0006414151 -0.0023306506 0.0024334318 0.0016329456 -0.001066055 -0.00046475697 -0.00010660477 -0.0005740881 -0.00088173326 -0.00017797225 0.0012624091 -0.0011702895 -0.0017096865 -0.0014099345 -0.00212238 -0.0014761289 0.0021996354 0.00044777966 0.0017747935 0.0021128724 -0.0007785746 -0.0013773921 0.0023162044 -0.0015819302 -0.0008347967 -0.0006290254 0.0002072358 0.00071294047 -0.0016479364 0.0007365751 -0.0015436306 -0.0024532145 0.0015458288 8.058129e-05 -0.0018453598 0.0003691134 -0.0020685967 0.001294665 0.00018280302 -0.0008385292 -0.00035524438 0.0020840396 0.0014746576 -0.0013016457 -0.002183689 -0.0018907946 -0.0024178193 0.00051453593 0.0011792558 0.0017089434 0.0006292581 -0.0010622891 0.00091334525 -0.0016525579 -0.00054211565 -0.0024542501 -0.0014605072 0.0011505238 -0.0017040137 -0.0008086809 -0.0015681474 0.0012263379 0.0022305246 -0.0012356591 0.00016519194 -0.0015919673 -0.0023799478 -0.0018181843 -0.00061007706 -0.00085110427 0.0023302673 -3.395253e-05 -0.0017011407 0.00012848387 0.0012682877 -0.002040845 0.0023490232 0.0004421263 -0.0023188398 -0.0021123718 -0.0016912045 -0.002011696 0.0016236473 -0.0022053036 -0.0018164327 -0.0022246374 0.00012447895 0.000317086 0.00089393207 0.001155158 0.000581634 0.0024082866 -0.00030130357 9.007193e-05 -0.0012534433 -0.0005827615 0.00066752546 -0.0016383105 0.00092433835 -0.0008823123 -0.00017106929 -0.0024454503 0.0005025647 -0.0010259631 0.001031861 0.0015519303 0.000655985 0.0007779845 0.0013467318 -0.0016849958 -0.0019986038 0.0022675483 -0.0013740435 0.00045803096 -0.0016922223 -0.0012549367 0.0019527539 0.0019434537 -0.0011378888 -0.0013231775 0.0013283929 -0.002224752 -0.0014596364 3.6003068e-05 0.00023100991 0.00090354984 -0.00223762 0.00016486645 -0.000686664 0.0009814915 0.001101838 -0.00036783423 -0.0012084343 -0.0015603781 -0.001617372 0.0013538604 0.00077530136 -9.5991185e-05 -0.0010005975 0.001967851 0.0014087479 0.0011018934 -0.0004393831 -0.00016749976 0.0014167139 -0.0017391255 0.0009645992 -0.0016852086 -0.00014552195 0.0010527098 0.00071400823 -0.001771112 0.00028811465 0.0010208017 0.00027669757 -0.00048125023 0.0005131932 -0.0006722256 0.0010200934 -0.0021483891 0.0001243311 0.0012866752 0.0017805146 -0.0022371768 -0.001524853 0.0013101113 -0.0008467814 -0.00017773663 -0.0008769939 0.0018398338 -0.0010727185 0.001368175 -0.0020263644 1.6834121e-05 0.0023304066 -0.000820401 0.0021221987 -0.0007514795 -6.733625e-05 0.0019483808 0.00030734926 -0.0016417056 0.0013376819 -0.0005445173 0.0007828963 -0.002394185 -0.0013281417 0.0020779292 0.0003467009 0.0010649117 -0.0010359486 0.0013696975 -0.0017199662 0.0014064987 -0.0003058929 0.0017746319 0.0011678571
other -0.0014387673 0.00095356186 0.0022115153 0.0019214619 -0.0007441046 -0.00076277764 -0.0020482063 -0.0006385436 0.00017928891 0.0019716416 -0.0024535786 -0.000117871445 0.00025030877 0.0019023977 -0.0024572632 -0.0012938862 -0.0005901995 0.0007322382 -0.00094734016 -0.0010604087 -0.00024629687 0.0013102393 0.000520953 -0.001064887 -0.0014576744 -0.0015472457 0.0024066917 0.0010451537 8.841604e-05 -7.673167e-05 -0.00091091124 0.0016008029 -0.0016339559 -0.001398466 -3.8367463e-05 0.0014476818 -0.0007803828 -0.0014505407 0.0012721613 0.0011297115 -0.00010528322 0.00026377803 -0.00078811974 0.0014706259 0.0021666116 -0.0017975857 -0.00020306534 0.0015425826 -0.0023458484 -0.0019405356 0.0021992489 0.0024728887 -0.00010560546 0.001723601 -0.0020489176 0.000115770614 0.002123427 -0.0018429079 0.0017492305 -0.00067626627 -0.0014855923 0.0014292607 0.00090824044 0.0015181531 0.0017727842 0.00045173313 0.00069740973 0.0016949833 0.00038594147 -0.0024808012 0.0003276216 -0.0009081018 -0.0019032052 0.002260957 -0.0024961825 0.00014014775 0.0021725763 0.0011064338 -0.00039955135 0.0010394827 -7.81056e-05 0.0022992734 -0.0023532838 0.000634372 3.0357623e-05 -0.0018223496 -0.0022871366 0.00022986671 2.0452077e-05 0.0007078191 0.00044560735 -0.0004889807 -0.0010508242 -0.0019415825 0.0014917431 -0.0011167013 -0.0012170315 0.0012882126 -0.0023270478 -0.00064343365 0.0001590678 0.0009737655 -0.0013166451 5.4699136e-05 0.0015633232 0.0015126606 0.0012816354 -0.0011278122 -0.0014423516 0.0003266721 0.0013620739 -0.00011957437 -0.00077410485 0.0006916714 0.0010675406 0.0019290536 0.0002510897 0.0007149433 -0.0013857418 -0.0010449728 -0.00018197601 -0.0014411377 0.00073735276 0.00035541388 0.001163586 -0.00040556584 -0.0015789863 0.0013705133 -0.0013490123 -0.0023957398 -0.00051046815 0.0009811923 0.0001385836 -0.0002259987 0.0019362587 -0.00067432015 -0.0014632543 0.0007532849 -0.0011668807 -0.00046770787 0.000531205 0.0013085555 0.0006627976 0.00076140463 -0.0021642481 -0.0008636236 0.00028816215 0.00043658633 0.0024744077 0.0017223195 0.0014556423 0.0002758212 -0.0013976084 3.4569995e-05 0.0016167243 0.0020254385 0.0014193212 0.0012072593 -0.0022960694 0.00039530895 0.0018045688 0.00037364103 0.00068652956 -4.264037e-05 0.001812886 0.002282421 0.0014636018 0.001302602 0.001338152 -0.0022242554 -0.001335094 0.0012392565 -0.0012075036 0.0022980287 -0.0008912352 0.00075313915 -0.00024688477 0.001953173 0.0023182621 0.0007542749 -0.0020273433 -0.0009893462 -0.0012280341 -0.0021332006 0.001813855 0.0019241842 -0.0021401085 0.0018836823 -0.0014054384 -0.0024328916 -0.00040259282 -0.00011965912 0.00073236483 -0.0021580872 0.0019479757 -0.0020281698 -0.0015737999 -0.0011963323 -0.0011052566 -0.00013457355
things 0.0024423976 0.0007253424 0.0007264118 0.0013863032 0.0004521194 -0.0006466252 -0.0018155097 0.0013372158 -0.001335051 -0.0024133516 -0.0008413672 0.00023152865 0.00031761895 -0.000665833 0.0013684719 -0.00064929307 -0.00075556966 0.0024709255 0.0008873781 -0.0023761003 0.0019126018 -0.0008120653 -0.00023373752 0.0004115263 0.0014919112 -0.00014358899 -0.0016002613 0.00071985135 -0.00086514617 -0.00017691823 0.0008448323 -0.0015579256 0.002155454 -0.0023993636 0.00025556167 0.0021874476 0.0012580629 -0.00010070857 0.0022619586 0.0007030538 0.0002430994 0.0012492102 -0.0012976512 0.00074002193 0.00025272835 -0.001986892 0.0008749177 -0.00033503212 0.0023418972 -0.00013961666 0.0013298278 -0.0012906446 0.0005850184 0.00036677974 -0.0016006132 0.0012779012 -0.00097026885 -0.0010442385 0.00230907 -0.0018895033 0.0011488732 -0.0010111883 0.0010709665 0.0010487777 -0.0012663221 -7.07095e-05 0.0015449668 0.0005589577 0.00035373797 -0.00081993255 -0.0018767952 0.0018970403 -0.0013574603 -0.00030708173 0.001661967 -0.0012327263 0.001817957 -0.00046211807 -0.0012476211 -4.3495325e-05 -0.0011590146 4.5745634e-05 -0.0005753499 -0.0010539272 -0.001001569 -0.0023499774 0.0017050062 -0.002339937 0.000118601136 -0.00048488984 6.227521e-06 -0.001447205 0.0024682465 0.00041595567 -0.0008182442 -0.00058852823 -0.0019324034 0.0023245858 0.0006021538 -0.0016816047 0.0015798877 0.0015820838 -0.0020760598 0.0005273076 -4.5113964e-05 -0.00093330827 -0.0017784748 0.00094070286 -0.0020184761 0.002084462 -0.00059340685 -0.0013613772 0.0002809486 -0.00026929728 0.0013977021 -0.0011308041 0.0017682896 0.00083186245 0.00033883564 0.0011751677 -0.0019759424 -0.00088949443 -0.0011708582 0.00078418246 0.0009023384 -0.00061742216 0.0009754044 -0.0013661226 0.0017467663 0.00202428 -0.00076718035 0.001383753 -0.0017336118 0.0024605677 0.0016928525 -0.002010421 -0.0024468678 -0.0010087735 0.0023475657 0.00037119677 -6.2482664e-05 -0.002065387 -0.0021499791 0.0019106604 0.00065489975 -0.0011415931 0.0015813969 0.0006359678 0.0012428008 3.6547193e-05 0.00080084614 0.0012491306 -0.0024199055 -0.0015256875 0.0015615528 0.0009901545 -0.0019008296 0.0015090243 0.0006830385 -0.0023893102 -0.0006622443 0.00027975766 -0.0017886483 -0.0023771825 -0.00061398896 0.0011045611 -0.0009282124 0.0018033916 -0.001999964 0.0006886041 0.0017107041 0.00038293027 0.0019003628 0.0012855225 0.00033634086 -0.00030364655 -0.00046296 0.0011411917 0.00082942215 0.0015331758 0.0015899837 -0.0019083753 0.00057708495 -0.0023166626 0.0013454144 0.0009532103 -0.002109671 -0.0008897153 -0.0024722018 -0.0012208613 -0.00092912884 0.00092603825 -0.0012452652 0.0014980133 0.0002336665 -0.0009433478 0.0013435844 -0.0010954684 0.0014104033 -0.0005762052
data. 0.0016836999 -0.002402193 -0.00072927447 -0.00015663868 7.307809e-05 0.0003067865 -0.00015367265 0.0020726244 0.0010620013 0.00018739142 0.00015482376 -0.0010525661 -0.0018498298 -0.00031682756 -0.0015914979 0.00013505016 -0.001371777 0.0019700136 0.0010420906 -0.0014491385 0.00041966978 -0.0022279317 -0.00056573027 0.0009855479 0.0008624657 -0.002397849 -0.0021660603 0.0012645342 -0.0005133683 -0.00011092611 -0.0020997562 -0.002193619 -0.0010610202 0.0007330645 0.00023143808 -0.0016094807 0.0008779764 0.0017318651 0.002432332 0.00010819454 0.00032896688 -0.00011351914 -0.0016791188 0.002089993 0.0009930262 6.385357e-05 -0.00068792165 0.0018139379 0.00036160625 0.0012550505 -0.0009701863 0.00070094294 0.0014107521 0.00017226487 0.0007226099 -0.0016617011 -0.0015949603 0.0023084665 0.0002844038 0.0014063241 -0.0017175514 0.0009181821 -0.0011117413 0.0013223866 0.0015321653 -0.0014520746 0.0003878898 -0.001998597 -0.00058840273 0.0009761646 0.0012606226 3.7184916e-05 -0.0018769583 0.00045387167 0.0006862334 -0.00097517285 -0.0020590296 0.00085519254 0.0016458482 0.0019969377 -0.0011207685 -0.00053809653 -0.0015548953 0.0013102221 0.0015614992 -0.0007643119 -0.0016584888 -0.0001751415 -0.0002447411 0.00012969226 0.000965741 -0.00091189984 0.0013237912 0.00047373562 0.0012231513 -0.00185792 0.00014286884 -0.0019607225 0.0013235568 0.0016133273 0.0014526206 -0.0009530309 -0.001942907 0.0014630933 -0.0015030232 -0.0011135623 0.0017413851 0.0009830594 0.0016690358 0.00058690365 0.0011018645 0.0014050298 0.00045230496 0.001185871 -0.0011923015 0.002245816 -0.00087535405 0.00086367107 0.0011057183 0.0014988286 0.0009610497 -0.0012210736 0.0005888543 0.000900991 0.0018802043 -0.00029220828 0.0014186767 -0.0024350723 8.211285e-05 -0.001781342 0.00095598097 -0.0023655242 -0.0013000849 -0.0018954733 0.00085847755 0.0017040293 -0.0009719804 -0.00011893455 4.146481e-06 -0.0004935374 0.0005551269 0.0018492397 -0.0009677252 -0.002345159 -0.0009128528 0.0020354288 0.00031814422 -0.001994395 -0.0011698382 -0.0006199577 0.00065428484 0.0018128492 -0.0013496362 0.0005386688 -0.0024324558 -0.0011121145 -0.0016199276 -0.002265871 -0.0013561675 0.00042140926 -0.0024360009 -7.5744465e-05 0.0021333904 -0.0013336912 -0.001883524 0.00016736472 3.48615e-05 -0.0012262225 -0.0017816558 3.1074975e-05 -0.0005494007 0.0021146052 0.0012578699 0.0022251206 -0.00065161823 -0.00013066013 0.00079557556 -0.0010369059 0.00014610193 -0.0012789118 -0.00032346253 -0.0003537715 -0.00073786615 -0.00063988415 0.0016786112 0.0023291367 0.00033232453 0.0019148397 -0.0021975287 0.0015522069 0.0013337936 -0.0013216358 0.00070324657 0.0006890013 -0.00013079401 0.0014081849 0.0009050828 0.0018549375 -0.0008485069 -0.000772962
The -0.00060057605 0.0021546488 0.00123568 0.0006530422 -0.0011615679 0.0018031141 -0.0008105143 0.0016814307 -0.00053710747 0.0022861445 0.000108470675 0.0016726716 0.0018063504 -0.002496861 -0.0010417068 -0.0013379758 0.0008368662 0.001436776 0.0015683412 -0.002038342 0.0011371961 0.0005617102 0.00018558442 -0.0015884804 -0.000938631 -0.0003714359 0.0010531181 0.0020430144 0.00018512644 -0.000790374 -0.0011879959 0.0021277256 0.0007827354 -0.0003819398 0.00019335654 -0.0022591644 0.0015221424 0.00056611886 0.0020914492 -0.00046498794 -0.00247692 0.0012198654 -0.0020676479 -0.0013629794 -0.00088479754 -0.002468706 0.0016939575 0.0011429032 0.000768895 -0.0015887788 -0.0022230758 -0.0021152864 0.0008119696 0.00028356817 0.0015120022 -0.0006581327 0.0018391893 0.0020092032 0.002188283 0.0020225383 0.00078283926 0.0012697955 0.002224117 -0.0010025874 0.0023616902 -0.00060608354 -0.0007490531 0.0017842515 0.0011471338 0.0018698759 -0.00065723597 0.0021004993 0.0008654571 0.0020028427 -0.0009860956 0.0005371233 0.0019129189 0.001915962 0.00110203 9.55353e-05 -0.00057717145 -0.001594811 -0.0023634587 -0.00069273286 -3.3820514e-05 0.00081003853 0.0013642872 -0.0022447698 -5.8138045e-05 -0.00043751858 0.000418792 0.0006604197 -0.0024055862 0.002388047 -0.0014677814 0.0013845626 -8.9603476e-05 -0.0011105872 -0.0013334625 -0.001976437 -0.0014095178 -0.00036639743 -0.0018226528 -0.0012403917 -0.00090635207 0.0008891907 -0.000288622 -0.00021360815 -0.00037759217 -0.0020466424 0.0013176883 0.0014674361 0.0018428792 0.0009586315 -1.0917429e-05 -0.00031201565 0.0010083998 -0.00016985647 -0.00014415244 -0.0009932014 0.0016821353 -0.0020208233 0.00016127084 0.0020739655 -0.0016173854 0.000103732105 -0.0017462627 -0.0009914434 -0.0020891123 -0.0013448965 -0.0020342288 -0.000620535 -0.0010871672 -0.0011742746 0.000910643 0.0015472975 0.0021419865 -0.0008586844 -0.00077423605 0.0011327781 -0.00033885753 -0.0008153054 6.7265704e-05 0.0009024504 -0.0018682891 -0.00046700984 -5.4447446e-05 -0.0004358387 0.0024418244 0.0022621108 0.00239923 -0.0012468704 -0.0014175012 0.0018327786 -0.0015140795 0.0018381649 -0.0007060302 -0.0023819178 -0.00039477204 0.00023533287 -0.00072490925 0.002244289 -0.0020184764 0.0024589533 -0.0015006182 -0.000591096 0.0018660212 -0.0014953485 0.0017519142 0.0023156367 -0.0004893625 -0.0015704727 0.0024760691 0.00042626145 0.0016463483 0.0007741661 -0.00047088345 0.0010276088 -0.0019123917 0.0020084316 0.0022587539 0.0020025996 -0.0012655291 -0.0020253411 -0.0024049426 0.00036278577 -0.0012594133 -0.0016643098 -0.00035790796 -0.00073959853 0.00023713475 -0.00021268032 -0.0007968765 -0.0011074203 -0.0021238741 0.0021146322 -0.00015854114 -0.0016900422 0.00023934478 -0.00034002122
evolution 0.0012427345 -0.0024236478 -0.00053312187 -0.0008378476 -0.002000514 -0.002463703 0.0018400014 -0.0001978171 0.0014201296 -0.002179279 -0.0022310119 -0.0004551136 -0.0022429144 -0.0022039001 0.0015182472 0.001564295 0.0018799938 -7.294933e-05 0.0010123658 -0.00029645138 -0.00092593813 0.0006175847 0.002472043 0.0022912612 -0.0024788235 0.0020732465 0.0019617323 -0.002392797 -0.0006352585 -0.0015872341 0.00229161 -0.0014763075 0.00191424 0.0013354914 -0.00061679154 -0.0015288696 -0.0010271275 -0.0022285706 0.002444651 0.00043587177 0.0019828887 -0.002148911 0.002465033 -0.0015162426 -0.0005463145 0.0011856463 -0.0004068769 -0.001826778 0.0012158882 0.00047608884 0.002423882 -0.0024457884 0.001846307 -0.00057874713 -0.00084489817 0.00049994024 0.0013132966 -0.0023107405 -0.0012290879 0.00033169263 -0.0007521027 0.0013381294 0.002257103 0.00031284476 -0.00044225552 8.070841e-06 0.0018355446 -0.0018549284 -0.0007838723 -0.0014789259 0.000914725 0.001141696 -0.00066344324 -0.001026319 -0.0013542521 -0.0023517844 0.00225657 -0.0006763666 -0.00031645293 -0.001710312 -0.000609512 0.0011989041 0.0016450123 0.000358389 0.0023008613 -0.00037053297 -0.0004326508 0.002043832 0.0021041492 -0.00050158775 2.2327062e-05 7.7632256e-05 -0.0017340379 0.00060282834 -0.0009846392 0.001180765 -0.0005516561 0.0011210102 -0.0006693 0.0006431036 -0.002033382 -0.0021708095 -0.0017388568 -0.0010572788 -0.0013945848 0.0022578011 -0.0020427476 0.000527174 -0.0018775838 -0.00036486564 -8.881278e-05 -0.00023216126 0.0005878175 0.0011358862 -0.00014256709 0.0024160598 0.0002915559 -0.0017484399 0.0020472487 0.00016959314 -0.0022422983 -0.0024305321 0.0024452475 -0.0009258059 8.922629e-05 0.0023344536 0.002301605 -0.0017342021 -0.00023866119 0.0011680375 -0.0009565663 0.0013974339 0.002258786 0.002377566 0.0007202327 -0.0020233586 -0.0019901611 0.002310377 -0.0014129409 -0.00090872345 -0.0002793672 -0.0020199812 -0.00048800488 0.001814404 0.001354757 0.0022186614 0.0012665314 -0.0004945502 -0.00061088055 0.00062116305 0.00013634143 -0.00070026936 -0.0006563037 -0.0024560746 -0.002229813 0.0008562396 -0.00121378 -0.0021359036 -0.00077275187 -0.0016989502 -0.00045767543 2.0466978e-05 0.002117463 -0.00051611057 0.0005187087 -0.0024659256 0.002487217 0.0019269781 0.0018855906 0.0006354158 0.001130352 -0.0022278905 0.00048389635 4.1300897e-05 0.00059974124 -0.0008758473 -0.0017129802 -0.0004995144 -2.7292408e-05 0.0005271146 0.0018808763 -0.0009900763 0.0019535632 -0.0014319831 -0.0010593337 -0.00040310808 0.0017070286 -0.0022015474 0.0021366295 -0.0021760191 0.0011149144 0.00029493007 -0.0023718306 0.0018147104 0.0020126314 -0.00065688277 -0.00038896082 -0.0020380935 0.0016200887 0.0005833963
process -0.00600993 0.008513915 -0.0067967284 -0.008756077 -0.020092497 0.008620702 0.005742179 -0.009590522 0.015123218 -0.005425164 -0.012993927 0.013321881 0.008104219 -0.005421225 0.0007196998 -0.0014295458 0.004564861 0.011430444 0.0060481727 0.009196152 -0.007545337 -0.013562169 0.0028282544 0.009215786 -0.00656794 0.0017553471 0.0079492945 0.0066921692 0.0022982669 0.005634723 -0.013005531 -0.004871242 -0.0025623222 0.011206612 0.0008778226 -0.0051555657 -0.009419059 0.011634913 -0.0120435925 -0.0026457878 -0.014142536 -0.00628441 0.012866749 0.008211708 0.008062308 -0.011534709 -0.007683787 0.00021155426 0.019078894 0.0021458557 0.0019720502 3.7567763e-05 0.009494108 -0.010398763 -0.012205961 0.0065865666 0.014306256 0.014411154 -0.011908747 0.005452192 -0.014038618 -0.017452661 0.0071717696 -0.0004801546 0.0012945358 -0.009490587 0.017188394 -0.0022457626 -0.010889635 -0.009972674 -0.01700471 -0.002020253 0.010833946 -0.0030813606 0.015367776 -0.0110047 -0.008300438 0.008425337 -0.0018712343 -0.002098363 -0.00035348497 0.0071923765 0.011853926 0.004897936 0.0022410052 0.0011349807 -0.0004234633 -0.001031386 -0.009327999 0.008124735 0.0005807204 0.0050003277 0.008381174 -0.007346557 0.0046961545 0.015241651 -0.003855984 0.012490687 -0.013305501 -0.009161786 0.008315671 0.00161052 -0.004893303 0.0062327455 0.012345627 0.0016457032 0.0025825344 0.006403323 -0.019419856 0.008097921 0.006754858 -0.010182289 0.0036693818 0.0025235533 0.017005358 -0.00500341 0.004566718 -0.016048623 0.004238941 0.014119633 0.004712758 -0.013168379 0.002790597 0.0030515168 -0.0066200793 0.008580946 0.022066742 0.013047959 0.0071356967 0.0019139681 -0.0072680023 0.004723996 0.008078638 -0.00735045 0.0040165773 0.010087819 -0.016033089 -0.0017365036 -0.0066129677 0.0021719642 -0.008055802 -0.022656733 -0.018872956 -0.010473412 -0.001299322 -0.0151023045 0.008175964 0.010623317 0.0037158534 3.108004e-05 -0.00042386903 -0.013177628 0.0036814148 -0.00993193 -0.0024052712 -0.0064958483 -0.020927466 0.010617908 -0.006498047 -0.0036984487 0.011401753 -0.0024057156 -0.0024343983 0.002753186 0.004616644 -0.0072387024 0.010657566 -0.009367668 -0.012933765 0.007956117 0.0096286675 -0.009685952 0.0079948185 -0.0016727028 0.0024241323 0.007126747 -0.0052723982 -0.0020156621 0.000421285 0.0038912077 0.00096109894 0.0135364225 -0.0028644807 0.0065966696 0.012985904 -0.001735495 -0.015341874 0.0015291651 -0.012009705 -0.01615526 -0.011236599 -0.005641372 0.0023114155 0.007989107 -0.011130741 -0.01047576 -0.0016587614 0.0027161487 0.011951346 -0.010988409
is 0.0022924743 0.0021787132 0.0004996497 0.001447245 0.00051118643 0.0011414739 0.0023831152 -0.0014745736 -2.345373e-05 -0.0018406629 0.0023372849 0.00021207938 -0.0023843541 0.0002706421 -0.0014650136 0.0003728473 -0.0003737996 0.0017686016 -0.0019191029 0.0018706988 -0.001158848 -0.0017515314 0.0014571706 -1.2845732e-05 -0.0008051619 -0.0016997948 0.0011695104 -0.0024716242 -0.00047652307 0.0011515301 0.00017031911 -0.00035853032 0.0015128879 0.0022307239 0.0024474128 -0.001864087 0.001958157 -0.0020766351 -0.0007133358 0.0010571971 -0.001777749 0.0021315846 0.0016722186 -0.0022783428 0.00042889896 0.0002244513 0.0023403256 0.0017993157 -0.0003431309 0.0015714676 -0.00035071233 0.0024666786 0.0020861365 0.0010152035 0.0001785499 0.00043985154 -0.0023294776 -0.0016580983 -0.00070735835 -0.00032069976 -0.00080380554 0.0012158989 -0.00033997837 0.0010655345 -0.0019873884 -0.0020199907 0.00045517762 0.002184603 -0.0014972314 -0.0023076232 0.0009683219 0.0016826172 0.0010760429 -0.0003235361 0.00016717915 -0.0019288003 0.0015830463 0.0009985119 0.00092614116 -0.0022140816 0.00083346246 -0.0012963044 1.9683503e-05 0.0023105447 -0.0011547947 -0.001633148 -0.0006204555 0.0003507682 0.00030334736 0.0021320512 -0.001883989 -0.0019992727 -0.0004836917 -0.00059658673 -0.0020631433 0.0020700064 -0.0023692627 -0.0010203868 -0.0009478193 0.00016504759 0.0009842503 -0.00069059315 -0.0012041348 -0.0009842708 0.00052661984 0.0018782099 -0.0017177823 0.0016534482 -0.0018203815 0.0013693443 0.0013006658 0.0018580784 0.0006470578 -0.0014552003 0.0019923835 -0.0024950525 0.0019288966 -0.0016579323 3.6043115e-05 0.0011003767 -0.0022929278 0.0018392783 0.00039393478 -0.0021605033 -0.00036234176 -0.0015809098 0.0010169526 -0.0010844528 0.00041544577 0.001185663 -0.0021852036 0.0016585686 0.0019764425 0.0008740828 0.0017396291 -0.0021271887 -0.0010483437 -0.00072936947 -0.001093912 0.00025284314 0.0004913246 0.0011909571 0.00032735826 0.0010633122 -0.00014641043 0.0010104256 -0.00052686105 0.0007647411 0.00076280395 0.0006971827 -0.00025483407 0.0024879668 -0.001482962 0.0022049383 0.0005563486 0.0012845411 0.0021733604 -0.00026056846 0.00027424283 0.0024359021 -0.0013469165 -0.0023579965 0.0022763158 0.0008132057 0.0015887688 0.00075556897 0.002362206 0.00015151058 3.7561636e-05 0.0018718657 -0.0012704247 0.002461488 0.0023894785 0.00031154952 -0.002320179 0.0012818526 0.001464589 -0.0006181445 0.00043500867 -0.0018318441 -0.0009986585 0.00036662328 0.0010518241 -4.94828e-05 -0.002022887 -0.0022232127 0.00048102415 0.0014565368 -0.0021511766 0.0012926776 -0.00015012454 0.0011413181 0.0018749745 0.002481379 -0.000988023 -0.0008480608 -0.0016751611 -0.0005309135 -0.0020344972 0.00026224158
directed 0.0007574442 0.0019745464 0.0007658389 0.0023373705 -0.0014021468 0.0019156411 0.0005863046 -0.0009302363 0.0014865864 -0.0013861611 0.0018742555 0.00040556514 0.000326582 -0.0017085742 -0.001538471 0.00018793019 0.0024043033 -0.0007596499 0.0016552974 -0.0020830277 -0.00059323246 -0.0017383187 0.0024530082 -0.0015841856 -0.002396666 -0.00024615694 -0.00082589476 0.00031195395 -0.00029538292 -0.0014254209 -0.0002443567 0.0003329718 0.0005991759 0.0012932995 -0.0009032291 0.00025186175 0.00038530864 -0.000247658 -0.0018094259 0.0022462346 -0.0018375816 0.0016427077 0.0020705988 -0.0024247274 0.0009875905 0.0010251794 -0.0019399088 0.0021802196 0.0008935714 -0.0010414815 -0.00015103538 0.002425895 -0.00225281 -0.0016980877 -0.00026119198 -0.0023408716 6.7467336e-06 -0.0005435094 0.0017769169 0.00018732995 -0.00035712332 -0.00053599174 0.00054919044 -0.0007378387 -0.00039568427 -0.0020362686 -0.000769189 -0.0019349962 0.0020401422 -0.0022543361 -0.00029077916 -0.0015771842 0.00042818394 -0.0012981832 -0.0008775076 -0.0019554144 -0.0021461365 0.0022136904 0.002076976 -0.001996806 0.0015767948 0.00086810533 0.0014867485 0.0009084118 0.0022387928 -0.002429627 0.00078368606 0.00041657547 -7.4449694e-05 0.0022548595 -0.0019021606 0.00037286454 -0.0020846324 0.0009891842 0.0016733948 0.0010566211 0.0022017434 -0.00075281644 0.0013218387 -0.000790737 0.0024020798 0.0021335925 0.0015450316 -0.00092732103 0.0018789084 0.00047830818 0.0011977185 0.0019356715 0.0006482657 -0.0005531317 -0.0017890569 -0.002043264 -0.00039197016 -0.0019477352 -0.002076394 -0.0006447127 0.0022299765 0.000947634 0.0020705424 0.0015174784 0.0009388656 -0.0023129198 0.001992504 0.0012605106 -0.00034642522 0.0013845286 -0.0003298053 -0.0016835693 0.0022571296 -0.0008176416 5.4889824e-05 -0.0014424532 -0.0007290649 -0.0013955352 -0.0012376317 -0.0018292293 0.00014792848 -0.0019191831 0.0023392402 -0.0006175798 -0.0015635487 -0.0013645741 -0.0020470812 0.0020556008 -0.0011661175 -0.0022252568 0.0018382203 -0.0019265467 0.0022240388 0.002185015 0.0023023305 -0.002337799 0.0011888009 -0.00081983954 0.0013705036 -0.0004401817 -0.00013634376 0.002136177 0.0022902023 -0.00031336327 0.0008454586 -0.0009910947 0.0017159889 0.000649221 0.00041146297 -0.0020155725 -0.00020201062 -0.001756567 0.0017761071 -0.002189939 0.00039350567 0.002204055 -0.0015152206 0.0020851544 -0.001512905 0.0009961361 0.0012104141 0.0012329456 -0.0023121396 -0.00047368812 -0.00036730012 0.0011936086 -0.0013205037 -0.0014575663 0.00017702137 0.0017997376 0.0019283602 -0.0009606278 0.0020846794 0.0019712094 0.00069073914 0.0009587847 0.00073484005 -9.8898774e-05 0.0012654746 0.0018321858 0.001281583 -0.00038750074 0.0024104286 -0.0014435311
by -0.0033325227 0.005478091 -0.0043012137 -0.009424413 -0.019302098 0.008588233 0.008027153 -0.009694926 0.0132576 -0.002771668 -0.013548331 0.013581054 0.01140789 -0.005187052 0.004890981 0.0010229083 0.0016440202 0.010964128 0.006903848 0.008899719 -0.008319557 -0.010199695 0.0030868493 0.005946059 -0.0065970523 4.2310116e-06 0.007238204 0.0031326658 0.0032505428 0.0051853354 -0.01652006 -0.004736189 -0.0025079425 0.006431416 -0.0010185075 -0.0052600624 -0.008456169 0.015152345 -0.009221288 -0.00038140587 -0.010860507 -0.0065869913 0.01207757 0.008214849 0.006811639 -0.011129079 -0.00828415 0.004396277 0.01825959 0.001579851 0.004027655 -0.0041539473 0.009403246 -0.013843083 -0.01390513 0.008238251 0.014214328 0.017130561 -0.013732635 0.007689436 -0.012458189 -0.017414544 0.005466378 0.002465755 -0.00039584746 -0.008159731 0.013391474 -0.004177762 -0.014834578 -0.010338019 -0.015229471 -0.0009962477 0.009340621 -0.0064192154 0.013265525 -0.010193579 -0.010999177 0.0055256803 -0.0006370083 -0.0014404809 0.0005677285 0.003279305 0.011903256 0.0054242406 -0.00043010464 -0.0007175886 -0.0034376846 -0.00071566954 -0.008240071 0.008187276 -0.0035172123 0.0050080377 0.0036895857 -0.007445114 0.001995628 0.0166705 -0.002669691 0.011267907 -0.010371248 -0.008239453 0.010280517 0.0031886024 -0.0026564903 0.0056450367 0.009455098 0.0040549734 0.003012167 0.0060916953 -0.01974117 0.008562134 0.008268992 -0.009940266 0.005766574 0.0036897075 0.019579384 -0.0078102024 0.00390288 -0.01790363 0.0046356237 0.013222217 0.006261985 -0.011263916 0.00029070157 0.0042990968 -0.006850657 0.005440416 0.022342233 0.010718801 0.0067042247 -0.0010169267 -0.0071632396 0.007520068 0.01007578 -0.0062729325 0.0040838947 0.012963586 -0.013400459 -0.004760725 -0.0049899644 -0.0020757597 -0.011794616 -0.022339042 -0.016072273 -0.007955476 -0.0012802552 -0.015633462 0.0059327073 0.011064302 0.004369326 0.0019054823 0.002665188 -0.016455514 0.0021367068 -0.0058817645 -0.002008069 -0.004628829 -0.019774565 0.0108676255 -0.009536245 -0.0073882304 0.0067836503 -0.0038783494 -0.0036811645 0.0032018616 0.009478494 -0.0055940826 0.011469543 -0.009377508 -0.010614074 0.008501577 0.008366074 -0.009499039 0.0063153096 0.0006510434 -0.00024641826 0.0079587875 -0.0013897262 -0.004551162 0.004031263 0.004948957 -0.0010173479 0.016002417 -0.003606111 0.006567009 0.010606131 -0.0013920844 -0.014501391 0.0032991415 -0.013819395 -0.0154476585 -0.013366707 -0.0037507084 0.0020862287 0.009829032 -0.008472918 -0.0077887243 -0.00022465916 0.004073828 0.010919504 -0.009839824
pattern 0.0021675155 0.00029661902 -0.00042361533 0.0008095342 0.0001154684 0.0023428272 -0.0019750665 -0.0019335735 0.0011419291 -0.0017782855 0.0016145702 0.0018123058 0.0017096009 -3.9342325e-05 0.0016868091 -0.0019547534 0.0015599681 -0.0015524745 0.0016055633 0.0022648857 -0.002208605 -0.0019994834 -0.0015153732 0.0014760182 0.002358694 0.00022234861 0.0008206025 -0.0012883523 -0.0002544797 -0.0023150097 0.0002962465 -0.0003645555 -0.001792806 -0.0010563567 -8.201087e-05 0.0014749165 0.001292946 0.0024485746 0.00060237665 -0.0015399309 0.0023994246 -0.00033334456 0.0013434817 -0.00024766894 0.0024052938 -0.0019088661 0.0014963234 -7.5690914e-06 -0.0020646707 7.67624e-05 -0.0020325335 0.00091980817 -0.0006741631 0.00023788656 -0.00052186404 0.0023319582 6.6143926e-05 -0.00016418193 -0.001537719 0.0015126923 0.001101258 0.0013346991 -0.001854145 -0.0022074783 -0.00061992405 -0.0017741274 0.001974647 -0.00036103814 7.636123e-05 0.0011470059 -0.0015361025 -0.002206324 -0.0018948084 -0.00049237814 0.001722476 0.0024961457 0.0008578191 0.001784204 0.0019499497 0.0013422873 -0.0010883245 -0.002210429 -0.00013490883 -0.00043887575 0.0024230187 0.0020962972 -0.0012701544 -5.874317e-06 -0.0006736892 -0.002079202 0.00043873396 -0.0009697261 -0.0015406775 0.0019701906 -0.0023283996 -0.0005853375 -0.0015595676 -0.00036706124 0.00062632747 -0.000762079 0.00031898473 -0.0024017536 0.001808302 9.733462e-05 -0.00067740027 -0.0018600747 0.002371796 0.00212854 0.0021394682 -0.0024792277 -0.0010007479 0.001074342 -0.001788297 0.0019382234 0.00052864244 -0.0006139546 0.0011191973 0.0003740699 0.0021457067 -0.0016134647 -0.0018587413 0.0018979255 0.0015008077 -0.0011608127 -0.0014063307 0.000496197 0.0005998167 -0.00042964215 0.0015542461 -0.0023427787 0.0021795467 -0.00026249676 -0.001694804 -3.3952063e-05 8.758856e-06 0.00019092648 0.002205046 0.0011265287 0.0021995888 8.647912e-05 0.0014809091 -0.0018718289 0.0018174849 -0.0010798296 -0.0007316589 0.001919792 -0.00026272563 -0.0020141616 0.0012719897 0.0022442457 1.22596975e-05 -0.0011902687 0.0014110613 0.0024011717 0.0024692193 -0.0005906075 -0.002464437 0.001876323 -0.00077114755 0.0018152478 0.0012041514 -0.0015357551 0.001285797 -0.0014016053 -0.0024134188 -0.0013355229 -0.0011147043 -0.0002900802 0.00034106174 -0.0019907937 5.739159e-05 0.0018866872 0.0013318986 -0.00048213173 0.0011793601 -0.0006960317 -0.00031602615 -0.00073055236 2.7376926e-05 0.0008479748 -0.00044960342 -0.0014314952 -0.001321649 -0.00160986 -0.0007435462 0.001700304 -0.0011101409 -0.0003787505 0.00172251 0.00080638705 -0.00034247688 -0.0020297891 0.0020701634 0.0021837936 -0.0010409459 0.000857783 0.0013130263 -0.0010056257 -0.0010079914 -0.001922149
rules 0.000391596 -0.0006191492 0.00014628866 0.0024416093 -0.0012499493 -0.0024257489 0.0020859218 -0.0010978486 0.00045510568 -0.0006043527 0.0010631327 -0.0006954103 0.001038084 0.0024193581 -0.0022639404 -0.00011508819 0.0024659066 -0.000527957 0.0004380613 0.0018343762 0.00014772662 0.0010159996 0.0024943547 0.0012190074 0.0005572096 0.0017101653 -0.0019164279 0.0008992639 0.001641076 -0.0004734688 -0.0015856546 0.00017132633 0.0013162626 0.0018214122 0.0008272892 0.0012330543 0.0019250144 0.0022721132 0.0018224949 -0.0018025562 0.0018966356 -0.0019806814 0.0024823067 -0.0021638125 -0.0006949428 0.0009363531 0.0012709955 -0.0003437274 -0.0010699523 0.0007647702 -0.00077625806 -0.0022225599 -0.002493911 0.0013124861 -0.00032941508 -0.000111530535 -0.00097254955 0.001809936 -0.0003966093 -0.00020739017 2.9466348e-05 0.0008368846 8.887728e-05 0.00013368926 -0.0015345117 0.0001076418 0.0008970045 0.0005947866 -0.0011293504 0.0024512364 -0.00019981642 0.002217684 0.0015915423 0.00059024873 -0.0002942616 0.0019949777 -0.0017424083 0.00066044275 0.0011465584 0.001946725 0.0006424065 -0.00092703104 -0.0024027957 0.0019647349 -0.0016188689 0.00093016564 -0.0013503298 0.0014135293 0.002206924 -0.0013518366 0.0011575925 0.0017449274 0.00028065452 -0.0020084782 0.0010539873 -0.0024551328 -0.00088987884 1.4358433e-05 -0.0018078247 0.0002533854 -0.0014958661 7.802923e-05 0.0016617421 0.00038748747 0.000542352 -0.0010688334 0.002127571 0.0018632319 0.0010087404 0.0008613819 -0.00026826258 -0.0022742222 -0.0009109508 0.0019738222 0.0022342047 0.0004184642 0.0022659693 -0.0017359402 -0.001876794 -0.0003522921 0.0021069027 -0.0024083387 0.0005843721 0.0012574794 -0.00044451957 3.326987e-05 -0.0014074984 -0.0017661208 -0.0018321222 -0.000278231 -0.00090577395 -0.00058637257 -0.0010903239 -0.00056726066 0.0019627637 -0.00040724222 0.0023596291 -0.0014641362 0.00031524268 -0.0018196756 0.00020581274 -0.00082788465 0.0016533495 -0.0013106901 -0.00070994464 -0.0011756273 0.0017263102 0.0008710569 0.0020648981 0.00012611691 0.002329519 0.0005818936 -0.00068040995 -0.0011474901 0.00089949183 0.0004764197 0.0023197513 0.0024740035 0.0020453031 -0.0024169374 0.0013223842 -0.0006288275 -0.00011210586 4.972797e-05 -6.259419e-06 0.00048088934 0.0006716857 -0.0019243729 0.0015717228 0.0014452185 0.0022354196 -0.0024655464 -0.0017681384 -0.0021885296 0.0013407078 0.0010946742 -0.0014644613 0.00051799417 -0.00016252045 -0.00034755399 0.0022494774 -0.0023247253 -0.00043974328 -0.0017270865 0.0014762566 -0.0004154914 0.00042001787 0.0015967744 0.0022781393 0.0023231898 -0.0006738886 0.0015958557 0.00148011 0.0014474676 -0.0003381099 -0.00021436834 -0.0020564394 0.00038779085 -0.00013276841 0.0017020125
program. -0.0014680475 0.00080176117 0.000298694 0.0010315245 -0.0021909317 0.0024420153 -0.00095097895 -0.0011701158 0.0015873299 -0.0018795358 -0.0009008866 -0.00096327753 0.00028965855 0.00028700684 0.0007342503 -0.0007198772 -0.0016822317 0.0010402829 0.0019152937 0.0018679653 -0.0011293804 0.001595798 0.00030888594 0.00234818 -0.0003927343 0.00085851573 0.0012585181 -0.0022259406 -0.0013709133 -0.0023755925 -0.0006208202 0.0007941928 0.0023152805 0.00056257425 0.001569306 0.0015806672 0.0004517443 8.295011e-05 0.0011181608 0.001593926 -0.0011390146 0.0015919246 0.0012057268 0.002426288 0.0021416745 0.0021635117 0.00012739748 -0.001974088 -0.0016797078 0.0012611006 -0.0012810841 -0.0023210607 -0.002011688 -0.0002853789 0.00083323615 0.001732511 0.0016330159 2.4262117e-05 0.00176069 0.00063343043 -0.0021238413 -0.0024551826 0.00020382344 -0.0019718462 -0.0001313549 0.0013320858 -0.001114097 0.0018145228 -0.0008306694 0.0024500075 0.00095599284 0.00073353224 0.0021995865 0.002054031 0.0024643675 0.0011663691 0.0016367845 -0.0019194495 0.0021274644 -0.001959359 -0.0013659658 0.0012128684 0.0019307844 7.051253e-05 -0.0004812833 -0.0021917962 0.0003687113 0.0008315798 -0.00047932053 -0.00036079576 0.0014783181 -0.0007679593 -0.00074246014 -0.0017770198 -0.0015049693 0.0017391727 -0.0009978861 -0.0024434766 0.0005276343 -0.0016137611 0.00019263267 -0.0010699502 0.0017684912 0.00034531113 -0.0005313202 0.0014983965 -0.001129339 0.0016974127 -0.0017425853 0.0014373879 0.0019531427 -0.00078124576 0.0022924882 0.0004976881 0.0018633776 -0.00035770796 0.00054301973 -0.002190956 -0.0024779695 0.00014231633 -0.0024929605 -0.001849933 0.0013379352 -0.0024986214 -0.00048360787 -0.0014748243 0.00024018087 0.0006541386 -0.0009040042 0.0002926581 0.00023390446 -0.0007147413 -0.0002954898 -0.0013278973 -0.0021790448 -0.0011998769 4.061917e-05 -1.4492311e-05 -0.00020488794 -0.00085749093 -0.00021512131 0.0018212427 0.0021106554 -0.0011308086 0.0005493101 0.0008254328 -0.0010777693 0.00055503123 0.000101982616 -0.0016384035 0.0024965913 -0.0019730597 0.00086082635 0.0018194304 0.0007619322 -0.001545912 0.0012815511 0.0007329625 0.0022735381 -0.000189004 -0.0016725027 -0.0017355012 0.002378175 -0.0024566422 -0.0012070122 0.00153817 -1.9247876e-05 -0.0011765697 0.0019461638 -0.0017374987 0.0014883406 -0.00043554045 -0.0012839636 0.002260514 -0.002238257 -0.0007460582 -0.0017308568 0.0016108989 -0.0024705352 0.0003506604 -0.0020206193 -0.002003998 -0.0020712267 0.0018981588 -0.0004551476 0.0023406628 0.0018643811 0.0013331126 0.0018719188 0.0011680075 3.5125995e-05 0.0013072856 -0.0006975394 0.0021328614 0.0021488718 -0.00039396854 0.0006733334 -0.00021893228 -0.0004098555 0.0010802227
People 0.0012118074 -0.0010390251 -0.00065477483 -0.0006845129 0.0018143202 0.0005575353 0.001105265 -0.0013701087 0.0013282024 0.00028107176 -0.0024191043 0.0015623947 0.0022500092 -0.00049631065 -0.00045605027 0.001986836 0.0019006766 0.0019737398 -0.0017550042 0.0004698173 0.00090711773 0.0012884059 -0.0013678032 0.0014702086 0.0006202068 0.0015055216 -0.0020331363 -0.0007774576 0.0015646662 0.0024095727 -0.00046241283 -0.0011136534 -0.0007682955 0.0019482956 -0.0010754686 9.983033e-05 0.0020554126 -0.0021032882 0.00015707221 -0.0019353577 0.0010853121 0.0022355486 -0.0016459158 0.00038407533 -0.0014512927 0.00012357859 0.0009663645 0.0023607984 0.0009115103 -0.002466931 -0.00047913822 -0.0006150794 0.0016777469 -0.0018205678 0.0010760939 0.0004015204 0.0009702232 0.00013059354 0.001297914 0.0014642612 -0.0011337193 -9.643147e-06 -0.00030221464 -0.0016074479 -0.001146362 -0.00013868813 0.0018580928 -0.0022398909 -0.0014197588 0.00048259087 0.0017432361 0.0011672073 -0.0015330669 0.0011998299 -0.0021929995 0.0020487402 -0.0021907613 0.0014675148 0.0019049239 0.0012443461 -0.0005122125 -0.0006259966 0.00093281944 0.0013466938 -0.0023617512 -0.0023642322 0.0013334209 -0.0023583847 -0.002446347 -0.0011129844 -0.00036407448 -0.00067648443 0.002079187 -0.0018294957 -0.0014527225 0.0016364777 0.0022108234 0.0014725788 0.0022756723 -0.0020597354 0.001888854 -0.00028106826 0.0017203079 0.00049208314 -0.0023421615 0.0001784563 0.0019756174 0.0006615487 0.0023296932 -0.0013350516 -0.0004486048 0.001977535 0.0015558596 -0.0020055897 0.0006187076 -0.00018532132 -0.00048415363 0.0016333587 -0.00014585559 0.0003874821 -0.0016450798 0.0010602467 0.0024754498 0.001973671 -0.0024511593 0.002057489 0.0018592034 0.0003361113 0.0014341851 -0.0017086508 0.0012545707 -0.0005157336 -0.000918597 -0.0011139988 -0.0008697951 -0.0012062391 -0.0009250721 0.00012554089 -0.002136051 0.0006820571 -0.0024132677 0.0015503122 0.0016431068 0.0023534964 -0.0018424639 -0.00091621454 0.0020613177 -0.0015896937 2.1561747e-05 0.0002621587 0.0024875007 -0.0001397254 0.0011631849 0.00042514852 -0.00038369093 -0.0012913083 -0.00012366241 0.00036166306 0.00078459596 0.0017902455 0.0020679994 -0.0024117779 0.00087982975 -0.00093950145 -0.00018221536 0.0017758431 -0.002317136 0.00024878746 0.002102218 0.0011833501 0.002131877 -0.0010273304 0.001958319 0.0003400615 0.00038951612 -0.0018145045 0.0013723879 -0.0008080959 -0.00034837658 0.001651423 0.0009204338 0.00086753373 -0.0024530808 0.0006073031 -0.0014166397 -0.00087828876 -0.0015381174 0.002173697 -7.942086e-05 -0.00072542334 0.0011124711 -0.0022500907 -0.0019982865 0.0016976912 0.0012162032 0.0013483239 0.0018145936 0.0014387928 0.0011560067 0.0019871932
