50 200
UNK 0.13492203 0.015087912 -0.010488883 -0.09402372 0.047914375 0.019436132 0.03263627 0.064647146 0.06220741 -0.051955197 0.08119868 0.013143939 0.07266134 -0.17361787 -0.0066160266 -0.027276464 0.048697006 0.07353053 0.049145367 0.032412224 0.12966189 -0.03535602 -0.06455266 0.0063161557 0.074860655 -0.038511164 0.029043546 0.026673054 0.016499886 -0.01623339 -0.12161073 0.0011099585 -0.041299455 0.04803596 0.100631244 0.019979406 0.024837077 -0.016631728 0.06572673 0.019137753 -0.095432624 0.07637365 -0.079979025 -0.020476524 0.1335943 -0.03681094 0.07680489 0.028871978 0.02017595 -0.046159048 -0.020696621 0.045370143 0.11879237 0.04592837 -0.050198562 0.004657626 -0.09501226 -0.08365476 -0.017227601 0.07444974 0.011305216 -0.027895814 -0.0072447085 -0.09117656 0.05758535 0.08522134 -0.03604506 -0.014088841 0.039517812 0.051296066 -0.015817868 -0.07658212 0.12488518 0.036759797 0.020610087 0.11662575 -0.030966865 -0.06670176 -0.013463893 0.039628547 -0.12494016 -0.05080841 0.030981358 -0.058544923 0.0102747455 -0.06566091 -0.01316253 0.052237973 -0.0669197 -0.025834111 -0.1070071 0.043299638 -0.11266203 0.11971052 -0.010945551 0.0025206155 -0.010816023 0.010722159 0.10767435 0.12042623 0.042286757 0.021620765 -0.005634295 0.011927384 -0.056300987 -0.022570455 0.048929907 0.021839464 -0.040519692 -0.019883625 0.027974091 -0.009948143 0.023816956 0.0443724 0.004137689 -0.009016305 0.007652742 -0.020854063 -0.046311755 -0.17259936 0.040217955 -0.015350571 0.037792772 -0.07037347 0.058783907 -0.0069963397 -0.06805012 0.07036199 -0.05521672 0.018379232 -0.050071836 -0.022994734 0.02283223 -0.048480216 0.004664718 0.010447362 0.09084898 -0.0088677015 0.052666027 -0.08924964 -0.11774137 -0.039927114 0.014693455 0.08140341 0.06409093 -0.04195703 0.027655523 0.080467425 -0.020733714 0.03429334 -0.10105821 -0.0013013344 -0.008546295 0.061716348 -0.06447331 -0.10246776 -0.018017244 0.023713334 0.0031521188 0.0870416 0.008920315 0.078055166 -0.017233875 0.06129615 -0.078999124 0.06683114 -0.011560333 -0.13049442 0.0027533453 0.021919185 -0.020902283 -0.12251087 0.028409721 0.051286366 0.020855023 -0.010929573 0.10932298 -0.094474345 -0.027935615 -0.0023894482 0.011271316 0.13937904 -0.01312387 0.08040479 0.036955006 -0.061477024 0.04903094 -0.009008532 -0.036067523 -0.037613936 -0.035445277 -0.05788053 -0.06784262 0.17091516 0.19095872 0.08951592 -0.009957447 0.036912326 -0.0049413242 -0.019203078
of -0.023617927 -0.032817364 0.058364473 -0.0002957891 0.005531866 -0.0058146548 -0.018345473 -0.027015388 -0.15799263 -0.018326549 0.016953185 -0.096289046 0.08977298 -0.04646017 0.07676103 -0.033527315 0.055104982 -0.18389013 0.08821614 0.036506098 -0.096885055 0.04034182 0.023626935 0.040600058 0.0012681495 0.13148253 -0.06059917 -0.0015623544 -0.024014385 0.093447946 0.0012101597 0.056655277 -0.03527965 -0.045291487 0.09460401 -0.06393763 0.04174167 -0.04414472 -0.015546642 -0.096186854 -0.09408454 0.010486196 0.1538391 -0.00885598 -0.10494991 -0.14272042 0.054635916 0.014820289 -0.04685325 -0.05533543 0.10587125 -0.063264325 0.13117123 0.018468365 -0.025001239 0.009034394 -0.0007555464 -0.12457713 -0.03549327 0.050819285 0.00021443923 0.085403174 -0.020465791 -0.015503188 -0.095964216 -0.12838115 -0.0024239067 -0.02708593 0.04230093 0.024619095 -0.019545302 -0.005226685 0.24012212 -0.048032075 -0.0142105995 -0.08277734 -0.014988181 -0.04193298 0.051236693 0.056994077 -0.18507889 0.11252367 -0.12113597 0.025671901 -0.0067790165 0.0016238181 -0.013724445 0.0705834 -0.08910565 -0.00069011934 -0.060218353 0.08879136 -0.071705036 0.123235 -0.008934183 0.115135394 -0.089217916 0.04909582 0.015299944 -0.026780924 0.14707452 0.023448288 -0.04384361 0.11259571 0.03524488 0.03844991 -0.0864226 0.12543033 -0.017582601 -0.025045622 -0.0129670985 0.062168233 -0.078347504 -0.025194978 -0.06365975 0.027463328 0.018298686 0.07963795 0.01822118 0.12603825 -0.17165965 -2.6188254e-05 0.10619851 0.050227735 0.011398251 -0.0019908298 -0.0022874265 -0.10742216 0.17855869 0.03906609 0.025754148 0.033836495 0.08431209 0.09501377 -0.011731059 -0.0145920245 -0.08053491 0.047084473 0.0267399 -0.04219087 0.11733968 0.043261785 -0.08884081 -0.12450373 0.029552499 0.009077358 0.06503 -0.08829461 0.074064605 0.014890372 -0.0038853106 -0.009566094 -0.10342179 -0.101788945 -0.0052598254 -0.07387701 -0.13975008 -0.02027643 -0.03212025 -0.017549524 -0.065035865 -0.16683581 -0.009799188 -0.12405096 0.04163792 -0.1275024 0.08464979 -0.009288198 -0.07420652 -0.029442819 0.08093043 0.03430096 0.031032983 -0.012860763 -0.15543373 -0.015580432 -0.045556195 -0.06885933 0.04416578 -0.09243495 -0.031286683 -0.1411084 -0.016336514 -0.021454163 -0.08244277 0.034741044 -0.06578536 0.05453357 -0.007960372 -0.06988143 -0.13097729 0.018693225 -0.03110505 0.14262968 0.07644526 -0.15572715 -0.055643324 0.031331588 -0.08479167 -0.0056468085
a 0.08754808 0.071031086 -0.110776 0.30985627 0.035081513 -0.022901546 -0.16234216 -0.20576529 0.23213437 0.091645986 -0.047527596 0.083835006 0.17484213 0.12509154 -0.0568485 0.049199328 0.029138073 0.27057126 0.14501326 0.07407061 0.18733154 0.0009478397 0.05962534 0.08406474 -0.09123238 0.11521801 -0.104939505 -0.2516573 0.045206457 0.12322938 0.03352662 0.043288026 -0.21480492 0.044140197 -0.07538044 -0.15128997 0.030866621 0.013474941 -0.1687705 7.0033646e-05 -0.14105459 0.2405499 0.14844038 0.15178087 0.3627423 -0.0359895 -0.14100519 -0.16574511 -0.13996984 0.14232296 -0.13353889 0.09983438 0.04436008 0.067072086 -0.03077769 0.030719686 0.20200978 0.06538157 -0.089155406 0.011934515 -0.0110538155 0.3264491 0.07629322 0.15543194 0.13538386 0.08415596 -0.104154535 0.17490898 -0.015834197 0.088315696 0.0123000415 0.04754005 0.16236894 -0.033573303 -0.012278669 0.104277484 -0.0063790805 0.21503222 0.06543765 0.07833297 -0.02522965 -0.1320869 0.11045209 0.24313653 0.19023621 -0.1897417 -0.19096011 -0.0071812533 0.07652852 0.21665633 -0.084411085 0.13894969 -0.03074089 -0.10588257 -0.05554331 0.08601691 0.053717375 -0.09770098 0.13953073 0.2948078 -0.021318609 0.14469771 0.040363207 0.114457875 0.024105068 -0.08657717 -0.10840589 -0.08089242 0.31406373 0.055877276 0.15198316 -0.09194938 0.13258667 -0.09179427 0.046963867 -0.21122552 -0.11194152 -0.063265584 -0.25646353 -0.008713978 -0.11924214 0.01793295 0.15428369 -0.14480178 0.06779459 0.05095144 -0.15768482 -0.04481813 -0.13623361 0.053135447 0.048469782 -0.13408086 0.08270704 0.03623204 0.30231228 -0.065234885 -0.047035873 0.042956542 -0.20665058 -0.08187506 -0.0019081106 -0.050613243 -0.2939042 0.03966915 0.0753686 -0.09977052 -0.2997245 -0.09911877 -0.060640898 0.22375898 0.094797105 -0.10060359 -0.01555694 -0.31532606 -0.05858651 -0.31837428 -0.07040173 -0.13655964 0.18527971 -0.0050381715 0.18793473 0.01704493 0.023579376 0.33467576 0.33546072 0.14338987 -0.12031494 -0.11977751 0.16122696 0.043880705 -0.23714836 -0.059534546 -0.08159954 -0.18562904 0.2085121 0.02382636 -0.22412533 0.12895685 -0.062106084 0.08821937 0.17053701 -0.028784577 -0.05577893 -0.15133333 -0.323342 -0.019141708 0.110902175 -0.020720556 -0.09724578 -0.16189083 0.2515231 -0.106042095 -0.016368529 0.093995206 -0.11288347 -0.2804286 0.13136062 0.19699383 0.049449626 -0.017362883
the -0.025150899 -0.12758702 -0.09630299 -0.112378776 -0.048094407 -0.15547083 -0.14194152 -0.03211178 -0.0912824 -0.02115402 0.085831046 0.02231977 -0.03649036 0.1854405 0.025657142 -0.019456131 -0.091590114 -0.0015959166 0.031867754 -0.12110502 0.03748512 0.003293051 0.076398276 0.030151045 -0.0310265 0.0078088744 0.035383586 0.050172243 -0.008083937 0.08685331 0.024021953 -0.05076857 0.019706361 0.19903173 -0.0041630967 0.008700542 0.044515688 0.05099246 0.031357702 -0.017593859 -0.13247138 0.008251085 0.07592713 -0.011665279 -0.0045210584 0.047327578 0.033704422 0.052516684 -0.01566738 0.009539996 -0.035706263 0.025692973 0.12566335 0.0163181 -0.064830005 0.0026085475 0.049138654 0.036723178 0.060075536 -0.0028146396 0.0205127 -0.12592462 -0.11009633 -0.02542906 -0.11382703 -0.018906292 -0.0144188255 0.10722877 0.08619544 0.025826288 0.0911454 -0.14447764 -0.027073205 -0.036502793 0.036755312 0.04223195 0.0003041511 -0.11202608 -0.07376707 -0.12950043 0.08701756 -0.015155171 0.060446862 -0.035735007 -0.013032555 -0.021642806 0.011037277 0.0146447215 -0.01257833 -0.108511604 0.08787045 0.00806265 0.08246229 0.016371919 -0.055226404 0.030942999 -0.00864698 0.10576035 -0.052161127 -0.004616175 0.0005905492 -0.014363721 -0.11765036 0.02780353 -0.000376587 0.01831096 0.012267121 -0.14193675 -0.00072131096 -0.004677342 0.00493509 -0.085189365 -0.11256557 0.03422502 0.07251923 0.09017479 -0.029410318 0.00017060625 -0.028350841 -0.03849717 -0.012888967 -0.027682636 0.011873723 -0.12416006 -0.016151017 0.0106697865 0.02309263 0.07956115 0.06375114 0.0013920646 0.057382982 0.066440634 0.05863605 -0.02105372 -0.048085157 0.115964025 -0.043306276 0.0393491 0.060536508 -0.059577536 -0.013433404 0.091604605 -0.053288534 0.08651673 0.0057106074 -0.019812655 0.014091822 -0.030254664 0.08443373 0.12458099 -0.015348707 -0.091907136 0.035568345 -0.03928488 -0.0059367307 -0.09171698 0.03879601 -0.02634128 0.03391249 -0.035596125 -0.027102552 0.097762264 0.06635508 -0.13393062 -0.08444334 0.017089661 -0.03797948 0.07685716 -0.1030463 0.03760368 -0.114076525 0.20866206 0.039943326 0.10127771 -0.05791505 0.093840696 0.0010555004 -0.01455597 0.10670943 -0.11368888 -0.051467635 -0.025960248 -0.015873628 -0.09898875 -0.16176836 -0.05386893 0.011476399 0.028428294 -0.052860156 0.015370157 0.0017468914 0.06699091 0.0368478 -0.05406937 -0.089070015 -0.011871137 0.03260165 0.014558114 -0.04973098 0.06618714
are 0.03378551 -0.0972631 0.018119983 0.09096497 0.047234412 -0.06550768 0.015371125 0.1462894 0.038058177 -0.06100793 0.038662378 -0.0417705 -0.04079255 0.028930334 0.17800444 0.0068029594 0.1491447 -0.03250577 -0.07157426 -0.0873945 -0.018356742 0.049555346 -0.033888303 0.01717844 -0.15895115 0.10769849 -7.06368e-05 -0.08310414 0.08612381 0.036598876 -0.016180366 0.005077118 -0.07708981 -0.12142456 0.01878077 0.01610577 -0.078805886 0.012379033 -0.017473886 -0.029000718 0.086285815 -0.052951004 -0.006058598 -0.05622651 -0.018507523 -0.14158708 0.094325654 0.0782571 -0.031905614 -0.09680461 -0.048196644 -0.078744955 0.018253086 0.13583308 0.016111372 0.046341546 0.08332853 -0.07646315 0.022798913 -0.035291012 -0.02564505 -0.0189281 0.059277374 0.0017271764 0.0102283945 0.038564503 0.01923 0.016075987 0.013639644 0.042035047 -0.12557611 -0.06343889 0.038474258 0.0030276638 0.003794429 0.027901165 0.070054375 0.014284228 0.008128739 -0.10257569 -0.1677396 -0.09327624 -0.031479564 0.03561116 -0.06336195 -0.1234528 0.12113562 -0.07319434 0.015330005 -0.0599098 -0.028290134 0.099096894 -0.0837161 0.03147849 0.18222834 0.04693818 -0.0015672528 0.05070815 0.027326476 -0.04958922 -0.049645476 0.039721817 -0.012465022 0.07734988 0.050916612 0.011955122 -0.021917531 -0.07430487 -0.12176819 0.04946932 -0.056396537 -0.11008056 0.03447248 0.068255566 -0.10334445 -0.012466841 -0.025139453 0.012542856 0.049405694 -0.004751024 -0.09631994 0.005453958 0.06923953 -0.047352616 0.025396332 0.12870817 -0.04312427 -0.01957881 -0.03343332 -0.08271119 0.012052714 -0.057786208 -0.07690002 -0.0064325267 0.034863845 0.06873137 -0.15668567 -0.044091497 -0.0714861 -0.03425455 -0.06225059 0.046024892 -0.10639659 -0.12754199 -0.07367461 0.04368245 0.057013676 -0.11781442 0.059524205 -0.019501898 0.0016076695 -0.05227973 0.08610684 0.10115187 0.033574164 0.081205845 -0.13523939 -0.024053536 0.08525725 -0.16835892 -0.04499136 -0.08085387 -0.08092229 -0.0221012 0.0013979147 0.037336957 -0.026935907 -0.054611064 0.0068966686 -0.11624686 0.062220585 -0.05135437 0.0021693066 -0.06691599 0.03966346 0.019485997 0.024463678 0.09171519 0.030835683 0.019102013 0.0040556365 0.06622325 0.06888464 0.16290694 -0.15386863 -0.0827006 -0.041594155 0.047330294 0.034496076 0.04426906 0.031998355 -0.0062210504 0.023443561 0.059154052 0.16222923 0.0061378595 0.033917 -0.11654285 -0.1313635 -0.08327419
to -0.038813636 -0.09011444 -0.13172229 0.022254251 -0.033000186 -0.09271263 0.021633163 0.05064958 -0.2079798 0.06567678 0.057408553 0.007872477 0.06474621 -0.113703854 0.014527384 0.053094026 0.03714769 -0.10353254 0.10769063 -0.11194785 0.024422063 0.06285066 -0.021841018 0.03958853 -0.017778166 -0.02879012 -0.019836528 -0.10413584 0.063964576 -0.08232691 0.01414475 -0.15965617 -0.06712351 0.048619837 0.0060445485 0.028258307 0.04007637 -0.053840335 -0.054623086 -0.0066353995 -0.02864576 -0.03142739 0.004018919 -0.05494547 -0.028823799 -0.19130641 -0.044165406 -0.070973456 0.04117823 -0.04911764 -0.0016375015 0.02145399 0.06279166 0.08569119 0.11796494 0.07007643 -0.0018676291 0.06810898 0.0015490967 -0.076140046 0.071838774 0.064074814 -0.0028955787 -0.014087862 0.10152962 0.09751462 0.01944067 -0.07207809 0.038184084 -0.028332107 0.008490803 -0.00010078063 -0.005686059 0.03794575 -0.0602467 0.0723703 0.07865564 -0.006791449 -0.039982595 0.029532706 0.016790893 -0.0074169887 -0.023070963 0.10622261 0.08011035 -0.06784142 0.088571005 0.05826216 0.027607251 -0.03335521 -0.055981033 -0.02460542 0.051594038 0.06181073 -0.017901639 -0.05149084 -0.018694516 0.0024717946 -0.026999341 0.0008840322 -0.030154856 -0.0008304593 -0.13073488 0.05894273 -0.0812403 -0.021492936 0.01919061 0.1050518 -0.0082648955 0.0733162 0.10042838 -0.1198042 -0.12397731 0.08562551 -0.07617577 0.09350563 -0.060680173 -0.00025127982 0.012249948 -0.1399276 0.014901941 -0.07062359 0.01869477 0.026890533 0.01704805 -0.012563184 -0.010566732 0.019766258 -0.022538675 -0.14839186 0.16847055 -0.114125416 0.065128624 -0.08029111 0.12191661 -0.032915823 0.06826447 0.008562731 0.06504907 0.06850269 0.008417179 -0.052433066 0.07211577 -0.03542843 0.040107056 -0.029621506 0.15474905 0.04856232 -0.01960779 0.09923605 -0.07622765 -0.057992034 -0.11562436 0.03191566 -0.016373158 -0.03486363 0.057947144 0.0100684725 0.052358117 -0.10746474 -0.17208047 -0.09369899 0.12730193 0.038637534 0.061834525 0.003940689 -0.012759312 -0.11686389 -0.033419844 0.10969091 -0.028249633 0.05592919 0.15548664 -0.031751733 -0.013520158 -0.09191841 -0.03664138 0.03244869 -0.040277712 -0.044723682 -0.027996682 -0.035901003 0.10052087 -0.028099004 0.083786935 -0.016492577 0.04100117 -0.036301598 0.03724015 0.036154583 0.07719674 -0.060076185 -0.016854394 -0.06678237 -0.040319245 -0.013569494 -0.04074221 0.13064416 0.062213503 -0.085398234
processes -0.0020493076 -0.06022902 0.11779233 -0.0017184343 -0.065784425 -0.0955386 -0.10206312 -0.0064972 0.014996159 -0.15839674 -0.0019085022 0.0009892837 0.027956732 -0.008174686 -0.059430886 0.15469049 0.045168743 0.014038356 0.029882316 0.07746402 -0.072206385 -0.00089043856 -0.05654429 0.024547892 -0.0113605 -0.00945743 0.12131627 0.058779027 0.046192143 -0.016457152 0.101947784 0.004564638 -0.0036892986 0.086265504 0.010194341 -0.025377512 -0.0012570468 -0.11098338 0.006993917 -0.037385426 -0.11152741 -0.03476418 -0.07065243 -0.018974904 0.16793996 -0.02214966 -0.0024455292 0.09780353 0.01661968 -0.053765845 -0.015587897 -0.098157614 0.020989722 -0.06283338 -0.036178093 -0.029218746 0.00046022818 -0.006867658 0.004037944 0.0403061 -0.12593606 0.17614804 -0.051969912 0.030013815 0.06407436 -0.014461569 0.033286054 -0.031862102 -0.13162628 0.07604473 0.04414962 0.026754359 -0.065991186 -0.019194439 0.05606781 0.120916925 0.039683323 0.008842479 -0.09461652 -0.004705461 -0.042197924 -0.075067654 -0.0133565385 0.05728545 -0.012822223 0.0024904504 0.028171213 -0.05220556 -0.040717814 0.056514785 -0.051317994 0.03339903 0.10257489 -0.0020049224 -0.017130842 -0.0050842273 0.05536275 0.08761475 0.1082538 0.068703726 -0.10853977 0.029848583 -0.12154083 0.009612588 -0.051819902 -0.05621036 -0.087186776 0.035314552 -0.02133065 -0.007687285 0.030610945 0.04873771 -0.057867642 0.07228864 0.0784705 0.030598622 -0.03738691 -0.09142434 0.05127317 0.041330587 -0.01255299 -0.041269366 0.023677958 0.0014944033 0.14062928 -0.13989548 -0.012391544 -0.16370393 0.045170248 0.028928557 0.07333635 0.11939704 -0.02304084 -0.008956008 0.048156966 0.022939568 -0.0887167 -0.06571153 -0.101778045 0.096998 -0.027795129 -0.034144536 -0.051998347 0.026251672 0.016711628 0.015702134 0.0151917245 -0.0021997294 0.13922466 0.10824002 -0.1234111 -0.17068861 -0.0726927 0.12678383 0.051497586 0.10657537 0.04471389 0.10669938 -0.0036153975 0.028360313 -0.084898 -0.044602398 0.07623075 -0.08142391 0.06291485 -0.07354653 0.0028669995 -0.099419326 -0.034474604 -0.07746958 0.00037310921 0.008791047 0.21157931 0.013350729 -0.021828381 -0.004724023 -0.005120059 0.13364106 -0.0038271241 0.048894126 -0.0069310456 0.008969217 -0.02445783 0.020628195 -0.047500875 -0.068739675 0.019958528 0.07734434 0.071031705 0.013925674 -0.042995423 -0.0036070868 0.07131451 0.029010512 -0.0029474394 0.014663198 0.008590182 0.0047460063 0.058121048 0.010840332
abstract -0.021773554 0.07475136 0.07363415 -0.06605831 0.08138837 0.078101374 0.019775003 0.0678961 -0.073058814 -0.008647088 0.015543023 0.049101163 -0.036895506 -0.010699712 0.039973646 0.035446152 0.035045125 -0.04469386 0.048387077 -0.09264542 0.029598232 -0.035444047 -0.042566363 -0.038415834 -0.021510692 -0.022951575 -0.11854917 0.0109961545 -0.07643801 -0.025365481 -0.033280358 -0.10464011 0.027541917 0.03234503 -0.04338023 0.0934405 -0.06369228 0.06042011 -0.06217778 0.06801887 -0.20414898 -0.09838537 0.055882256 0.028753003 -0.10927551 -0.08892128 -0.005795228 0.1434481 -0.008656664 -0.00865536 -0.05074671 0.020533845 0.004925705 -0.008723595 -0.03048157 0.018556857 0.0009387552 -0.17791966 0.07923973 0.018116167 0.109334804 0.018577129 0.03592549 -0.013326137 -0.054200675 -0.035127353 -0.031648915 0.004526545 -0.075939484 0.0029773957 -0.020068124 0.03384176 -0.02055982 -0.013342306 0.19730546 -0.031465333 -0.03320283 0.019583015 0.083658196 -0.104235135 0.03177504 -0.009611079 -0.024370875 0.0535013 -0.14035425 0.074127965 -0.10465981 -0.069428824 -0.0491783 -0.021990435 0.02505277 -0.1033644 0.004258904 -0.107362695 -0.09584666 -0.033476096 0.09844485 -0.1540767 0.06694164 0.01953089 0.008503394 0.023681786 0.014130278 0.06491349 -0.0891127 0.07288503 0.016836543 -0.07662247 -0.043085895 -0.05153999 -0.0521309 -0.117520034 0.15590881 0.119271256 -0.0695765 -0.019008832 0.10730456 -0.026801087 -0.15451597 -0.07273186 0.033924248 0.051152844 -0.03234633 -0.052907236 -0.095321655 0.025509166 0.11661371 -0.021127308 -0.0052838763 0.10209111 -0.0107828025 -0.04054794 0.037340473 -0.008465052 -0.0024170629 -0.113910675 -0.008512924 0.022034211 -0.06516246 0.04677206 -0.010127796 0.1305888 0.015516819 0.004906102 0.12268899 -0.048551064 0.08170159 0.1514853 -0.025658417 -0.013090222 -0.02055543 0.12519935 0.0063611763 -0.020011244 -0.15573391 -0.09116983 -0.053237025 0.12680267 -0.16898184 -0.09441106 -0.030234974 0.05569182 0.024024554 -0.004474658 -0.02873645 -0.1414782 0.07312823 -0.09209523 -0.042647343 0.03247185 0.008619619 -0.029395439 0.014963834 0.0208039 -0.02237279 0.02172838 -0.049050122 0.03269673 -0.013099079 0.03072041 0.13757215 0.14712228 -0.07194398 0.0357633 0.019592647 -0.08588789 0.079838805 -0.12570608 0.053524066 0.059516076 0.08682271 0.09964198 -0.038700286 0.025923494 0.0287981 -0.09682205 0.16856131 -0.034326382 -0.12320517 0.012204133
called 0.12489506 -0.007225683 0.068953104 0.069007166 -0.053845003 0.041011788 0.02044404 0.007219828 0.024867585 -0.08923361 0.033239998 0.13479875 -0.13208194 0.006556049 0.04569361 -0.0073318803 0.10437959 -0.19884686 0.005418754 0.054124568 -0.01618865 0.06500145 -0.03434509 0.026578514 -0.046884574 -0.09287791 0.0021649355 0.09802347 0.02533624 -0.11327573 0.01864962 0.001301069 -0.02582447 0.012293712 -0.1456996 0.024934724 0.04303591 0.053789016 0.08023451 0.0251582 0.005770759 -0.10536186 0.070625335 0.05577889 -0.0639448 0.016707737 -0.03690283 0.02301776 -0.0015262123 0.003323359 0.0018944305 0.008314639 0.118706994 -0.04369115 0.084651954 -0.16084032 0.09348824 -0.026936121 0.15696132 0.038365696 0.08485343 -0.10083085 0.079121664 -0.113432504 0.13520163 0.10669215 0.045344617 0.03693272 -0.06481001 -0.049986772 0.022371793 -0.046353184 0.030178694 0.18396829 -0.17586485 0.030738149 0.082351185 0.08039065 0.08531092 -0.029974144 0.009239967 0.100398265 0.07702464 0.0021310616 -0.034768265 -0.021357069 -0.01789373 -0.04231064 -0.0118179135 -0.0964177 0.0039412095 0.034552034 -0.08111352 -0.06704348 0.10366542 -0.03576047 -0.03782209 -0.17337123 -0.0324741 -0.0021455192 0.08468341 -0.070205025 0.008297668 -0.02746854 0.112643406 -0.11763291 -0.05487878 0.06464037 -0.02408178 -0.05483316 -0.02864066 0.119928256 -0.042329274 -0.09588496 -0.096954234 -0.048133384 0.0016262063 0.07221456 0.017847434 0.012000453 -0.017850948 0.059304103 0.004012969 0.11912884 -0.028538661 -0.108492106 0.012899502 -0.14320074 0.112010576 -0.033760354 -0.008696049 0.040658474 -0.06412881 0.0025716363 -0.08802463 -0.09038034 0.049730446 0.17484409 0.051800456 0.027470352 -0.035763334 0.024045914 -0.012669059 -0.13447171 0.06056572 0.038572837 0.013456448 -0.040796846 -0.03630085 0.13060452 -0.059048098 0.046109825 0.04194621 -0.1745167 0.012936545 0.01951063 -0.014520581 0.0381686 -0.008333544 0.14239722 -0.09921586 -0.022564309 0.045904197 -0.0018280691 -0.0736191 -0.009220381 -0.046031784 -0.05443006 0.14017223 0.043277055 0.033024594 -0.0012926632 -0.017379684 0.05753187 0.0032862683 -0.042218674 -0.019061096 0.066418886 -0.106514566 0.018296286 0.08959084 0.07075637 0.02903058 0.013941026 0.044532847 0.009699324 -0.04931328 0.0072297975 -0.10736848 0.10507556 -0.044022378 -0.042363893 0.029633382 -0.042024765 0.014786488 -0.038399234 0.067745864 0.053451087 -0.09837898 -0.029112052
We 0.077365726 0.050730176 0.005487382 -0.08589081 0.025284378 0.06026978 -0.09171907 0.10029836 0.003354315 0.13793191 -0.09365116 0.12435304 -0.114068724 -0.036686078 -0.019742912 0.04405738 0.043856632 -0.04372539 -0.024587024 0.001170692 -0.053985387 -0.026925826 -0.04668563 -0.053575728 -0.04399528 -0.033549722 0.059036307 -0.015627053 0.021061981 -0.11585026 0.007969877 0.012864834 0.037618205 -0.020960912 -0.0007921418 -0.07290111 -0.070782736 -0.06688879 0.12167694 -0.13024789 0.059140027 -0.038266756 -0.016899358 0.068873316 -0.08323236 -0.089107886 -0.021357657 -0.0059924307 0.05917442 0.036417276 -0.07267545 0.09193656 0.029685078 -0.054977506 -0.051084153 0.07306451 -0.0046891863 0.010304993 0.0014272225 -0.0075780987 -0.0109033575 0.0041712127 0.018553833 -0.06864666 0.052586447 0.06867623 0.14436011 -0.034128573 0.0105439965 -0.0048636394 -0.12876861 -0.092133604 0.077978045 -0.046122506 0.025852852 -0.051563185 0.06287119 -0.04969502 -0.01967839 -0.0058209873 -0.0035496026 -0.12229889 0.056226514 -0.056342598 0.038561095 0.041651543 0.1050893 0.11442778 -0.07567983 -0.067687266 -0.06736258 -0.060991295 0.083698146 0.021130633 -0.02523471 -0.03963205 -0.056942996 0.074848 -0.051623844 0.04071932 0.09053649 0.08185241 -0.10041296 0.1753345 -0.019458896 -0.083900124 0.067023925 0.14888112 0.07538871 0.11296795 -0.05582423 -0.028296838 0.009649114 0.021875838 -0.078298345 0.005526105 0.1092945 -0.03943985 -0.057337567 0.041521978 0.019645492 -0.045243908 -0.0632296 -0.12056196 -0.09042398 -0.030527443 0.010304868 0.102350086 -0.005724957 0.05789903 0.05533493 0.09112549 0.012169028 0.079483174 0.10455771 0.07138139 -0.08642876 -0.008359697 0.14143316 -0.096300796 -0.10897777 0.1217115 -0.023038063 -0.022007046 -0.08732451 -0.044936523 -0.09118261 0.10839534 0.026702436 0.104594894 0.058926947 -0.11298066 0.17373249 -0.016969327 -0.060779884 0.009466792 0.12165629 -0.11343179 0.080036156 0.07579495 -0.06839698 0.043031853 0.046671767 -0.10324061 -0.088014476 0.0677393 -0.06983873 -0.027650502 0.01453115 -0.053620435 0.036163755 -0.009856219 0.078736834 -0.03056412 0.069813535 0.069502875 -0.0054501616 -0.08110076 -0.09119622 -0.029498257 0.0927116 -0.049705733 0.02524899 0.16562776 -0.23471127 -0.034105998 0.041065317 -0.071534455 -0.12319309 0.11533401 -0.070059754 0.044574965 0.061655484 -0.038292523 -0.06376138 -0.14987105 0.11127642 -0.024064202 0.039151233 -0.13215972
about 0.01970808 0.08911479 -0.0018131906 0.0027901 -0.12272936 -0.14241973 0.10440037 0.16185793 0.08016924 0.056181256 -0.001505738 -0.08668369 -0.1089923 -0.083127975 0.03133234 0.01940147 0.029774934 0.08038541 0.007703541 0.12526295 0.08014827 -0.04668426 0.05879194 0.030669983 -0.0016212787 -0.06186759 -0.030331638 0.09040663 0.08458171 -0.029669221 0.0056426297 -0.008308609 -0.05173024 0.012066425 -0.068880364 0.04062711 -0.12404818 0.012625555 -0.014885041 0.011535657 0.052584488 -0.01761837 -0.018674854 -0.0045085857 -0.06373622 0.122506104 -0.054388817 -0.0019116984 -0.067249805 -0.07618417 -0.0060023936 0.06253514 0.036668427 -0.04755458 0.008315681 -0.15667993 0.049878623 0.056664087 0.017709542 -0.04016662 0.01214364 0.043271728 0.1509253 0.015168012 0.061342217 0.06824274 -0.09869924 0.21880822 0.04184598 0.030504122 -0.00686542 0.103165865 0.13750099 -0.0036027185 -0.16258436 -0.042066637 0.10508746 -0.032163862 0.00729479 0.072083995 0.16615272 0.028113525 -0.15672229 -0.0014653291 0.11728627 -0.038790293 -0.04438914 -0.004368058 -0.115686506 0.19343042 -0.10368335 -0.008622912 -0.10927482 -0.035965744 -0.13575743 -0.011173851 -0.014355382 -0.044423502 0.009708991 0.0072207386 0.0030798623 -0.040711496 -0.06494312 0.02495781 0.051764373 -0.005742506 -0.008846826 -0.019205168 0.018034728 -0.039291233 0.057137087 0.08955412 0.03367932 -0.006068834 -0.072478764 -0.060248047 -0.052151576 -0.012238426 -0.007453294 0.033209186 -0.043535274 -0.08827378 -0.09218178 0.051435035 -0.077393174 -0.045487937 -0.116693385 -0.041704584 -0.0051523773 -0.06517862 0.00028159472 0.010397594 -0.023234874 -0.04749556 -0.014668433 0.10547681 -0.04233898 -0.011373292 0.07429949 0.16035429 -0.12307474 0.00012605297 0.0051234257 0.04701489 -0.010889071 0.006153667 0.13636865 0.05084926 -0.08984033 -0.014522352 -0.0025812457 0.09316556 -0.002787576 -0.05517134 0.103962906 -0.16120614 0.11787875 -0.06655599 0.099595495 0.027132956 -0.02270435 0.03098469 0.0030207697 -0.1377569 0.09187217 0.050656732 0.07810526 0.012862945 -0.0820228 -0.07651019 0.038893927 0.05671843 0.009150907 -0.039582852 -0.11704537 0.00022536983 -0.015977658 0.101490356 -0.027199142 -0.06162026 -0.14840493 -0.023097645 -0.045720577 -0.01678093 -0.112429716 0.00047693864 -0.05229774 -0.14070238 0.15658674 -0.012683507 -0.0024894725 -0.031920828 0.01137331 0.047282957 -0.14126197 -0.020766754 -0.046978325 -0.030224305 -0.07251238 0.070429474
study 0.035212107 -0.06897625 0.042430587 -0.01477399 0.04147841 0.02691229 0.0012380945 0.011952264 -0.008563053 -0.058475472 -0.015876178 -0.0633045 -0.0744933 -0.03191201 0.15490487 0.040679276 -0.044239037 -0.0775546 -0.010317564 -0.104778744 -0.12638119 -0.12510696 -0.0044595115 0.007094185 -0.025599204 -0.018201636 -0.03975682 0.054805852 -0.037953764 0.0425913 0.055271376 -0.023140721 0.04495425 0.021069001 0.020011986 0.006089594 0.088987075 -0.013501586 0.07985831 0.052765794 0.056116756 0.034584094 -0.075179 -0.062255777 -0.046063 0.0007488644 0.02740346 -0.030282188 -0.010907863 0.039129384 0.047939688 0.14972778 -0.07232282 -0.15913129 -0.15240607 -0.08362869 0.023023987 0.01201182 -0.09159735 0.055103004 0.021123724 0.0074667046 0.044290483 -0.06251475 0.10254163 -0.014577325 0.021950783 4.003474e-05 -0.1364184 0.051295906 -0.056822915 0.0035167001 -0.14130744 -0.0547313 -0.04329419 -0.012533637 0.10979933 -0.010003666 0.018761935 0.033886105 0.04898474 0.0751388 -0.07881143 0.0720088 -0.0005134438 -0.013252195 0.107038155 0.04950934 -0.003163241 -0.1207479 -0.01658376 0.021717796 0.02487184 -0.08201972 0.13821894 0.15245241 0.0031563134 -0.04107181 -0.09681951 -0.11491703 0.0052403244 -0.0055774213 0.071267486 -0.037478987 -0.023301274 -0.08011254 -0.117006324 0.049773943 0.08516723 0.04519362 -0.06378049 -0.054457355 0.025054505 0.09096017 0.06144095 0.116628274 0.061117426 -0.057610687 0.048599966 0.09623599 -0.029571319 0.0016538795 -0.0504573 0.014939044 0.03501517 -0.0037165938 0.043149594 -0.012051312 0.030972138 0.016861916 0.04696395 -0.056191836 -0.019492218 -0.010350867 -0.072950274 -0.019350639 -0.088745385 0.038974524 0.021390466 -0.014355147 0.1589234 0.023060124 0.022370279 -0.11025921 0.015142433 0.010189343 -0.061104245 -0.109506436 -0.18965603 -0.08945171 -0.05896029 0.02997575 -0.023646018 0.06303911 -0.11743558 -0.07133085 0.030455196 0.039726347 0.0063597695 0.04028562 -0.078313194 0.058116153 0.0065986286 0.03974307 0.0128222015 0.059248302 -0.04372253 0.06384825 0.06381498 0.060798787 0.05635314 -0.041919615 0.0037460814 0.086017676 -0.09994059 -0.09905632 -0.049674354 -0.049159747 0.07797074 0.03737467 0.026772687 -0.014217204 0.063131206 0.13990572 0.057532996 -0.07197955 -0.002137431 -0.04399567 0.021397524 0.047960788 -0.0767663 0.02424726 -0.11723317 0.058157686 0.095929265 0.017477125 -0.10090245 0.0701457 -0.06617652 -0.004809329
idea 0.10175744 0.08691573 -0.084381096 -0.025746876 0.024414042 -0.034347307 0.06278361 0.040755697 0.038322292 0.13856854 -0.021057196 -0.022346677 -0.07754562 -0.016004242 0.030286435 0.045022056 0.046811726 -0.040795192 -0.015662469 0.0973929 -0.10047208 -0.061544318 -0.069787085 0.043357786 -0.013125794 0.025116054 0.066293366 -0.022254696 0.08607528 -0.03754141 0.044829216 -0.029913502 -0.07466458 -0.0057487655 0.026107509 -0.037689704 0.07990543 -0.18795693 0.057650473 -0.05821748 -0.17885642 0.062194336 0.08399564 -0.08049561 0.07950466 -0.08010255 0.020446992 -0.078868985 0.10279091 0.10174817 -0.029238021 0.0843479 -0.1557701 -0.12860417 -0.057560787 0.004547359 -0.049729995 0.019051993 0.12973297 0.03967814 0.018906029 -0.009641533 0.035207536 0.082061686 -0.06411666 0.00067241694 -0.04851085 -0.02911448 -0.14411509 0.009967509 0.08563042 -0.07984786 -0.08447201 0.15386842 -0.008176232 0.03486019 -0.11197277 0.032080147 0.08594026 0.07469272 -0.034056142 -0.01994832 0.04171854 0.024578398 0.08966586 0.024801146 -0.044001784 0.07571926 -0.10583804 0.07153152 0.018832993 0.08567448 0.027066343 -0.017510572 -0.016497679 -0.06728392 -0.0672058 0.02589877 0.033324078 0.028589565 -0.06732893 0.029346203 0.10578841 -0.0027588347 0.0068223076 -0.09459707 -0.10339537 0.0780132 0.025036823 0.042003077 -0.030626966 0.053074855 0.15704325 -0.04266698 0.020680122 -0.07830038 0.14249009 -0.040959418 -0.09325113 0.016311103 -0.061420158 0.015266807 -0.09282891 0.12267557 0.011924322 -0.0016471074 0.023036186 -0.007278651 -0.09133297 -0.04100789 -0.12530164 0.015704272 -0.07419151 -0.023416612 0.09867771 -0.057863902 -0.11411806 0.028031724 -0.00753949 -0.0250589 0.10202202 0.06675129 0.040805608 0.020673163 0.018118704 0.033761512 0.05546832 0.017677931 -0.045145012 0.01592278 -0.004719327 0.053336892 -0.063746355 0.043092962 -0.0112068225 0.004097789 0.0050913612 -0.044151023 -0.020811526 0.07159386 0.0047960994 -0.09026763 0.10489628 0.096440904 -0.19605279 -0.15101361 0.031183695 0.016125208 0.011529073 0.077849 0.021270752 -0.085131325 -0.089109555 -0.09166639 -0.019347383 0.017597308 -0.010735816 0.00091712346 0.033625465 -0.055083636 0.1607344 0.049952816 0.10772702 -0.08855083 -0.14711046 0.15877005 -0.014859663 -0.018093335 0.030365335 -0.029704636 0.08413619 0.010692461 0.13115808 -0.020433398 0.010717753 0.035400394 -0.023612555 -0.006011161 0.0075233015 -0.06770373
computational -0.041480605 0.07344108 0.09383884 0.009209019 0.016964901 0.12873058 0.08700035 0.032809928 -0.10382054 -0.13798112 -0.06561211 -0.01576851 -0.006809875 -0.009440928 -0.008262355 0.08140743 -0.017308502 -0.0377283 -0.103259936 0.011865071 -0.030458046 -0.025779022 -0.020858554 -0.077351 -0.042436402 0.06561729 -0.17872667 0.04007247 -0.21189827 0.044042807 -0.022334052 -0.10580316 -0.060927823 -0.07009538 0.13016729 -0.07148134 0.0125740515 -0.084332965 0.031059304 0.00756846 -0.018621141 0.0011173773 -0.10802663 -0.063887656 0.03258912 -0.023578081 0.06948465 -0.06298213 0.071820706 0.17745516 0.07805398 -0.08213327 0.1383251 -0.1053284 -0.121742874 -0.026131764 0.00920584 -0.1357733 -0.09634413 -0.02828786 -0.086068936 -0.11649728 -0.033994373 0.05357364 -0.062774554 0.018005699 -0.11586703 0.0043760487 0.048628315 0.029590935 -0.07099425 0.06379266 -0.006602741 0.07949327 -0.083755985 -0.0010458602 -0.0109806135 0.11223862 0.091159806 -0.020099357 -0.112415686 -0.02216441 0.045622624 0.07629858 -0.0597449 -0.0803433 0.0017924095 0.1255295 0.08723494 0.009233084 0.032976724 -0.17582685 0.15334436 0.044055752 -0.07990883 0.049389087 0.05681716 -0.014828941 0.067087844 0.18079923 -0.05676278 0.06938868 0.07571306 0.08207194 -0.033747137 0.013152957 -0.026262652 0.050311085 -0.04821866 -0.10119886 0.031318348 -0.17300361 -0.121897504 0.08625603 0.088163465 -0.0061241537 -0.006725234 0.07994602 0.0022065584 -0.16254206 -0.039077137 -0.0149535285 -0.011348075 0.09352192 -0.034519464 -0.026455767 -0.1780553 -0.04940403 -0.041293215 0.01943305 -0.12404524 0.00439553 -0.07267833 0.049760096 -0.07951846 0.0100522805 -0.14157265 -0.14370015 -0.057070848 -0.13284242 0.10212674 -0.13011895 -0.034922976 -0.0811809 -0.0079292 0.073486194 0.06572089 -0.12922092 0.08773448 0.096650325 -0.113155335 0.0424401 -0.044765517 -0.008195627 0.047691867 0.071197234 0.026340565 -0.034230273 0.09441832 -0.028738655 0.041296244 0.10722441 0.015919087 0.09828042 0.11209541 0.053332873 -0.06425374 -0.032469276 0.013053196 0.0631207 0.23605011 -0.034186363 0.0028745786 -0.009658857 0.006148352 -0.18113703 0.13619651 0.052365087 0.046778608 0.040093962 -0.0056226533 0.06881886 0.026835445 -0.05503268 0.069640025 0.010986052 -0.00044528118 0.00048755374 -0.086583264 0.15325701 0.05001792 0.027559433 0.049632564 0.11452596 -0.08238335 0.061727762 -0.05709001 0.01562222 0.042994004 0.056513157
process. -0.10431966 -0.05809237 -0.011984736 -0.107750945 -0.029353848 0.106504425 0.011732855 0.015753381 0.071469605 0.096118055 -0.050695803 -0.03604847 -0.004537376 -0.08353257 0.017217085 -0.03591681 -0.038690872 0.08767068 0.014826567 0.021786759 -0.081385024 0.018652456 0.052335773 -0.101536505 0.0120750675 0.07950319 0.07784517 -0.05615896 0.08070617 -0.0050773025 -0.026855765 -0.012337966 -0.12742084 -0.010098313 0.08537127 0.06723725 -0.016867062 0.11301231 0.001994005 0.08746493 -0.03750275 0.0037375183 -0.054669887 -0.14384378 -0.06889988 -0.05258455 -0.013033589 -0.0034732516 0.027648853 0.07683165 -0.03109481 0.0019926676 -0.09259731 -0.00985306 -0.013758172 0.05062979 -0.021311572 0.066114016 -0.009158573 0.014820315 0.02081038 -0.06027295 0.0016566223 -0.012196427 -0.011455247 0.066346474 0.108700104 -0.08788123 -0.05924484 0.07458951 -0.050519515 0.14720747 0.12467308 0.105799265 0.10305505 -0.11915273 0.056265213 0.039825335 -0.11567235 -0.11733149 0.04363262 0.059647407 -0.08805177 -0.059499796 0.021763654 0.045346353 0.017551858 0.04978831 0.032632466 0.2153749 -0.0612941 0.020835329 0.010146659 -0.071609005 -0.040029068 0.06530707 0.00454514 0.04560747 0.046814073 0.13967296 -0.05592537 0.010395043 -0.0009740787 -0.050363876 0.032832887 -0.03266046 -0.03675516 0.08707085 -0.0347306 -0.09408878 0.02984873 -0.07382484 0.0022268295 0.06085793 -0.038128577 -0.016312845 -0.051965944 0.022696778 -0.13081554 -0.009424261 0.08080664 0.0035504575 0.007741736 -0.04083771 0.10082869 0.12926751 0.076861106 -0.01923716 0.06623885 0.014819359 -0.003656682 -0.050827436 -0.012029828 -0.063031815 0.046830475 -0.04617611 0.06218721 -0.037242506 -0.037447322 0.03132536 -0.10333656 0.08818589 0.03114296 0.07311294 -0.07574361 0.075191 -0.008847893 0.042483415 -0.005490527 0.021980816 0.00922376 -0.15690534 0.044345643 0.19175218 -0.009432423 0.023645312 -0.10356606 0.023831079 0.08263805 -0.0018553322 -0.0015494939 0.056009196 0.16788623 0.078814626 0.048083417 -0.103695616 -0.069004014 -0.0655921 0.020785583 -0.06905491 0.06261561 -0.01989572 0.1437462 0.054187022 -0.0049833995 0.022938859 0.062500514 0.06421964 -0.033205405 -0.04140998 -0.008553204 -0.04128197 0.027421875 0.033620544 0.060474955 0.040455952 -0.062865414 0.021103336 0.02032798 0.038710896 0.058503553 -0.06996013 -0.061520983 0.08046702 0.18117325 -0.047725838 -0.03258661 0.1160471 -0.10568162 -0.015875546
Computational -0.027730992 -0.08071884 -0.016134048 -0.038297456 -0.028569803 0.048166886 -0.07835926 0.0877495 -0.1043122 0.123422 -0.047182146 0.14214668 0.014233776 0.08690915 -0.0056283246 -0.0032323657 0.08048407 -0.009237306 0.058069665 -0.077058166 0.09636038 -0.063006535 -0.08597989 -0.030659156 -0.0031974353 -0.008694757 -0.14744823 0.07010296 -0.0728294 -0.0023951563 0.04567335 -0.01903785 -0.0122138625 0.08323576 -0.049066722 0.07203541 0.026454898 -0.059402563 -0.040772166 -0.04040125 0.049046982 -0.026125994 0.064915575 -0.004951424 0.0020884296 0.033566974 -0.07211653 0.019371342 0.02460818 -0.054133378 0.09241728 -0.06251438 0.16036475 0.07148121 0.03894733 0.00011022191 0.017041497 -0.1244599 -0.072182156 -0.13927995 0.07296461 -0.06548193 -0.022883195 0.13307202 0.037611317 -0.024997737 0.010778057 -0.07377798 -0.0046066716 0.076231256 -0.00078901276 0.06628042 -0.12718222 0.050531983 -0.026172357 -0.053643223 -0.051414784 -0.034535415 0.004440937 0.03586995 -0.025391048 0.0026524605 -0.02635907 0.13681217 -0.053450763 0.05114159 0.002289243 0.010783038 -0.015513136 -0.091252156 -0.057053804 -0.11262421 -0.10706723 0.16193724 -0.016187066 -0.09272639 -0.043099172 -0.09224451 0.033590186 -0.04803482 -0.05192686 -0.13115765 0.065647535 0.008263802 0.031185353 0.04621521 0.012955898 -0.0086899 0.023257535 0.113336444 0.07755639 -0.011439972 0.082681686 0.076342545 0.026475918 -0.07458642 0.005263631 -0.008208455 -0.005562009 -0.026807602 0.06113867 0.036800873 0.0043666754 0.085395426 0.20723866 0.021863801 0.06313434 -0.18896793 -0.07920705 -0.009313589 0.13548364 0.13654315 0.023141839 -0.06542154 -0.0548445 -0.14303614 0.035647042 0.05385417 0.06467026 -0.054699317 0.056985166 0.009167843 -0.052952785 -0.11973866 0.0010624459 0.046564512 -0.003151604 0.026161302 0.03394881 0.060903985 -0.02288981 -0.012257531 0.09811428 -0.11014511 -0.083003044 0.013399257 0.059788648 0.00076375104 0.13348705 -0.094541654 -0.079851784 -0.0065453365 0.04196677 -0.033801295 0.12138075 -0.027672946 0.062129557 -0.10080948 -0.048589155 0.039709307 -0.012542778 -0.047504686 -0.0013706211 0.1125491 -0.045542978 -0.04995755 0.060456116 -0.0703664 -0.12233924 0.08260595 0.04097887 0.124160476 -0.116006956 -0.031639077 -0.084471636 -0.0072976304 -0.058445185 -0.05198539 -0.0900499 0.020674638 -0.1347033 -0.042176433 0.0036142748 -0.04660557 0.059168827 0.097847216 0.03160712 0.014205473 0.04463298 0.0572816
beings -0.019642195 0.10765717 -0.0014576861 -0.034486506 0.07851931 -0.077501506 -0.09563804 -0.0003662984 -0.017190143 0.14974894 -0.1443086 -0.09715244 0.16606535 0.047638606 0.013551034 0.08776589 -0.035203326 0.17614312 0.030262569 -0.036306627 0.08428006 0.0966017 -0.03884973 -0.042970918 -0.14880086 -0.057957258 0.028725713 -0.10209259 0.10905767 -0.033786263 -0.03814416 -0.063239805 -0.0362153 0.026707206 -0.15481262 0.05977602 0.092907436 -0.029723257 0.090746075 0.0037218314 -0.06972064 -0.09559611 0.033491794 -0.05109508 -0.11861571 0.042735666 -0.050594196 0.09139518 0.08017603 0.0025862947 0.06301773 0.07832934 0.023097064 0.10094798 0.08090049 -0.05268897 -0.10087019 0.039120402 0.00396059 -0.011897727 0.15240695 -0.00965968 0.053582728 -0.02275645 -0.06809562 0.034392413 -0.12961048 -0.027058475 0.011726677 -0.08212973 -0.035975426 0.06679398 0.05625805 -0.023422623 0.1106041 0.031329405 0.03334165 0.1768189 0.041830715 0.071918026 0.009190369 0.005135174 0.08477485 0.022891331 0.09347705 -0.12954202 -0.062282115 0.030362003 0.0025121488 -0.0048825424 0.052882567 0.13661973 -0.01193883 0.058902644 0.00063675107 -0.081866354 0.039431613 -0.09236271 0.064991385 0.012188127 0.11180254 0.08754069 0.020335173 0.0025114252 -0.03944208 -0.009846615 -0.025340177 0.0044340296 0.011528154 -0.069696255 -0.08896432 0.00905307 -0.09298943 -0.02610334 0.021987751 -0.057085212 -0.12211901 0.034685034 -0.11254983 -0.0061820103 -0.08473689 -0.061768435 -0.0022899914 -0.12367576 0.013872411 0.08341388 0.05576915 -0.06099378 0.14344275 -0.12901951 0.07538367 0.089182906 -0.012339294 -0.014261691 0.037335053 0.0109924385 -0.06694579 0.032469943 -0.06760209 -0.000489588 -0.07551653 0.09373277 0.084901094 0.13014753 0.18517728 -0.0533634 0.005933669 -0.046625253 -0.005470023 -0.05875522 -0.085408956 -0.03239322 0.06918885 -0.066590406 0.03256849 0.050092142 0.09967136 -0.18091266 -0.0067855045 -0.056688476 -0.09682726 0.032829095 -0.055349637 0.029890787 -0.01875905 0.032101586 -0.087329514 0.1059984 -0.15168056 -0.048292805 -0.014573236 -0.07236153 -0.051555604 0.08457684 -0.047257595 -0.17210674 0.01629999 -0.011779066 -0.08221834 -0.05716351 -0.022138098 -0.1283151 0.003540206 -0.084143214 0.06897261 -0.06405659 -0.11098356 0.01644618 -0.06905836 -0.015141201 -0.057938397 0.107931904 -0.062383465 0.028840547 0.06738068 -0.015338143 0.05505958 -0.09498686 -0.121049985 0.05003833
that -0.062217213 0.034330186 0.045125958 0.017227797 -0.02793795 0.020893946 0.014301774 0.0016555447 -0.13239476 0.089396834 0.016199104 -0.08614414 -0.050236396 -1.9685916e-05 0.05214265 -0.12568162 0.07556043 0.009692907 -0.02200971 -0.015250707 0.057273176 -0.049861845 0.038019307 0.099666014 0.06991078 0.0023558273 -0.03640315 0.101089254 -0.1104531 0.055423267 -0.10626871 -0.008188208 0.093499 -0.006220738 0.003965127 0.003654002 -0.022814114 -0.042685267 -0.006712124 -0.012094718 -0.02759732 -0.052410714 -0.15481485 0.051134158 -0.14916909 -0.00578405 0.017593216 0.106711626 0.022604326 0.019831771 -0.10006676 -0.06250935 -0.045992374 0.15713713 -0.14138784 0.006942208 -0.07352435 0.050534714 -0.06287257 0.03666628 -0.15116459 0.06552602 0.11295726 -0.0937212 -0.0982625 0.012925563 -0.038648266 0.039468966 -0.10648112 -0.0014136488 0.0760311 0.04727431 -0.10166584 -0.05719413 0.04226491 0.04223462 0.097496875 -0.010568612 -0.028174607 -0.012208201 0.11457026 0.022727692 0.1055518 0.07749205 -0.091572836 0.003083165 0.015504028 0.0023228785 -0.021894071 0.04765783 0.082992814 0.055674013 0.05155532 -0.13078724 0.010611407 0.12657987 -0.017271716 -0.016118277 0.057599522 0.036883898 0.032892164 0.058061786 -0.10283361 0.13928373 0.007850833 -0.14299168 -0.016220558 -0.03622677 0.03681681 -0.06172818 0.08536684 0.06891807 -0.023973925 -0.016856654 0.02527283 -0.022186957 0.034409408 -0.030584682 0.08371088 -0.088779606 0.10369941 0.07136314 0.024601988 -0.09424085 -0.019617867 -0.046527375 -0.06344203 -0.10533824 0.027817948 -0.037348516 -0.040779784 -0.008896766 0.039860018 -0.025276592 0.011663973 -0.011985893 -0.04404339 0.031529736 -0.045258302 -0.037435513 -0.09651758 -0.045823827 -0.0030634473 0.13227047 0.118935846 0.0019497784 0.04723187 0.095537655 0.06536696 -0.10937996 0.039228875 -0.06095351 0.003708222 0.0548141 -0.036512777 0.013264849 0.033343356 0.102570675 -0.12051041 0.013311238 0.0061994824 0.07424722 -0.054106373 0.17937036 -0.046468172 0.011368187 0.02569666 0.023325011 -0.03425916 -0.13547297 -0.026740799 0.026366487 -0.08763443 0.0921412 0.021530207 0.016004998 -0.08383852 3.2448927e-05 -0.031131444 0.040179484 -0.03281433 -0.018496934 0.13468586 -0.0051499456 -0.02051522 0.13692944 -0.1568571 0.11266159 0.1107764 -0.033900674 0.038753957 -0.12334668 0.12654138 -0.055073902 0.11050638 0.09232038 -0.010393953 -0.06377732 -0.02185991 -0.0074729193
inhabit -0.023532419 0.10319063 -0.02665707 0.03374082 -0.020860476 0.06743889 -0.01534618 -0.042223535 -0.034418866 -0.13187201 -0.11140526 -0.04832841 -0.038267206 0.014682879 -0.01551787 -0.1345889 -0.04746544 -0.12969689 -0.051245302 -0.09118641 -0.06796802 -0.029410943 -0.012128474 -0.23292021 -0.018157275 -0.007275726 -0.12666345 -0.043948613 -0.058483444 -0.0502115 0.027751027 0.14914435 -0.009732127 -0.06992134 -0.03549767 0.1122149 -0.005225489 -0.039269783 0.003422335 -0.057343002 0.03870078 -0.09330495 -0.065756574 0.044462327 0.00885901 0.026555134 0.03615976 0.08352741 -0.049449563 -0.002466118 0.034965385 -0.0043521994 -0.078481294 -0.07128174 -0.034674183 0.008722047 0.020099688 0.066122055 0.01253877 0.07137266 -0.12255484 -0.13281229 0.057761926 -0.055485874 -0.017493166 0.06450972 -0.0036658235 -0.0068836645 -0.021431005 0.044711363 0.003864357 0.11373436 0.009362937 -0.044407465 0.04029991 -0.045082744 0.05859674 -0.061045177 -0.010892153 0.005434181 -0.09621419 0.034641013 0.018575592 0.022661548 0.07866082 -0.06506109 -0.06034303 0.09175182 -0.080670945 0.040841922 -0.059470836 0.09023524 0.09736558 -0.077737294 0.1526594 -0.018081522 -0.0008428978 -0.081266224 -0.049231745 -0.0900054 0.075432174 0.0030666695 -0.061249558 0.08055086 0.045631815 -0.010797004 -0.020654203 0.0038785439 0.024218466 0.11218097 -0.028680803 0.010149206 -0.08167415 0.080771275 0.038375933 0.1386417 -0.038077816 -0.043397482 0.060568206 -0.010609938 -0.031163251 0.012587181 0.04894796 -0.13991357 0.06654178 -0.03582968 -0.029422851 0.07628283 -0.031116275 0.079940766 -0.0031883456 0.011264816 -0.06246026 0.023793215 0.010902857 0.058361866 -0.19363397 0.024588315 -0.06663959 0.061432887 -0.13233471 -0.10545759 0.05568653 -0.026457533 -0.04387402 0.021324584 -0.037573066 -0.046339873 0.06568799 0.003326031 -0.053665332 -0.003887458 -0.12275196 0.117773496 -0.09900877 0.08476668 0.0676554 0.045916982 0.03766049 -0.10500446 0.05316594 -0.009986049 -0.062724814 0.10697321 -0.079359286 -0.058293235 -0.015392687 -0.003735954 0.075183325 0.021130955 -0.12152699 -0.09457781 -0.004422965 -0.022375826 0.023800658 -0.042759698 -0.04501481 -0.09681873 -0.022390643 0.027881661 0.030659676 0.060415205 0.07525151 -0.008048534 0.077572286 -0.030100103 0.044118915 0.018254107 -0.12649779 -0.05500022 0.040465068 0.04277037 -0.08559601 0.06538097 -0.081227705 0.061703466 -0.036734603 0.07618283 0.06937435 -0.04635513
computers. -0.092873394 0.0045200544 0.100850426 0.0054481444 0.076150835 -0.03338645 -0.022019794 0.10024747 -0.09385365 -0.06647859 0.06322637 -0.11703387 0.11503848 0.00033449536 -0.050489478 -0.1579702 0.07762772 -0.069851585 -0.04023875 -0.026504269 -0.026913144 0.052522913 -0.08148594 -0.09280856 -0.0863962 0.029297939 -0.02446641 -0.029141875 0.049456675 -0.03646168 -0.07012781 0.047298055 0.038904045 0.047743097 0.0677621 0.1292603 0.062419333 -0.11787302 0.016342303 -0.05355326 0.009787665 -0.06714973 0.0036580353 -0.026429517 0.0066109514 -0.090662725 -0.0755399 0.013751595 -0.13527411 0.21347477 -0.114866935 0.015810315 -0.0074044447 0.03480853 0.014865133 -0.087680615 -0.030685036 0.16576283 0.035952736 0.048723843 -0.09908543 -0.108863264 -0.0078105736 -0.013913564 0.045214806 -0.052708782 0.11789901 -0.028852344 -0.032217477 0.04253867 0.08715897 -0.03495203 0.09351006 -0.0010133482 -0.04536307 -0.07208413 0.07517458 -0.08783727 -0.033914853 -0.18770625 0.033469614 0.042936105 0.06149639 0.0033831368 0.05944256 -0.009155024 -0.001611276 0.059004575 0.12386225 0.14831983 0.008683971 -0.02623284 0.014532075 -0.021343658 -0.037444547 0.007199166 0.0037900496 0.039171092 0.016783154 -0.13203071 -0.05698294 0.095771834 -0.114993095 -0.017488338 -0.11655578 0.013660776 -0.0025710643 -0.097275175 0.024918387 0.05926055 0.015406528 -0.08755994 -0.013629134 0.033569872 0.0647527 0.080010876 -0.12014855 -0.063959494 -0.086152226 -0.022869682 -0.048552 0.030989407 0.08608387 0.11609877 0.112892665 0.050816335 0.056442566 0.09825893 -0.044130392 0.025835836 0.059378818 -0.15494987 -0.066258594 0.043927927 -0.09123604 -0.10953421 0.03766311 0.033984967 0.01888618 0.0886058 0.014012414 0.024655463 -0.04038896 -0.002139033 0.051261954 -0.03129302 0.054327454 -0.15105794 -0.09643377 0.02932215 -0.059128374 -0.10603981 -0.029575204 -0.048147917 -0.05886199 0.0636829 0.024096072 -0.050164696 0.022474226 0.013232679 -0.041359045 -0.0019272573 0.07206887 -0.06774482 -0.11883542 -0.022710009 0.12758866 -0.03247579 0.029561512 0.1331903 0.0748595 0.007037903 0.03418226 -0.029531647 0.09155802 0.014447141 -0.13789748 0.044277538 0.08449391 -0.061244097 -0.07236839 0.0073766108 0.010262112 -0.03607219 -0.07832355 -0.025411166 0.0008437159 0.020634923 0.08204768 -0.046657573 0.040583007 0.18671018 0.005227432 -0.050782945 0.08628145 0.09932482 0.061376948 -0.027586127 0.0981636 -0.017455727
As -0.013594346 0.0640004 0.018100712 -0.0320887 0.030515771 0.009960751 -0.006870308 0.09026063 -0.06806515 0.06640397 0.09235559 0.08365186 0.09434159 0.04029975 -0.075394586 0.001305606 -0.0010318747 -0.10414925 0.06391284 -0.09360864 0.06303523 0.04182688 0.0706746 0.01678919 0.07815244 -0.024211045 0.018766304 0.10686392 0.01967762 0.03832564 0.18067373 -0.03576006 -0.09923568 0.059290357 -0.018190613 -0.05786117 -0.15945657 -0.027821014 0.05746031 -0.0034077135 -0.002832812 0.04569794 -0.040841423 0.11301131 0.056680147 -0.08505367 0.11300378 0.025598157 -0.044539127 0.024015998 -0.03859925 0.050984442 0.02977709 0.06856699 0.036043067 0.123923205 0.14780426 -0.05315971 -0.019108543 -0.14226331 -0.0014674934 0.05517368 0.050710913 0.013690912 -0.017910501 -0.052185893 -0.060354996 -0.0018045098 -0.14122096 0.02385142 0.04806693 -0.10110381 -0.05674933 0.008461528 0.0005516412 0.1364315 -0.0029215452 0.089311376 0.073886596 -0.06835417 0.10073755 -0.06808149 -0.114427105 0.10616822 -0.031156167 0.016187372 0.02535607 0.028086903 -0.05885504 0.108890906 0.10723064 -0.11731301 -0.022964662 -0.05834182 -0.06449487 -0.06927181 -0.02589543 0.08504132 0.042611383 0.050977264 -0.10502641 0.03336863 0.03300044 0.040397618 -0.009921796 0.07470106 0.12642135 -0.038510595 -0.08604251 -0.12996756 0.079862416 0.079714224 0.05564417 -0.012533118 -0.027292104 0.029391 0.001507532 -0.014801692 -0.031498626 -0.017584803 0.040843092 0.009426246 -0.0837382 -0.010148386 0.11010601 -0.044419046 -0.009313276 -0.2110843 -0.017588306 0.03941428 0.020762928 -0.13506883 0.03877836 -0.0018516161 -0.117213234 -0.14619754 0.057812866 0.023178112 0.001203634 0.038736984 0.06946434 -0.052047372 0.053627867 -0.017602194 0.061119456 0.011048363 -0.022090226 -0.039530274 -0.07261437 -0.085784264 0.0030915998 -0.05501734 -0.12861645 0.037153427 -0.08649857 -0.0435202 0.054934826 -0.010787948 0.024636906 -0.016272975 -0.036299992 -0.033427782 -0.005536672 -0.020518325 0.052433785 0.019251728 -0.102997325 0.045058705 -0.017669952 -0.037590966 0.07900687 -0.05413879 0.021801053 0.017405998 -0.12316683 0.027778517 -0.028318258 0.17522949 0.03928025 -0.0005284254 -0.021094227 -0.013968793 0.05645098 0.07474416 -0.11144582 0.09380713 -0.071854286 0.010535721 -0.02500028 -0.022276442 0.0047678254 0.0016547503 0.021356031 -0.020564253 -0.08167647 0.10601109 0.0036595308 -0.033044893 0.1407675 -0.08607144
they -0.21568252 0.1003174 -0.008144709 0.095653735 -0.043453593 0.052352037 -0.032344148 -0.0646426 -0.028290678 -0.040174946 -0.08453744 -0.042218685 -0.02729591 0.03675247 0.014634759 0.19112949 -0.059069064 -0.0041526095 -0.0035836669 0.005786001 0.021196058 0.0036030847 0.013096764 -0.002450063 0.050599188 0.029686928 -0.009317686 -0.005797748 0.09090799 -0.00137055 0.053547237 0.06328206 -0.12694955 -0.04815625 -0.017204996 0.04100049 -0.13680053 0.044895828 -0.026385237 -0.05302016 0.0047548115 0.09294657 -0.052965116 0.063649155 0.04725917 -0.09508409 0.003019924 -0.0029461493 -0.07732279 -0.020054135 0.12185839 -0.06468652 -0.007551724 0.049665175 0.052145746 0.057458766 0.02928013 0.08634549 0.08593897 -0.110012054 -0.09250096 0.060186945 0.032110594 -0.05286508 -0.034388524 -0.05398877 0.030371718 0.06612251 -0.06996533 -0.12797578 -0.08081944 -0.09782115 -0.102743015 0.070766486 -0.06402998 0.14304695 -0.068796754 -0.05487265 0.054080155 0.045405246 0.0749358 0.03673636 -0.086780846 0.024758207 0.029168872 0.028394345 0.046149705 -0.024526913 -0.00832294 0.05544845 -0.00074629945 -0.14460397 -0.024208128 0.021989636 0.035319198 -0.08431436 0.11176381 -0.012585522 0.064748846 -0.01271782 -0.046101157 0.0052261376 0.07558976 -0.086595476 0.082274005 0.07554185 0.06126211 0.02181716 -0.20772262 -0.006193614 -0.09394902 0.06659507 0.06900149 0.092050195 0.15113232 0.059219904 0.10625661 0.06497486 -0.1734088 0.11052297 -0.05493157 -0.003641088 -0.1369846 -0.11040931 -0.02576971 -0.09473456 0.09535967 -0.059897326 -0.13651496 -0.0047731455 -0.025993261 -0.006083861 0.004600967 -0.07583231 -0.01615912 0.01705032 -0.08087666 -0.08756499 -0.0141852265 0.21993206 0.1549018 -0.04313795 -0.10379163 0.11401665 -0.10517031 -0.011990103 0.040130757 -0.02006711 0.1327838 0.016738025 -0.060381006 -0.04211207 0.06753271 0.014529678 -0.031281706 -0.0050975573 -0.10338376 0.048360113 0.025534462 -0.048856538 0.091775894 -0.07817171 0.073345244 -0.108354755 -0.065952145 -0.056396127 0.027558489 0.03623325 -0.0019883655 -0.010557069 0.069643155 -0.042902347 0.08646897 0.026553309 0.007552237 -0.04357715 0.08261355 -0.12182529 0.038120046 -0.04774496 -0.021551944 0.028483627 -0.044284035 0.12736572 0.03399523 0.037279382 -0.07419527 -0.062494524 0.06055915 -0.0400727 0.035067216 -0.021289695 -0.052235868 0.030955408 0.0076795216 0.08101207 0.0027178451 -0.116251685 -0.024714967 -0.009830808
evolve, 0.030049581 0.039670862 0.04573938 -0.029095555 -0.054085266 0.016448213 -0.1200736 0.14017007 0.111275904 -0.0068337447 0.08207654 0.061447896 -0.026436996 0.039347734 -0.0873209 0.038914416 -0.0057621594 0.049745377 -0.05306755 -0.02402012 -0.16373003 0.0929128 0.08727924 -0.043405563 -0.15851665 -0.04734341 0.15179935 0.026279451 -0.050892822 0.094801344 0.014489598 -0.11256366 -0.050823547 0.1398853 0.0042955787 0.16432568 0.049260914 -0.0027790822 0.019069979 0.0010795599 -0.068135105 -0.049136724 0.10843817 0.04498633 0.08728918 -0.1251574 -0.056838997 0.017575564 -0.18484911 -0.11160092 0.013845348 -0.051394615 -0.046399295 0.06036355 -0.072304994 -0.10472329 -0.017698966 0.14571495 -0.0051483815 -0.118288025 -0.17777416 -0.020006206 0.08253956 0.054285765 0.014314793 -0.060582437 0.02974368 0.008543459 0.22285673 0.029105362 -0.05108321 0.017174369 0.04417577 0.012989807 0.021537654 0.001897839 -0.06627324 -0.010334458 0.110626705 -0.029526643 -0.06744115 -0.03286865 0.01678423 0.06933264 0.036937393 -0.039235216 0.23030946 -0.06629117 -0.085108705 -0.0017670849 0.066844426 -0.046839736 -0.05915226 -0.11723064 0.04737803 -0.10441915 0.029739821 0.030299757 0.08914501 0.010080155 -0.19224994 0.058387097 -0.0671541 0.04124461 -0.07661724 -0.06886895 -0.01062415 -0.028087456 -0.043660082 0.026498815 -0.17811199 0.06541963 -0.025176417 -0.100374945 -0.11936886 -0.035366155 0.026645772 -0.12751243 0.03337243 0.05012673 0.045874342 -0.08536718 0.06213216 -0.072176985 -0.04248784 0.06952966 0.15439066 -0.11320334 -0.00923149 0.089676164 -0.014592178 -0.002323152 -0.092706524 -0.024792168 -0.077661805 -0.048239376 -0.07544422 0.06946987 -0.02320218 -0.08168738 0.039887376 -0.06277836 -0.10397591 -0.065907516 -0.026237667 0.04398999 -0.046289526 -0.08358887 -0.0005948038 0.030965324 -0.029882688 -0.13337405 0.131384 -0.12009834 0.04271945 -0.04045638 0.056976482 0.069340825 -0.12667851 -0.08337774 -0.03420412 -0.090183124 -0.14348595 -0.106174365 0.0550795 0.18250483 -0.0648076 -0.007528916 -0.007065413 -0.033152107 0.046665482 0.0725774 0.008676961 -0.08133154 0.066712886 -0.1402033 0.029366033 0.029613787 -0.091238886 -0.037304323 0.13288969 0.0989823 -0.04247336 0.07838363 0.013641419 -0.031073982 0.03693158 -0.10357113 0.08247922 -0.06819441 -0.123282455 0.056067 -0.09010323 -0.08966905 -0.006655175 0.0033667418 -0.16218844 0.072408356 0.017235018 -0.055147313
manipulate -0.0023363216 -0.026940519 -0.003930912 0.0141595835 -0.030621162 -0.020522123 0.048113946 -0.051500686 -0.004451054 0.015240083 0.031117583 -0.03722507 0.024225106 -0.034469604 0.030301465 0.0284169 -0.040841278 0.05807764 -0.07677666 0.06561286 0.057894796 0.11229831 -0.06903603 0.024711657 -0.09567432 0.006989067 -0.03864425 -0.030448219 0.07845569 -0.06562969 0.020957848 0.076145194 0.089466564 0.052113634 -0.017492702 -0.01427569 -0.057425406 0.032774575 -0.07583636 -0.09481645 0.029626925 -0.10369017 0.21275651 0.137648 0.018596087 0.036640756 -0.01546303 0.001355391 0.08798 0.007154538 0.022736257 0.18779564 -0.021554787 0.07201179 0.101653725 -0.12086314 0.1097566 0.040915567 -0.007917161 0.048147775 0.06511056 0.026439188 -0.007318079 0.08624818 -0.066131845 0.021711744 -0.047784913 0.032582607 -0.016093465 0.08620153 -0.16138545 0.06561555 0.0005659721 0.20575687 0.14556044 -0.061355606 0.09027925 0.072396524 0.024356399 -0.06747389 0.03331654 -0.023837512 -0.07134961 -0.041477337 0.057669602 -0.0013752416 -0.06656371 -0.13005592 -0.12214975 0.018335508 0.06572703 0.03629295 0.026661184 0.08039482 0.04033656 -0.14024545 -0.0672653 -0.0070263706 -0.0024269852 -0.13017088 0.051229287 -0.059984382 -0.041254826 0.0057422076 -0.030160071 -0.06376417 0.0004675582 -0.04943205 -0.007822273 -0.01335945 0.011818636 0.0008474197 -0.15402165 0.05006889 0.06279601 -0.024799205 -0.03895309 0.009105884 0.02908756 -0.024089212 -0.09713331 -0.08269015 -0.15491897 0.023849767 0.037189886 0.01258712 -0.031202054 -0.06328058 0.09422428 -0.012876936 0.017811315 -0.09301092 0.026740173 0.014183873 0.055749323 0.037635054 0.06338942 -0.1339531 0.027975889 -0.06312383 0.017821802 0.1061681 0.13018063 -0.116656706 -0.032073222 -1.6970209e-05 0.056023154 0.06647422 -0.07614402 0.039027624 0.016833153 -0.05585158 0.042970944 0.057280205 -0.0042200154 0.06695456 -0.040867694 0.07618642 -0.006307514 0.043202832 -0.023006437 0.018940385 0.016190505 -0.083147265 0.004018435 -0.02848971 0.045060635 -0.0065228073 -0.026095737 -0.05229579 -0.05060381 0.10410042 -0.0663774 -0.09748048 -0.13516827 -0.017286869 -0.11096533 0.048950553 0.12279891 -0.15050298 0.030696403 0.050147723 -0.049016356 -0.093843415 -0.042046774 -0.041844882 0.11140257 -0.013261542 0.020611446 -0.0035005722 0.05713307 -0.034326006 -0.106011555 -0.039573435 -0.018067284 0.122173764 -0.015967833 -0.06902182 -0.042374775 -0.18854892
other 0.1073389 -0.0567139 0.055710614 -0.11073401 0.012052209 0.005414007 -0.12136988 -0.06376177 0.0055893115 0.0197092 0.05419755 -0.027945686 0.012940291 -0.06800164 -0.099283904 -0.08066628 0.123531826 -0.05921154 -0.16678375 -0.06972982 0.03585461 0.071342394 0.0029096347 0.088274695 0.030952847 -0.07165369 0.13506512 0.005128295 0.059236016 -0.035404257 0.12195867 -0.1020867 -0.025443804 0.07481296 -0.027038028 0.0019145093 -0.042415157 0.24725394 -0.048155285 0.07542499 0.06698334 0.0423815 -0.0743858 0.003696514 -0.027008114 -0.09843073 0.061671223 0.076978095 -0.1576618 -0.0090626925 0.020889832 -0.15717474 0.19454163 0.11032708 -0.00789441 0.106629655 0.02313563 -0.102079414 0.0019409141 -0.08774264 0.068666816 0.106168985 0.02271283 -0.07611584 -0.0023995582 -0.048297282 -0.10496644 0.026640974 0.107710004 0.022769492 -0.010267264 0.01650583 -0.013371614 0.06679095 0.07123363 -0.03157382 0.07188221 0.0017993668 0.03443576 -0.035269547 -0.067054264 0.051525842 -0.050524153 0.0010052773 -0.015185509 -0.09995014 -0.08465563 0.091826 -0.02064036 0.05328647 0.069192424 -0.10159749 -0.0071560163 0.0701424 0.05605535 0.0042897654 -0.038298387 0.040688418 0.02537162 0.054556035 -0.026729481 0.11140325 -0.024359101 -0.032695774 0.041077077 0.040815003 0.034059666 -0.13408482 -0.079241015 0.011503006 0.0668069 -0.05351247 -0.039275087 0.046320654 -0.03827906 -0.035233725 0.0044294624 -0.11141499 -0.04934591 -0.023653984 0.021990966 0.07341667 -0.043725498 0.013145238 0.053084843 -0.010851464 -0.0051783035 -0.003550431 0.014699144 0.099614486 0.115885094 -0.044444446 -0.037358884 0.04239778 0.05365943 -0.13575634 -0.1449419 -0.029621024 0.030193299 0.13235475 -0.018939566 -0.015699478 -0.0029977327 0.0014537029 -0.122396216 0.02378336 -0.017083656 0.048418697 0.034950312 0.013016578 -0.05506989 -0.01991843 -0.032740835 0.06793798 -0.09043247 0.060188275 0.042870242 -0.060250077 0.031214362 0.08549427 -0.00088643725 0.05736248 -0.10519271 -0.03247581 -0.11991175 -0.06586451 -0.015507588 -0.026456581 -0.0062126303 -0.020935139 -0.09358307 -0.10973918 0.11489438 0.17931102 -0.061654814 0.010956341 -0.012114303 0.06501749 -0.024095142 0.15406851 0.02514419 -0.13280912 0.090571456 0.06140261 0.0040916665 -0.023858268 -0.0141254105 0.04744386 -0.11808932 0.073318996 0.0767143 0.010396865 0.054388124 0.025224976 0.07368301 0.07005146 -0.055565048 0.027373781 0.026364164 0.021230433
things 0.044228006 0.021760682 -0.01818616 -0.18628621 0.038357586 -0.04338313 -0.088715754 0.10641993 -0.026827436 0.04798314 -0.041724633 -0.05579282 -0.0021443183 -0.0047781947 0.09534779 0.0064608296 0.020157214 -0.028740551 -0.049295027 0.014298013 -0.021090398 0.08986927 0.05546501 -0.06475121 0.019859169 -0.010433833 -0.07512998 -0.03647528 -0.11741312 -0.01584909 -0.032278 0.0823644 0.016264606 0.02711236 0.04905861 -0.061171535 -0.019623138 0.105718404 0.05044505 0.078654945 0.0029567743 0.008739005 0.048841383 0.15278669 -0.100848466 0.0077114557 0.035550285 -0.08065498 -0.032802153 -0.011861341 -0.00973733 0.06843667 0.10572764 -0.09823781 -0.09671913 0.017647509 0.0012827358 -0.053649705 -0.03096644 -0.053754784 0.0710136 -0.079592906 0.073708646 0.003444782 0.051864967 -0.16244525 -0.0054285275 -0.07533957 -0.03524552 0.06708381 -0.14269973 -0.041517932 0.0417094 -0.04552223 0.046510756 -0.155417 -0.0039742906 0.054669578 -0.10569776 -0.07215907 -0.03923453 -0.045040783 0.06037141 -0.009352667 0.020576378 -0.04575573 0.16225328 -0.01785585 0.02318927 0.022724545 -0.07831454 -0.08723303 0.025099676 -0.23316008 0.07154231 -0.049263608 0.020102244 0.11875468 -0.06436899 0.005570379 0.10396034 0.008879219 0.0062841186 0.05428636 -0.02389946 -0.014993841 0.02673596 0.022087518 0.112035975 0.01894767 0.03139968 0.00049461436 -0.022389656 0.08425573 0.052607466 0.10038577 -0.08805799 0.04644929 0.06934922 -0.005282527 0.0986718 -0.031296752 0.09761664 0.008034157 -0.010053161 -0.09623442 0.07509957 -0.08450414 0.035584208 -0.021892164 -0.035786193 -0.06227274 -0.070722505 -0.11126208 -0.037180644 0.0140665015 -0.03358342 0.04962865 0.031178435 -0.03328171 -0.1831403 0.009564395 0.012278717 0.05098031 -0.013574314 -0.11773965 -0.050218385 -0.015601503 0.056078114 -0.03198548 -0.056320846 -0.07678667 -0.03934302 -0.045974884 0.07171776 0.07369377 -0.010701455 -0.016844174 0.059540305 -0.00040953245 0.0424838 -0.0015277114 0.0016407684 0.01904399 -0.09487595 -0.0042210226 -0.06260773 -0.017282015 -0.15787129 0.07048354 -0.02115162 0.120085604 0.006991286 -0.017662026 0.00080114393 -0.017247632 0.10188234 -0.1677302 0.03581631 -0.075837836 0.09573748 0.0445802 -0.1078569 0.11495852 0.046790328 0.11791937 -0.016699228 0.0021396969 0.04828012 0.12011288 0.002552096 -0.10007109 -0.07541739 -0.090035595 -0.07913211 -0.06358099 -0.0038551118 -0.123601854 0.0360536 0.055131666
data. 0.12586954 -0.017145952 0.11045982 -0.058147185 0.053242944 0.002572012 0.13215636 0.064563595 0.09250701 -0.015085031 -0.03734746 0.09009566 0.033468958 0.05910657 0.004354973 -0.029723622 0.1145068 -0.062290147 -0.0010307736 0.053552397 0.0076903314 -0.055765584 -0.011389863 -0.0040211454 0.05803489 0.044441056 0.04157775 -0.065153114 -0.07373141 0.09703126 -0.019019777 0.09298088 0.13553424 -0.17646936 -0.023241345 0.040705934 0.014787443 0.04715646 0.10723335 0.024934497 -0.07119075 -0.06576318 0.075854905 0.063615926 -0.062151704 0.011232159 0.04411697 -0.093778364 -0.0063059954 0.06231906 -0.09038932 0.045605388 0.07482888 0.049095444 0.044516534 -0.049800728 0.01426338 -0.011481239 -0.17109817 -0.015421263 -0.019206507 0.07259911 0.059016418 0.115355425 0.05361019 0.003724996 0.21801494 0.0050824317 0.10999788 0.03614974 -0.00018538463 -0.10163915 0.036876354 -0.09679213 -0.036785126 0.021418385 0.03555399 0.037444863 -0.020459404 -0.1694982 0.0023855423 0.06858602 -0.119807094 -0.11469889 0.0075481706 -0.032247968 0.07525347 -0.05546088 -0.00013178028 0.152971 -0.06531487 0.008754443 -0.06290892 0.0108139375 0.003016175 -0.06483752 -0.077901095 -0.042374663 0.07935031 -0.02243197 0.0008560508 -0.03854744 -0.050387748 -0.044601984 0.021413114 0.085349664 0.08172353 0.021043023 -0.047746442 -0.020243771 -0.090013824 0.04122378 -0.043898877 0.06184919 -0.1573832 -0.016753701 0.01844464 0.0030361353 -0.04151676 -0.120269105 -0.02473232 -0.020702938 -0.022734163 -0.052665483 -0.066941515 0.012203404 -0.056670886 -0.090320796 -0.042535216 -0.01688528 0.016405376 0.11711901 -0.10036286 -0.09805745 0.0505845 0.02602023 -0.068120055 0.017883128 -0.052198015 -0.0011893315 -0.004631038 0.046700742 -0.06482882 0.031567484 0.039492894 0.012746637 -0.10627217 -0.13329305 -0.0116268685 0.01090763 -0.004521922 0.11866949 0.1197035 0.0802766 0.06392343 -0.11087376 0.11467266 -0.030007334 -0.054946475 -0.02342228 -0.008976972 0.10711776 -0.02691595 0.080234535 -0.11777295 -0.102789685 0.04377194 -0.0708249 -0.05492461 0.071926266 0.097709 -0.08428234 -0.094601214 0.01329595 -0.18736313 -0.1162692 -0.055822864 -0.044792414 0.02529485 -0.018789921 0.20491494 -0.07854956 -0.02982096 0.017723432 -0.089597106 -0.021111349 -0.061142415 -0.011614588 0.03329184 0.078139566 -0.08821777 0.025531853 -0.07435163 0.012886207 0.07968239 0.017883249 0.07725336 -0.055701036 0.02760833 -0.003055427
The -0.076010235 -0.033296812 0.02631414 -0.14950106 -0.027650613 -0.020243024 -0.12952264 0.07919734 0.001658329 -0.009853191 0.010478725 0.022301527 0.0836804 -0.10728006 -0.05235242 0.08312432 -0.040749956 -0.13301674 0.015358863 -0.07954294 -0.14054593 -0.0036348961 -0.05376748 -0.04562291 0.14112824 0.11403274 0.061665844 -0.029717531 0.024143232 -0.010904285 -0.031338222 -0.09989029 0.095238134 -0.0007733682 0.027689813 0.13622834 -0.02971786 0.00552267 0.09198852 -0.044792 0.012958021 0.017633125 0.13241321 0.010624969 0.09428286 -0.0017974335 0.005575893 0.061716028 -0.06427619 -0.022144765 0.01595582 0.0045441245 0.035400134 -0.013635207 0.06780159 0.008269361 0.14622766 -0.009917611 0.052601125 0.13163128 -0.038771026 -0.04564126 0.09495694 -0.0037780625 0.019671835 0.07684099 -0.039759595 0.013628732 -0.10002455 0.05774752 -0.12262594 0.06165167 0.015092909 -0.075515755 0.05476515 0.0006809935 -0.034047965 -0.07504122 0.070505016 0.022524867 -0.038503986 0.2219163 0.04637396 0.19760755 0.0016771384 0.03265068 -0.03142658 -0.011503482 -0.059737507 0.023777433 0.07493391 0.08002253 0.10718754 0.13105541 0.1624311 0.13617776 -0.038740024 -0.06450314 -0.022568509 -0.044066034 0.059898056 0.07736687 0.07728594 -0.11341271 -0.11587292 -0.10009735 0.06094001 0.040454376 -0.071717754 -0.061951317 -0.053151343 -0.025287202 -0.05494869 0.01749349 0.017861659 0.024287162 -0.04392756 -0.05170636 -0.005653882 0.015118372 0.06938795 0.04563031 0.009881598 0.11394901 0.07072289 0.11050356 0.057050537 0.034671046 -0.1011647 -0.00686372 0.13557902 -0.06088023 -0.023013715 0.06962176 -0.013849085 0.023813069 -0.012718084 -0.1131694 -0.05596811 0.06963672 0.010416273 0.016226834 0.07512314 0.050598558 0.09764866 0.15738557 0.044851203 -0.06911011 0.082528695 0.015209344 -0.025217842 0.0053378334 -0.073435485 0.18545488 0.068349995 0.08760194 0.11756109 -0.006706976 0.02805052 -0.09278505 -0.06994509 -0.005604976 -0.010989971 -0.12205203 0.047361776 -0.023555983 0.054684088 0.025248706 0.0874624 0.07992828 -0.013929509 0.020971708 0.025869247 0.067053325 -0.01707602 0.028296655 0.02358613 0.012838339 -0.09980543 0.04651806 0.036972646 0.057534363 -0.079638205 0.0967365 0.05305094 -0.0042024977 0.095012136 0.012953884 0.09245289 0.015211816 -0.018575126 0.11699612 0.1176775 -0.05114117 0.0859614 0.010928261 -0.033105724 -0.0037804665 0.022633165 -0.018407244
evolution -0.07844761 0.12084322 0.06474453 0.0006901521 0.03308219 0.0050424896 0.020309223 -0.06361842 -0.052724235 -0.055420212 -0.02229574 -0.015970206 0.018311558 -0.08948187 -0.048629098 -0.019087294 0.08742945 -0.03930087 0.050562166 -0.040757842 -0.039968133 0.060024884 0.020362405 -0.1450353 0.12811442 0.024219062 -0.019778123 0.0504204 0.0016554877 0.14376257 0.06447445 -0.1458654 0.042782966 0.045615654 0.03968727 -0.021734985 0.051152553 -0.059065986 -0.046945624 0.032918964 0.07647319 0.17567572 -0.084729075 0.046250425 -0.036994804 -0.045974586 -0.06409553 -0.01840292 0.043159712 -0.034736726 0.020200346 -0.09782344 -0.07728081 0.10609431 0.0398466 -0.0047254036 0.059249267 0.16505267 -0.036481354 0.031952094 0.1437573 -0.12384335 0.064789385 -0.026532171 -0.0427234 -0.0118939 0.037581 0.02388485 0.0066464595 -0.08784517 0.04924819 -0.15757741 0.15858474 -0.03217521 0.027161142 0.007882423 -0.07341603 0.040045124 -0.13367376 0.030656815 0.035202686 0.104246005 0.12550156 -0.06745207 -0.035691798 0.051631235 -0.085010864 -0.07197749 -0.019905856 -0.010894351 0.07116438 0.05618903 0.008510887 0.18360296 0.064535655 -0.060416136 -0.044238422 -0.010866356 0.08386749 -0.12852465 0.11320299 0.07131669 0.02802789 0.0036317646 0.034606583 -0.14780112 -0.040304683 -0.09218324 -0.03830341 -0.030953906 -0.08039235 0.01119875 -0.005247029 -0.052357502 0.007890933 -0.16350067 0.12402536 -0.04303329 -0.0098776445 0.027495105 0.049617924 0.03622061 -0.06785065 0.07724039 -0.025545664 -0.07390453 0.0060451003 -0.04599821 -0.016025787 -0.017743899 -0.13753568 -0.040244795 -0.0066091986 0.017331963 -0.0056703887 -0.103008755 0.052611955 -0.044434365 -0.02688194 -0.059470154 0.0042100814 0.061060965 -0.08928173 -0.18993486 0.042797387 0.020996159 -0.01661661 0.035524793 0.15528032 -0.013022701 -0.054905742 -0.08792587 0.010663025 -0.009111392 -0.09376136 0.031787418 -0.04068046 0.01775247 0.03653825 0.07530726 0.015395255 0.08422201 0.037314128 -0.07318836 0.0028917468 0.116317116 0.04815371 0.020931471 0.044393644 0.00010828283 0.018105362 0.023974337 0.07362431 0.101288766 0.060039673 0.04076555 -0.084275424 0.046464607 0.082709275 0.00766891 -0.10198212 -0.06213797 -0.04647892 0.032673247 -0.18649065 0.09746101 -0.030932557 -0.06888312 0.03088781 -0.16660115 0.016515484 -0.027355589 -0.08845349 -0.0024735758 0.0041604 -0.092833735 -0.060194157 0.02691416 0.08099572 -0.09023745
process -0.0038019433 0.013016493 0.08728133 -0.03671777 -0.04978363 -0.055798955 -0.13792685 -0.046487622 0.07780717 0.022787748 0.046669144 0.11623088 0.0026594626 0.017841533 -0.0031869656 0.018086908 -0.06508865 -0.0131651405 -0.11107864 0.021706976 0.047675617 0.01683092 0.024858693 -0.03137508 -0.06410573 0.044954732 0.0022547636 0.057227 0.023802513 0.15429062 -0.0036786557 0.02742463 0.09815386 -0.07602733 0.12582229 0.035941858 0.057836864 0.11632013 -0.0039972914 0.17209454 0.016439442 0.11971857 -0.0086183185 -0.06543746 -0.03714907 0.041046884 -0.022316134 0.014727406 0.039172344 -0.053754207 -0.09267812 0.12987904 -0.06790323 -0.025060078 0.018023046 0.11475794 0.05192575 -0.055912483 0.055617616 -0.032643266 -0.03123074 0.009063487 -0.025484335 0.09819357 -0.035147395 -0.12057521 0.015903829 -0.15678628 0.058700554 -0.0006407073 0.027039446 -0.053472657 0.06463712 -0.00083785574 -0.02221345 0.0701918 0.017062878 0.02184638 0.15645441 0.09182325 -0.10438056 -0.12278734 0.0149649875 -0.0031371813 -0.098909386 -0.022052282 -0.09376602 0.09170229 0.097293064 -0.08308261 0.07959726 0.17451061 0.045428164 -0.05047694 0.12804529 -0.009205526 0.11076926 -0.037732583 -0.00032844994 0.07386353 0.075484976 0.038866263 0.021054478 -0.05143689 0.036238957 -0.023608293 0.050586034 0.011477849 0.06400705 0.056752183 0.08362827 -0.036255497 -0.01182209 0.073112465 -0.05864478 -0.17240743 -0.015822783 0.015231884 -0.020593815 0.037603468 0.009571264 0.029497681 -0.019042049 0.09929512 0.051972654 -0.10801145 0.0761922 -0.022326149 0.046155002 -0.18609388 0.046625614 0.074657634 0.123015866 0.059456296 -0.04319944 -0.102493286 -0.02159526 0.011979769 0.09920498 -0.10166853 -0.029145954 -0.079634264 0.095493056 -0.0096031185 0.007972027 -0.052325614 0.18059134 -0.041781824 -0.019469842 -0.0014441675 0.027357807 0.1073258 -0.02594659 0.032117527 0.1763283 -0.03319316 0.12666422 0.03245865 0.08547005 -0.055175986 0.00858929 -0.122983746 -0.045099836 0.120251514 -0.03340346 0.0936932 -0.15633228 -0.11607392 -0.020247485 -0.08579604 -0.021607082 0.103338666 -0.030941451 0.16830364 -0.0019469268 -0.088039376 0.0049265646 -0.026179884 0.015561255 0.14851305 0.021585645 -0.023385813 -0.13228065 -0.04504584 -0.046846807 -0.022692952 -0.035186924 -0.02482812 0.14702344 -0.11856467 -0.09500248 -0.00064823404 -0.066302456 -0.009792162 0.085425206 0.024078263 -0.0038762041 -0.013950323 0.07339784 -0.027355626
is 0.02236046 -0.02000714 0.049520075 2.6274782e-05 -0.09009681 0.051499434 -0.032864094 0.03493769 -0.053520564 -0.082537375 -0.02374777 0.07678055 0.066641994 -0.099812925 -0.087079115 -0.031863265 0.04095995 0.16555944 0.062506154 -0.109832466 0.10895813 0.009209194 0.03669386 0.05205608 -0.016596783 0.027285654 0.03792907 -0.054345008 -0.17222401 0.030990332 0.06623627 0.095871806 -0.05964137 0.072071984 -0.04161503 0.010322532 -0.027990004 -0.115692414 -0.028744893 -0.030558849 0.11996471 0.0030774109 0.07463205 0.055485997 -0.0219728 0.005629224 0.11382829 -0.018632004 -0.09625015 0.0017086747 0.07963181 0.059461817 0.07888654 -0.03455311 0.0077475016 0.014670874 -0.049036875 0.007128344 0.036412627 -0.13598147 -0.0063415132 0.03875042 0.14830974 0.09563016 0.038473345 0.0079054525 0.045269277 -0.041605864 -0.011440403 0.03445527 0.001790807 0.03700645 -0.046336405 0.24542296 0.010770166 -0.008965944 -0.08506254 0.058007605 -0.0011344682 -0.15015239 0.08767392 0.064141236 -0.11826807 -0.018377483 0.020729993 0.05515188 0.09317061 -0.016178032 0.023611758 0.016977534 -0.2352502 0.023018641 0.09347703 -0.018452415 -0.031131616 0.07792329 -0.070751645 -0.12074604 -0.05958194 -0.056671742 0.14547333 -0.018685317 0.001176728 -0.12061024 0.04255868 0.11805362 0.04532939 0.012476393 0.039975155 0.006645763 -0.123681836 -0.010281543 -0.1552006 0.05574059 0.08194233 0.0629462 -0.01482154 -0.088534154 0.006626071 0.08591733 0.06443582 -0.055074126 0.009420684 0.043659955 0.12368758 0.100996025 -0.06532719 -0.078289986 -0.01752789 0.0035569528 0.0015914285 0.0036908402 0.02628066 -0.011781714 -0.0054436754 -0.13027075 -0.10603232 -0.03289873 0.109253876 -0.14744467 0.12830167 0.16671184 -0.03997428 -0.09958406 -0.0074985 -0.036870357 -0.13765012 0.017798696 -0.10247626 0.050623406 -0.0004665941 -0.0071546957 0.0006128747 0.013949772 -0.029946204 0.0011214643 0.047642715 -0.0011785794 0.039080907 0.0009907789 -0.06424068 0.03969386 -0.058769032 0.11122168 -0.08327049 0.04523209 -0.009892028 -0.028426562 0.008792173 0.020965373 -0.050643794 -0.055745617 -0.06902909 -0.053968206 -6.406652e-05 0.1207141 0.042009033 -0.039518144 0.09008546 -0.0052334056 -0.025526248 -0.017046737 0.023437075 0.026372788 0.029343188 -0.13946702 0.014068054 0.06122133 -0.025316063 0.006600064 -0.01815603 0.105168276 0.008296948 0.030668989 -0.11492388 0.008174461 -0.0726923 0.117737666 0.013113913 0.07401847
directed -0.09305229 -0.07876064 0.050107803 -0.20541954 0.045107983 0.08513199 -0.028226797 -0.028654534 0.13806197 0.08277169 0.010216773 -0.014295487 0.05584229 0.12775636 -0.027126143 -0.021938903 0.02105648 5.511548e-05 0.033784505 0.11505206 0.14899255 0.04814322 -0.041317996 -0.034067992 -0.14868502 0.010133365 0.14124689 0.14272617 0.0930043 -0.18895508 -0.033739988 0.08671234 0.005764123 0.0038249954 -0.13020381 -0.055369288 0.06927273 -0.08694828 -0.061283734 -0.070110545 0.034172118 -0.011809957 0.039415874 -0.055659074 0.14764886 -0.048939604 -0.08307446 -0.078890204 -0.09306063 -0.06218263 0.09904527 -0.060930457 0.06101264 -0.0004925552 -0.028002419 -0.11508433 0.057548393 0.09226131 0.0724287 0.07255825 -0.008273332 -0.072502956 0.052367155 -0.023527736 -0.07643681 0.036412418 -0.055429697 0.04161787 0.012998609 0.023070354 0.009722751 0.03562358 0.03770262 -0.06291816 -0.021004643 0.061401885 -0.039951485 -0.010003362 -0.041692052 0.055077653 0.010889409 -0.040372357 0.04114944 -0.003717235 0.040683627 -0.043287203 0.05952858 -0.042431973 0.19782074 -0.0723842 0.03273968 0.13574106 0.012567162 0.004358898 0.08021075 0.006460879 0.08759414 0.07981707 -0.021065742 -0.2147187 -0.021199344 -0.12263021 -0.035405353 -0.030462928 0.17803812 0.06962657 -0.15427577 0.025264584 0.13453922 -0.04338342 -0.021222917 0.023260985 0.07732477 0.12735756 0.040171348 -0.11215242 0.09692832 -0.0822802 -0.06587734 -0.004308352 -0.06441187 0.102666825 0.11328899 -0.005430917 0.14778475 0.04165946 -0.031460628 0.06822886 -0.0056227474 -0.031385247 0.0205314 0.011924475 0.08481166 -0.08677468 -0.006492194 -0.012614093 -0.0015327377 -0.019595532 0.18258366 0.026484497 -0.03549095 0.0103649525 0.01844708 0.08976852 0.032947976 -0.03441105 -0.0014987856 0.0626368 -0.013706028 -0.025056986 -0.012055926 -0.07019766 0.02114689 0.03216529 -0.073981576 0.055069674 -0.045755535 0.03419268 0.039123565 0.0050880024 -0.072363585 -0.043204572 0.05715727 -0.13768631 -0.10674487 0.055444665 0.12536098 0.0117637515 0.014705935 0.07868945 -0.003723557 -0.010147554 0.019230384 0.057490285 -0.07618557 0.020452699 0.046980266 0.1752599 0.052049033 -0.08289074 0.07760255 0.0012159233 0.076377764 0.0070306836 0.034353234 0.0014637958 -0.0028858685 -0.07365193 -0.056963857 0.09663596 -0.052439213 0.10888659 -0.11277612 -0.15553848 -0.023008265 -0.039114784 0.14416201 -0.0024980544 0.00748221 -0.107987225
by 0.015273306 -0.055908002 0.011290263 -0.083441004 -0.0679006 -0.10046109 0.012290956 -0.21180165 0.11196887 0.08025504 -0.042323966 0.017071769 0.0839964 0.047902286 0.01579602 -0.109103814 0.024160827 0.07575143 0.027717413 0.013843855 -0.04814295 -0.09539329 -0.120302536 0.0823535 -0.039590627 0.019042475 0.07091884 0.044033762 0.024781851 0.107568786 -0.13177656 -0.09106165 0.15015778 -0.07937874 0.024346564 0.03599254 0.08245622 -0.008513343 -0.078214526 -0.051364444 -0.0133054145 -0.0659998 0.067640744 -0.056334935 -0.029307095 -0.033594105 -0.061766233 -0.076693796 -0.11649777 -0.04134543 -0.115867585 0.08563419 -0.022555238 0.03516916 0.003975152 0.054505024 0.0060576363 0.111322366 0.058182407 0.003261328 -0.10739066 -0.024727978 -0.14093898 0.046563778 -0.072039515 0.02395137 -0.08474058 0.0048221885 -0.029310912 0.0020354476 0.048739385 0.027300186 -0.03563662 -0.06247998 -0.08243165 -0.101670004 0.022815658 -0.07268451 0.07934961 -0.014736903 -0.06539627 0.014360718 -0.1441377 0.05150807 -0.014597967 -0.037757583 0.04572202 0.07720394 0.09827493 0.016470926 0.048500177 -0.07653756 0.1187573 -0.030552186 0.06425864 0.14235468 -0.09383138 0.0047832993 -0.026644008 -0.007319918 0.06740508 0.039861266 -0.026385633 0.05646507 0.09777375 0.017579501 0.017799059 -0.041413438 -0.07295214 0.11000255 -0.030614741 0.021120267 0.012465425 -0.0048840675 -0.026762957 0.026264654 -0.040425178 0.0013042093 0.036633696 0.040870365 0.07719765 -0.15050554 0.15869449 0.006276208 -0.08766432 0.022950122 0.049374457 0.051578693 -0.044106085 0.053309295 0.062659696 0.028116476 0.008251088 -0.11843053 -0.015554125 -0.006153187 0.05046162 -0.108468786 0.011930444 0.010209473 -0.084554344 -0.13825178 -0.042672057 -0.088416874 -0.021751843 -0.06447724 -0.07248088 -0.054893166 0.11678186 -0.0952736 0.0569658 -0.05066769 0.056677476 -0.050030183 -0.13223156 -0.079082325 -0.10841303 -0.029274553 0.08266673 -0.07370953 -0.01766902 0.034550007 0.006219668 0.027380096 -0.014412702 0.024660274 0.15771946 0.006077053 0.008655829 -0.062005367 -0.044578563 0.005347928 -0.08275062 0.041798953 -0.05476131 -0.0034908545 -0.114849284 0.08091062 0.025404934 0.10266999 0.028997341 0.040166672 -0.063120306 -0.05765291 0.04170209 -0.008489671 -0.09578028 0.068919316 0.083842546 -0.024018776 -0.023676109 0.03959824 -0.026669435 -0.046307947 0.003130084 0.0146330185 -0.05640371 -0.06220528 -0.15737124 0.13256693
pattern 0.002553673 0.10701939 -0.013169871 0.020858843 0.02848892 -0.010745132 -0.074520305 -0.022800192 -0.0407563 0.021878824 -0.08794025 0.002487759 0.039814405 0.027173325 -0.22752947 0.16120201 -0.062639 0.003806871 0.047125116 0.042566467 -0.05664055 0.029564658 0.03967838 0.055918887 -0.0001447193 0.040892836 0.030451875 -0.0050561926 -0.0076322765 -0.0013792836 -0.021285204 0.1330299 -0.027278107 0.066068105 -0.11459341 -0.012578408 0.09356635 -0.04778514 -0.07300121 0.0062575964 -0.055134445 -0.12312167 -0.103226826 0.013428309 -0.045690466 -0.13075379 -0.016125048 0.15102766 0.002254764 0.03903879 -0.059288625 0.108482905 -0.0055119772 0.041017383 -0.021722864 0.03937689 -0.044605833 -0.018754767 0.03683978 0.17600705 0.13180532 0.054137327 -0.13792557 0.07534342 -0.0065400125 -0.008723139 0.033740424 0.029731166 -0.003029613 0.045477282 -0.04141348 -0.008969643 -0.09567426 -0.14390674 -0.055503294 0.029574258 -0.07362833 -0.06619503 -0.0834438 -0.108634956 0.103099525 0.13436265 -0.06658083 0.045466125 0.050125282 -0.074919954 -0.08479221 -0.09029251 0.0016731649 0.031634685 0.003955971 0.050151516 0.10921455 -0.06522821 0.018359551 -0.04091383 -0.006122148 -0.06616358 0.08888064 -0.06380764 -0.029374693 0.097102374 0.06974008 -0.18540983 0.07816461 -0.010688633 -0.0954382 -0.10109496 -0.008984344 0.061189894 -0.0004789219 -0.07176112 -0.042657085 -0.0011415468 -0.047166463 0.013939649 -0.029194443 0.028635647 0.009159707 -0.052769016 -0.030178487 0.015114838 0.020852806 0.0442201 0.11827843 0.031117927 0.012009708 0.02444438 -0.025635336 0.04250003 -0.09836197 0.10866784 0.03368025 -0.053354867 -0.021709133 -0.109016895 -0.024085106 0.15942672 0.026645452 0.0144217545 -0.031122768 -0.011232417 0.06295678 0.09470442 -0.027352775 -0.054549813 0.14876027 -0.025947724 0.12741627 0.057146903 0.054307923 0.017487925 0.0021312716 0.043640643 -0.0933719 0.007348798 0.063036054 0.0058151498 0.021956524 0.047221765 -0.065728605 -0.09516729 -0.092219405 -0.06276804 0.039026074 0.01578155 -0.030941775 -0.013469527 0.047797024 0.044480134 -0.05965761 0.08649488 0.006386366 -0.023095736 0.09930368 0.05262046 0.05411458 0.0031457185 -0.1390457 0.11163673 -0.034489334 0.1023389 -0.03424278 -0.11744503 -0.045186717 -0.00987829 -0.0032449916 -0.003387421 0.077460565 -0.038474716 0.07549222 0.03709365 0.08082963 -0.04718725 0.008522297 -0.05371072 0.09800642 -0.13775237 -0.022178886 -0.041530382
rules -0.056071244 0.12047468 -0.0029282996 -0.012786453 -0.13202366 -0.114457004 0.05784558 0.0065777698 0.044242337 0.1324085 -0.07113614 0.07074397 0.09327359 -0.08415848 -0.08137989 -0.09897053 0.00927318 -0.051127926 0.002647767 -0.056215074 0.018931154 -0.050933305 -0.06920067 0.02993428 0.005885633 0.049178638 0.031026525 0.07933834 -0.009680316 -0.03935735 0.010630499 0.039916668 0.12519698 0.0057610297 0.048204083 0.12507038 -0.034956742 0.07050521 0.14133693 0.0039256453 -0.074769564 0.0021397972 -0.043014023 0.018398706 0.06764255 0.10577653 -0.0040339013 0.0034440688 -0.087272406 -0.057602704 0.17886253 0.0132893715 -0.110340774 -0.02434191 0.030789403 -0.08772092 0.030665373 0.062244635 -0.17068817 0.14190975 -0.09538469 0.087656185 -0.047234397 0.15814203 0.11714984 -0.03586377 -0.10192848 0.0005845313 0.09892106 -0.09320964 0.07899023 -0.070012234 0.015700093 -0.06083008 -0.077509016 0.15944591 0.017942764 0.07055404 -0.0013877251 -0.05311038 -0.10380253 -0.00030113576 0.037271716 0.0404818 -0.059855867 -0.032655753 -0.05183537 0.01878713 0.1151158 0.121679194 -0.07124935 0.01920763 0.05664618 -0.16186374 -0.004657301 0.0071703065 -0.013350107 -0.09890621 -0.031030519 -0.1678413 0.09564951 -0.039351292 -0.091706626 -0.026864655 -0.014473605 -0.111072205 0.021829266 -0.071652226 -0.054526035 -0.06274555 -0.043335527 -0.004486327 -0.034299288 0.10111621 -0.058663275 -0.01970237 -0.016024513 -0.07912642 0.040533897 0.035944603 -0.071428336 0.02735574 0.057248082 -0.029324772 0.029565359 -0.04055349 -0.009587976 -0.054721713 -0.10913749 0.045983106 -0.087572135 0.06728004 0.06450778 0.008433162 -0.03422589 0.061508507 0.0263033 0.016649213 0.12583768 0.0721252 -0.025680019 0.004343412 0.024360213 -0.06268036 0.0734382 0.030233102 -0.029777784 -0.043115888 -0.10987436 0.010153778 -6.2897096e-05 -0.08706138 0.025834734 0.09165667 -0.07096974 0.18322553 -0.039539006 -0.10176385 -0.0072809486 0.07005441 0.03974016 -0.08362259 0.035973314 0.076248035 -0.024311738 -0.028138984 0.06115485 0.01952803 -0.059814136 0.09496184 0.016526613 0.020160358 -0.041090906 -0.015038601 0.01615151 0.0839964 0.016499044 0.100260094 0.023095833 0.023305852 -0.05017734 0.0034133433 0.10117842 0.06749532 0.013979603 -0.08503716 -0.08582428 -0.022273514 0.024417464 0.09654164 -0.0296883 0.040212166 0.02662947 -0.0657264 0.056423347 -0.03835779 -0.04899209 -0.03296242 0.019139064 0.056369744
program. 0.029901652 0.12559974 -0.09688025 -0.022686984 0.11025744 0.06559851 -0.00070367096 0.11516356 -0.006303975 -0.03157613 0.015938194 -0.05918501 -0.14144942 0.005935416 0.0030089912 -0.080178306 -0.093285225 -0.012835952 0.015312622 -0.019803071 0.08007371 0.037439667 -0.02578864 -0.059533827 -0.053142168 -0.17683898 0.03379847 -0.032304015 0.091762505 -0.10276882 0.014362221 0.08038341 -0.0033833843 0.057846498 -0.051247478 0.09083419 0.06869595 0.07128334 0.13184506 0.07325739 -0.041513976 -0.031148236 0.06812004 0.21470147 -0.036958467 -0.08682814 -0.070598416 0.20096895 0.10633073 0.0039498154 0.115933545 -0.08850879 0.04341828 0.07745895 0.0063602636 -0.12362421 -0.064321496 0.06925525 0.035727836 0.048269182 -0.120340556 0.09412316 0.005646213 -0.102381594 -0.0022977556 -0.007818534 0.09113146 0.01909285 0.05850205 -0.078447364 0.05270066 0.075566016 0.055329535 -0.019855466 -0.036032833 0.11218935 0.043373954 0.0241927 0.056579277 0.069277756 0.0001694386 0.0039066956 -0.06496645 -0.018553145 -0.051430203 0.047648992 0.004581766 0.08662744 0.07457804 -0.09374142 -0.115308255 0.103710145 0.0038126737 0.04832491 -0.11820139 -0.017934157 -0.013498872 -0.028383411 -0.00066883396 0.013748529 -0.027521899 -0.02401861 -0.111254625 0.056507744 -0.0011228764 -0.05782837 0.13837297 -0.05457149 0.047437023 0.036592655 -0.032973412 0.08767599 -0.015941849 0.00036238658 -0.05860062 -0.061318774 -0.06174915 -0.036490593 0.022668531 -0.023398751 0.008279334 -0.020353483 -0.03352715 0.08451301 0.044012636 -0.1083054 -0.06273147 -0.026106233 0.005944146 -0.05195998 -0.008979017 -0.037674062 -0.09459991 -0.057411302 0.12389601 -0.026508078 -0.11539271 0.04741397 0.11319021 -0.026728544 -0.04162593 0.056251142 -0.029389307 0.11151884 -0.09771551 0.01930704 0.053436458 -0.04623979 -0.034922328 -0.05253401 -0.00028583934 -0.048483245 0.020156074 0.012200714 0.009006089 -0.033872332 -0.041819364 0.047621094 0.016173877 0.027103856 -0.08804162 -0.060817536 0.05814494 0.05465363 0.019483993 -0.08236068 0.07164504 0.08886627 -0.079233736 -0.073552966 -0.012104118 -0.033859264 0.06854645 -0.06221256 -0.06955047 -0.04584298 0.13160981 -0.020115796 -0.064984575 0.12423236 -0.029659592 -0.13942832 -0.006405191 0.008188241 -0.20684434 0.01894449 -0.094801955 0.028099492 0.0046804603 0.058681827 -0.043145977 -0.02287573 0.052797258 0.07753639 0.034243908 -0.05600367 0.06939862 -0.025516907 0.07442483 -0.054564476
People 0.08516185 0.09391693 0.07745386 0.14519739 -0.11584202 0.10651008 -0.11599313 -0.18614464 0.15364969 0.15404238 0.086392276 0.10374053 0.053307243 0.047760013 -0.0787238 -0.07532655 -0.0684715 0.2420079 0.101711206 0.051922794 0.21540485 0.12027621 0.13817762 0.11218697 -0.051320653 0.1962753 -0.07295368 -0.0050676377 0.10723441 0.1906132 -0.016982803 0.22106342 0.118943475 -0.08194453 -0.105182424 -0.29986557 0.0097501995 -0.006597704 -0.14889674 0.16320089 -0.068361185 0.034489572 0.18372406 0.14121632 0.1226566 -0.20054327 0.05338007 -0.09119537 -0.12210057 -0.061728947 0.053133056 -0.07407351 0.0315247 -0.0002443419 0.05698926 -0.03329069 0.22880894 0.13836204 -0.24655297 0.114814386 0.029675003 0.11352228 -0.10351427 0.041572534 -0.2073584 -0.07185605 -0.123582065 0.20234187 0.06866359 0.09020772 -0.041403867 0.14394327 -0.060190115 0.104795605 0.08747975 0.10617129 0.043026116 0.1963594 0.25314227 -0.017141322 0.033540953 -0.109363854 0.21798646 0.15822478 0.32193518 -0.23566705 -0.052052535 0.04986493 0.13712864 0.095536485 -0.19516806 -0.07702481 0.078264534 0.001626915 -0.050421968 0.04414511 0.050586846 0.046078004 0.16627495 0.31555942 -0.032030746 0.08722631 0.09467093 0.1928099 -0.010959903 -0.04108464 -0.08468536 -0.10298013 0.33679056 0.24401645 0.10405941 -0.025977144 0.17297246 0.018322574 -0.18262658 -0.1431453 -0.08805125 0.27806875 -0.19350784 -0.07217882 -0.026116414 0.051016726 0.16813202 0.015855428 0.2824915 0.14783633 -0.08659744 0.09478629 -0.07616988 -0.039445084 -0.031385314 -0.008343723 0.004682012 0.0676707 0.25507367 -0.1802774 -0.13996065 -0.078796096 -0.31264436 0.044754025 0.029679323 -0.051691853 -0.10500817 -0.07690449 -0.027625542 0.032753997 -0.12984489 -0.19423145 -0.012330568 0.08649674 0.20655632 -0.06333264 -0.09557789 -0.1989962 0.057941124 -0.25783655 0.107549585 -0.2364099 0.015989255 -0.1699274 0.16127026 0.11572143 0.04007598 0.26131347 0.16604792 0.2750991 -0.06008221 0.072547406 0.06725111 0.026745003 -0.1715758 -0.05531359 -0.047033217 -0.16554649 0.1453372 0.14820509 -0.19646528 0.14123908 0.18959934 -0.067123935 0.1347179 -0.061277412 0.01725235 -0.18067987 -0.19876854 0.13394833 -0.010579515 -0.10277522 0.084247224 -0.2043096 0.1123049 -0.08201078 0.15273847 -0.11533159 -0.16697498 -0.16645254 0.089783095 0.12453845 -0.090178944 -0.1283874
create -0.0416391 -0.00104281 0.05874318 0.14225648 0.07880779 0.12682797 0.08470129 -0.25424308 0.092803895 0.15716276 0.092515856 0.17710559 -0.025875106 -0.03734087 -0.123677626 -0.021498112 0.033486184 0.23878019 0.14283767 -0.016156537 0.16946755 -0.1287937 0.11788951 0.18748505 -0.11705694 0.22657223 -0.079159915 0.079111226 0.18422747 0.30727383 -0.12956695 0.19941163 -0.16679853 0.03753613 -0.16395776 -0.1457518 0.13406162 0.13261059 -0.08329013 0.114042036 -0.011752947 0.09007499 0.28060973 0.26413414 0.05209191 -0.0399954 -0.09627841 -0.100100294 0.09165209 -0.0072552045 -0.18130606 0.018436456 0.0102975555 0.14261714 0.019258033 -0.056917347 0.06006925 0.22253464 -0.11536694 -0.07528449 -0.18411523 0.07840573 -0.014073668 0.0967827 -0.032193754 0.13486916 -0.08393223 0.014137322 -0.08323463 0.09844128 -0.16907616 0.038252126 0.15546185 -0.038773853 -0.05754381 0.076610416 -0.08869302 0.12314498 0.24832086 -0.1662731 0.08596816 -0.1373559 0.122060224 0.07840865 0.20382297 -0.29256272 -0.0747588 0.04701572 0.15161203 -0.077755585 -0.1269259 -0.20784883 0.035174716 0.023878107 -0.29624018 -0.031910032 0.062422715 -0.20764309 0.17490077 0.069676794 -0.029941685 0.20756459 0.020555098 0.2194494 -0.019590927 -0.10415635 -0.059901 -0.06384189 0.19525184 0.23869446 0.0069565806 0.08803731 0.3300114 -0.060909506 -0.028851988 -0.13520043 -0.05485339 0.027130386 -0.10322111 -0.012408845 -0.026421871 0.063600756 0.35003698 0.014528277 0.07323696 0.13294004 -0.13056585 0.049787343 -0.11206297 0.083538346 -0.040668752 0.04400309 0.11525341 -0.03973089 0.2711017 -0.16133626 -0.21431042 0.07573757 -0.117660984 -0.07657743 0.23350358 0.03304546 -0.08166578 0.029932361 0.043870468 0.02572144 -0.16495737 -0.21297339 -0.058998648 -0.072432406 0.14402828 -0.15514101 0.084034316 -0.29753622 -0.024029287 -0.18697827 -0.039041232 -0.19984508 0.12733063 -0.11286933 0.123614565 -0.0017953813 0.07766073 0.2535288 0.16937286 0.023657218 0.020638308 0.07192974 -0.074883625 0.15608537 -0.27726954 -0.15238443 -0.086636364 -0.05583384 0.18541792 -0.003956394 -0.1942721 0.113022536 -0.015858302 0.0666199 -0.08838692 -0.18335935 -0.037793495 0.0224792 -0.17251554 -0.0047344253 0.14106867 -0.07322718 0.020093517 -0.07533663 0.25311136 -0.055190228 0.075087994 0.23798156 -0.07033624 -0.2257357 0.18673418 0.12524828 -0.06847974 -0.14028098
programs -0.002646533 -0.02055483 -0.04305198 0.009526376 0.03828915 -0.016886484 -0.04013775 0.032771427 -0.014879138 -0.01953193 -0.021438047 0.013688742 -0.0059126713 0.11376187 -0.02584924 0.03188773 -0.011987735 0.0642597 -0.0724811 -0.039734736 -0.042644236 0.080293424 0.042233884 -0.024610465 -0.016305992 -0.0035718838 -0.01531046 0.011248225 -0.08566953 0.013481368 0.05547532 -0.012000506 -0.06497049 0.13986458 0.0056831203 -0.029647097 0.021977013 -0.017913971 -0.09366141 -0.06793491 -0.07907077 0.11738888 0.013494886 -0.006122119 0.06255623 0.036845203 0.08879947 -0.117935024 -0.066021524 -0.024429472 -0.0138128055 0.09402859 0.050918326 -0.07839581 0.034888588 0.069716975 -0.005170389 0.005912902 -0.01870462 0.08156625 -0.108787745 0.085758336 0.037130803 0.06116535 -0.11275826 -0.031065775 0.0693256 -0.049935445 0.036632244 -0.026077898 0.0013987113 0.06369499 -0.054844294 -0.07824115 0.052466985 0.0024006416 0.023405708 -0.01697788 0.04263031 -0.20813656 -0.03201691 0.0035511926 -0.03472832 0.07594338 0.09788661 0.015238746 -0.103757024 0.11305671 0.04914604 -0.0006715485 0.067794524 0.0073709753 0.05314481 -0.012452903 -0.04339646 -0.06724597 0.15090449 -0.07930714 -0.0013985538 0.014070604 -0.02481428 -0.017112615 -0.05462424 -0.04441366 0.08352424 -0.008447328 -0.07298167 0.029497908 -0.1500649 0.058854755 0.037025556 -0.027589673 0.07432464 -0.0919358 -0.039880674 -0.14063835 -0.04206665 -0.022076817 0.097009644 -0.03619937 0.10483407 -0.057198368 0.07369395 -0.048798803 -0.0035826399 0.0565205 0.052586816 0.08182181 -0.12202691 -0.11759668 -0.017547674 0.010371129 0.0063948957 0.03672942 0.05930589 0.059974328 0.054502103 0.053949036 -0.045484614 0.12707356 -0.05364443 0.078523174 -0.10258411 -0.02120445 -0.098915115 -0.1021102 0.020508502 -0.037154704 -0.028571025 -0.049807414 -0.08506983 -0.026722295 -0.0954957 -0.034696598 -0.03456389 -0.04522562 -0.056086265 0.042347915 0.06091864 0.048715286 0.03641439 0.033225533 -0.09718403 -0.030862084 -0.028632026 -0.0031557742 -0.0038738921 -0.107168004 -0.09269461 0.038187757 0.06109763 -0.1352346 0.054591864 0.08378327 -0.122762084 -0.05682226 0.012367389 0.033578947 0.070145994 -0.03802903 -0.011679034 0.07622476 0.023497073 -0.00289667 -0.0077176015 -0.08709897 -0.05534564 -0.007786382 0.11789571 0.03642384 -0.12194374 -0.011094181 0.06443969 -0.05926625 -0.04198953 0.120493 -0.010839752 0.058767058 0.050799865 0.032152485
direct -0.07600568 0.053707212 -0.011108498 -0.14407381 -0.06297614 -0.05530261 -0.05211692 -0.061811883 -0.05654008 -0.03752725 0.0586229 -0.027482495 -0.016375821 -0.035275612 0.037221164 0.007591225 -0.02378977 0.010501225 0.08729139 -0.019745637 -0.022182805 -0.08606813 -0.039532706 0.05132675 0.066973776 -0.09634261 -0.029151311 -0.044446718 0.12901682 -0.018747136 0.090125866 0.06987987 -0.022969857 -0.06203008 0.014361658 0.04641014 0.11853768 -0.0010829477 0.08582666 -0.03069691 -0.120080605 0.040853765 -0.08845955 -0.035523295 0.06890852 0.0012158044 -0.04139841 0.030041812 0.11104264 -0.17168352 -0.026859798 0.041011557 -0.0031923347 0.11040722 0.031469595 -0.013834096 -0.10215036 0.05337036 -0.033530347 -0.03376307 -0.06141211 0.005215559 -0.010224928 -0.042295974 -0.0043079318 0.051720563 0.04072123 -0.00393147 -0.061499014 -0.07775437 -0.01285174 -0.019826602 -0.04237353 -1.9654728e-05 -0.18335518 -0.07385753 0.0013385518 -0.030278308 -0.0007342153 0.038807813 -0.04734904 0.04845915 0.028893908 0.027473977 0.06493585 -0.06912043 0.029284518 0.06029701 -0.10091934 -0.066061184 0.036878403 -0.06358976 -0.001881378 0.11915767 0.09736332 -0.061118573 -0.03387041 0.035194986 -0.0077961376 0.103449754 0.08288764 -0.002103857 0.10134087 -0.0498669 0.09070779 0.07612016 0.08495505 -0.066956386 -0.021179149 -0.15656237 0.029079145 0.04487937 0.106161274 -0.06112871 0.016911313 -0.14228913 -0.07971025 0.01756398 -0.07872081 0.12899074 -0.06660241 -0.054975107 0.05180244 0.055105854 0.02539921 -0.019034246 -0.002476811 0.073438294 0.093345545 0.0108873965 -0.062094733 0.025590098 0.07494659 0.09187572 0.007535178 0.041255888 0.03322213 -0.0059788837 0.11436057 0.0130004 -0.007047936 0.053795952 -0.04503313 0.1241356 0.19324513 0.04118501 -0.04292851 0.028514283 -0.054702755 0.0414034 0.020439066 -0.11773399 0.07184869 -0.056019276 -0.030016292 0.070038505 0.112303294 0.015179795 -0.05072308 -0.058143817 -0.10109053 -0.119113155 -0.025815029 0.15169516 -0.010935439 -0.04355462 -0.05215939 -0.06630495 0.06445487 -0.032272648 -0.04815631 0.028257404 -0.035714746 -0.050115332 -0.035445448 0.003980151 0.012946213 0.045173716 -0.017363321 -0.03853735 0.06745986 0.043953802 -0.082552336 0.05524307 0.07103027 -0.103950165 0.03884418 -0.07185808 -0.02468861 -0.06436705 0.115313925 0.03533571 0.059671763 0.013532952 -0.043969434 -0.0048752152 -0.09661963 0.15015335 0.013601019 0.045852657
processes. 0.00018339707 -0.04213534 -0.026808437 -0.08356594 0.13892807 0.043765474 -0.14504503 -0.00996835 -0.01330198 0.023802513 -0.13976695 -0.04122189 -0.03252948 0.0018966302 -0.03182503 0.0413744 -0.0062667136 -0.025110627 -0.081968755 0.10545561 -0.05756473 -0.07631343 0.07158137 -0.038356002 -0.038881235 -0.014042414 0.10826243 0.0128270015 0.020371083 0.012432499 -0.08427142 0.06563358 0.16886644 0.028299857 0.052373827 0.021869296 0.061403234 -0.019809544 0.06601589 0.07539978 0.17127922 -0.16184184 0.06336728 0.04382029 -0.009476889 0.019960918 -0.029425165 -0.018148048 -0.021917788 -0.11686326 -0.06202096 -0.20890562 -0.017395336 0.012876901 0.047450885 0.012621364 0.095845275 -0.02627542 -0.01780549 0.06282613 -0.00802529 -0.02632885 0.011236919 -0.014775854 0.06385494 -0.036920294 0.008710028 0.0490208 0.083004884 0.041404016 -0.01619878 -0.083720826 -0.004939433 -0.069309734 0.0653049 -0.02971434 -0.09604509 -0.021065548 0.044833288 -0.10624399 0.0438382 0.092136264 0.029008515 -0.008675322 -0.10537398 0.032794163 0.010920571 0.020906119 -0.07589089 0.070512176 -0.04094436 -0.045992497 -0.05679232 -0.08592664 0.14475137 0.022657488 0.036642704 -0.010850512 0.011716531 0.038953498 -0.00605725 -0.1584899 -0.0072660465 -0.0235065 0.06927103 0.10166322 -0.06052888 0.12531142 0.0682509 0.040545467 0.0740897 -0.0076086996 -0.1787712 0.054661717 -0.074854255 0.008008641 -0.07192049 0.04257864 0.07611947 0.0034626499 -0.036080934 -0.10149817 -0.093532555 0.10784285 -0.07671994 0.07574564 0.008911302 0.06348537 0.28214434 0.05049269 -0.003271086 0.05613065 -0.053461265 0.057978466 0.07674929 0.03813928 0.008748169 -0.058712788 0.049558938 0.04066302 -0.1294541 0.08709881 0.02487468 -0.0016334412 -0.08018113 0.0046446268 -0.079838224 -0.035751753 0.103127375 -0.10677089 0.023371851 -0.026462618 -0.08694409 -0.052214455 -0.04694447 0.0282444 -0.08242591 0.033899393 0.046235595 -0.045782417 -0.11032192 0.01376754 0.0036714107 0.115814656 0.10390202 -0.037240613 0.020684501 0.0054203416 0.03247726 0.012003766 -0.057048645 0.0004012056 -0.06563458 0.02361482 0.09618525 -0.04422052 -0.106957674 -0.023296865 -0.07301436 -0.035411086 0.042744525 -0.0004010391 0.017424464 0.0037198872 -0.04044957 0.01092199 0.057545517 -0.012075943 0.005970038 0.11738795 -0.0457275 0.011618511 0.06360317 0.030033244 0.04293925 -0.16717824 -0.041434526 0.09310045 0.050386336 0.11358571
